<?xml version="1.0"?>
<opencv_storage>
<opencv_ml_svm>
  <format>3</format>
  <svmType>C_SVC</svmType>
  <kernel>
    <type>LINEAR</type></kernel>
  <C>1.</C>
  <term_criteria><iterations>10000000</iterations></term_criteria>
  <var_count>18</var_count>
  <class_count>2</class_count>
  <class_labels type_id="opencv-matrix">
    <rows>2</rows>
    <cols>1</cols>
    <dt>i</dt>
    <data>
      -1 1</data></class_labels>
  <sv_total>1</sv_total>
  <support_vectors>
    <_>
      1.62958968e-04 1.37919953e-04 1.41802884e-04 -1.13936941e-04
      1.82445248e-04 -1.74397734e-04 -5.40717272e-04 3.23216111e-04
      3.96479387e-04 3.35053192e-04 -4.79709066e-04 3.17106576e-04
      1.53372166e-04 6.53683455e-05 2.47807300e-04 -3.64739099e-04
      8.86264839e-04 -3.17070691e-04</_></support_vectors>
  <uncompressed_sv_total>362</uncompressed_sv_total>
  <uncompressed_support_vectors>
    <_>
      6. 0. 2. -168. -176. -186. 2. -2. -2. 58. 60. 64. 2. 4. 1. -16.
      -12. -7.</_>
    <_>
      8. 70. 222. 12. -18. -70. 9. 27. 160. 213. 201. 148. 15. 16. 85.
      717. 724. 691.</_>
    <_>
      -218. -475. -392. 502. 371. 132. -168. -666. -591. 272. 262. 111.
      -116. -700. -654. -90. -62. -8.</_>
    <_>
      20. -303. -520. -28. 61. 122. 50. -184. -464. -288. -228. -114.
      24. -89. -316. -360. -351. -222.</_>
    <_>
      20. 404. 416. 18. 362. 360. 372. 430. 155. 328. 362. 129. 445.
      192. 4. 363. 164. 8.</_>
    <_>
      -101. -627. -155. -103. -131. -111. -64. -473. -109. -548. -329.
      -149. -6. -165. -62. -366. -219. -44.</_>
    <_>
      53. -16. -134. 47. -16. -174. -64. -192. -384. -56. -286. -554.
      -300. -397. -340. -380. -591. -484.</_>
    <_>
      208. 188. 82. -418. -318. -112. 143. 321. 274. -87. -119. 0. 196.
      414. 268. 168. 346. 314.</_>
    <_>
      429. 643. 213. 75. 153. 73. 556. 634. 91. 54. 94. 43. 620. 625.
      27. 26. 41. 19.</_>
    <_>
      357. 32. -83. 533. 376. 65. 324. -255. -342. 184. 21. -214. 311.
      -484. -405. -251. -330. -387.</_>
    <_>
      837. -137. -837. 5. 5. -1. 840. -140. -838. 0. 0. 2. 840. -140.
      -834. -4. -4. -2.</_>
    <_>
      116. -618. 336. -36. -176. 84. -188. -424. 609. -48. -18. 189.
      -446. 76. 444. -144. 68. 196.</_>
    <_>
      47. 9. -43. -409. -581. -585. -115. -8. 34. -567. -574. -510. -60.
      7. 77. 512. 589. 583.</_>
    <_>
      14. 1. -21. -528. -521. -527. 14. -9. -45. -508. -525. -553. -1.
      -29. 90. 29. 11. 154.</_>
    <_>
      261. 87. 193. -461. -513. -335. -91. 72. 328. 57. -258. -316.
      -227. -108. 128. 523. 522. 200.</_>
    <_>
      175. -10. -175. 139. 116. 43. 314. -22. -313. 312. 462. 385. 533.
      185. -421. 61. 337. 513.</_>
    <_>
      455. -92. -466. 491. 288. -84. 192. -474. -473. 174. -268. -285.
      -334. -489. -220. -322. -421. -166.</_>
    <_>
      636. 526. -36. -28. 30. 56. 683. 565. -67. 11. 39. 21. 712. 571.
      -82. -26. -19. -10.</_>
    <_>
      -93. -49. -8. -17. 31. 58. -39. -17. 0. 701. 739. 752. -5. -4. -3.
      433. 442. 439.</_>
    <_>
      18. -443. 135. 436. 307. 53. 11. -564. 2. -7. -6. -6. -10. -530.
      18. -24. -12. 38.</_>
    <_>
      -81. -354. -180. 123. 412. 194. 324. -63. -359. -320. 87. 417.
      242. 339. -25. -276. -363. 43.</_>
    <_>
      -520. -468. -72. 526. 468. 44. -237. -536. -485. 259. 532. 475.
      -58. -256. -544. 100. 286. 564.</_>
    <_>
      235. -42. -309. 257. 466. 417. 425. 122. -479. 33. 178. 221. 472.
      141. -540. -68. -147. -232.</_>
    <_>
      -429. -417. 497. -315. -125. 1. -208. -95. 513. -336. 17. 229.
      -27. 139. 366. 461. 523. 398.</_>
    <_>
      33. 25. 22. 395. 455. 502. 65. 51. 41. 607. 605. 603. 31. 23. 21.
      225. 165. 119.</_>
    <_>
      84. -216. -360. -440. -354. -316. 119. -133. -212. -437. -405.
      -212. 22. -25. -31. -94. -115. -19.</_>
    <_>
      -599. 406. 612. -37. -8. 16. -597. 450. 608. -27. -10. 6. -597.
      485. 599. -23. -5. 5.</_>
    <_>
      17. -262. -178. 565. 582. 312. 123. -228. -400. 153. 276. 358. 89.
      -218. -307. -85. -232. -211.</_>
    <_>
      -191. 289. 337. -291. 103. 113. 82. 465. 227. -126. -71. -15.
      -157. 352. 372. 285. -122. -146.</_>
    <_>
      -72. -38. -4. -148. -252. -290. -287. -139. -10. -313. -525. -594.
      -506. -255. -12. -132. -255. -304.</_>
    <_>
      840. -140. -838. 0. 0. 2. 840. -140. -834. -4. -4. -2. 840. -140.
      -832. -2. -2. -2.</_>
    <_>
      137. 76. -48. 25. 84. 152. 91. 86. 45. -667. -762. -727. -42. 31.
      65. 116. 23. -47.</_>
    <_>
      180. 525. 357. -206. -19. 217. 272. 536. 411. 238. 154. -17. 310.
      370. 371. -10. -54. -89.</_>
    <_>
      -455. -108. 512. -181. -306. -156. -451. -41. 602. -485. -289.
      -282. -125. 0. 405. -349. -178. -341.</_>
    <_>
      565. 560. -133. -31. -34. 27. 486. 575. 25. -74. -135. -23. 304.
      580. 258. -112. -228. -102.</_>
    <_>
      102. 426. 141. 166. -114. -99. -161. 129. 233. 325. 45. -175. -69.
      -114. 59. 51. 180. -17.</_>
    <_>
      -623. 351. 608. 5. -5. -14. -627. 333. 609. 5. -7. -15. -633. 319.
      611. 1. -7. -11.</_>
    <_>
      -10. 649. -6. -108. -79. -56. 20. 745. -21. -220. -123. -65. 85.
      834. -32. -85. -28. -8.</_>
    <_>
      -49. -35. -7. 385. 515. 587. 19. 5. 3. 589. 567. 545. -5. -8. -10.
      -597. -612. -616.</_>
    <_>
      96. -373. -236. 6. 119. 320. 33. -231. -86. -217. -251. -160. 38.
      -367. -101. -92. -189. -431.</_>
    <_>
      374. 733. 284. -46. 11. 12. 406. 748. 269. 0. -10. -11. 285. 573.
      221. 537. 251. 29.</_>
    <_>
      3. 6. 11. 655. 654. 655. -2. 3. 8. -610. -617. -624. -3. -1. 2.
      -657. -655. -658.</_>
    <_>
      -233. -222. -49. -503. -458. -197. 31. 35. 214. -241. 235. 494.
      297. 276. 98. 453. 484. 350.</_>
    <_>
      -608. 602. 600. 2. 6. 2. -603. 596. 598. 5. 0. -4. -610. 593. 601.
      -2. -7. -3.</_>
    <_>
      333. 479. -117. 181. 225. 123. 326. 341. -185. 96. -93. -197. 96.
      130. -139. -52. -304. -365.</_>
    <_>
      -2. -105. 71. 196. 335. 165. -70. -123. 75. -422. -647. -491.
      -452. 30. 462. -460. -464. -80.</_>
    <_>
      31. -4. -21. 605. 626. 617. 7. -24. -2. 503. 438. 446. -73. -36.
      29. -387. -414. -403.</_>
    <_>
      -9. -4. -2. -637. -640. -640. -3. 5. 13. -537. -519. -495. 6. 16.
      23. 662. 664. 661.</_>
    <_>
      -253. -247. -14. -1. 31. 38. -181. -166. -32. 317. 438. 494. -67.
      -62. -24. 293. 390. 446.</_>
    <_>
      1. 7. -37. 3. 21. -5. -75. -145. -201. -39. -285. -575. -232.
      -343. -290. -632. -741. -738.</_>
    <_>
      -679. -236. 109. 189. 92. -65. -658. -429. 20. 230. 155. 30. -537.
      -537. -55. 129. 217. 159.</_>
    <_>
      -102. -83. -47. -664. -659. -661. -30. -32. -18. 418. 536. 618.
      31. 18. 6. 701. 694. 686.</_>
    <_>
      -351. -324. -144. -273. -16. 110. -26. 6. -319. -74. 324. 353.
      307. 121. -467. 11. 61. -1.</_>
    <_>
      368. -95. -64. -162. -287. -186. 252. -19. 221. -164. -79. 181.
      316. 193. 255. 82. 273. 259.</_>
    <_>
      -3. -3. -5. 367. 359. 349. -5. -9. -8. -639. -639. -638. 5. -2. 1.
      187. 204. 219.</_>
    <_>
      165. 343. 310. 197. 459. 548. 415. 355. 133. 421. 421. 167. 400.
      117. 0. 352. 99. -18.</_>
    <_>
      -338. -40. 27. 26. 28. -23. -252. -59. -36. 274. 339. 308. -101.
      -28. -47. 253. 370. 421.</_>
    <_>
      100. 159. 243. 108. 315. 521. 223. 281. 234. 589. 627. 534. 186.
      136. 75. 542. 322. 111.</_>
    <_>
      -595. -50. -82. -17. 0. 18. -478. -17. -59. 106. 239. 277. -223.
      26. -44. 271. 436. 456.</_>
    <_>
      2. -2. 0. 30. 40. 46. 36. 35. 23. -534. -473. -419. 48. 53. 42.
      -646. -677. -694.</_>
    <_>
      62. -370. -476. 138. -484. -646. -433. -429. -36. -631. -563. -20.
      -285. 72. 431. -421. 160. 585.</_>
    <_>
      481. -148. -650. -251. -294. -128. 177. -43. -504. -63. -219.
      -134. -22. -96. -307. -10. -106. -47.</_>
    <_>
      -176. -138. -111. 460. 308. 171. -195. -239. -224. 523. 555. 478.
      -88. -163. -225. 180. 331. 483.</_>
    <_>
      -2. -1. 0. -644. -637. -630. 6. 4. 4. 656. 662. 664. 9. 1. -4.
      645. 639. 626.</_>
    <_>
      -176. -162. -45. 486. 182. 39. -469. -406. -56. 351. 118. 6. -612.
      -379. -88. -196. -79. 28.</_>
    <_>
      67. -174. -469. 191. 212. 237. 19. -67. -374. -419. -381. -204.
      15. -34. -113. -505. -514. -397.</_>
    <_>
      163. 23. 40. -281. -379. -326. -137. -13. 83. -255. -493. -539.
      -309. -86. 25. -95. -102. -187.</_>
    <_>
      -511. -388. 585. -23. -22. -37. -477. -424. 583. -25. -28. -51.
      -432. -469. 579. -26. -23. -49.</_>
    <_>
      -31. -593. -660. 3. 1. 0. -33. -596. -658. -1. -4. -4. -35. -600.
      -653. -3. -6. -5.</_>
    <_>
      371. 345. 239. -545. -635. -487. 139. 222. 324. -173. -438. -624.
      -8. 48. 166. -10. -66. -212.</_>
    <_>
      -182. 385. 396. -38. 341. 352. 245. 446. 30. 231. 340. 24. 421.
      173. -387. 313. 107. -267.</_>
    <_>
      -237. -312. 202. 307. 98. 106. -380. -396. 361. 18. 0. 67. -399.
      -382. 407. 1. 14. 7.</_>
    <_>
      155. 30. -269. -213. -28. 151. 327. 202. 75. -641. -482. -145.
      214. 308. 335. -466. -632. -603.</_>
    <_>
      -158. 257. -210. -356. -307. -72. -393. 531. -172. -47. -57. 20.
      -183. 326. -177. 207. 222. -65.</_>
    <_>
      -474. -326. 456. -106. -34. 258. -412. -68. 419. 166. 414. 343.
      -123. 11. 119. 145. 265. 115.</_>
    <_>
      -212. -395. -185. -342. -405. -427. -74. -308. -83. 84. 372. 583.
      17. -109. -7. 123. 125. 189.</_>
    <_>
      -65. -390. -324. 405. 342. 142. -3. -465. -472. 47. 97. 74. 44.
      -446. -517. 34. 50. 47.</_>
    <_>
      22. 400. 540. 56. 194. 220. 41. 608. 353. -7. 82. 77. 45. 678.
      188. -23. -38. -128.</_>
    <_>
      251. -283. -417. -29. -171. -231. 145. -339. -106. -401. -421.
      -106. 9. -101. 244. -371. -249. 24.</_>
    <_>
      -115. -167. -137. 653. 701. 737. -42. -107. -35. -84. 1. 127. -55.
      -23. 54. -311. -325. -278.</_>
    <_>
      196. 58. 179. -602. -606. -411. 10. 66. 309. -104. -278. -335. -4.
      -43. 56. 570. 621. 316.</_>
    <_>
      162. 152. -1. -452. -146. 3. 471. 349. -2. -251. -51. -4. 613.
      244. 5. 301. 138. -7.</_>
    <_>
      428. 221. -37. -10. 49. 231. 327. 157. 148. -243. -467. -528. 187.
      -50. 85. 77. -46. -255.</_>
    <_>
      -490. -333. -12. 332. 191. -24. -374. -524. -228. 220. 286. 94.
      -145. -532. -459. 109. 264. 217.</_>
    <_>
      -114. -281. 356. -456. -353. -122. -54. -26. 374. 154. 366. 408.
      22. 84. 131. 584. 558. 383.</_>
    <_>
      -431. 405. 313. -27. -47. 13. -367. 376. 306. 189. 244. 148. -282.
      253. 161. 178. 85. -87.</_>
    <_>
      -4. 7. 1. 682. 685. 685. 0. 4. 1. 434. 432. 429. 0. 1. 0. 14. 13.
      12.</_>
    <_>
      89. 204. 332. 111. 336. 540. 222. 326. 324. 402. 432. 342. 182.
      224. 206. 310. 138. 8.</_>
    <_>
      476. 171. -548. -394. -519. -378. 302. 12. -333. -136. -344. -429.
      203. -190. -238. 115. 22. 0.</_>
    <_>
      512. 128. -35. 132. 214. 241. 567. 165. -33. -27. -17. -5. 566.
      184. -32. -14. -6. 2.</_>
    <_>
      608. -377. -550. -140. -29. 100. 596. -53. -546. -240. -39. 160.
      589. 300. -538. -211. -66. 96.</_>
    <_>
      -140. -78. -63. 650. 698. 709. 8. 14. 4. -78. 114. 262. 91. 88.
      78. -645. -680. -680.</_>
    <_>
      -198. -321. 410. 282. 263. 86. 133. -163. 202. -119. 389. 516.
      291. 254. 19. 241. 308. 415.</_>
    <_>
      -12. -16. -13. -496. -506. -513. -16. -15. -13. -598. -591. -583.
      -9. -8. -8. -93. -86. -82.</_>
    <_>
      -278. -226. 392. 292. 346. 350. -91. -47. 285. -367. -55. 13. 38.
      62. 89. -98. -172. -327.</_>
    <_>
      -489. -247. 349. -41. -139. -163. -531. -470. 239. -69. -236.
      -545. -442. -664. 29. -260. -198. -293.</_>
    <_>
      -185. -75. -10. -409. -487. -456. -314. 54. -34. -418. -340. -266.
      -134. 163. -75. -128. 83. 77.</_>
    <_>
      227. -147. -453. -81. 97. 179. 319. -57. -280. -409. -405. -224.
      156. 13. -47. -458. -555. -433.</_>
    <_>
      -37. -326. -502. 51. 68. 124. -121. -276. -299. -309. -360. -163.
      -178. -149. -64. -336. -215. -50.</_>
    <_>
      173. 198. -59. 185. 490. 575. 482. 375. -188. 450. 631. 594. 625.
      241. -211. 369. 197. 77.</_>
    <_>
      -191. -162. 266. 517. 188. -20. -440. -494. 207. 460. 208. 25.
      -405. -477. 191. -511. -207. -23.</_>
    <_>
      417. -147. -489. -201. -335. -475. 249. -407. -444. 39. -255.
      -330. -67. -471. -398. -19. -105. -48.</_>
    <_>
      312. -114. -31. -56. 356. 585. 460. 60. -43. -458. -548. -615.
      281. -23. -116. -349. -521. -610.</_>
    <_>
      -47. -15. -1. -421. -489. -509. -81. -30. -16. -515. -496. -506.
      1. 55. 82. -97. 51. 244.</_>
    <_>
      -389. -270. -24. -129. -262. -282. -384. -124. -198. 122. 406.
      398. -113. -137. -341. 125. 99. -49.</_>
    <_>
      181. 248. 235. 533. 614. 591. 221. 122. 106. 549. 382. 150. 84. 2.
      -1. 86. -4. 1.</_>
    <_>
      308. -233. -346. 314. 189. 54. 300. -332. -293. -118. -100. -11.
      270. -124. -217. -314. -154. 41.</_>
    <_>
      387. 342. -71. 59. 120. 9. 311. 214. -198. -117. -382. -526. 97.
      29. -135. -85. -219. -197.</_>
    <_>
      -540. 626. 590. 14. -26. -10. -604. 620. 621. 4. -26. -17. -637.
      612. 634. 9. -2. -6.</_>
    <_>
      -426. 270. 242. 122. 366. 370. -295. 358. 75. 11. -14. -97. -394.
      184. 12. -106. -354. -508.</_>
    <_>
      8. 95. 147. 8. 97. 319. 146. 235. 275. 326. 515. 561. 279. 190.
      130. 573. 472. 236.</_>
    <_>
      369. 489. 240. -313. -421. -220. 88. 392. 465. -96. -366. -439.
      -186. 118. 386. 166. -112. -392.</_>
    <_>
      -111. 69. -15. -211. -289. -271. -309. 49. 6. -323. -463. -480.
      -454. 1. 3. -78. -131. -165.</_>
    <_>
      282. -435. -317. 62. 103. 37. 304. -382. -319. -180. -146. -29.
      199. -220. -155. -283. -260. -51.</_>
    <_>
      282. 338. 25. -254. -94. -7. 352. 419. 34. -6. -15. -12. 344. 413.
      45. -2. -7. -5.</_>
    <_>
      -55. 131. 537. 91. 207. 399. -22. 320. 616. 32. 138. 214. 41. 276.
      501. 29. -58. -293.</_>
    <_>
      -612. -54. 612. 10. 14. 6. -600. -50. 599. 10. 22. 21. -459. -33.
      462. 343. 489. 370.</_>
    <_>
      -7. 161. 221. -13. 319. 577. 196. 189. 116. 620. 519. 184. 81.
      -102. -166. 29. -276. -514.</_>
    <_>
      -532. 330. 588. 100. -134. -288. -600. 52. 589. 26. -86. -209.
      -582. -179. 490. 176. 75. -132.</_>
    <_>
      -895. -358. -32. 127. 74. 14. -692. -329. -38. -212. 73. 156.
      -275. -120. -40. -271. 70. 194.</_>
    <_>
      194. 296. 178. -114. -268. -204. 71. 128. 173. 325. 188. -49. 85.
      -42. -49. 335. 316. 161.</_>
    <_>
      603. 392. -547. -207. -100. 107. 483. 559. -287. -143. -203. 17.
      264. 617. 98. -116. -217. 6.</_>
    <_>
      155. 455. 288. 59. 217. 400. 201. 592. 369. 15. 40. 75. 195. 607.
      387. -1. -17. -19.</_>
    <_>
      -400. -524. -82. -130. -262. -132. -538. -444. 66. -162. -88. 10.
      -542. -245. 83. -248. -127. -9.</_>
    <_>
      -387. -415. -110. 319. 323. 102. -141. -509. -346. 111. 259. 150.
      -126. -442. -372. -180. -246. -96.</_>
    <_>
      535. -629. 70. 11. 7. -10. 542. -638. 47. 2. 4. -11. 560. -647.
      30. -8. -1. -12.</_>
    <_>
      -264. -70. 86. -16. 24. 10. -220. -38. -31. 438. 474. 403. -98.
      -73. -152. 170. 221. 136.</_>
    <_>
      -245. -108. -63. 247. 300. 199. -43. -162. -91. -359. -264. -245.
      -103. -96. -37. -225. -314. -213.</_>
    <_>
      -169. -324. -350. -219. -442. -404. -356. -269. -69. -526. -435.
      -137. -277. -43. 173. -429. -215. -45.</_>
    <_>
      500. 127. -448. -64. -291. -342. 214. -18. -182. -260. -464. -292.
      -6. -21. -7. -44. -63. -63.</_>
    <_>
      209. -552. -184. 99. -188. -40. -207. -584. 192. -13. -174. 22.
      -483. -382. 431. -153. -66. 179.</_>
    <_>
      -79. -406. -193. 91. 328. 145. 342. -165. -405. -250. 175. 387.
      344. 329. -338. -252. -181. 168.</_>
    <_>
      353. -19. -570. 105. 57. -146. 389. -345. -644. 321. 79. -118.
      210. -559. -666. 90. -61. -100.</_>
    <_>
      -204. -71. 130. -162. -303. -302. -241. -129. 104. 329. 375. 290.
      -127. -111. -23. -141. -55. -79.</_>
    <_>
      667. -104. -591. -13. 82. 175. 531. 6. -410. -443. -564. -366.
      216. 106. -21. -518. -612. -321.</_>
    <_>
      -95. -23. -3. 529. 641. 665. 3. 3. 4. 359. 371. 380. 10. 3. 13.
      -680. -685. -685.</_>
    <_>
      823. -740. -881. 11. 6. 3. 821. -741. -878. -1. 1. 6. 817. -735.
      -875. -5. -5. -1.</_>
    <_>
      -127. -236. -35. 67. -104. -221. -247. -434. -148. 451. 304. 110.
      -317. -560. -288. 129. 80. 8.</_>
    <_>
      -1. 136. -37. 229. 386. 531. -94. 412. 68. 200. 226. 462. -288.
      514. 307. -140. -258. -153.</_>
    <_>
      -371. -324. -468. 77. 96. 62. -294. -275. -481. -156. -49. 21.
      -189. -154. -456. -187. -68. 8.</_>
    <_>
      -200. -151. 23. -494. -349. 91. 3. 182. 228. 31. 422. 520. 238.
      198. 80. 510. 370. 140.</_>
    <_>
      566. 202. 1. -342. -148. -5. 502. 472. 108. -354. -342. -108. 232.
      566. 370. -164. -352. -230.</_>
    <_>
      -288. -45. 253. 116. 201. -129. -51. -171. -202. 357. 383. 132.
      -61. -127. -323. 27. 35. 209.</_>
    <_>
      348. -212. 100. 288. 312. 80. 455. -241. -52. 67. 121. 172. 359.
      -106. -7. -3. -18. 111.</_>
    <_>
      389. 197. 63. -535. -627. -613. 161. 138. 84. -263. -458. -510.
      21. 79. 136. -1. -5. 40.</_>
    <_>
      641. 585. 16. -49. -17. 4. 642. 623. 13. -30. -23. -9. 619. 636.
      32. -25. -42. -24.</_>
    <_>
      28. 92. 449. 16. 76. 273. 39. 296. 596. 23. 178. 332. 167. 534.
      478. 139. 350. 316.</_>
    <_>
      -197. -43. -375. 203. 469. 479. 83. 230. -478. -433. -146. 14.
      408. 329. -437. -146. -9. -29.</_>
    <_>
      -261. -238. -93. 621. 354. 111. -147. -334. -290. 277. 562. 512.
      101. 28. -232. -337. -12. 458.</_>
    <_>
      -497. -323. 447. 367. 217. -245. -214. -576. -59. 150. 330. 33.
      -33. -388. -503. 29. 218. 259.</_>
    <_>
      -145. -440. -332. 127. 440. 604. 2. -122. -181. -4. 148. 453.
      -141. -134. -20. -127. -434. -590.</_>
    <_>
      -7. -439. -230. -69. 57. 36. -165. -61. -301. -331. -237. 91.
      -407. 86. 77. -111. -300. -103.</_>
    <_>
      369. 300. -32. 401. 638. 574. 583. 404. -222. 407. 488. 466. 569.
      428. -232. 93. 22. 58.</_>
    <_>
      173. 405. 262. 377. 271. 92. 78. 246. 170. 236. 88. 16. -3. 230.
      214. -199. -148. -48.</_>
    <_>
      442. -79. -549. -248. -121. -41. 407. -116. -406. -299. -498.
      -472. 162. -313. -193. -232. -475. -485.</_>
    <_>
      261. 388. 146. -287. -308. -102. -6. 416. 378. -62. -280. -226.
      -243. 150. 373. 401. 116. -209.</_>
    <_>
      600. 653. 31. 66. 111. 53. 659. 643. -103. 3. 7. -79. 647. 623.
      -311. -31. -67. -209.</_>
    <_>
      -43. -130. -112. -163. -214. -152. -268. -174. 35. -258. -476.
      -435. -523. -286. 150. -85. -234. -272.</_>
    <_>
      503. -44. -1. 51. 66. 43. 439. -39. -4. -261. -335. -310. 291.
      -28. 11. -229. -292. -291.</_>
    <_>
      -317. -585. -296. 177. 341. 184. -70. -433. -553. 102. 337. 389.
      3. -156. -502. -555. -440. -164.</_>
    <_>
      601. 622. -548. -3. -2. -4. 598. 622. -553. -6. -10. -13. 594.
      614. -552. -2. -10. -14.</_>
    <_>
      344. 236. -501. -268. -44. -139. 592. -23. -560. 298. 63. -160.
      451. -405. -400. 237. -51. -50.</_>
    <_>
      177. -351. -376. -379. -363. -116. -35. -246. -234. 113. -10. -10.
      -58. -211. -376. 358. 493. 386.</_>
    <_>
      -416. 17. -11. -152. 23. 185. -268. 278. -114. 106. 340. 336. 80.
      260. -192. 222. 318. 226.</_>
    <_>
      45. -294. -581. -9. -154. -271. -26. -476. -552. -44. -152. -188.
      -188. -545. -421. -118. -241. -143.</_>
    <_>
      -53. -570. -534. -7. -10. -8. -51. -567. -533. 5. 13. 15. -33.
      -474. -451. 17. 120. 293.</_>
    <_>
      536. -22. -34. -92. -10. 40. 491. 90. -125. -267. -282. -311. 298.
      39. -210. -220. -449. -556.</_>
    <_>
      44. 572. 657. 2. 0. -3. 42. 568. 657. 2. -2. -3. 39. 562. 658. 3.
      -2. -6.</_>
    <_>
      98. 228. 69. -330. -116. -85. 305. 274. -85. 375. 414. 275. 299.
      101. -104. 221. 3. -50.</_>
    <_>
      -615. -645. 6. 1. 5. 8. -612. -643. 6. 6. 7. 6. -613. -645. 9. 5.
      1. 3.</_>
    <_>
      -319. -501. 328. -47. -81. -12. -393. -423. 399. -27. 11. 91.
      -308. -247. 312. 110. 333. 342.</_>
    <_>
      179. 239. 319. -539. -627. -457. 67. 125. 495. -135. -273. -381.
      11. 24. 357. -13. -32. -163.</_>
    <_>
      -216. 324. 283. -350. -362. -165. -360. 337. 432. -50. -169. -204.
      -410. 169. 451. -10. -109. -223.</_>
    <_>
      374. 677. 311. 120. 195. 85. 505. 654. 175. 49. 82. 33. 523. 649.
      160. -35. -55. -26.</_>
    <_>
      -707. -366. 0. 105. 60. 12. -693. -435. 0. 55. 45. 24. -669. -479.
      0. 51. 41. 18.</_>
    <_>
      612. 162. -568. -248. 4. 216. 612. 448. -468. -156. -122. 52. 499.
      549. -194. -103. -149. 52.</_>
    <_>
      -481. -625. -119. 85. 141. 33. -260. -647. -334. 108. 251. 122.
      33. -614. -537. -17. 166. 125.</_>
    <_>
      129. 128. 123. -347. -390. -157. -22. 353. 394. -26. 91. 354. -29.
      479. 511. 3. 5. -15.</_>
    <_>
      161. 263. 136. -531. -533. -548. -57. 84. 74. 141. -254. -480.
      -275. -118. -106. 533. 508. 352.</_>
    <_>
      141. -147. -280. 263. 195. 106. 85. -119. -240. 331. 371. 528. 63.
      6. -34. 49. 112. 286.</_>
    <_>
      -362. -356. -13. -272. -508. -567. -482. -205. -47. -176. 91. 267.
      -393. 178. -1. -5. 200. 453.</_>
    <_>
      21. 23. 15. -565. -565. -563. 8. 14. 11. -500. -522. -537. -2. 4.
      6. 8. 10. 10.</_>
    <_>
      527. 268. -16. 155. 260. 294. 589. 306. -20. -29. -34. -34. 581.
      311. -23. -7. -5. -3.</_>
    <_>
      124. 56. -57. 274. 462. 455. 286. 107. -128. 500. 525. 512. 49.
      145. 53. -135. -359. -127.</_>
    <_>
      -233. 299. 447. 321. -53. -101. -504. 70. 547. 192. 66. -15. -540.
      -12. 549. 2. 10. 11.</_>
    <_>
      110. 553. 421. -90. -315. -245. 39. 229. 640. -25. -195. -370. 26.
      51. 446. -18. -39. -236.</_>
    <_>
      -250. -404. 27. -332. -644. -425. -392. -57. 372. -592. -75. 398.
      87. 415. 358. 145. 579. 564.</_>
    <_>
      471. 122. -30. -369. -38. 92. 539. 299. -64. -495. -581. -568.
      263. 199. -54. -177. -467. -570.</_>
    <_>
      -509. -546. -47. 269. 184. 29. -343. -615. -225. 101. 283. 191.
      -63. -523. -485. 127. 317. 241.</_>
    <_>
      156. -192. -64. -400. -372. -338. 105. -146. 48. -157. -190. -66.
      4. -96. 97. 10. -8. -33.</_>
    <_>
      -304. 284. 369. -246. 318. 423. 235. 345. -119. 323. 359. -173.
      266. -193. -344. 280. -263. -494.</_>
    <_>
      4. 2. 2. -198. -188. -180. 11. 6. 7. -687. -686. -685. 6. 2. 3.
      -486. -496. -505.</_>
    <_>
      -392. -11. -3. 612. 695. 663. -143. -24. -20. 405. 558. 560. 0.
      -13. -15. -200. -199. -185.</_>
    <_>
      81. 162. 231. -121. -480. -547. -216. -25. 234. -186. -311. -428.
      -217. -46. 135. -149. -46. -49.</_>
    <_>
      84. 76. 42. -316. -136. -4. 162. 158. 102. -592. -612. -602. 40.
      55. 72. -248. -453. -596.</_>
    <_>
      -487. -38. 426. -507. 22. 530. -48. 317. 360. 460. 725. 506. 369.
      171. -69. 349. 355. -1.</_>
    <_>
      45. -64. -65. 253. 218. 73. 104. -166. -200. 602. 594. 502. 79.
      -116. -195. 293. 326. 473.</_>
    <_>
      344. 326. 111. 206. 410. 473. 525. 417. 53. 111. 179. 149. 570.
      424. 14. -24. -40. -42.</_>
    <_>
      -38. 671. -619. -6. -15. -9. -56. 670. -604. -8. -18. -10. -75.
      668. -587. -3. -14. -7.</_>
    <_>
      -567. -234. 486. 69. -102. -260. -574. -487. 417. 52. -37. -201.
      -548. -587. 153. 50. 65. -135.</_>
    <_>
      -829. -52. -16. 7. 6. 4. -833. -48. -17. 1. 2. 7. -837. -41. -11.
      7. 9. 17.</_>
    <_>
      264. -179. -452. 456. -181. -560. -284. -472. -112. -380. -584.
      -158. -469. -208. 367. -105. 178. 495.</_>
    <_>
      -501. -127. 602. -1. -3. 14. -534. -174. 643. -20. -98. -121.
      -580. -295. 682. -14. -103. -162.</_>
    <_>
      12. 17. 46. -140. -273. -358. -63. -56. -38. 749. 734. 662. 2.
      -20. -54. 366. 482. 574.</_>
    <_>
      167. -117. -278. 201. -67. -210. 116. -397. -347. -240. -303.
      -509. 65. -614. -188. -105. -310. -162.</_>
    <_>
      13. -8. 13. -37. -50. -61. 12. -8. -8. 690. 702. 692. 19. -1. -21.
      535. 537. 541.</_>
    <_>
      -264. -417. -244. -22. -75. -62. -91. -434. -318. 93. 302. 198.
      193. -289. -360. -489. -269. -62.</_>
    <_>
      -561. -527. -13. 133. 127. 29. -420. -594. -171. 130. 210. 83.
      -226. -611. -377. 110. 207. 111.</_>
    <_>
      -632. -534. 516. 2. -16. -30. -632. -547. 509. 6. 11. 5. -603.
      -500. 446. 7. 78. 68.</_>
    <_>
      446. 54. -106. 120. 56. -112. 428. -60. -327. -80. -148. -315.
      287. -94. -323. -277. -384. -247.</_>
    <_>
      522. 379. -200. 30. -89. -336. 510. 216. -406. 88. 32. -90. 491.
      166. -433. 213. 200. 245.</_>
    <_>
      247. -705. -434. 7. 5. -194. 396. -732. -732. -138. -14. -140.
      653. -725. -873. -139. 1. -7.</_>
    <_>
      -560. -352. -16. 28. -4. 8. -652. -189. 5. -114. -11. 161. -753.
      126. 56. -143. -32. 162.</_>
    <_>
      218. 199. -193. 148. 343. 347. 274. 282. -240. -168. -224. -192.
      150. 179. -108. -246. -417. -420.</_>
    <_>
      417. 460. 122. -303. -330. -88. 173. 463. 404. -137. -351. -308.
      37. 234. 511. -21. -172. -337.</_>
    <_>
      439. -261. -1. 91. -53. -189. 182. -323. 89. -274. -449. -285.
      -230. -176. 296. -168. -258. -68.</_>
    <_>
      -370. -378. 106. -324. -608. -452. -473. -5. 365. -491. 63. 539.
      75. 434. 304. 147. 580. 482.</_>
    <_>
      -121. -192. -284. -119. -394. -626. -342. -359. -255. -588. -701.
      -607. -339. -210. -87. -609. -344. -121.</_>
    <_>
      -49. -352. -445. 25. 16. 13. -113. -419. -462. 221. 99. 18. -200.
      -556. -530. 262. 160. 36.</_>
    <_>
      21. 353. 298. -353. -303. -160. 16. 279. 428. -30. -159. -246. -4.
      124. 451. -12. -58. -103.</_>
    <_>
      -389. -291. 10. 109. 197. -50. -152. -175. -311. 186. 451. 493.
      -2. -33. -259. 14. 41. 193.</_>
    <_>
      -179. -229. -157. -279. -419. -445. -369. -268. -75. -79. -168.
      -99. -399. -366. -43. 207. 168. 33.</_>
    <_>
      299. 332. 131. -293. -334. -153. 212. 480. 337. -356. -254. -81.
      333. 593. 172. 137. 269. 44.</_>
    <_>
      -158. -484. 618. -14. -2. -2. -138. -484. 618. -16. -8. -8. -119.
      -485. 613. -13. -3. -9.</_>
    <_>
      -392. -380. -91. 460. 418. 105. -133. -387. -382. 215. 509. 524.
      211. -46. -346. -273. 118. 480.</_>
    <_>
      50. 105. 99. -366. -313. -101. 2. 333. 327. -490. -363. -119. 3.
      342. 337. 445. 328. 103.</_>
    <_>
      589. 637. -551. -3. -19. 7. 533. 640. -489. -1. -38. 1. 450. 637.
      -414. 20. -29. 4.</_>
    <_>
      226. -490. -588. -60. -30. -126. 248. -269. -540. -326. -113. 252.
      184. -61. -270. 66. -3. 110.</_>
    <_>
      176. 286. -101. -650. -526. -427. 90. 367. -52. 94. -35. -4. 4.
      201. 72. 368. 245. 172.</_>
    <_>
      -198. -377. 97. -322. -485. -587. -156. -354. 26. -302. -74. -20.
      -169. -14. 77. 39. 138. 475.</_>
    <_>
      -242. -434. -144. -50. -32. -180. -7. -395. -190. -351. -95. 46.
      70. -174. -178. 218. 260. 352.</_>
    <_>
      288. 477. 442. -176. -119. -40. 237. 493. 522. -159. -251. -234.
      104. 344. 570. -72. -262. -380.</_>
    <_>
      405. -339. 20. -57. -63. -22. 290. -216. 124. -256. -242. -56.
      124. -38. 230. -30. -32. 66.</_>
    <_>
      -502. -377. 255. 164. 29. -23. -453. -395. 344. -305. -139. -16.
      -339. -294. 450. -153. -104. -20.</_>
    <_>
      -65. -472. -574. -71. -288. -362. -301. -625. -348. -171. -343.
      -196. -555. -503. -108. -357. -317. -102.</_>
    <_>
      -85. 471. 537. 55. -297. -343. -450. 137. 519. 232. -115. -421.
      -603. -241. 239. 345. 161. -191.</_>
    <_>
      187. 153. 94. 205. 349. 518. 156. 247. 229. -246. -327. -267. 39.
      117. 250. -51. -217. -386.</_>
    <_>
      -90. 398. 326. 146. 84. 44. -123. 396. 208. 161. 188. 108. -49.
      305. 77. 245. 201. 59.</_>
    <_>
      35. -324. -499. 5. -514. -601. -456. -469. -227. -404. -521. -307.
      -485. -256. -51. -507. -206. -31.</_>
    <_>
      218. -63. -329. 234. 95. -339. 80. -2. -415. -668. -606. -197. 2.
      309. 79. -348. -177. 219.</_>
    <_>
      258. 539. 207. -248. -267. -61. 155. 501. 462. -97. -219. -208.
      63. 327. 552. 9. -135. -230.</_>
    <_>
      37. 327. 542. 23. 183. 284. 193. 508. 379. 159. 336. 253. 436.
      487. 127. 242. 287. 97.</_>
    <_>
      62. 751. -58. 4. -1. 0. 58. 757. -56. -22. -15. -8. 74. 761. -54.
      -10. 3. 2.</_>
    <_>
      -329. -801. -112. 9. 13. 10. -337. -809. -121. 59. 39. 25. -303.
      -806. -136. -33. 24. 26.</_>
    <_>
      -470. 251. 666. -50. 67. 130. -370. 381. 661. -42. 71. 133. -262.
      496. 654. -42. 68. 114.</_>
    <_>
      496. -70. -186. 4. -38. -230. 428. -218. -310. -64. -238. -318.
      213. -335. -131. -241. -399. -257.</_>
    <_>
      -20. 467. 406. -34. 3. 38. 20. 373. 306. 414. 323. 94. 34. 135.
      88. 424. 291. 64.</_>
    <_>
      -152. -537. -374. -174. -249. -132. -215. -402. -180. -449. -302.
      -90. -125. -230. -91. -43. 72. 121.</_>
    <_>
      407. 621. 264. 137. 275. 146. 586. 572. 75. 164. 156. 47. 632.
      386. -10. 286. 154. -8.</_>
    <_>
      41. -57. -98. 507. 389. 132. 164. -261. -351. 280. 317. 117. 328.
      -210. -419. -422. -244. -61.</_>
    <_>
      287. 23. 73. 303. 401. 317. 440. 143. -45. -162. 13. 99. 465. 379.
      -14. -209. -123. 58.</_>
    <_>
      -465. 459. 546. 93. 21. 68. -567. 322. 552. 139. -28. -206. -558.
      -118. 517. 300. 36. -261.</_>
    <_>
      -482. 169. 607. 430. 199. 127. -641. 96. 608. 5. 4. 4. -642. 91.
      617. 8. 3. 7.</_>
    <_>
      729. -109. -403. 3. -101. -305. 729. -251. -550. 3. -35. -120.
      720. -286. -596. 0. -6. -2.</_>
    <_>
      343. -231. -509. -317. 5. 321. 545. -51. -317. -5. 55. 111. 489.
      -206. -328. 253. -18. -240.</_>
    <_>
      -53. -161. 201. 291. 105. 27. -257. -255. 111. 455. 343. 237.
      -319. -98. -166. 313. 520. 506.</_>
    <_>
      -544. -459. -23. 310. 137. 23. -529. -582. -74. 79. 144. 84. -315.
      -586. -279. 149. 294. 145.</_>
    <_>
      -47. -457. -46. 277. 127. 4. -53. -585. -33. -1. 15. 23. 24. -467.
      -101. -128. 51. 93.</_>
    <_>
      -16. -83. -135. 610. 575. 431. 17. -229. -313. 587. 509. 329. 29.
      -347. -388. 33. 5. -8.</_>
    <_>
      -89. -363. -407. -45. -325. -325. -289. -522. -325. 163. 84. 7.
      -149. -438. -494. 195. 498. 490.</_>
    <_>
      24. -596. -665. 2. -2. -15. 26. -615. -669. -2. -15. -25. 12.
      -626. -664. -10. -22. -18.</_>
    <_>
      -108. -179. -269. -86. -377. -609. -302. -364. -238. -620. -708.
      -630. -258. -217. -84. -630. -351. -128.</_>
    <_>
      -34. 20. 39. -434. -498. -557. -62. -29. -8. -592. -605. -642.
      -33. -26. -9. -195. -150. -111.</_>
    <_>
      -529. -574. -90. 103. 136. 58. -329. -592. -293. 141. 290. 147.
      -136. -547. -439. 34. 123. 165.</_>
    <_>
      -18. 310. -268. -470. -288. -338. 377. 210. -551. 27. 140. -193.
      602. -193. -647. 310. 19. -147.</_>
    <_>
      -15. -39. -427. 649. 719. 633. 30. 27. -521. 52. 93. 151. 17. 22.
      -519. 69. 10. -51.</_>
    <_>
      -443. 135. 520. 307. 53. -36. -564. 2. 566. -6. -6. -4. -530. 18.
      538. -12. 38. 24.</_>
    <_>
      -41. -167. -360. -527. -459. -258. -35. -49. -113. -535. -479.
      -315. -15. -3. 4. 5. 15. 14.</_>
    <_>
      189. -43. -20. 179. 337. 374. 344. -9. -31. -84. -53. -67. 287.
      -28. -56. -301. -408. -438.</_>
    <_>
      96. 527. 8. -56. 3. 4. 12. 399. 154. -124. -395. -378. -271. 200.
      363. 153. -58. -65.</_>
    <_>
      169. 202. -44. 255. 358. 536. 139. 333. 93. -31. -33. 57. -25.
      169. 286. -9. -335. -396.</_>
    <_>
      200. 109. -35. 228. 345. 183. 460. -59. -368. 430. 405. 66. 568.
      -269. -585. 16. -61. -149.</_>
    <_>
      -419. -299. 38. -91. -387. -532. -572. -439. 24. 22. 25. 16. -434.
      -326. 34. 210. 458. 590.</_>
    <_>
      -478. 31. 4. -216. -285. -288. -570. 24. -9. -64. -94. -111. -589.
      -3. -8. -15. -31. -40.</_>
    <_>
      -576. -62. 450. -488. -56. 450. -177. 356. 430. 189. 574. 466.
      363. 300. -52. 351. 450. 20.</_>
    <_>
      -201. 201. 508. -209. -71. 142. -87. 506. 472. -179. 102. 158.
      242. 670. 259. 8. 220. 115.</_>
    <_>
      -97. 28. 764. -7. -4. -4. -123. 33. 745. 29. 5. -9. -192. 38. 706.
      64. 24. 4.</_>
    <_>
      46. 450. 2. -300. -138. 0. 66. 593. 1. -12. -11. -7. 60. 599. 1.
      0. -1. 1.</_>
    <_>
      128. 75. 42. -220. -9. 78. 270. 193. 175. -478. -429. -265. 41.
      165. 287. -199. -505. -585.</_>
    <_>
      16. -442. -185. 282. 292. 191. 67. -337. -388. -121. 25. 28. 152.
      -153. -422. -424. -301. -154.</_>
    <_>
      -372. -290. -82. 222. 58. -6. -464. -317. -24. -172. -127. -32.
      -364. -220. 43. -232. -80. -11.</_>
    <_>
      -55. -83. -119. 613. 519. 345. -59. -146. -213. 557. 584. 601.
      -20. -66. -100. -6. 86. 262.</_>
    <_>
      125. 466. 233. -465. -320. -197. 143. 610. 146. -167. -150. -216.
      87. 605. 19. -13. -91. -157.</_>
    <_>
      3. -168. -2. -189. -282. -366. -31. -243. 4. 357. 341. 356. -53.
      -193. 13. 1. 45. 89.</_>
    <_>
      -637. -170. 634. 79. 12. -48. -643. -289. 641. 79. 21. -31. -645.
      -391. 644. 67. 21. -26.</_>
    <_>
      -415. -436. -5. -115. -346. -451. -382. -389. 10. 140. 451. 618.
      -115. -113. 8. 115. 347. 454.</_>
    <_>
      -118. 9. 162. -398. 111. 500. 191. 309. 81. 499. 599. 429. 93. 6.
      -165. 377. -124. -503.</_>
    <_>
      97. 12. 86. 453. 628. 604. 258. -7. 17. 562. 529. 465. 109. -10.
      -18. 43. -76. -50.</_>
    <_>
      673. 552. -709. 9. 8. 11. 664. 557. -708. 14. 11. 14. 665. 565.
      -712. -1. 11. 12.</_>
    <_>
      -102. 128. 530. 30. 62. 30. -38. 90. 358. 584. 578. 400. -5. 24.
      104. 493. 466. 324.</_>
    <_>
      -561. -358. 368. 227. 116. -56. -413. -617. 328. 133. 133. 6.
      -233. -659. 178. -13. 125. 60.</_>
    <_>
      321. 604. -320. -19. 96. 32. 497. 449. -481. 177. 83. -169. 328.
      -16. -498. 398. -142. -372.</_>
    <_>
      652. 651. 69. 2. -5. 9. 661. 644. 73. 11. 20. 3. 685. 646. 35. 11.
      28. 9.</_>
    <_>
      338. 373. 104. 644. 483. 292. 93. 75. 16. 213. -169. -364. -139.
      -100. 70. -601. -626. -552.</_>
    <_>
      -75. -63. -32. 705. 725. 724. 4. -8. -11. 210. 324. 401. 62. 44.
      35. -698. -702. -681.</_>
    <_>
      24. -196. -145. -136. -372. -389. 64. -324. -141. 282. 430. 323.
      326. -249. -368. 86. 275. 230.</_>
    <_>
      43. 328. 89. -459. -332. -61. -164. 369. 351. -60. -353. -321.
      -426. -26. 409. 362. -2. -371.</_>
    <_>
      -99. 103. -295. -241. -395. -413. -204. -47. -157. -214. -315.
      -309. -273. -48. 61. -91. -60. 151.</_>
    <_>
      40. 78. 149. -280. -304. -67. -167. 253. 348. -253. -261. -124.
      -141. 325. 263. -3. 103. -47.</_>
    <_>
      -36. 549. 559. -6. -7. -7. -27. 407. 411. 575. 443. 153. -12. 287.
      285. -102. -75. -31.</_>
    <_>
      2. 78. -163. 394. 438. 341. 6. 15. -403. 568. 465. 259. -94. -95.
      -426. -276. -383. -310.</_>
    <_>
      163. 300. 365. 65. 116. 97. 138. 219. 359. -158. -315. -383. 52.
      80. 430. -74. -142. -142.</_>
    <_>
      -822. 663. 853. 4. -1. -17. -633. 584. 761. 105. 220. 65. -186.
      374. 506. 370. 492. 182.</_>
    <_>
      32. 48. -2. 750. 764. 758. 39. 29. -24. 433. 407. 372. 25. 9. -33.
      -121. -129. -123.</_>
    <_>
      -59. 523. 344. -19. 391. 230. 409. 515. -176. 239. 289. -78. 539.
      145. -562. 349. 59. -330.</_>
    <_>
      -448. 46. 450. -180. -300. -138. -593. 66. 593. -7. -12. -11.
      -598. 60. 599. 6. 0. -1.</_>
    <_>
      -60. 104. 103. 50. 44. 81. -49. 104. 106. 357. 374. 340. 14. 55.
      57. 428. 425. 361.</_>
    <_>
      146. -353. -223. -148. -147. -391. 382. -416. -431. -76. 96. 69.
      505. -259. -522. -5. 103. 196.</_>
    <_>
      -267. -57. -22. 211. 39. 18. -561. -166. -30. 351. 120. 24. -674.
      -426. -74. 414. 272. 64.</_>
    <_>
      -434. -52. 60. 310. -2. -214. -643. -412. 48. 315. 58. -102. -698.
      -624. 123. 64. 54. 77.</_>
    <_>
      -31. -51. -229. -291. -375. -491. -113. -132. -252. -539. -618.
      -606. -120. -174. -120. -414. -384. -306.</_>
    <_>
      577. 353. 17. -293. -179. -13. 367. 579. 134. -193. -291. -114.
      -19. 599. 397. -27. -295. -189.</_>
    <_>
      0. -1. -8. 44. 43. 36. 0. -6. -21. 396. 392. 381. 19. -4. -51.
      715. 740. 723.</_>
    <_>
      -552. -193. 259. -570. -197. 343. -171. 343. 472. -169. 375. 584.
      358. 507. 164. 386. 535. 182.</_>
    <_>
      -487. -178. 380. -381. -266. -196. -535. -93. 353. 9. -69. -81.
      -442. -153. 380. 170. 281. 260.</_>
    <_>
      -90. 92. 119. -322. -304. -121. -150. 169. 215. -592. -593. -603.
      -75. 72. 96. -247. -268. -474.</_>
    <_>
      182. -219. -325. -172. -227. -181. -17. -18. -59. -415. -358. 63.
      -128. 178. 166. -58. -30. -30.</_>
    <_>
      266. 291. -432. -294. -89. 2. 391. 419. -441. -77. -29. -1. 410.
      451. -443. -8. -5. -3.</_>
    <_>
      549. 264. -347. 1. 110. 365. 569. 358. -197. 1. 6. -5. 542. 286.
      -339. -42. -146. -349.</_>
    <_>
      470. 393. 66. 272. 469. 496. 477. 416. 61. -269. -436. -445. 216.
      249. 73. -46. -307. -453.</_>
    <_>
      61. 341. 282. -207. -65. 32. 260. 479. 156. -64. 131. 46. 503.
      384. -95. 205. 158. -103.</_>
    <_>
      -527. -215. 518. -67. -65. -20. -478. -116. 474. 88. 234. 244.
      -263. -1. 263. 319. 503. 397.</_>
    <_>
      -38. -262. -539. -24. -200. -367. -205. -495. -410. -163. -387.
      -324. -469. -438. -131. -415. -398. -125.</_>
    <_>
      426. 426. -10. 448. 150. -2. 290. 281. -5. -32. -15. -3. 442. 442.
      -2. -450. -154. -2.</_>
    <_>
      -558. -538. 305. 8. 52. 47. -393. -373. 131. 153. 439. 435. -123.
      -116. -124. 151. 392. 398.</_>
    <_>
      -628. -517. -109. 226. 151. 3. -418. -600. -163. -166. 36. 47.
      -207. -464. -258. -145. 0. 30.</_>
    <_>
      186. 350. -205. -382. -374. -231. -30. 289. -59. -120. -405. -463.
      -256. 48. -8. 92. -90. -222.</_>
    <_>
      31. 161. 238. 29. 209. 468. 56. 422. 416. 68. 174. 354. 12. 387.
      523. -8. -193. -301.</_>
    <_>
      -392. 212. 24. -302. -468. -488. -557. 6. 43. -15. -220. -387.
      -592. -179. 21. 26. 11. -29.</_>
    <_>
      367. 118. -195. 203. 258. 143. 546. 51. -407. 252. 309. 145. 504.
      27. -462. -184. -307. -222.</_>
    <_>
      -291. -159. 203. 57. -153. -375. -199. -357. 76. 83. 187. 84. 60.
      -149. -81. -82. 281. 435.</_>
    <_>
      6. 13. 21. -710. -711. -717. 2. 5. 10. -192. -203. -216. -3. 1. 3.
      -69. -67. -65.</_>
    <_>
      -450. 593. -125. -2. -17. -5. -476. 587. -91. -10. -27. -11. -498.
      580. -61. -8. -20. -13.</_>
    <_>
      -705. -480. -56. -379. -212. -4. -560. -174. 2. -404. -120. 36.
      -239. -8. 22. -179. 24. 54.</_>
    <_>
      -230. 136. 482. -158. 28. 304. -244. 403. 389. 226. 293. 191.
      -137. 379. 100. 293. 309. 98.</_>
    <_>
      -277. -618. -324. 13. 34. 8. -203. -589. -408. 41. 123. 94. -77.
      -423. -533. 59. 269. 339.</_>
    <_>
      -504. -510. -12. 20. 64. 76. -478. -474. -16. -6. 12. 32. -358.
      -366. 7. 110. 320. 431.</_>
    <_>
      3. 375. 490. 239. 199. 116. -17. 178. 343. 549. 372. 111. -83.
      -10. 95. 353. 276. 101.</_>
    <_>
      2. 134. 462. 22. 12. 0. 34. 116. 356. 440. 464. 352. 71. 79. 143.
      573. 549. 411.</_>
    <_>
      -223. -585. -360. 147. 281. 146. -54. -530. -542. 50. 140. 148.
      -8. -344. -587. 12. 154. 287.</_>
    <_>
      26. 633. 607. -2. 1. 5. 28. 641. 605. -14. -7. -5. 31. 649. 610.
      -9. -5. 6.</_>
    <_>
      236. 393. 56. -332. -331. -106. 7. 498. 156. 113. -12. -32. -131.
      426. -94. 415. 330. 28.</_>
    <_>
      598. 142. -594. 310. 2. -318. 443. -388. -418. 183. -194. -228.
      -25. -597. 72. -1. -301. 14.</_>
    <_>
      -112. -26. -129. 230. 418. 273. 153. -41. -368. 417. 479. 370. 9.
      -90. -382. -23. -278. -232.</_>
    <_>
      -90. -545. 159. 0. -169. 39. -255. -466. 237. 145. 228. 177. -279.
      -319. 143. -187. -147. -43.</_>
    <_>
      -96. 284. 425. 0. -24. -3. -150. 240. 386. 228. 154. 50. -141. 93.
      224. 407. 343. 138.</_>
    <_>
      452. 272. -15. 274. 422. 531. 465. 111. -129. 529. 233. -151. 44.
      -213. -278. 34. -415. -504.</_>
    <_>
      406. 126. -290. 414. 554. 576. 402. 59. -128. 332. 121. 194. 124.
      -2. 5. 130. 2. 1.</_>
    <_>
      -626. -205. 641. -74. -5. 63. -633. -46. 639. -81. 2. 91. -643.
      129. 642. -55. 27. 116.</_>
    <_>
      196. 143. 65. -562. -471. -247. 134. 164. 250. -384. -516. -534.
      9. 35. 200. 25. -97. -258.</_>
    <_>
      309. 261. -57. 281. 561. 687. 513. 487. -61. 125. 275. 371. 583.
      566. -48. -1. -2. -6.</_>
    <_>
      36. -408. -100. -370. -184. 16. 26. 23. -12. -292. -57. 262. 36.
      429. 25. 42. 223. 347.</_>
    <_>
      -531. -579. 414. -177. -207. 90. -657. -200. 651. -303. -20. 299.
      -606. 349. 625. -244. 73. 277.</_>
    <_>
      -76. 109. 166. -626. -563. -400. -85. 190. 266. -23. -14. 4. -91.
      197. 300. -3. -11. 12.</_>
    <_>
      238. -439. -217. 174. 169. 387. 104. -248. -28. 42. 104. 266. 113.
      -236. 52. -225. -266. -336.</_>
    <_>
      -353. -27. 96. 125. 75. 196. -414. 156. 365. 76. 248. 579. -169.
      507. 400. 81. 505. 560.</_>
    <_>
      -228. 11. -33. 156. 197. 163. -62. -22. -70. 336. 428. 392. 118.
      -43. -86. 176. 243. 242.</_>
    <_>
      -226. 578. 641. -26. 26. 45. -168. 615. 635. -24. 19. 31. -119.
      635. 628. -13. 13. 14.</_>
    <_>
      -287. -426. -181. -225. -90. 27. -54. -182. -135. -90. 252. 425.
      257. 92. -88. -109. 134. 282.</_>
    <_>
      14. 265. -260. -214. -173. 142. -310. 382. 3. -152. -400. -335.
      -494. 173. 257. -16. -161. -181.</_>
    <_>
      131. -557. -271. -229. -339. -139. -64. -336. 92. -378. -242. 142.
      15. 82. 320. -129. 232. 494.</_>
    <_>
      48. -261. -126. 440. 435. 158. 299. -473. -295. 177. 221. 117.
      362. -418. -240. -412. -338. -124.</_></uncompressed_support_vectors>
  <decision_functions>
    <_>
      <sv_count>1</sv_count>
      <rho>-1.4365626376205801e-01</rho>
      <alpha>
        1.</alpha>
      <index>
        0</index></_></decision_functions></opencv_ml_svm>
</opencv_storage>
