<?xml version="1.0"?>
<opencv_storage>
<opencv_ml_svm>
  <format>3</format>
  <svmType>C_SVC</svmType>
  <kernel>
    <type>LINEAR</type></kernel>
  <C>1.0000000000000001e-01</C>
  <term_criteria><iterations>10000000</iterations></term_criteria>
  <var_count>18</var_count>
  <class_count>2</class_count>
  <class_labels type_id="opencv-matrix">
    <rows>2</rows>
    <cols>1</cols>
    <dt>i</dt>
    <data>
      -1 1</data></class_labels>
  <sv_total>1</sv_total>
  <support_vectors>
    <_>
      8.62751767e-05 1.00970858e-04 -4.44092584e-05 -7.41898693e-05
      -1.90927298e-04 -1.27751860e-04 -2.60843633e-04 1.69997249e-04
      1.91649830e-04 -3.79338599e-04 -5.40693582e-04 -2.98783561e-04
      -9.40274185e-05 8.74699472e-05 3.51291237e-04 -1.53505214e-04
      9.21386745e-05 -7.26572689e-05</_></support_vectors>
  <uncompressed_sv_total>1058</uncompressed_sv_total>
  <uncompressed_support_vectors>
    <_>
      -4. 2. 2. 148. 130. 120. -17. -11. -3. -69. -77. -85. -15. -14.
      -6. -311. -304. -302.</_>
    <_>
      -4. -6. -46. 298. 304. 266. 8. -4. -84. -518. -510. -508. 11. -1.
      -44. -413. -415. -374.</_>
    <_>
      451. 334. -367. -85. -310. -321. 364. 135. -95. -16. -77. 7. 456.
      67. 87. 82. 167. 197.</_>
    <_>
      334. -367. 279. -310. -321. -49. 135. -95. 516. -77. 7. 244. 67.
      87. 552. 167. 197. 178.</_>
    <_>
      -367. 279. 32. -321. -49. 90. -95. 516. -115. 7. 244. 195. 87.
      552. -361. 197. 178. 17.</_>
    <_>
      87. 552. -361. 197. 178. 17. 158. 403. -466. -58. -117. -210. 326.
      167. -450. -68. -77. -204.</_>
    <_>
      412. -6. -135. -14. -16. -127. 266. -124. -258. -118. -380. -510.
      -60. -263. -138. -330. -533. -422.</_>
    <_>
      403. -466. 198. -117. -210. -102. 167. -450. 379. -77. -204. -115.
      -151. -417. 420. 105. -53. -68.</_>
    <_>
      -466. 198. 66. -210. -102. 10. -450. 379. 140. -204. -115. 28.
      -417. 420. 162. -53. -68. -148.</_>
    <_>
      -22. 266. -124. 18. -118. -380. -139. -60. -263. -23. -330. -533.
      -312. -237. -153. -248. -291. -155.</_>
    <_>
      266. -124. -258. -118. -380. -510. -60. -263. -138. -330. -533.
      -422. -237. -153. -15. -291. -155. -33.</_>
    <_>
      298. 101. 326. -140. -239. -68. 79. 294. 526. -81. -8. 214. 14.
      540. 592. -24. 84. 174.</_>
    <_>
      101. 326. 167. -239. -68. -77. 294. 526. -151. -8. 214. 105. 540.
      592. -414. 84. 174. 86.</_>
    <_>
      326. 167. -450. -68. -77. -204. 526. -151. -417. 214. 105. -53.
      592. -414. -306. 174. 86. 92.</_>
    <_>
      167. -450. 379. -77. -204. -115. -151. -417. 420. 105. -53. -68.
      -414. -306. 286. 86. 92. 84.</_>
    <_>
      -450. 379. 140. -204. -115. 28. -417. 420. 162. -53. -68. -148.
      -306. 286. -70. 92. 84. -202.</_>
    <_>
      -139. -60. -263. -23. -330. -533. -312. -237. -153. -248. -291.
      -155. -286. -129. -30. -308. -131. -36.</_>
    <_>
      3. 51. 122. -17. 13. 174. 145. 197. 276. 109. 367. 506. 404. 290.
      39. 388. 482. 199.</_>
    <_>
      51. 122. 178. 13. 174. 416. 197. 276. 118. 367. 506. 358. 290. 39.
      -262. 482. 199. -270.</_>
    <_>
      122. 178. 226. 174. 416. 378. 276. 118. -188. 506. 358. -78. 39.
      -262. -361. 199. -270. -387.</_>
    <_>
      79. 294. 526. -81. -8. 214. 14. 540. 592. -24. 84. 174. 177. 630.
      453. 123. 268. 129.</_>
    <_>
      294. 526. -151. -8. 214. 105. 540. 592. -414. 84. 174. 86. 630.
      453. -471. 268. 129. 21.</_>
    <_>
      526. -151. -417. 214. 105. -53. 592. -414. -306. 174. 86. 92. 453.
      -471. -265. 129. 21. -1.</_>
    <_>
      -151. -417. 420. 105. -53. -68. -414. -306. 286. 86. 92. 84. -471.
      -265. 149. 21. -1. -89.</_>
    <_>
      -5. 145. 197. -33. 109. 367. 141. 404. 290. 125. 388. 482. 168.
      386. 129. 34. -220. -493.</_>
    <_>
      145. 197. 276. 109. 367. 506. 404. 290. 39. 388. 482. 199. 386.
      129. -224. -220. -493. -634.</_>
    <_>
      197. 276. 118. 367. 506. 358. 290. 39. -262. 482. 199. -270. 129.
      -224. -363. -493. -634. -529.</_>
    <_>
      276. 118. -188. 506. 358. -78. 39. -262. -361. 199. -270. -387.
      -224. -363. -133. -634. -529. -285.</_>
    <_>
      118. -188. -141. 358. -78. -429. -262. -361. -99. -270. -387.
      -167. -363. -133. 14. -529. -285. -164.</_>
    <_>
      -17. 14. 540. -27. -24. 84. -27. 177. 630. -27. 123. 268. -15.
      478. 621. -11. 152. 299.</_>
    <_>
      14. 540. 592. -24. 84. 174. 177. 630. 453. 123. 268. 129. 478.
      621. 191. 152. 299. 167.</_>
    <_>
      540. 592. -414. 84. 174. 86. 630. 453. -471. 268. 129. 21. 621.
      191. -438. 299. 167. 46.</_>
    <_>
      592. -414. -306. 174. 86. 92. 453. -471. -265. 129. 21. -1. 191.
      -438. -434. 167. 46. -68.</_>
    <_>
      141. 404. 290. 125. 388. 482. 168. 386. 129. 34. -220. -493. -87.
      118. -3. -247. -516. -643.</_>
    <_>
      404. 290. 39. 388. 482. 199. 386. 129. -224. -220. -493. -634.
      118. -3. -116. -516. -643. -526.</_>
    <_>
      290. 39. -262. 482. 199. -270. 129. -224. -363. -493. -634. -529.
      -3. -116. -127. -643. -526. -287.</_>
    <_>
      39. -262. -361. 199. -270. -387. -224. -363. -133. -634. -529.
      -285. -116. -127. -4. -526. -287. -166.</_>
    <_>
      -262. -361. -99. -270. -387. -167. -363. -133. 14. -529. -285.
      -164. -127. -4. 12. -287. -166. -160.</_>
    <_>
      -27. 177. 630. -27. 123. 268. -15. 478. 621. -11. 152. 299. 137.
      626. 484. 133. 270. 134.</_>
    <_>
      177. 630. 453. 123. 268. 129. 478. 621. 191. 152. 299. 167. 626.
      484. -62. 270. 134. -124.</_>
    <_>
      630. 453. -471. 268. 129. 21. 621. 191. -438. 299. 167. 46. 484.
      -62. -429. 134. -124. -247.</_>
    <_>
      453. -471. -265. 129. 21. -1. 191. -438. -434. 167. 46. -68. -62.
      -429. -369. -124. -247. -59.</_>
    <_>
      -471. -265. 149. 21. -1. -89. -438. -434. 122. 46. -68. -176.
      -429. -369. 116. -247. -59. 108.</_>
    <_>
      168. 386. 129. 34. -220. -493. -87. 118. -3. -247. -516. -643.
      -126. -7. -2. -124. -19. -16.</_>
    <_>
      386. 129. -224. -220. -493. -634. 118. -3. -116. -516. -643. -526.
      -7. -2. 7. -19. -16. -9.</_>
    <_>
      129. -224. -363. -493. -634. -529. -3. -116. -127. -643. -526.
      -287. -2. 7. 3. -16. -9. 5.</_>
    <_>
      -224. -363. -133. -634. -529. -285. -116. -127. -4. -526. -287.
      -166. 7. 3. 2. -9. 5. 20.</_>
    <_>
      -15. 478. 621. -11. 152. 299. 137. 626. 484. 133. 270. 134. 441.
      566. 89. 175. 282. -37.</_>
    <_>
      478. 621. 191. 152. 299. 167. 626. 484. -62. 270. 134. -124. 566.
      89. -265. 282. -37. -377.</_>
    <_>
      621. 191. -438. 299. 167. 46. 484. -62. -429. 134. -124. -247. 89.
      -265. -343. -37. -377. -371.</_>
    <_>
      191. -438. -434. 167. 46. -68. -62. -429. -369. -124. -247. -59.
      -265. -343. 45. -377. -371. -59.</_>
    <_>
      -438. -434. 122. 46. -68. -176. -429. -369. 116. -247. -59. 108.
      -343. 45. 28. -371. -59. 100.</_>
    <_>
      -29. 137. 626. -5. 133. 270. -28. 441. 566. 8. 175. 282. -151.
      576. 434. 165. 10. -94.</_>
    <_>
      137. 626. 484. 133. 270. 134. 441. 566. 89. 175. 282. -37. 576.
      434. -226. 10. -94. -222.</_>
    <_>
      626. 484. -62. 270. 134. -124. 566. 89. -265. 282. -37. -377. 434.
      -226. -302. -94. -222. -234.</_>
    <_>
      484. -62. -429. 134. -124. -247. 89. -265. -343. -37. -377. -371.
      -226. -302. -177. -222. -234. -111.</_>
    <_>
      -10. -28. 441. 6. 8. 175. -42. -151. 576. 322. 165. 10. -217.
      -264. 483. 369. 238. 187.</_>
    <_>
      -28. 441. 566. 8. 175. 282. -151. 576. 434. 165. 10. -94. -264.
      483. 206. 238. 187. -30.</_>
    <_>
      441. 566. 89. 175. 282. -37. 576. 434. -226. 10. -94. -222. 483.
      206. -227. 187. -30. -131.</_>
    <_>
      566. 89. -265. 282. -37. -377. 434. -226. -302. -94. -222. -234.
      206. -227. -236. -30. -131. -54.</_>
    <_>
      -265. -343. 45. -377. -371. -59. -302. -177. 271. -234. -111. -31.
      -236. -76. 201. -54. -10. -59.</_>
    <_>
      -13. -4. -8. 15. 28. 32. -12. 150. 138. 18. 160. 456. 136. 294.
      230. 450. 600. 540.</_>
    <_>
      -4. -8. 9. 28. 32. 45. 150. 138. 7. 160. 456. 587. 294. 230. -123.
      600. 540. 371.</_>
    <_>
      -8. 9. 143. 32. 45. 207. 138. 7. 261. 456. 587. 541. 230. -123.
      37. 540. 371. 63.</_>
    <_>
      -42. -151. 576. 322. 165. 10. -217. -264. 483. 369. 238. 187.
      -342. -129. 310. -114. 27. 40.</_>
    <_>
      -151. 576. 434. 165. 10. -94. -264. 483. 206. 238. 187. -30. -129.
      310. -30. 27. 40. -152.</_>
    <_>
      -12. 150. 138. 18. 160. 456. 136. 294. 230. 450. 600. 540. 297.
      124. 44. 237. 78. -218.</_>
    <_>
      150. 138. 7. 160. 456. 587. 294. 230. -123. 600. 540. 371. 124.
      44. -188. 78. -218. -300.</_>
    <_>
      138. 7. 261. 456. 587. 541. 230. -123. 37. 540. 371. 63. 44. -188.
      -113. -218. -300. -207.</_>
    <_>
      7. 261. -217. 587. 541. 369. -123. 37. -342. 371. 63. -114. -188.
      -113. -167. -300. -207. -5.</_>
    <_>
      156. 136. 294. 142. 450. 600. 305. 297. 124. 235. 237. 78. 143.
      160. -19. 207. -94. -215.</_>
    <_>
      136. 294. 230. 450. 600. 540. 297. 124. 44. 237. 78. -218. 160.
      -19. -35. -94. -215. -141.</_>
    <_>
      294. 230. -123. 600. 540. 371. 124. 44. -188. 78. -218. -300. -19.
      -35. -70. -215. -141. -20.</_>
    <_>
      187. 19. -20. -215. 37. 252. 266. 185. 54. -512. -519. -494. 107.
      90. 20. -163. -410. -564.</_>
    <_>
      19. -20. 98. 37. 252. 284. 185. 54. 53. -519. -494. -497. 90. 20.
      74. -410. -564. -574.</_>
    <_>
      -20. 98. -88. 252. 284. 198. 54. 53. 100. -494. -497. -268. 20.
      74. 347. -564. -574. -535.</_>
    <_>
      98. -88. -207. 284. 198. 95. 53. 100. -70. -497. -268. 160. 74.
      347. 220. -574. -535. -426.</_>
    <_>
      266. 185. 54. -512. -519. -494. 107. 90. 20. -163. -410. -564. 2.
      -33. -20. -38. -19. -28.</_>
    <_>
      185. 54. 53. -519. -494. -497. 90. 20. 74. -410. -564. -574. -33.
      -20. 72. -19. -28. -60.</_>
    <_>
      54. 53. 100. -494. -497. -268. 20. 74. 347. -564. -574. -535. -20.
      72. 238. -28. -60. -210.</_>
    <_>
      53. 100. -70. -497. -268. 160. 74. 347. 220. -574. -535. -426. 72.
      238. 244. -60. -210. -404.</_>
    <_>
      100. -70. -136. -268. 160. 260. 347. 220. -91. -535. -426. -191.
      238. 244. 61. -210. -404. -463.</_>
    <_>
      74. 347. 220. -574. -535. -426. 72. 238. 244. -60. -210. -404. 20.
      85. 179. -42. -97. -121.</_>
    <_>
      347. 220. -91. -535. -426. -191. 238. 244. 61. -210. -404. -463.
      85. 179. 21. -97. -121. -167.</_>
    <_>
      220. -91. -33. -426. -191. 9. 244. 61. 50. -404. -463. -428. 179.
      21. -35. -121. -167. -327.</_>
    <_>
      57. -19. -35. 263. 253. 119. 291. 40. -268. 169. 472. 432. 504.
      246. -423. -202. -86. 5.</_>
    <_>
      1. 119. 134. 31. 151. 348. 43. 251. 214. 407. 461. 476. 95. 133.
      59. 497. 377. 89.</_>
    <_>
      119. 134. 242. 151. 348. 396. 251. 214. 42. 461. 476. 308. 133.
      59. -126. 377. 89. -66.</_>
    <_>
      107. 291. 40. -63. 169. 472. 86. 504. 246. -162. -202. -86. 7.
      362. 197. -11. -192. -499.</_>
    <_>
      291. 40. -268. 169. 472. 432. 504. 246. -423. -202. -86. 5. 362.
      197. -238. -192. -499. -454.</_>
    <_>
      40. -268. -123. 472. 432. 167. 246. -423. -215. -86. 5. 23. 197.
      -238. -72. -499. -454. -144.</_>
    <_>
      43. 251. 214. 407. 461. 476. 95. 133. 59. 497. 377. 89. 114. -24.
      -110. 140. 122. 84.</_>
    <_>
      504. 246. -423. -202. -86. 5. 362. 197. -238. -192. -499. -454.
      95. 32. 17. -107. -232. -187.</_>
    <_>
      0. -26. 64. -80. 8. 40. -5. 244. 149. -487. -310. 13. -7. 368.
      376. -341. -396. -368.</_>
    <_>
      101. 38. -62. 135. 176. 76. 152. -19. -118. -382. -429. -442. 91.
      -39. -44. -499. -533. -466.</_>
    <_>
      -153. -5. 244. -443. -487. -310. -82. -7. 368. -454. -341. -396.
      3. 11. 163. 29. 19. -113.</_>
    <_>
      -5. 244. 149. -487. -310. 13. -7. 368. 376. -341. -396. -368. 11.
      163. 358. 19. -113. -364.</_>
    <_>
      244. 149. 0. -310. 13. 134. 368. 376. 0. -396. -368. -262. 163.
      358. 0. -113. -364. -488.</_>
    <_>
      -7. 368. 376. -341. -396. -368. 11. 163. 358. 19. -113. -364. -1.
      17. 127. -39. -65. -191.</_>
    <_>
      368. 376. 0. -396. -368. -262. 163. 358. 0. -113. -364. -488. 17.
      127. 0. -65. -191. -298.</_>
    <_>
      -180. -163. -130. -122. -317. -406. -428. -173. -96. -238. -301.
      -188. -550. -79. -10. -138. -103. -36.</_>
    <_>
      33. -304. -428. 103. -8. -238. 33. -464. -550. -37. -86. -138. 43.
      -497. -549. -53. -27. -7.</_>
    <_>
      -304. -428. -173. -8. -238. -301. -464. -550. -79. -86. -138.
      -103. -497. -549. -48. -27. -7. -10.</_>
    <_>
      -428. -173. -96. -238. -301. -188. -550. -79. -10. -138. -103.
      -36. -549. -48. 15. -7. -10. -21.</_>
    <_>
      -146. -207. -107. -346. -383. -355. -112. -138. -53. 12. 152. 247.
      -47. -61. -57. 359. 361. 339.</_>
    <_>
      -207. -107. -71. -383. -355. -239. -138. -53. 3. 152. 247. 259.
      -61. -57. -20. 361. 339. 300.</_>
    <_>
      33. -464. -550. -37. -86. -138. 43. -497. -549. -53. -27. -7. 51.
      -340. -365. -525. -386. -65.</_>
    <_>
      -464. -550. -79. -86. -138. -103. -497. -549. -48. -27. -7. -10.
      -340. -365. -74. -386. -65. 96.</_>
    <_>
      -17. -18. -12. 271. 244. 182. 28. -17. -90. 402. 475. 460. 78. 58.
      -122. 404. 456. 514.</_>
    <_>
      147. 128. 43. -337. -164. -53. 210. 217. 51. -490. -511. -525. 95.
      103. 11. -175. -383. -523.</_>
    <_>
      128. 43. -497. -164. -53. -27. 217. 51. -340. -511. -525. -386.
      103. 11. -78. -383. -523. -440.</_>
    <_>
      43. -497. -549. -53. -27. -7. 51. -340. -365. -525. -386. -65. 11.
      -78. -65. -523. -440. -199.</_>
    <_>
      -497. -549. -48. -27. -7. -10. -340. -365. -74. -386. -65. 96.
      -78. -65. -31. -440. -199. -17.</_>
    <_>
      -17. -90. -84. 475. 460. 386. 58. -122. -208. 456. 514. 432. 30.
      -109. -265. 60. -13. 25.</_>
    <_>
      217. 51. -340. -511. -525. -386. 103. 11. -78. -383. -523. -440.
      -7. -16. 11. -33. -30. -51.</_>
    <_>
      51. -340. -365. -525. -386. -65. 11. -78. -65. -523. -440. -199.
      -16. 11. 24. -30. -51. -114.</_>
    <_>
      -122. -208. -91. 514. 432. 275. -109. -265. -206. -13. 25. 10.
      -43. -145. -214. -343. -195. -68.</_>
    <_>
      200. 268. -5. 270. 284. 233. 189. 184. -21. 51. -58. -107. 120.
      53. 12. -444. -535. -584.</_>
    <_>
      268. -5. -184. 284. 233. 158. 184. -21. -136. -58. -107. 0. 53.
      12. 53. -535. -584. -469.</_>
    <_>
      189. 184. -21. 51. -58. -107. 120. 53. 12. -444. -535. -584. -8.
      -44. 1. -300. -434. -493.</_>
    <_>
      184. -21. -136. -58. -107. 0. 53. 12. 53. -535. -584. -469. -44.
      1. 174. -434. -493. -498.</_>
    <_>
      53. 12. 53. -535. -584. -469. -44. 1. 174. -434. -493. -498. -101.
      -45. 130. 31. -13. -98.</_>
    <_>
      12. 53. 119. -584. -469. -191. 1. 174. 265. -493. -498. -509. -45.
      130. 141. -13. -98. -255.</_>
    <_>
      -164. -124. -185. 314. 288. 265. -65. -93. -11. -279. -123. 105.
      10. 38. 141. -378. -328. -273.</_>
    <_>
      -12. 407. 398. 32. 65. 104. 65. 411. 196. 213. 261. 24. 197. 241.
      -200. 159. 73. -256.</_>
    <_>
      398. -116. -143. 104. -26. -277. 196. -350. -265. 24. -282. -387.
      -200. -331. -158. -256. -327. -96.</_>
    <_>
      448. 133. -9. 266. 169. 73. 379. -68. -110. 75. -98. -304. 125.
      -174. -225. -263. -450. -465.</_>
    <_>
      -341. 19. 25. 103. 9. -1. -418. 76. 136. 40. 114. 292. -351. 256.
      305. 31. 204. 375.</_>
    <_>
      -418. 76. 136. 40. 114. 292. -351. 256. 305. 31. 204. 375. -289.
      354. 366. 21. 8. -4.</_>
    <_>
      -351. 256. 305. 31. 204. 375. -289. 354. 366. 21. 8. -4. -300.
      301. 420. -18. -69. -56.</_>
    <_>
      -300. 301. 420. -18. -69. -56. -289. 167. 472. -39. -111. -206.
      -264. -68. 479. 2. -136. -269.</_>
    <_>
      -289. 167. 472. -39. -111. -206. -264. -68. 479. 2. -136. -269.
      -263. -211. 481. -13. -17. -25.</_>
    <_>
      -68. 479. 0. -136. -269. -264. -211. 481. 0. -17. -25. -28. -195.
      474. 0. -11. 6. 2.</_>
    <_>
      -244. -139. 464. -66. -19. 10. -218. 58. 447. -78. 98. 249. -196.
      341. 436. -34. 95. 216.</_>
    <_>
      170. 147. -22. 130. 301. 324. 323. 214. -93. 385. 434. 407. 291.
      96. -18. -127. -326. -342.</_>
    <_>
      147. -22. -67. 301. 324. 189. 214. -93. -244. 434. 407. 294. 96.
      -18. -212. -326. -342. -122.</_>
    <_>
      -166. 170. 244. -10. 120. 424. -26. 292. 195. 346. 478. 247. 139.
      104. -96. 199. 44. -204.</_>
    <_>
      -148. -133. 301. 436. 117. 49. -313. -152. 435. 21. 156. 339.
      -263. 179. 478. -219. 27. 218.</_>
    <_>
      -133. 301. 147. 117. 49. 231. -152. 435. 204. 156. 339. 348. 179.
      478. 108. 27. 218. 156.</_>
    <_>
      301. 147. -126. 49. 231. 182. 435. 204. -237. 339. 348. 343. 478.
      108. -132. 218. 156. 170.</_>
    <_>
      323. 214. -93. 385. 434. 407. 291. 96. -18. -127. -326. -342. 139.
      -6. 79. -345. -400. -389.</_>
    <_>
      214. -93. -244. 434. 407. 294. 96. -18. -212. -326. -342. -122.
      -6. 79. 43. -400. -389. -257.</_>
    <_>
      -313. -152. 435. 21. 156. 339. -263. 179. 478. -219. 27. 218. -71.
      292. 381. 271. 330. 155.</_>
    <_>
      -152. 435. 204. 156. 339. 348. 179. 478. 108. 27. 218. 156. 292.
      381. 5. 330. 155. 17.</_>
    <_>
      -263. 179. 478. -219. 27. 218. -71. 292. 381. 271. 330. 155. 158.
      214. 137. 176. 268. 121.</_>
    <_>
      -63. 461. 511. -21. 101. 197. -30. 568. 504. 20. 38. 42. -35. 561.
      493. 47. 17. -5.</_>
    <_>
      461. 511. 85. 101. 197. 95. 568. 504. -35. 38. 42. 17. 561. 493.
      -51. 17. -5. -7.</_>
    <_>
      -30. 568. 504. 20. 38. 42. -35. 561. 493. 47. 17. -5. -58. 530.
      485. 40. 16. -1.</_>
    <_>
      568. 504. -35. 38. 42. 17. 561. 493. -51. 17. -5. -7. 530. 485.
      -47. 16. -1. -3.</_>
    <_>
      561. 493. -51. 17. -5. -7. 530. 485. -47. 16. -1. -3. 499. 479.
      -45. 25. 5. 3.</_>
    <_>
      -95. 153. 58. 177. 67. 70. -262. 14. 10. 414. 218. 28. -203. -142.
      -156. 311. 410. 278.</_>
    <_>
      -12. 426. 422. 24. 16. -18. -91. 193. 405. 285. -19. -235. -186.
      -210. 304. 408. 214. -74.</_>
    <_>
      -91. 193. 405. 285. -19. -235. -186. -210. 304. 408. 214. -74.
      -87. -293. 53. 137. 347. 301.</_>
    <_>
      -127. 329. 406. 155. -29. -150. -208. 7. 282. 406. 187. -138.
      -109. -224. 84. 261. 348. 244.</_>
    <_>
      -178. -351. -46. -132. -327. -434. -279. -449. -113. 7. 3. -55.
      -247. -465. -155. 21. 41. 41.</_>
    <_>
      -351. -46. 94. -327. -434. -544. -449. -113. 9. 3. -55. -97. -465.
      -155. 15. 41. 41. 47.</_>
    <_>
      32. 51. 206. -666. -631. -392. 10. 126. 396. -46. -28. -2. 19.
      124. 385. 71. 60. 21.</_>
    <_>
      51. 206. 184. -631. -392. -100. 126. 396. 298. -28. -2. 10. 124.
      385. 299. 60. 21. -1.</_>
    <_>
      206. 184. -141. -392. -100. -129. 396. 298. -279. -2. 10. 15. 385.
      299. -257. 21. -1. 17.</_>
    <_>
      -141. -214. -44. -129. -448. -656. -279. -414. -106. 15. -4. -58.
      -257. -425. -140. 17. 47. 56.</_>
    <_>
      -214. -44. -9. -448. -656. -507. -414. -106. 227. -4. -58. -33.
      -425. -140. 237. 47. 56. 7.</_>
    <_>
      -44. -9. 148. -656. -507. -156. -106. 227. 362. -58. -33. 66.
      -140. 237. 412. 56. 7. -32.</_>
    <_>
      404. 491. 73. 58. 185. 57. 493. 470. -144. 103. 44. -66. 382. 441.
      -150. -88. -169. -94.</_>
    <_>
      -314. -240. 39. 102. 214. 263. -199. -180. 10. -201. -138. -156.
      -96. -204. -9. -392. -376. -401.</_>
    <_>
      -240. 39. -16. 214. 263. 260. -180. 10. 5. -138. -156. -161. -204.
      -9. 12. -376. -401. -408.</_>
    <_>
      -353. -234. -22. -1. 16. 32. -232. -152. 9. 232. 418. 515. 1. 19.
      79. 171. 389. 533.</_>
    <_>
      -234. -22. 0. 16. 32. 38. -152. 9. -10. 418. 515. 530. 19. 79.
      -46. 389. 533. 552.</_>
    <_>
      31. 493. 470. 137. 103. 44. 19. 382. 441. 1. -88. -169. 0. 136.
      303. -12. -188. -491.</_>
    <_>
      493. 470. -144. 103. 44. -66. 382. 441. -150. -88. -169. -94. 136.
      303. 18. -188. -491. -536.</_>
    <_>
      470. -144. -229. 44. -66. -197. 441. -150. -312. -169. -94. -52.
      303. 18. -147. -491. -536. -245.</_>
    <_>
      -229. 195. 294. -197. -257. -254. -312. 103. 262. -52. -167. -294.
      -147. 148. 114. -245. 80. 104.</_>
    <_>
      -180. 10. 5. -138. -156. -161. -204. -9. 12. -376. -401. -408.
      -113. -3. -2. 261. 383. 382.</_>
    <_>
      -232. -152. 9. 232. 418. 515. 1. 19. 79. 171. 389. 533. 92. 127.
      140. -56. -75. -50.</_>
    <_>
      -152. 9. -10. 418. 515. 530. 19. 79. -46. 389. 533. 552. 127. 140.
      22. -75. -50. 60.</_>
    <_>
      9. -10. 63. 515. 530. 481. 79. -46. -44. 533. 552. 458. 140. 22.
      -102. -50. 60. 164.</_>
    <_>
      382. 441. -150. -88. -169. -94. 136. 303. 18. -188. -491. -536.
      -80. 11. 77. -80. -285. -473.</_>
    <_>
      441. -150. -312. -169. -94. -52. 303. 18. -147. -491. -536. -245.
      11. 77. 310. -285. -473. -248.</_>
    <_>
      -150. -312. 103. -94. -52. -167. 18. -147. 148. -536. -245. 80.
      77. 310. 392. -473. -248. 128.</_>
    <_>
      -96. -204. -9. -392. -376. -401. 58. -113. -3. 32. 261. 383. 169.
      78. -20. 131. 204. 256.</_>
    <_>
      -204. -9. 12. -376. -401. -408. -113. -3. -2. 261. 383. 382. 78.
      -20. -20. 204. 256. 222.</_>
    <_>
      -11. 14. 57. -465. -462. -451. 69. -68. -90. 127. 122. -118. 262.
      -220. -360. 268. 314. 132.</_>
    <_>
      14. 57. 121. -462. -451. -413. -68. -90. 109. 122. -118. -315.
      -220. -360. -4. 314. 132. -54.</_>
    <_>
      19. 79. -46. 389. 533. 552. 127. 140. 22. -75. -50. 60. 101. 154.
      105. -79. -116. -129.</_>
    <_>
      303. 18. -147. -491. -536. -245. 11. 77. 310. -285. -473. -248.
      -138. -2. 434. 44. 4. -176.</_>
    <_>
      18. -147. 148. -536. -245. 80. 77. 310. 392. -473. -248. 128. -2.
      434. 378. 4. -176. -442.</_>
    <_>
      -147. 148. 114. -245. 80. 104. 310. 392. -102. -248. 128. 132.
      434. 378. -113. -176. -442. -471.</_>
    <_>
      -113. -3. -2. 261. 383. 382. 78. -20. -20. 204. 256. 222. -37.
      -40. -31. -537. -724. -721.</_>
    <_>
      -3. -2. -3. 383. 382. 363. -20. -20. -37. 256. 222. 189. -40. -31.
      0. -724. -721. -662.</_>
    <_>
      -388. 96. 148. -74. -164. -210. -417. -53. 65. 161. 73. -113.
      -299. -147. -120. 245. 357. 264.</_>
    <_>
      77. 310. 392. -473. -248. 128. -2. 434. 378. 4. -176. -442. -66.
      159. 156. 2. -157. -388.</_>
    <_>
      310. 392. -102. -248. 128. 132. 434. 378. -113. -176. -442. -471.
      159. 156. 93. -157. -388. -375.</_>
    <_>
      169. 78. -20. 131. 204. 256. -20. -37. -40. -160. -537. -724.
      -292. -298. -28. -70. -226. -288.</_>
    <_>
      78. -20. -20. 204. 256. 222. -37. -40. -31. -537. -724. -721.
      -298. -28. -13. -226. -288. -261.</_>
    <_>
      -20. -20. -37. 256. 222. 189. -40. -31. 0. -724. -721. -662. -28.
      -13. 95. -288. -261. -207.</_>
    <_>
      262. -220. -360. 268. 314. 132. 402. -198. -461. -204. -88. 15.
      344. -53. -366. 300. 271. 408.</_>
    <_>
      -220. -360. -4. 314. 132. -54. -198. -461. -76. -88. 15. 28. -53.
      -366. -170. 271. 408. 396.</_>
    <_>
      434. 378. -113. -176. -442. -471. 159. 156. 93. -157. -388. -375.
      49. 98. 171. 37. 100. 107.</_>
    <_>
      378. -113. 14. -442. -471. -218. 156. 93. 279. -388. -375. -157.
      98. 171. 359. 100. 107. 47.</_>
    <_>
      -20. -37. -40. -160. -537. -724. -292. -298. -28. -70. -226. -288.
      -354. -343. -10. 32. 81. 116.</_>
    <_>
      -37. -40. -31. -537. -724. -721. -298. -28. -13. -226. -288. -261.
      -343. -10. -3. 81. 116. 117.</_>
    <_>
      -40. -31. 0. -724. -721. -662. -28. -13. 95. -288. -261. -207.
      -10. -3. 119. 116. 117. 97.</_>
    <_>
      -18. 221. 402. -20. -137. -204. 7. 85. 344. 421. 427. 300. 57. 54.
      148. 67. 80. -20.</_>
    <_>
      402. -198. -461. -204. -88. 15. 344. -53. -366. 300. 271. 408.
      148. 9. -163. -20. -125. 3.</_>
    <_>
      -198. -461. -76. -88. 15. 28. -53. -366. -170. 271. 408. 396. 9.
      -163. -232. -125. 3. 156.</_>
    <_>
      -461. -76. 35. 15. 28. -51. -366. -170. -172. 408. 396. 174. -163.
      -232. -342. 3. 156. 146.</_>
    <_>
      -7. 97. 153. -177. -305. -301. -172. -43. 217. -278. -455. -535.
      -286. -183. 64. -86. -163. -376.</_>
    <_>
      97. 153. 109. -305. -301. -155. -43. 217. 202. -455. -535. -524.
      -183. 64. 130. -163. -376. -612.</_>
    <_>
      153. 109. -196. -301. -155. -42. 217. 202. -73. -535. -524. -421.
      64. 130. 206. -376. -612. -508.</_>
    <_>
      109. -196. -246. -155. -42. -10. 202. -73. -73. -524. -421. -157.
      130. 206. 250. -612. -508. -170.</_>
    <_>
      156. 93. 279. -388. -375. -157. 98. 171. 359. 100. 107. 47. 219.
      71. 237. 325. 339. 177.</_>
    <_>
      -298. -28. -13. -226. -288. -261. -343. -10. -3. 81. 116. 117.
      -230. -2. -11. 268. 354. 353.</_>
    <_>
      85. 344. -53. 427. 300. 271. 54. 148. 9. 80. -20. -125. 35. 23.
      11. -333. -377. -395.</_>
    <_>
      344. -53. -366. 300. 271. 408. 148. 9. -163. -20. -125. 3. 23. 11.
      -12. -377. -395. -370.</_>
    <_>
      -53. -366. -170. 271. 408. 396. 9. -163. -232. -125. 3. 156. 11.
      -12. -89. -395. -370. -229.</_>
    <_>
      -366. -170. -172. 408. 396. 174. -163. -232. -342. 3. 156. 146.
      -12. -89. -276. -370. -229. -10.</_>
    <_>
      -367. -42. -27. 123. 80. 39. -281. -58. -32. 275. 388. 408. -17.
      0. -13. 255. 464. 521.</_>
    <_>
      -27. 203. 368. 39. -5. -18. -32. 75. 259. 408. 319. 95. -13. -169.
      18. 521. 385. 124.</_>
    <_>
      -322. -340. -25. 14. 40. 49. -277. -148. 119. 23. 234. 561. -149.
      156. 286. 81. 302. 446.</_>
    <_>
      -340. -25. 67. 40. 49. 41. -148. 119. 48. 234. 561. 694. 156. 286.
      7. 302. 446. 439.</_>
    <_>
      -25. 67. 67. 49. 41. 15. 119. 48. 22. 561. 694. 656. 286. 7. -11.
      446. 439. 403.</_>
    <_>
      67. 67. -66. 41. 15. -18. 48. 22. -63. 694. 656. 647. 7. -11. -29.
      439. 403. 413.</_>
    <_>
      67. -66. 27. 15. -18. -11. 22. -63. 36. 656. 647. 652. -11. -29.
      11. 403. 413. 417.</_>
    <_>
      132. -17. -111. 0. -9. 1. 36. -155. -181. 554. 329. 111. -126.
      -384. -293. 328. 162. 39.</_>
    <_>
      -43. 217. 202. -455. -535. -524. -183. 64. 130. -163. -376. -612.
      -238. -83. 66. 4. 15. 40.</_>
    <_>
      217. 202. -73. -535. -524. -421. 64. 130. 206. -376. -612. -508.
      -83. 66. 372. 15. 40. 38.</_>
    <_>
      202. -73. -73. -524. -421. -157. 130. 206. 250. -612. -508. -170.
      66. 372. 393. 40. 38. 9.</_>
    <_>
      -281. -58. -32. 275. 388. 408. -17. 0. -13. 255. 464. 521. 196.
      65. -26. 38. 107. 102.</_>
    <_>
      -277. -148. 119. 23. 234. 561. -149. 156. 286. 81. 302. 446. 22.
      234. 185. 66. 94. -73.</_>
    <_>
      -148. 119. 48. 234. 561. 694. 156. 286. 7. 302. 446. 439. 234.
      185. -29. 94. -73. -203.</_>
    <_>
      119. 48. 22. 561. 694. 656. 286. 7. -11. 446. 439. 403. 185. -29.
      -25. -73. -203. -217.</_>
    <_>
      48. 22. -63. 694. 656. 647. 7. -11. -29. 439. 403. 413. -29. -25.
      -11. -203. -217. -223.</_>
    <_>
      22. -63. 36. 656. 647. 652. -11. -29. 11. 403. 413. 417. -25. -11.
      -10. -217. -223. -230.</_>
    <_>
      36. 36. -155. 652. 554. 329. 11. -126. -384. 417. 328. 162. -10.
      -197. -417. -230. -233. -171.</_>
    <_>
      -155. -181. 101. 329. 111. 177. -384. -293. 361. 162. 39. 121.
      -417. -276. 423. -171. -64. -67.</_>
    <_>
      -181. 101. 82. 111. 177. 428. -293. 361. 317. 39. 121. 365. -276.
      423. 455. -64. -67. -111.</_>
    <_>
      101. 82. -112. 177. 428. 372. 361. 317. -219. 121. 365. 549. 423.
      455. -30. -67. -111. 32.</_>
    <_>
      82. -112. -53. 428. 372. 115. 317. -219. -118. 365. 549. 634. 455.
      -30. 2. -111. 32. 256.</_>
    <_>
      -112. -53. -1. 372. 115. 25. -219. -118. -64. 549. 634. 596. -30.
      2. -65. 32. 256. 413.</_>
    <_>
      64. 130. 206. -376. -612. -508. -83. 66. 372. 15. 40. 38. -47. 86.
      336. 39. 70. 56.</_>
    <_>
      130. 206. 250. -612. -508. -170. 66. 372. 393. 40. 38. 9. 86. 336.
      362. 70. 56. 18.</_>
    <_>
      206. 250. -81. -508. -170. -1. 372. 393. -56. 38. 9. 8. 336. 362.
      -38. 56. 18. 6.</_>
    <_>
      -384. -293. 361. 162. 39. 121. -417. -276. 423. -171. -64. -67.
      -366. -237. 377. 18. 1. -3.</_>
    <_>
      -293. 361. 317. 39. 121. 365. -276. 423. 455. -64. -67. -111.
      -237. 377. 441. 1. -3. -19.</_>
    <_>
      361. 317. -219. 121. 365. 549. 423. 455. -30. -67. -111. 32. 377.
      441. 36. -3. -19. -110.</_>
    <_>
      317. -219. -118. 365. 549. 634. 455. -30. 2. -111. 32. 256. 441.
      36. 47. -19. -110. -223.</_>
    <_>
      -197. -417. -276. -233. -171. -64. -200. -366. -237. 32. 18. 1.
      -203. -387. -253. 33. 23. 3.</_>
    <_>
      -128. -268. -155. -278. -118. -17. 18. -263. -194. 198. 189. 54.
      -4. -497. -280. 460. 213. 28.</_>
    <_>
      -344. -325. -16. -2. 15. 50. -178. -138. -1. 156. 492. 659. 117.
      156. -18. 131. 384. 494.</_>
    <_>
      -325. -16. 41. 15. 50. 69. -138. -1. -41. 492. 659. 573. 156. -18.
      -128. 384. 494. 476.</_>
    <_>
      41. 35. 21. 69. 65. 53. -41. -47. 63. 573. 413. 385. -128. -113.
      120. 476. 483. 502.</_>
    <_>
      35. 21. 12. 65. 53. 44. -47. 63. 79. 413. 385. 503. -113. 120.
      154. 483. 502. 516.</_>
    <_>
      12. 277. 267. 44. 27. -1. 79. 120. 99. 503. 430. 133. 154. -159.
      -190. 516. 385. 114.</_>
    <_>
      86. 18. -263. 44. 198. 189. 251. -4. -497. 471. 460. 213. 281.
      -230. -620. 193. 8. -94.</_>
    <_>
      18. -263. -194. 198. 189. 54. -4. -497. -280. 460. 213. 28. -230.
      -620. -282. 8. -94. -34.</_>
    <_>
      -178. -138. -1. 156. 492. 659. 117. 156. -18. 131. 384. 494. 209.
      244. -56. -25. -98. -158.</_>
    <_>
      -138. -1. -41. 492. 659. 573. 156. -18. -128. 384. 494. 476. 244.
      -56. -128. -98. -158. -178.</_>
    <_>
      -1. -41. -47. 659. 573. 413. -18. -128. -113. 494. 476. 483. -56.
      -128. 2. -158. -178. -70.</_>
    <_>
      63. 79. 120. 385. 503. 430. 120. 154. -159. 502. 516. 385. 157.
      104. -304. 63. 36. -28.</_>
    <_>
      -22. 79. 251. 240. 305. 471. -46. 259. 281. 58. 149. 193. 24. 383.
      88. 86. 189. 76.</_>
    <_>
      251. -4. -497. 471. 460. 213. 281. -230. -620. 193. 8. -94. 88.
      -387. -526. 76. -89. -50.</_>
    <_>
      -4. -497. -280. 460. 213. 28. -230. -620. -282. 8. -94. -34. -387.
      -526. -259. -89. -50. 7.</_>
    <_>
      -497. -280. 5. 213. 28. -1. -620. -282. 13. -94. -34. 1. -526.
      -259. 20. -50. 7. 2.</_>
    <_>
      -113. 120. 154. 483. 502. 516. 2. 157. 104. -70. 63. 36. 84. 192.
      68. -64. -80. -54.</_>
    <_>
      281. -230. -620. 193. 8. -94. 88. -387. -526. 76. -89. -50. -138.
      -360. -447. -40. -74. -7.</_>
    <_>
      -230. -620. -282. 8. -94. -34. -387. -526. -259. -89. -50. 7.
      -360. -447. -271. -74. -7. 3.</_>
    <_>
      106. 160. -8. -64. -178. -154. -104. -30. 109. -142. -428. -525.
      -336. -285. 82. -78. -279. -464.</_>
    <_>
      84. 192. 68. -64. -80. -54. 32. 113. 60. -352. -467. -580. 18. 30.
      17. -572. -554. -567.</_>
    <_>
      192. 68. -296. -80. -54. -18. 113. 60. -131. -467. -580. -459. 30.
      17. 155. -554. -567. -445.</_>
    <_>
      68. -296. -334. -54. -18. -34. 60. -131. -243. -580. -459. -187.
      17. 155. 31. -567. -445. -157.</_>
    <_>
      -104. -30. 109. -142. -428. -525. -336. -285. 82. -78. -279. -464.
      -432. -419. -16. 4. -25. -72.</_>
    <_>
      -30. 109. -5. -428. -525. -401. -285. 82. 48. -279. -464. -562.
      -419. -16. 11. -25. -72. -109.</_>
    <_>
      32. 113. 60. -352. -467. -580. 18. 30. 17. -572. -554. -567. 59.
      79. 21. -95. -23. 43.</_>
    <_>
      113. 60. -131. -467. -580. -459. 30. 17. 155. -554. -567. -445.
      79. 21. 272. -23. 43. 42.</_>
    <_>
      -336. -285. 82. -78. -279. -464. -432. -419. -16. 4. -25. -72.
      -437. -440. -41. 3. 6. 7.</_>
    <_>
      -285. 82. 48. -279. -464. -562. -419. -16. 11. -25. -72. -109.
      -440. -41. 19. 6. 7. 27.</_>
    <_>
      -127. -144. -247. 49. 70. 15. 55. -285. -343. 251. 271. 89. 259.
      -444. -529. 255. 280. 117.</_>
    <_>
      -183. 55. -285. 43. 251. 271. -21. 259. -444. 97. 255. 280. 99.
      328. -521. -15. 16. -17.</_>
    <_>
      55. -285. -343. 251. 271. 89. 259. -444. -529. 255. 280. 117. 328.
      -521. -609. 16. -17. -11.</_>
    <_>
      -285. -343. 22. 271. 89. 2. -444. -529. 13. 280. 117. 9. -521.
      -609. 5. -17. -11. 9.</_>
    <_>
      -445. -388. 458. 17. 8. 2. -442. -400. 458. 16. 16. 10. -438.
      -411. 460. 6. -1. -4.</_>
    <_>
      -21. 259. -444. 97. 255. 280. 99. 328. -521. -15. 16. -17. 204.
      201. -555. 42. -11. -139.</_>
    <_>
      259. -444. -529. 255. 280. 117. 328. -521. -609. 16. -17. -11.
      201. -555. -509. -11. -139. -79.</_>
    <_>
      -444. -529. 13. 280. 117. 9. -521. -609. 5. -17. -11. 9. -555.
      -509. 4. -139. -79. 0.</_>
    <_>
      -379. -90. 149. 43. 52. 33. -256. -43. 19. 238. 399. 335. 6. 36.
      -240. 368. 548. 432.</_>
    <_>
      -94. -139. 76. -68. -185. -174. -5. -169. -2. 147. 323. 204. 307.
      -44. -293. 167. 428. 381.</_>
    <_>
      -139. 76. 182. -185. -174. -54. -169. -2. 219. 323. 204. 43. -44.
      -293. 122. 428. 381. 154.</_>
    <_>
      -442. -400. 458. 16. 16. 10. -438. -411. 460. 6. -1. -4. -437.
      -425. 465. 9. 3. -3.</_>
    <_>
      328. -521. -609. 16. -17. -11. 201. -555. -509. -11. -139. -79.
      34. -603. -426. 102. 15. -10.</_>
    <_>
      -521. -609. 5. -17. -11. 9. -555. -509. 4. -139. -79. 0. -603.
      -426. 3. 15. -10. -7.</_>
    <_>
      -256. -43. 19. 238. 399. 335. 6. 36. -240. 368. 548. 432. 233. 45.
      -425. 141. 197. 137.</_>
    <_>
      -43. 19. 57. 399. 335. 107. 36. -240. -196. 548. 432. 148. 45.
      -425. -374. 197. 137. 58.</_>
    <_>
      19. 57. -5. 335. 107. 147. -240. -196. 307. 432. 148. 167. -425.
      -374. 482. 137. 58. 36.</_>
    <_>
      -5. -169. -2. 147. 323. 204. 307. -44. -293. 167. 428. 381. 482.
      204. -468. 36. 198. 318.</_>
    <_>
      -169. -2. 219. 323. 204. 43. -44. -293. 122. 428. 381. 154. 204.
      -468. -81. 198. 318. 167.</_>
    <_>
      -438. -411. 460. 6. -1. -4. -437. -425. 465. 9. 3. -3. -433. -435.
      463. 13. 13. 7.</_>
    <_>
      -411. 460. 468. -1. -4. 4. -425. 465. 474. 3. -3. 0. -435. 463.
      473. 13. 7. 1.</_>
    <_>
      204. 201. -555. 42. -11. -139. 312. 34. -603. 108. 102. 15. 360.
      -26. -626. 12. 6. 10.</_>
    <_>
      201. -555. -509. -11. -139. -79. 34. -603. -426. 102. 15. -10.
      -26. -626. -433. 6. 10. 5.</_>
    <_>
      -555. -509. 4. -139. -79. 0. -603. -426. 3. 15. -10. -7. -626.
      -433. 5. 10. 5. -3.</_>
    <_>
      6. 36. -240. 368. 548. 432. 233. 45. -425. 141. 197. 137. 338. 35.
      -463. -40. -1. 11.</_>
    <_>
      -240. -196. 307. 432. 148. 167. -425. -374. 482. 137. 58. 36.
      -463. -413. 496. 11. 13. 10.</_>
    <_>
      -196. 307. -44. 148. 167. 428. -374. 482. 204. 58. 36. 198. -413.
      496. 401. 13. 10. 59.</_>
    <_>
      307. -44. -293. 167. 428. 381. 482. 204. -468. 36. 198. 318. 496.
      401. -407. 10. 59. 197.</_>
    <_>
      -44. -293. 122. 428. 381. 154. 204. -468. -81. 198. 318. 167. 401.
      -407. -254. 59. 197. 236.</_>
    <_>
      -293. 122. 154. 381. 154. 100. -468. -81. 185. 318. 167. 49. -407.
      -254. 105. 197. 236. 101.</_>
    <_>
      -403. -375. 36. 11. 17. 30. -326. -275. 120. 72. 243. 414. -77.
      -31. 168. 169. 491. 612.</_>
    <_>
      -375. 36. 52. 17. 30. 40. -275. 120. 125. 243. 414. 561. -31. 168.
      99. 491. 612. 487.</_>
    <_>
      36. 52. 43. 30. 40. 45. 120. 125. 57. 414. 561. 643. 168. 99. 26.
      612. 487. 348.</_>
    <_>
      52. 43. 45. 40. 45. 47. 125. 57. 32. 561. 643. 642. 99. 26. 98.
      487. 348. 384.</_>
    <_>
      43. 45. 49. 45. 47. 49. 57. 32. 41. 643. 642. 619. 26. 98. 44.
      348. 384. 476.</_>
    <_>
      -437. -425. 465. 9. 3. -3. -433. -435. 463. 13. 13. 7. -431. -441.
      459. 9. 5. 1.</_>
    <_>
      -425. 465. 474. 3. -3. 0. -435. 463. 473. 13. 7. 1. -441. 459.
      470. 5. 1. 0.</_>
    <_>
      312. 34. -603. 108. 102. 15. 360. -26. -626. 12. 6. 10. 304. -9.
      -577. -60. -93. -31.</_>
    <_>
      34. -603. -426. 102. 15. -10. -26. -626. -433. 6. 10. 5. -9. -577.
      -450. -93. -31. 6.</_>
    <_>
      -603. -426. 3. 15. -10. -7. -626. -433. 5. 10. 5. -3. -577. -450.
      9. -31. 6. 1.</_>
    <_>
      -425. -374. 482. 137. 58. 36. -463. -413. 496. 11. 13. 10. -408.
      -353. 467. -170. -57. -23.</_>
    <_>
      -374. 482. 204. 58. 36. 198. -413. 496. 401. 13. 10. 59. -353.
      467. 467. -57. -23. -35.</_>
    <_>
      482. 204. -468. 36. 198. 318. 496. 401. -407. 10. 59. 197. 467.
      467. -204. -23. -35. 96.</_>
    <_>
      204. -468. -81. 198. 318. 167. 401. -407. -254. 59. 197. 236. 467.
      -204. -318. -35. 96. 196.</_>
    <_>
      -326. -275. 120. 72. 243. 414. -77. -31. 168. 169. 491. 612. 158.
      150. 61. 58. 152. 105.</_>
    <_>
      -275. 120. 125. 243. 414. 561. -31. 168. 99. 491. 612. 487. 150.
      61. -10. 152. 105. 14.</_>
    <_>
      120. 125. 57. 414. 561. 643. 168. 99. 26. 612. 487. 348. 61. -10.
      -24. 105. 14. -6.</_>
    <_>
      125. 57. 32. 561. 643. 642. 99. 26. 98. 487. 348. 384. -10. -24.
      132. 14. -6. -58.</_>
    <_>
      57. 32. 41. 643. 642. 619. 26. 98. 44. 348. 384. 476. -24. 132.
      63. -6. -58. -97.</_>
    <_>
      32. 41. -32. 642. 619. 438. 98. 44. -338. 384. 476. 354. 132. 63.
      -447. -58. -97. -65.</_>
    <_>
      -433. -435. 463. 13. 13. 7. -431. -441. 459. 9. 5. 1. -432. -445.
      456. 6. 5. 2.</_>
    <_>
      -435. 463. 473. 13. 7. 1. -441. 459. 470. 5. 1. 0. -445. 456. 470.
      5. 2. 0.</_>
    <_>
      -26. -626. -433. 6. 10. 5. -9. -577. -450. -93. -31. 6. 33. -505.
      -460. -69. -17. 8.</_>
    <_>
      -341. 264. 338. -81. -86. -40. -338. 257. 327. -104. -103. -167.
      -194. 124. 119. -146. -136. -413.</_>
    <_>
      338. 35. -463. -40. -1. 11. 327. 37. -408. -167. -215. -170. 119.
      -16. -188. -413. -626. -504.</_>
    <_>
      35. -463. -413. -1. 11. 13. 37. -408. -353. -215. -170. -57. -16.
      -188. -127. -626. -504. -171.</_>
    <_>
      -463. -413. 496. 11. 13. 10. -408. -353. 467. -170. -57. -23.
      -188. -127. 401. -504. -171. -45.</_>
    <_>
      -413. 496. 401. 13. 10. 59. -353. 467. 467. -57. -23. -35. -127.
      401. 448. -171. -45. -118.</_>
    <_>
      401. -407. -254. 59. 197. 236. 467. -204. -318. -35. 96. 196. 448.
      -34. -301. -118. -98. -11.</_>
    <_>
      -431. -441. 459. 9. 5. 1. -432. -445. 456. 6. 5. 2. -430. -448.
      452. 6. 6. 2.</_>
    <_>
      327. 37. -408. -167. -215. -170. 119. -16. -188. -413. -626. -504.
      -137. -81. 69. -221. -329. -259.</_>
    <_>
      37. -408. -353. -215. -170. -57. -16. -188. -127. -626. -504.
      -171. -81. 69. 119. -329. -259. -89.</_>
    <_>
      -408. -353. 467. -170. -57. -23. -188. -127. 401. -504. -171. -45.
      69. 119. 272. -259. -89. -98.</_>
    <_>
      -353. 467. 467. -57. -23. -35. -127. 401. 448. -171. -45. -118.
      119. 272. 405. -89. -98. -197.</_>
    <_>
      -432. -445. 456. 6. 5. 2. -430. -448. 452. 6. 6. 2. -427. -455.
      449. 9. 5. -1.</_>
    <_>
      -427. 165. 218. -1. 85. 278. -438. 250. 341. 2. -10. 5. -454. 133.
      282. 20. -101. -292.</_>
    <_>
      119. -16. -188. -413. -626. -504. -137. -81. 69. -221. -329. -259.
      -196. -86. 125. 48. 92. 73.</_>
    <_>
      -127. 401. 448. -171. -45. -118. 119. 272. 405. -89. -98. -197.
      176. 120. 349. 16. -70. -179.</_>
    <_>
      -430. -448. 452. 6. 6. 2. -427. -455. 449. 9. 5. -1. -425. -462.
      447. 3. 2. -1.</_>
    <_>
      -448. 452. 470. 6. 2. 0. -455. 449. 470. 5. -1. -2. -462. 447.
      469. 2. -1. -3.</_>
    <_>
      -40. 255. 403. -2. -1. -9. -44. 262. 396. -50. -48. -40. -33. 165.
      222. 635. 547. 268.</_>
    <_>
      -438. 250. 341. 2. -10. 5. -454. 133. 282. 20. -101. -292. -466.
      16. 187. 18. 10. -11.</_>
    <_>
      58. -22. 22. -78. -272. -384. -159. -252. -3. -131. -384. -527.
      -338. -402. -51. -54. -130. -185.</_>
    <_>
      -22. 22. 15. -272. -384. -371. -252. -3. 100. -384. -527. -480.
      -402. -51. 80. -130. -185. -300.</_>
    <_>
      15. 60. 176. -371. -322. -262. 100. 96. 87. -480. -408. -521. 80.
      58. 19. -300. -430. -423.</_>
    <_>
      60. 176. 34. -322. -262. -254. 96. 87. 0. -408. -521. -652. 58.
      19. 23. -430. -423. -337.</_>
    <_>
      176. 34. -342. -262. -254. -202. 87. 0. -101. -521. -652. -497.
      19. 23. 149. -423. -337. -219.</_>
    <_>
      34. -342. -240. -254. -202. -82. 0. -101. -38. -652. -497. -174.
      23. 149. 179. -337. -219. -75.</_>
    <_>
      -427. -455. 449. 9. 5. -1. -425. -462. 447. 3. 2. -1. -423. -465.
      446. -1. -1. -2.</_>
    <_>
      -455. 449. 470. 5. -1. -2. -462. 447. 469. 2. -1. -3. -465. 446.
      468. -1. -2. -2.</_>
    <_>
      -44. 262. 396. -50. -48. -40. -33. 165. 222. 635. 547. 268. -27.
      45. 42. 319. 293. 272.</_>
    <_>
      -159. -252. -3. -131. -384. -527. -338. -402. -51. -54. -130.
      -185. -376. -425. -82. -6. 9. 10.</_>
    <_>
      -252. -3. 100. -384. -527. -480. -402. -51. 80. -130. -185. -300.
      -425. -82. 3. 9. 10. 17.</_>
    <_>
      87. 0. -101. -521. -652. -497. 19. 23. 149. -423. -337. -219. 81.
      66. 194. 93. 112. 82.</_>
    <_>
      -425. -462. 447. 3. 2. -1. -423. -465. 446. -1. -1. -2. -423.
      -469. 445. 7. 3. -1.</_>
    <_>
      -462. 447. 469. 2. -1. -3. -465. 446. 468. -1. -2. -2. -469. 445.
      469. 3. -1. -1.</_>
    <_>
      -423. -465. 446. -1. -1. -2. -423. -469. 445. 7. 3. -1. -413.
      -462. 426. -31. -10. -18.</_>
    <_>
      -465. 446. 468. -1. -2. -2. -469. 445. 469. 3. -1. -1. -462. 426.
      456. -10. -18. -50.</_>
    <_>
      216. -414. -435. -8. 2. 19. 230. -395. -405. -20. 3. 35. 172.
      -197. -206. 52. 169. 534.</_>
    <_>
      -414. -435. 7. 2. 19. 35. -395. -405. 26. 3. 35. 68. -197. -206.
      46. 169. 534. 720.</_>
    <_>
      -435. 7. 7. 19. 35. 37. -405. 26. 1. 35. 68. 79. -206. 46. -2.
      534. 720. 726.</_>
    <_>
      7. 7. 9. 35. 37. 35. 26. 1. 6. 68. 79. 72. 46. -2. -17. 720. 726.
      707.</_>
    <_>
      7. 9. 17. 37. 35. 37. 1. 6. 23. 79. 72. 73. -2. -17. 19. 726. 707.
      679.</_>
    <_>
      17. 15. 226. 37. 37. 22. 23. 11. 185. 73. 75. 45. 19. 12. 17. 679.
      674. 537.</_>
    <_>
      15. 226. 383. 37. 22. -15. 11. 185. 338. 75. 45. -4. 12. 17. 146.
      674. 537. 226.</_>
    <_>
      -404. 13. 181. 24. 29. 9. -365. 36. 157. 67. 124. 143. -181. 46.
      109. 457. 594. 537.</_>
    <_>
      13. 181. 383. 29. 9. -13. 36. 157. 353. 124. 143. 111. 46. 109.
      218. 594. 537. 386.</_>
    <_>
      -395. -405. 26. 3. 35. 68. -197. -206. 46. 169. 534. 720. 117. 17.
      36. 125. 297. 324.</_>
    <_>
      -405. 26. 1. 35. 68. 79. -206. 46. -2. 534. 720. 726. 17. 36. 58.
      297. 324. 368.</_>
    <_>
      26. 1. 6. 68. 79. 72. 46. -2. -17. 720. 726. 707. 36. 58. -21.
      324. 368. 443.</_>
    <_>
      1. 6. 23. 79. 72. 73. -2. -17. 19. 726. 707. 679. 58. -21. 31.
      368. 443. 479.</_>
    <_>
      6. 23. 11. 72. 73. 75. -17. 19. 12. 707. 679. 674. -21. 31. 23.
      443. 479. 507.</_>
    <_>
      23. 11. 185. 73. 75. 45. 19. 12. 17. 679. 674. 537. 31. 23. -236.
      479. 507. 402.</_>
    <_>
      11. 185. 338. 75. 45. -4. 12. 17. 146. 674. 537. 226. 23. -236.
      -167. 507. 402. 147.</_>
    <_>
      -351. -365. 36. 9. 67. 124. -170. -181. 46. 150. 457. 594. 137.
      91. -3. 131. 403. 489.</_>
    <_>
      -365. 36. 157. 67. 124. 143. -181. 46. 109. 457. 594. 537. 91. -3.
      19. 403. 489. 407.</_>
    <_>
      36. 157. 353. 124. 143. 111. 46. 109. 218. 594. 537. 386. -3. 19.
      28. 489. 407. 278.</_>
    <_>
      -413. -462. 426. -31. -10. -18. -377. -414. 378. -71. -8. 0. -258.
      -270. 254. 40. 240. 252.</_>
    <_>
      -462. 426. 456. -10. -18. -50. -414. 378. 404. -8. 0. -68. -270.
      254. 263. 240. 252. 55.</_>
    <_>
      -197. -206. 46. 169. 534. 720. 117. 17. 36. 125. 297. 324. 251.
      -40. -50. 13. -82. -252.</_>
    <_>
      -206. 46. -2. 534. 720. 726. 17. 36. 58. 297. 324. 368. -40. -50.
      171. -82. -252. -269.</_>
    <_>
      46. -2. -17. 720. 726. 707. 36. 58. -21. 324. 368. 443. -50. 171.
      12. -252. -269. -198.</_>
    <_>
      -2. -17. 19. 726. 707. 679. 58. -21. 31. 368. 443. 479. 171. 12.
      51. -269. -198. -181.</_>
    <_>
      -17. 19. 12. 707. 679. 674. -21. 31. 23. 443. 479. 507. 12. 51.
      20. -198. -181. -192.</_>
    <_>
      19. 12. 17. 679. 674. 537. 31. 23. -236. 479. 507. 402. 51. 20.
      -257. -181. -192. -111.</_>
    <_>
      12. 17. 146. 674. 537. 226. 23. -236. -167. 507. 402. 147. 20.
      -257. -225. -192. -111. 65.</_>
    <_>
      -434. -476. -21. 10. 18. 19. -378. -404. 0. 60. 180. 272. -226.
      -221. 28. 122. 337. 456.</_>
    <_>
      -476. -21. 23. 18. 19. 17. -404. 0. 35. 180. 272. 307. -221. 28.
      40. 337. 456. 454.</_>
    <_>
      -106. 14. 230. -226. -348. -260. -179. -9. 268. 297. 323. 250.
      -51. -5. 131. 287. 393. 333.</_>
    <_>
      14. 230. 199. -348. -260. -91. -9. 268. 224. 323. 250. 144. -5.
      131. 104. 393. 333. 182.</_>
    <_>
      -354. -403. -59. 6. 15. 39. -267. -296. -31. 223. 408. 519. -95.
      -101. -12. 149. 331. 434.</_>
    <_>
      -403. -59. 50. 15. 39. 56. -296. -31. 33. 408. 519. 513. -101.
      -12. 7. 331. 434. 433.</_>
    <_>
      -377. -414. 378. -71. -8. 0. -258. -270. 254. 40. 240. 252. -88.
      -80. 81. -46. 114. 119.</_>
    <_>
      -414. 378. 404. -8. 0. -68. -270. 254. 263. 240. 252. 55. -80. 81.
      78. 114. 119. -42.</_>
    <_>
      25. -111. -492. -279. -85. -6. 265. 33. -514. -239. -49. -6. 404.
      36. -473. 80. 32. 33.</_>
    <_>
      -404. 0. 35. 180. 272. 307. -221. 28. 40. 337. 456. 454. -57. 12.
      15. 79. 108. 69.</_>
    <_>
      -296. -31. 33. 408. 519. 513. -101. -12. 7. 331. 434. 433. -1. 3.
      1. -247. -235. -225.</_>
    <_>
      265. 33. -514. -239. -49. -6. 404. 36. -473. 80. 32. 33. 311. -47.
      -268. 127. -1. 120.</_>
    <_>
      -514. -266. 69. -6. -42. -67. -473. -229. 75. 33. 147. 215. -268.
      -102. 71. 120. 338. 393.</_>
    <_>
      -396. -89. -4. -4. 9. 22. -292. -60. 2. 320. 440. 462. -106. -20.
      -2. 240. 346. 360.</_>
    <_>
      -286. -6. 161. 296. 364. 303. -105. -10. 51. 183. 292. 239. -7. 1.
      -3. -277. -277. -267.</_>
    <_>
      -221. 28. 40. 337. 456. 454. -57. 12. 15. 79. 108. 69. -5. -5. -7.
      -239. -233. -233.</_>
    <_>
      -292. -60. 2. 320. 440. 462. -106. -20. -2. 240. 346. 360. -13.
      -9. -10. -179. -181. -192.</_>
    <_>
      -12. 7. -13. -224. -217. -215. 71. 28. -19. 385. 482. 495. 214.
      72. -33. 430. 520. 537.</_>
    <_>
      7. -13. -21. -217. -215. -213. 28. -19. -82. 482. 495. 426. 72.
      -33. -215. 520. 537. 459.</_>
    <_>
      5. 17. 9. -107. -95. -81. 93. 106. 2. 353. 518. 586. 265. 285.
      -18. 293. 479. 570.</_>
    <_>
      17. 9. 2. -95. -81. -72. 106. 2. 4. 518. 586. 572. 285. -18. 1.
      479. 570. 561.</_>
    <_>
      9. 2. -19. -81. -72. -69. 2. 4. -11. 586. 572. 579. -18. 1. -3.
      570. 561. 559.</_>
    <_>
      2. -19. -45. -72. -69. -81. 4. -11. -90. 572. 579. 554. 1. -3.
      -141. 561. 559. 541.</_>
    <_>
      -19. -45. -29. -69. -81. -121. -11. -90. -184. 579. 554. 394. -3.
      -141. -412. 559. 541. 422.</_>
    <_>
      -45. -29. 6. -81. -121. -146. -90. -184. -48. 554. 394. 210. -141.
      -412. -174. 541. 422. 252.</_>
    <_>
      6. -13. -9. -238. -219. -201. 32. 137. 131. -70. 87. 359. 97. 370.
      337. 127. 268. 435.</_>
    <_>
      -13. -9. 17. -219. -201. -187. 137. 131. 22. 87. 359. 490. 370.
      337. 19. 268. 435. 507.</_>
    <_>
      -9. 17. -1. -201. -187. -183. 131. 22. -9. 359. 490. 483. 337. 19.
      -6. 435. 507. 514.</_>
    <_>
      28. -19. -82. 482. 495. 426. 72. -33. -215. 520. 537. 459. 98.
      -38. -289. 4. 8. 7.</_>
    <_>
      -19. -82. -60. 495. 426. 316. -33. -215. -163. 537. 459. 333. -38.
      -289. -226. 8. 7. -4.</_>
    <_>
      -60. 42. 48. 316. 314. 406. -163. 135. 127. 333. 325. 405. -226.
      180. 155. -4. -14. -21.</_>
    <_>
      8. 93. 106. 270. 353. 518. 10. 265. 285. 202. 293. 479. 36. 339.
      377. 74. 83. 63.</_>
    <_>
      93. 106. 2. 353. 518. 586. 265. 285. -18. 293. 479. 570. 339. 377.
      -22. 83. 63. 60.</_>
    <_>
      106. 2. 4. 518. 586. 572. 285. -18. 1. 479. 570. 561. 377. -22.
      -4. 63. 60. 60.</_>
    <_>
      2. 4. -11. 586. 572. 579. -18. 1. -3. 570. 561. 559. -22. -4. -3.
      60. 60. 57.</_>
    <_>
      4. -11. -90. 572. 579. 554. 1. -3. -141. 561. 559. 541. -4. -3.
      -152. 60. 57. 64.</_>
    <_>
      -11. -90. -184. 579. 554. 394. -3. -141. -412. 559. 541. 422. -3.
      -152. -508. 57. 64. 76.</_>
    <_>
      -90. -184. -48. 554. 394. 210. -141. -412. -174. 541. 422. 252.
      -152. -508. -261. 64. 76. 63.</_>
    <_>
      98. 104. 84. 316. 494. 594. 265. 293. 71. 225. 403. 479. 346. 401.
      54. 8. 19. 34.</_>
    <_>
      104. 84. 12. 494. 594. 600. 293. 71. 1. 403. 479. 449. 401. 54.
      -10. 19. 34. 36.</_>
    <_>
      137. 131. 22. 87. 359. 490. 370. 337. 19. 268. 435. 507. 412. 359.
      7. 176. 73. 11.</_>
    <_>
      131. 22. -9. 359. 490. 483. 337. 19. -6. 435. 507. 514. 359. 7.
      11. 73. 11. 9.</_>
    <_>
      19. -77. -159. 465. 435. 249. 72. -171. -410. 446. 435. 276. 85.
      -195. -493. -23. -23. 29.</_>
    <_>
      -3. -141. -412. 559. 541. 422. -3. -152. -508. 57. 64. 76. -5.
      -136. -501. 11. 18. 29.</_>
    <_>
      -141. -412. -174. 541. 422. 252. -152. -508. -261. 64. 76. 63.
      -136. -501. -293. 18. 29. 17.</_>
    <_>
      -412. -174. 143. 422. 252. 163. -508. -261. 105. 76. 63. 27. -501.
      -293. 78. 29. 17. -6.</_>
    <_>
      143. 265. 293. 163. 225. 403. 105. 346. 401. 27. 8. 19. 78. 344.
      416. -6. -16. -14.</_>
    <_>
      226. 159. -69. 252. 401. 299. 393. 125. -338. 289. 273. 72. 378.
      75. -483. 64. 15. 21.</_>
    <_>
      242. -20. -400. 252. 388. 254. 424. 25. -551. -54. 37. 65. 481.
      63. -514. -7. -3. 44.</_>
    <_>
      82. 13. -189. 278. 427. 361. 284. 135. -407. 190. 365. 335. 390.
      218. -482. -4. 10. 48.</_>
    <_>
      -189. -143. 149. 361. 141. 97. -407. -302. 218. 335. 178. 132.
      -482. -336. 205. 48. 96. 95.</_>
    <_>
      -264. 94. -7. 270. 484. 399. -82. 137. -195. 146. 157. 97. -179.
      23. -118. -149. -371. -348.</_>
    <_>
      284. 135. -407. 190. 365. 335. 390. 218. -482. -4. 10. 48. 374.
      245. -424. 12. 9. 56.</_>
    <_>
      -407. -302. 218. 335. 178. 132. -482. -336. 205. 48. 96. 95. -424.
      -311. 146. 56. 91. 58.</_>
    <_>
      127. 226. -343. -289. -74. -1. 319. 334. -338. -131. -46. -6. 333.
      347. -327. 73. 15. -1.</_>
    <_>
      321. 472. 214. 37. 106. 118. 377. 559. 136. 33. 107. 104. 426.
      610. 36. 22. 48. 2.</_>
    <_>
      32. 240. 312. 34. 26. 4. 59. 247. 256. 133. 175. 148. 66. 182.
      165. 578. 478. 349.</_>
    <_>
      63. 377. 559. 5. 33. 107. 66. 426. 610. -2. 22. 48. 71. 466. 570.
      -1. 20. -6.</_>
    <_>
      377. 559. 136. 33. 107. 104. 426. 610. 36. 22. 48. 2. 466. 570.
      -49. 20. -6. -85.</_>
    <_>
      -101. -92. 36. 29. 60. 68. 96. 87. 25. 186. 531. 691. 424. 381.
      -82. 154. 431. 458.</_>
    <_>
      -92. 36. 39. 60. 68. 65. 87. 25. 36. 531. 691. 680. 381. -82. -76.
      431. 458. 250.</_>
    <_>
      36. 39. 23. 68. 65. 69. 25. 36. 29. 691. 680. 679. -82. -76. 96.
      458. 250. 206.</_>
    <_>
      39. 23. 5. 65. 69. 73. 36. 29. 2. 680. 679. 678. -76. 96. 102.
      250. 206. 374.</_>
    <_>
      23. 5. 20. 69. 73. 70. 29. 2. 1. 679. 678. 659. 96. 102. -8. 206.
      374. 484.</_>
    <_>
      5. 20. 36. 73. 70. 60. 2. 1. 21. 678. 659. 635. 102. -8. 7. 374.
      484. 485.</_>
    <_>
      20. 36. -17. 70. 60. 51. 1. 21. -130. 659. 635. 516. -8. 7. -338.
      484. 485. 382.</_>
    <_>
      36. -17. -19. 60. 51. 45. 21. -130. -171. 635. 516. 257. 7. -338.
      -438. 485. 382. 166.</_>
    <_>
      -30. 20. 59. 62. 94. 133. 127. 42. 66. 441. 588. 578. 387. 32. 43.
      369. 472. 449.</_>
    <_>
      20. 59. 247. 94. 133. 175. 42. 66. 182. 588. 578. 478. 32. 43. 23.
      472. 449. 367.</_>
    <_>
      59. 247. 256. 133. 175. 148. 66. 182. 165. 578. 478. 349. 43. 23.
      52. 449. 367. 224.</_>
    <_>
      247. 256. -238. 175. 148. 56. 182. 165. -360. 478. 349. 228. 23.
      52. -419. 367. 224. 173.</_>
    <_>
      66. 426. 610. -2. 22. 48. 71. 466. 570. -1. 20. -6. 72. 485. 488.
      -4. -5. -42.</_>
    <_>
      426. 610. 36. 22. 48. 2. 466. 570. -49. 20. -6. -85. 485. 488.
      -109. -5. -42. -105.</_>
    <_>
      22. 96. 87. 2. 186. 531. 30. 424. 381. 2. 154. 431. 29. 536. 431.
      -1. -42. -157.</_>
    <_>
      96. 87. 25. 186. 531. 691. 424. 381. -82. 154. 431. 458. 536. 431.
      -297. -42. -157. -349.</_>
    <_>
      87. 25. 36. 531. 691. 680. 381. -82. -76. 431. 458. 250. 431.
      -297. -160. -157. -349. -440.</_>
    <_>
      25. 36. 29. 691. 680. 679. -82. -76. 96. 458. 250. 206. -297.
      -160. 267. -349. -440. -309.</_>
    <_>
      36. 29. 2. 680. 679. 678. -76. 96. 102. 250. 206. 374. -160. 267.
      231. -440. -309. -177.</_>
    <_>
      29. 2. 1. 679. 678. 659. 96. 102. -8. 206. 374. 484. 267. 231. 17.
      -309. -177. -133.</_>
    <_>
      2. 1. 21. 678. 659. 635. 102. -8. 7. 374. 484. 485. 231. 17. 6.
      -177. -133. -110.</_>
    <_>
      1. 21. -130. 659. 635. 516. -8. 7. -338. 484. 485. 382. 17. 6.
      -423. -133. -110. -93.</_>
    <_>
      21. -130. -171. 635. 516. 257. 7. -338. -438. 485. 382. 166. 6.
      -423. -531. -110. -93. -55.</_>
    <_>
      -130. -171. -4. 516. 257. 64. -338. -438. -73. 382. 166. 23. -423.
      -531. -89. -93. -55. -21.</_>
    <_>
      126. 127. 42. 156. 441. 588. 398. 387. 32. 122. 369. 472. 519.
      506. 1. -17. -24. -39.</_>
    <_>
      127. 42. 66. 441. 588. 578. 387. 32. 43. 369. 472. 449. 506. 1.
      27. -24. -39. -63.</_>
    <_>
      71. 466. 570. -1. 20. -6. 72. 485. 488. -4. -5. -42. 67. 467. 437.
      -5. -27. -59.</_>
    <_>
      466. 570. -49. 20. -6. -85. 485. 488. -109. -5. -42. -105. 467.
      437. -179. -27. -59. -117.</_>
    <_>
      30. 424. 381. 2. 154. 431. 29. 536. 431. -1. -42. -157. 25. 467.
      321. -5. -37. -101.</_>
    <_>
      424. 381. -82. 154. 431. 458. 536. 431. -297. -42. -157. -349.
      467. 321. -338. -37. -101. -60.</_>
    <_>
      381. -82. -76. 431. 458. 250. 431. -297. -160. -157. -349. -440.
      321. -338. -25. -101. -60. 125.</_>
    <_>
      -82. -76. 96. 458. 250. 206. -297. -160. 267. -349. -440. -309.
      -338. -25. 332. -60. 125. 194.</_>
    <_>
      7. -338. -438. 485. 382. 166. 6. -423. -531. -110. -93. -55. 13.
      -399. -513. -1. 13. 17.</_>
    <_>
      -338. -438. -73. 382. 166. 23. -423. -531. -89. -93. -55. -21.
      -399. -513. -92. 13. 17. -2.</_>
    <_>
      13. 398. 387. -3. 122. 369. 12. 519. 506. -12. -17. -24. 18. 512.
      504. -8. -4. -6.</_>
    <_>
      398. 387. 32. 122. 369. 472. 519. 506. 1. -17. -24. -39. 512. 504.
      -4. -4. -6. 2.</_>
    <_>
      -235. 197. -327. 135. 47. 19. -282. 14. -309. 278. 136. -1. -220.
      -211. -376. 262. 241. 86.</_>
    <_>
      431. -297. -160. -157. -349. -440. 321. -338. -25. -101. -60. 125.
      324. -204. 57. -46. 50. 81.</_>
    <_>
      -297. -160. 267. -349. -440. -309. -338. -25. 332. -60. 125. 194.
      -204. 57. 252. 50. 81. 14.</_>
    <_>
      12. 519. 506. -12. -17. -24. 18. 512. 504. -8. -4. -6. 28. 504.
      505. 12. 10. 5.</_>
    <_>
      519. 506. 1. -17. -24. -39. 512. 504. -4. -4. -6. 2. 504. 505. 9.
      10. 5. 11.</_>
    <_>
      18. 512. 504. -8. -4. -6. 28. 504. 505. 12. 10. 5. 33. 367. 375.
      -5. -135. -397.</_>
    <_>
      512. 504. -4. -4. -6. 2. 504. 505. 9. 10. 5. 11. 367. 375. 119.
      -135. -397. -423.</_>
    <_>
      -211. -376. -338. 241. 86. 10. -284. -509. -329. 112. 61. 13.
      -219. -544. -408. 71. 152. 86.</_>
    <_>
      -204. 57. 252. 50. 81. 14. -85. 46. 180. -305. -228. -244. -8. 62.
      69. -486. -470. -549.</_>
    <_>
      252. 102. 45. 14. -28. -17. 180. 61. 44. -244. -315. -368. 69. 12.
      11. -549. -638. -667.</_>
    <_>
      102. 45. 14. -28. -17. -4. 61. 44. -6. -315. -368. -402. 12. 11.
      -27. -638. -667. -687.</_>
    <_>
      45. 14. -374. -17. -4. 8. 44. -6. -286. -368. -402. -346. 11. -27.
      -76. -667. -687. -554.</_>
    <_>
      14. -374. -520. -4. 8. 22. -6. -286. -412. -402. -346. -164. -27.
      -76. -134. -687. -554. -248.</_>
    <_>
      -374. -520. -111. 8. 22. 15. -286. -412. -93. -346. -164. -31.
      -76. -134. -40. -554. -248. -50.</_>
    <_>
      504. 505. 9. 10. 5. 11. 367. 375. 119. -135. -397. -423. 106. 214.
      331. -154. -314. -237.</_>
    <_>
      505. 9. -82. 5. 11. 14. 375. 119. 48. -397. -423. -186. 214. 331.
      216. -314. -237. -94.</_>
    <_>
      -284. -509. -329. 112. 61. 13. -219. -544. -408. 71. 152. 86. -74.
      -549. -581. 146. 205. 93.</_>
    <_>
      -509. -329. -37. 61. 13. 15. -544. -408. -41. 152. 86. 1. -549.
      -581. -45. 205. 93. 1.</_>
    <_>
      180. 61. 44. -244. -315. -368. 69. 12. 11. -549. -638. -667. 9.
      31. 29. -349. -301. -235.</_>
    <_>
      61. 44. -6. -315. -368. -402. 12. 11. -27. -638. -667. -687. 31.
      29. -1. -301. -235. -171.</_>
    <_>
      44. -6. -286. -368. -402. -346. 11. -27. -76. -667. -687. -554.
      29. -1. 104. -235. -171. -98.</_>
    <_>
      -6. -286. -412. -402. -346. -164. -27. -76. -134. -687. -554.
      -248. -1. 104. 63. -171. -98. -27.</_>
    <_>
      367. 375. 119. -135. -397. -423. 106. 214. 331. -154. -314. -237.
      -11. 297. 427. 7. 133. 235.</_>
    <_>
      375. 119. 48. -397. -423. -186. 214. 331. 216. -314. -237. -94.
      297. 427. 134. 133. 235. 106.</_>
    <_>
      -219. -544. -408. 71. 152. 86. -74. -549. -581. 146. 205. 93. 39.
      -577. -642. -77. -51. -28.</_>
    <_>
      -544. -408. -41. 152. 86. 1. -549. -581. -45. 205. 93. 1. -577.
      -642. -48. -51. -28. 0.</_>
    <_>
      69. 12. 11. -549. -638. -667. 9. 31. 29. -349. -301. -235. 47. 70.
      70. 71. 100. 114.</_>
    <_>
      12. 11. -27. -638. -667. -687. 31. 29. -1. -301. -235. -171. 70.
      70. 35. 100. 114. 127.</_>
    <_>
      106. 214. 331. -154. -314. -237. -11. 297. 427. 7. 133. 235. 16.
      420. 401. 18. 42. 37.</_>
    <_>
      214. 331. 216. -314. -237. -94. 297. 427. 134. 133. 235. 106. 420.
      401. -37. 42. 37. -31.</_>
    <_>
      53. -74. -549. -25. 146. 205. 77. 39. -577. -43. -77. -51. -4. 24.
      -509. -250. -312. -285.</_>
    <_>
      -74. -549. -581. 146. 205. 93. 39. -577. -642. -77. -51. -28. 24.
      -509. -520. -312. -285. -118.</_>
    <_>
      -549. -581. -45. 205. 93. 1. -577. -642. -48. -51. -28. 0. -509.
      -520. -34. -285. -118. -10.</_>
    <_>
      39. -577. -642. -77. -51. -28. 24. -509. -520. -312. -285. -118.
      -101. -299. -346. -369. -311. -94.</_>
    <_>
      -577. -642. -48. -51. -28. 0. -509. -520. -34. -285. -118. -10.
      -299. -346. -19. -311. -94. -13.</_>
    <_>
      24. -509. -520. -312. -285. -118. -101. -299. -346. -369. -311.
      -94. -91. -155. -282. -81. 15. 6.</_>
    <_>
      346. 22. -171. -326. -254. -101. 159. 168. -46. -449. -562. -444.
      -97. 78. 166. -109. -342. -338.</_>
    <_>
      22. -171. -52. -254. -101. -176. 168. -46. -43. -562. -444. -235.
      78. 166. 241. -342. -338. -51.</_>
    <_>
      159. 168. -46. -449. -562. -444. -97. 78. 166. -109. -342. -338.
      -205. -55. 298. 7. -1. -6.</_>
    <_>
      -23. 33. -109. 349. 517. 345. 243. 97. -371. 65. 227. 201. 170.
      54. -291. -152. -430. -367.</_>
    <_>
      584. -35. -483. 0. 15. 5. 628. -29. -524. 18. 53. 28. 653. -18.
      -536. -41. -40. -16.</_>
    <_>
      628. -29. -524. 18. 53. 28. 653. -18. -536. -41. -40. -16. 629. 0.
      -499. -55. -62. -31.</_>
    <_>
      653. -18. -536. -41. -40. -16. 629. 0. -499. -55. -62. -31. 619.
      23. -484. -9. 11. 18.</_>
    <_>
      509. 193. -250. 69. 183. 156. 576. 358. -330. -2. 116. 228. 570.
      394. -330. -2. -90. -166.</_>
    <_>
      576. 358. -330. -2. 116. 228. 570. 394. -330. -2. -90. -166. 564.
      284. -325. 0. -28. -57.</_>
    <_>
      644. 54. -508. 8. 44. 44. 666. 87. -529. -8. 11. 23. 668. 110.
      -526. -4. 2. 16.</_>
    <_>
      37. 570. 394. 3. -2. -90. 39. 564. 284. -1. 0. -28. 42. 572. 375.
      -10. 0. 127.</_>
    <_>
      570. 394. -330. -2. -90. -166. 564. 284. -325. 0. -28. -57. 572.
      375. -335. 0. 127. 237.</_>
    <_>
      666. 87. -529. -8. 11. 23. 668. 110. -526. -4. 2. 16. 672. 128.
      -526. 4. 20. 24.</_>
    <_>
      55. 668. 110. 3. -4. 2. 51. 672. 128. -3. 4. 20. 52. 686. 150. -6.
      2. 22.</_>
    <_>
      668. 110. -526. -4. 2. 16. 672. 128. -526. 4. 20. 24. 686. 150.
      -544. 2. 22. 22.</_>
    <_>
      572. 375. -335. 0. 127. 237. 558. 453. -318. -32. -95. -110. 520.
      346. -282. -20. -102. -158.</_>
    <_>
      -372. 51. 672. 8. -3. 4. -396. 52. 686. 6. -6. 2. -410. 46. 686.
      10. 2. -12.</_>
    <_>
      51. 672. 128. -3. 4. 20. 52. 686. 150. -6. 2. 22. 46. 686. 175. 2.
      -12. -7.</_>
    <_>
      672. 128. -526. 4. 20. 24. 686. 150. -544. 2. 22. 22. 686. 175.
      -548. -12. -7. 14.</_>
    <_>
      43. 558. 453. -9. -32. -95. 41. 520. 346. -3. -20. -102. 43. 535.
      362. -1. 33. 146.</_>
    <_>
      558. 453. -318. -32. -95. -110. 520. 346. -282. -20. -102. -158.
      535. 362. -314. 33. 146. 186.</_>
    <_>
      -396. 52. 686. 6. -6. 2. -410. 46. 686. 10. 2. -12. -409. 38. 670.
      -7. -6. -16.</_>
    <_>
      52. 686. 150. -6. 2. 22. 46. 686. 175. 2. -12. -7. 38. 670. 207.
      -6. -16. -5.</_>
    <_>
      686. 150. -544. 2. 22. 22. 686. 175. -548. -12. -7. 14. 670. 207.
      -528. -16. -5. 26.</_>
    <_>
      278. 392. -59. 80. 252. 259. 375. 506. -162. 19. 58. 62. 277. 429.
      -63. -121. -335. -317.</_>
    <_>
      520. 346. -282. -20. -102. -158. 535. 362. -314. 33. 146. 186.
      548. 457. -341. -8. -13. 15.</_>
    <_>
      -410. 46. 686. 10. 2. -12. -409. 38. 670. -7. -6. -16. -408. 38.
      668. 2. 2. 10.</_>
    <_>
      46. 686. 175. 2. -12. -7. 38. 670. 207. -6. -16. -5. 38. 668. 242.
      2. 10. 32.</_>
    <_>
      686. 175. -548. -12. -7. 14. 670. 207. -528. -16. -5. 26. 668.
      242. -523. 10. 32. 41.</_>
    <_>
      535. 362. -314. 33. 146. 186. 548. 457. -341. -8. -13. 15. 466.
      391. -260. -62. -205. -218.</_>
    <_>
      -409. 38. 670. -7. -6. -16. -408. 38. 668. 2. 2. 10. -417. 41.
      674. 9. 3. 4.</_>
    <_>
      38. 670. 207. -6. -16. -5. 38. 668. 242. 2. 10. 32. 41. 674. 275.
      3. 4. 21.</_>
    <_>
      670. 207. -528. -16. -5. 26. 668. 242. -523. 10. 32. 41. 674. 275.
      -534. 4. 21. 34.</_>
    <_>
      548. 457. -341. -8. -13. 15. 466. 391. -260. -62. -205. -218. 437.
      366. -227. 29. 118. 139.</_>
    <_>
      -408. 38. 668. 2. 2. 10. -417. 41. 674. 9. 3. 4. -427. 42. 659. 7.
      4. -11.</_>
    <_>
      38. 668. 242. 2. 10. 32. 41. 674. 275. 3. 4. 21. 42. 659. 311. 4.
      -11. -7.</_>
    <_>
      668. 242. -523. 10. 32. 41. 674. 275. -534. 4. 21. 34. 659. 311.
      -526. -11. -7. 24.</_>
    <_>
      65. 466. 391. -3. -62. -205. 68. 437. 366. -4. 29. 118. 67. 501.
      490. -1. 29. 128.</_>
    <_>
      466. 391. -260. -62. -205. -218. 437. 366. -227. 29. 118. 139.
      501. 490. -288. 29. 128. 170.</_>
    <_>
      -417. 41. 674. 9. 3. 4. -427. 42. 659. 7. 4. -11. -425. 38. 643.
      25. 26. 21.</_>
    <_>
      41. 674. 275. 3. 4. 21. 42. 659. 311. 4. -11. -7. 38. 643. 352.
      26. 21. 42.</_>
    <_>
      674. 275. -534. 4. 21. 34. 659. 311. -526. -11. -7. 24. 643. 352.
      -521. 21. 42. 57.</_>
    <_>
      437. 366. -227. 29. 118. 139. 501. 490. -288. 29. 128. 170. 428.
      496. -217. -96. -262. -227.</_>
    <_>
      274. -459. -468. -16. -9. -8. 282. -456. -470. -6. -2. -2. 285.
      -453. -471. -3. -1. 1.</_>
    <_>
      -427. 42. 659. 7. 4. -11. -425. 38. 643. 25. 26. 21. -410. 29.
      626. 28. 33. 12.</_>
    <_>
      42. 659. 311. 4. -11. -7. 38. 643. 352. 26. 21. 42. 29. 626. 387.
      33. 12. 9.</_>
    <_>
      659. 311. -526. -11. -7. 24. 643. 352. -521. 21. 42. 57. 626. 387.
      -522. 12. 9. 28.</_>
    <_>
      67. 501. 490. -1. 29. 128. 71. 428. 496. 3. -96. -262. 77. 336.
      434. 3. 16. 28.</_>
    <_>
      501. 490. -288. 29. 128. 170. 428. 496. -217. -96. -262. -227.
      336. 434. -131. 16. 28. 17.</_>
    <_>
      38. 643. 352. 26. 21. 42. 29. 626. 387. 33. 12. 9. 22. 579. 407.
      18. -15. -39.</_>
    <_>
      643. 352. -521. 21. 42. 57. 626. 387. -522. 12. 9. 28. 579. 407.
      -486. -15. -39. -2.</_>
    <_>
      352. -521. -202. 42. 57. 10. 387. -522. -270. 9. 28. 6. 407. -486.
      -311. -39. -2. 15.</_>
    <_>
      71. 428. 496. 3. -96. -262. 77. 336. 434. 3. 16. 28. 82. 432. 497.
      -8. 80. 227.</_>
    <_>
      428. 496. -217. -96. -262. -227. 336. 434. -131. 16. 28. 17. 432.
      497. -230. 80. 227. 202.</_>
    <_>
      496. -217. -205. -262. -227. -65. 434. -131. -148. 28. 17. -2.
      497. -230. -212. 227. 202. 58.</_>
    <_>
      626. 387. -522. 12. 9. 28. 579. 407. -486. -15. -39. -2. 532. 432.
      -439. -12. -10. 25.</_>
    <_>
      387. -522. -270. 9. 28. 6. 407. -486. -311. -39. -2. 15. 432.
      -439. -332. -10. 25. 34.</_>
    <_>
      336. 434. -131. 16. 28. 17. 432. 497. -230. 80. 227. 202. 427.
      531. -230. -91. -209. -150.</_>
    <_>
      434. -131. -148. 28. 17. -2. 497. -230. -212. 227. 202. 58. 531.
      -230. -243. -209. -150. -37.</_>
    <_>
      579. 407. -486. -15. -39. -2. 532. 432. -439. -12. -10. 25. 496.
      465. -408. -18. -23. 6.</_>
    <_>
      407. -486. -311. -39. -2. 15. 432. -439. -332. -10. 25. 34. 465.
      -408. -350. -23. 6. 10.</_>
    <_>
      82. 432. 497. -8. 80. 227. 86. 427. 531. -2. -91. -209. 86. 300.
      497. 0. -38. -81.</_>
    <_>
      432. 497. -230. 80. 227. 202. 427. 531. -230. -91. -209. -150.
      300. 497. -114. -38. -81. -58.</_>
    <_>
      532. 432. -439. -12. -10. 25. 496. 465. -408. -18. -23. 6. 446.
      492. -370. -34. -52. -16.</_>
    <_>
      432. -439. -332. -10. 25. 34. 465. -408. -350. -23. 6. 10. 492.
      -370. -378. -52. -16. -10.</_>
    <_>
      531. -230. -243. -209. -150. -37. 497. -114. -212. -81. -58. -24.
      401. -131. -112. -23. -159. -110.</_>
    <_>
      496. 465. -408. -18. -23. 6. 446. 492. -370. -34. -52. -16. 390.
      517. -327. -32. -45. -13.</_>
    <_>
      465. -408. -350. -23. 6. 10. 492. -370. -378. -52. -16. -10. 517.
      -327. -410. -45. -13. -8.</_>
    <_>
      446. 492. -370. -34. -52. -16. 390. 517. -327. -32. -45. -13. 349.
      542. -294. -25. -28. -2.</_>
    <_>
      492. -370. -378. -52. -16. -10. 517. -327. -410. -45. -13. -8.
      542. -294. -433. -28. -2. 3.</_>
    <_>
      390. 517. -327. -32. -45. -13. 349. 542. -294. -25. -28. -2. 278.
      460. -227. -70. -220. -261.</_>
    <_>
      517. -327. -410. -45. -13. -8. 542. -294. -433. -28. -2. 3. 460.
      -227. -347. -220. -261. -113.</_>
    <_>
      142. 249. 89. -102. -217. -111. -132. 212. 358. -168. -364. -238.
      -348. 81. 572. -48. -199. -242.</_>
    <_>
      349. 542. -294. -25. -28. -2. 278. 460. -227. -70. -220. -261.
      170. 267. -126. -58. -209. -260.</_>
    <_>
      542. -294. -433. -28. -2. 3. 460. -227. -347. -220. -261. -113.
      267. -126. -152. -209. -260. -112.</_>
    <_>
      -132. 212. 358. -168. -364. -238. -348. 81. 572. -48. -199. -242.
      -406. -80. 630. 10. -58. -118.</_>
    <_>
      212. 358. 33. -364. -238. -43. 81. 572. 162. -199. -242. -94. -80.
      630. 317. -58. -118. -53.</_>
    <_>
      -348. 81. 572. -48. -199. -242. -406. -80. 630. 10. -58. -118.
      -420. -156. 637. 8. -14. -23.</_>
    <_>
      81. 572. 162. -199. -242. -94. -80. 630. 317. -58. -118. -53.
      -156. 637. 388. -14. -23. -10.</_>
    <_>
      -406. -80. 630. 10. -58. -118. -420. -156. 637. 8. -14. -23. -427.
      -192. 641. 11. -10. -33.</_>
    <_>
      -80. 630. 317. -58. -118. -53. -156. 637. 388. -14. -23. -10.
      -192. 641. 415. -10. -33. -15.</_>
    <_>
      630. 317. -3. -118. -53. 7. 637. 388. -5. -23. -10. -1. 641. 415.
      -6. -33. -15. 2.</_>
    <_>
      294. 545. -150. -10. 43. 100. 227. 606. -98. -75. -134. -78. 193.
      613. -81. 15. 47. 15.</_>
    <_>
      -420. -156. 637. 8. -14. -23. -427. -192. 641. 11. -10. -33. -324.
      -177. 542. -62. 77. 16.</_>
    <_>
      -156. 637. 388. -14. -23. -10. -192. 641. 415. -10. -33. -15.
      -177. 542. 385. 77. 16. -131.</_>
    <_>
      637. 388. -5. -23. -10. -1. 641. 415. -6. -33. -15. 2. 542. 385.
      1. 16. -131. -171.</_>
    <_>
      227. 606. -98. -75. -134. -78. 193. 613. -81. 15. 47. 15. 218.
      623. -117. 2. 5. 11.</_>
    <_>
      641. 415. -6. -33. -15. 2. 542. 385. 1. 16. -131. -171. 292. 231.
      11. -14. -271. -375.</_>
    <_>
      -62. 44. 20. 112. 388. 576. 22. 275. 64. -8. 31. 118. 48. 188. -4.
      -164. -264. -506.</_>
    <_>
      44. 20. -112. 388. 576. 404. 275. 64. -348. 31. 118. 98. 188. -4.
      -217. -264. -506. -423.</_>
    <_>
      20. -112. -81. 576. 404. 117. 64. -348. -212. 118. 98. 18. -4.
      -217. -130. -506. -423. -130.</_>
    <_>
      -108. 8. 27. 48. 54. 35. 39. 35. 39. 357. 525. 583. 299. 63. 56.
      391. 511. 498.</_>
    <_>
      8. 27. 87. 54. 35. -35. 35. 39. 12. 525. 583. 590. 63. 56. 3. 511.
      498. 499.</_>
    <_>
      27. 87. 70. 35. -35. -142. 39. 12. -16. 583. 590. 536. 56. 3. -49.
      498. 499. 511.</_>
    <_>
      87. 70. 23. -35. -142. -181. 12. -16. 16. 590. 536. 482. 3. -49.
      -61. 499. 511. 455.</_>
    <_>
      -162. -117. -52. 86. 173. 234. -54. -31. -12. -372. -265. -200.
      -4. 6. 7. -410. -430. -439.</_>
    <_>
      -32. -211. -71. 34. 133. 229. -10. -70. -19. -322. -258. -161.
      -89. -1. 2. -383. -457. -464.</_>
    <_>
      -211. -71. -25. 133. 229. 273. -70. -19. 2. -258. -161. -126. -1.
      2. 4. -457. -464. -476.</_>
    <_>
      39. 35. 39. 357. 525. 583. 299. 63. 56. 391. 511. 498. 439. 17.
      15. 73. 47. -27.</_>
    <_>
      39. 12. -16. 583. 590. 536. 56. 3. -49. 498. 499. 511. 15. -33.
      -48. -27. -105. -152.</_>
    <_>
      12. -16. 16. 590. 536. 482. 3. -49. -61. 499. 511. 455. -33. -48.
      -155. -105. -152. -189.</_>
    <_>
      -16. 16. 2. 536. 482. 446. -49. -61. -18. 511. 455. 394. -48.
      -155. -69. -152. -189. -273.</_>
    <_>
      -47. -16. -100. 387. 246. -6. -3. -343. -402. 477. 335. -42. 166.
      -475. -548. -238. -59. 40.</_>
    <_>
      -16. -100. -132. 246. -6. -180. -343. -402. -52. 335. -42. -90.
      -475. -548. 38. -59. 40. 32.</_>
    <_>
      -46. -255. -199. -340. -313. -257. -29. -124. -71. -517. -396.
      -193. -11. 24. 199. -31. 14. 229.</_>
    <_>
      178. 295. 43. 22. 265. 251. 488. 419. -117. 78. 269. 247. 634.
      403. -124. 0. -61. -62.</_>
    <_>
      -18. -3. -343. 394. 477. 335. -69. 166. -475. -273. -238. -59.
      -132. 273. -355. -110. -101. -53.</_>
    <_>
      -3. -343. -402. 477. 335. -42. 166. -475. -548. -238. -59. 40.
      273. -355. -515. -101. -53. 1.</_>
    <_>
      -343. -402. -52. 335. -42. -90. -475. -548. 38. -59. 40. 32. -355.
      -515. 14. -53. 1. 18.</_>
    <_>
      15. 488. 419. -85. 78. 269. 4. 634. 403. 28. 0. -61. -26. 604.
      290. 2. -30. -112.</_>
    <_>
      488. 419. -117. 78. 269. 247. 634. 403. -124. 0. -61. -62. 604.
      290. -149. -30. -112. -249.</_>
    <_>
      -69. 166. -475. -273. -238. -59. -132. 273. -355. -110. -101. -53.
      -86. 243. -376. 160. 167. 68.</_>
    <_>
      166. -475. -548. -238. -59. 40. 273. -355. -515. -101. -53. 1.
      243. -376. -492. 167. 68. 16.</_>
    <_>
      4. 634. 403. 28. 0. -61. -26. 604. 290. 2. -30. -112. -61. 492.
      346. -31. -146. -120.</_>
    <_>
      634. 403. -124. 0. -61. -62. 604. 290. -149. -30. -112. -249. 492.
      346. -64. -146. -120. 158.</_>
    <_>
      273. -355. -515. -101. -53. 1. 243. -376. -492. 167. 68. 16. 59.
      -308. -340. -405. -422. -150.</_>
    <_>
      -26. 604. 290. 2. -30. -112. -61. 492. 346. -31. -146. -120. 61.
      300. 439. 329. 374. 249.</_>
    <_>
      604. 290. -149. -30. -112. -249. 492. 346. -64. -146. -120. 158.
      300. 439. 138. 374. 249. 266.</_>
    <_>
      290. -149. -147. -112. -249. -239. 346. -64. -175. -120. 158. 205.
      439. 138. -384. 249. 266. 212.</_>
    <_>
      -149. -147. -299. -249. -239. -83. -64. -175. -272. 158. 205. 48.
      138. -384. -373. 266. 212. 59.</_>
    <_>
      480. 471. -14. -10. -15. -16. 465. 465. -15. -7. -23. -29. 312.
      290. -36. -148. -460. -650.</_>
    <_>
      471. -14. -22. -15. -16. -20. 465. -15. -55. -23. -29. -59. 290.
      -36. -70. -460. -650. -656.</_>
    <_>
      -88. -86. 243. 62. 160. 167. -86. -65. 59. -160. -235. -405. -132.
      -106. -47. -626. -638. -615.</_>
    <_>
      -86. 243. -376. 160. 167. 68. -65. 59. -308. -235. -405. -422.
      -106. -47. -39. -638. -615. -435.</_>
    <_>
      243. -376. -492. 167. 68. 16. 59. -308. -340. -405. -422. -150.
      -47. -39. -49. -615. -435. -147.</_>
    <_>
      -32. -61. 492. -6. -31. -146. 59. 61. 300. 91. 329. 374. 199. 332.
      244. 37. 210. 380.</_>
    <_>
      -61. 492. 346. -31. -146. -120. 61. 300. 439. 329. 374. 249. 332.
      244. 232. 210. 380. 242.</_>
    <_>
      492. 346. -64. -146. -120. 158. 300. 439. 138. 374. 249. 266. 244.
      232. 80. 380. 242. -40.</_>
    <_>
      346. -64. -175. -120. 158. 205. 439. 138. -384. 249. 266. 212.
      232. 80. -439. 242. -40. -99.</_>
    <_>
      410. 43. 22. -8. -5. -4. 270. 24. 18. -382. -544. -568. -21. -44.
      10. -371. -568. -620.</_>
    <_>
      43. 22. 26. -5. -4. -6. 24. 18. 20. -544. -568. -576. -44. 10. 12.
      -568. -620. -628.</_>
    <_>
      22. 26. 31. -4. -6. -5. 18. 20. 23. -568. -576. -591. 10. 12. 9.
      -620. -628. -635.</_>
    <_>
      26. 31. 12. -6. -5. -4. 20. 23. 9. -576. -591. -603. 12. 9. 2.
      -628. -635. -644.</_>
    <_>
      31. 12. 14. -5. -4. -6. 23. 9. 5. -591. -603. -613. 9. 2. -7.
      -635. -644. -653.</_>
    <_>
      12. 14. -112. -4. -6. 10. 9. 5. -30. -603. -613. -556. 2. -7. 104.
      -644. -653. -588.</_>
    <_>
      14. -112. -488. -6. 10. 34. 5. -30. -322. -613. -556. -332. -7.
      104. 3. -653. -588. -353.</_>
    <_>
      24. 465. 465. 6. -7. -23. 20. 312. 290. -4. -148. -460. 16. 39.
      -41. -6. -139. -431.</_>
    <_>
      465. 465. -15. -7. -23. -29. 312. 290. -36. -148. -460. -650. 39.
      -41. -74. -139. -431. -610.</_>
    <_>
      465. -15. -55. -23. -29. -59. 290. -36. -70. -460. -650. -656.
      -41. -74. -18. -431. -610. -590.</_>
    <_>
      -15. -55. -169. -29. -59. -61. -36. -70. -133. -650. -656. -633.
      -74. -18. -74. -610. -590. -502.</_>
    <_>
      -55. -169. -116. -59. -61. -78. -70. -133. -157. -656. -633. -621.
      -18. -74. -111. -590. -502. -409.</_>
    <_>
      -169. -116. -86. -61. -78. -160. -133. -157. -132. -633. -621.
      -626. -74. -111. -91. -502. -409. -317.</_>
    <_>
      -86. -65. 59. -160. -235. -405. -132. -106. -47. -626. -638. -615.
      -91. -64. 23. -317. -222. -133.</_>
    <_>
      -65. 59. -308. -235. -405. -422. -106. -47. -39. -638. -615. -435.
      -64. 23. 148. -222. -133. -56.</_>
    <_>
      24. 72. 60. -78. -110. -176. 13. 19. 20. -57. -89. -116. -1. 0. 9.
      689. 688. 685.</_>
    <_>
      72. 60. -76. -110. -176. -188. 19. 20. -13. -89. -116. -81. 0. 9.
      16. 688. 685. 668.</_>
    <_>
      60. -76. -78. -176. -188. -112. 20. -13. 0. -116. -81. -16. 9. 16.
      16. 685. 668. 648.</_>
    <_>
      31. 59. 61. -5. 91. 329. 27. 199. 332. -3. 37. 210. 2. 171. 358.
      548. 455. 280.</_>
    <_>
      59. 61. 300. 91. 329. 374. 199. 332. 244. 37. 210. 380. 171. 358.
      221. 455. 280. 113.</_>
    <_>
      61. 300. 439. 329. 374. 249. 332. 244. 232. 210. 380. 242. 358.
      221. 38. 280. 113. 34.</_>
    <_>
      270. 24. 18. -382. -544. -568. -21. -44. 10. -371. -568. -620.
      -179. -113. 6. 27. -3. -24.</_>
    <_>
      24. 18. 20. -544. -568. -576. -44. 10. 12. -568. -620. -628. -113.
      6. 27. -3. -24. -5.</_>
    <_>
      18. 20. 23. -568. -576. -591. 10. 12. 9. -620. -628. -635. 6. 27.
      19. -24. -5. 27.</_>
    <_>
      20. 23. 9. -576. -591. -603. 12. 9. 2. -628. -635. -644. 27. 19.
      3. -5. 27. 47.</_>
    <_>
      23. 9. 5. -591. -603. -613. 9. 2. -7. -635. -644. -653. 19. 3. -5.
      27. 47. 59.</_>
    <_>
      9. 5. -30. -603. -613. -556. 2. -7. 104. -644. -653. -588. 3. -5.
      170. 47. 59. 62.</_>
    <_>
      5. -30. -322. -613. -556. -332. -7. 104. 3. -653. -588. -353. -5.
      170. 147. 59. 62. 37.</_>
    <_>
      -30. -322. -275. -556. -332. -87. 104. 3. -98. -588. -353. -96.
      170. 147. -19. 62. 37. 3.</_>
    <_>
      312. 290. -36. -148. -460. -650. 39. -41. -74. -139. -431. -610.
      -75. -177. -81. 11. 53. 89.</_>
    <_>
      290. -36. -70. -460. -650. -656. -41. -74. -18. -431. -610. -590.
      -177. -81. 17. 53. 89. 97.</_>
    <_>
      -36. -70. -133. -650. -656. -633. -74. -18. -74. -610. -590. -502.
      -81. 17. -51. 89. 97. 67.</_>
    <_>
      -70. -133. -157. -656. -633. -621. -18. -74. -111. -590. -502.
      -409. 17. -51. -94. 97. 67. 14.</_>
    <_>
      -133. -157. -132. -633. -621. -626. -74. -111. -91. -502. -409.
      -317. -51. -94. -46. 67. 14. -16.</_>
    <_>
      -157. -132. -106. -621. -626. -638. -111. -91. -64. -409. -317.
      -222. -94. -46. -18. 14. -16. -20.</_>
    <_>
      -73. -1. 228. 43. -7. 86. -166. 176. 397. 12. 146. 399. -45. 434.
      350. 151. 396. 354.</_>
    <_>
      -1. 228. 78. -7. 86. 164. 176. 397. -74. 146. 399. 338. 434. 350.
      -326. 396. 354. 116.</_>
    <_>
      7. -181. -158. -1. -3. -28. 13. -18. 4. -9. 162. 512. 9. 312. 339.
      1. 156. 471.</_>
    <_>
      -181. -158. 13. -3. -28. -57. -18. 4. -1. 162. 512. 689. 312. 339.
      -6. 156. 471. 624.</_>
    <_>
      -158. 13. 19. -28. -57. -89. 4. -1. 0. 512. 689. 688. 339. -6. 0.
      471. 624. 620.</_>
    <_>
      13. 19. 20. -57. -89. -116. -1. 0. 9. 689. 688. 685. -6. 0. 6.
      624. 620. 620.</_>
    <_>
      19. 20. -13. -89. -116. -81. 0. 9. 16. 688. 685. 668. 0. 6. 0.
      620. 620. 618.</_>
    <_>
      20. -13. 0. -116. -81. -16. 9. 16. 16. 685. 668. 648. 6. 0. 10.
      620. 618. 616.</_>
    <_>
      -13. 0. 91. -81. -16. -3. 16. 16. -73. 668. 648. 487. 0. 10. -379.
      618. 616. 465.</_>
    <_>
      0. 91. 132. -16. -3. -8. 16. -73. -29. 648. 487. 167. 10. -379.
      -351. 616. 465. 157.</_>
    <_>
      -141. 27. 199. -1. -3. 37. -12. 2. 171. 442. 548. 455. 263. -29.
      73. 437. 575. 539.</_>
    <_>
      27. 199. 332. -3. 37. 210. 2. 171. 358. 548. 455. 280. -29. 73.
      149. 575. 539. 407.</_>
    <_>
      199. 332. 244. 37. 210. 380. 171. 358. 221. 455. 280. 113. 73.
      149. 78. 539. 407. 222.</_>
    <_>
      332. 244. 232. 210. 380. 242. 358. 221. 38. 280. 113. 34. 149. 78.
      10. 407. 222. 130.</_>
    <_>
      2. -7. 104. -644. -653. -588. 3. -5. 170. 47. 59. 62. 13. 4. 146.
      97. 104. 86.</_>
    <_>
      -169. -166. 176. 97. 12. 146. -194. -45. 434. -30. 151. 396. -65.
      247. 417. 105. 345. 375.</_>
    <_>
      -166. 176. 397. 12. 146. 399. -45. 434. 350. 151. 396. 354. 247.
      417. 83. 345. 375. 133.</_>
    <_>
      176. 397. -74. 146. 399. 338. 434. 350. -326. 396. 354. 116. 417.
      83. -424. 375. 133. 6.</_>
    <_>
      397. -74. -259. 399. 338. 99. 350. -326. -351. 354. 116. 11. 83.
      -424. -357. 133. 6. 7.</_>
    <_>
      182. 113. 7. 216. 345. 155. 503. 65. -307. 183. 327. 155. 665. 52.
      -457. -11. -6. 3.</_>
    <_>
      -18. 4. -1. 162. 512. 689. 312. 339. -6. 156. 471. 624. 463. 484.
      -10. 3. -16. -28.</_>
    <_>
      4. -1. 0. 512. 689. 688. 339. -6. 0. 471. 624. 620. 484. -10. 1.
      -16. -28. -27.</_>
    <_>
      -1. 0. 9. 689. 688. 685. -6. 0. 6. 624. 620. 620. -10. 1. 3. -28.
      -27. -29.</_>
    <_>
      0. 9. 16. 688. 685. 668. 0. 6. 0. 620. 620. 618. 1. 3. -3. -27.
      -29. -33.</_>
    <_>
      9. 16. 16. 685. 668. 648. 6. 0. 10. 620. 618. 616. 3. -3. 11. -29.
      -33. -33.</_>
    <_>
      16. 16. -73. 668. 648. 487. 0. 10. -379. 618. 616. 465. -3. 11.
      -525. -33. -33. -27.</_>
    <_>
      16. -73. -29. 648. 487. 167. 10. -379. -351. 616. 465. 157. 11.
      -525. -501. -33. -27. -15.</_>
    <_>
      -73. -29. 71. 487. 167. -5. -379. -351. 59. 465. 157. -5. -525.
      -501. 57. -27. -15. -5.</_>
    <_>
      -6. -12. 2. 158. 442. 548. 299. 263. -29. 141. 437. 575. 450. 400.
      -19. -18. -26. -17.</_>
    <_>
      -12. 2. 171. 442. 548. 455. 263. -29. 73. 437. 575. 539. 400. -19.
      52. -26. -17. 8.</_>
    <_>
      2. 171. 358. 548. 455. 280. -29. 73. 149. 575. 539. 407. -19. 52.
      29. -17. 8. -1.</_>
    <_>
      171. 358. 221. 455. 280. 113. 73. 149. 78. 539. 407. 222. 52. 29.
      2. 8. -1. -12.</_>
    <_>
      -194. -45. 434. -30. 151. 396. -65. 247. 417. 105. 345. 375. 155.
      353. 184. 119. 205. 48.</_>
    <_>
      -45. 434. 350. 151. 396. 354. 247. 417. 83. 345. 375. 133. 353.
      184. -46. 205. 48. -72.</_>
    <_>
      434. 350. -326. 396. 354. 116. 417. 83. -424. 375. 133. 6. 184.
      -46. -413. 48. -72. -63.</_>
    <_>
      113. 503. 65. -11. 183. 327. 140. 665. 52. -6. -11. -6. 125. 644.
      70. -11. -42. -50.</_>
    <_>
      503. 65. -307. 183. 327. 155. 665. 52. -457. -11. -6. 3. 644. 70.
      -433. -42. -50. -17.</_>
    <_>
      312. 339. -6. 156. 471. 624. 463. 484. -10. 3. -16. -28. 436. 452.
      -11. -22. -62. -83.</_>
    <_>
      339. -6. 0. 471. 624. 620. 484. -10. 1. -16. -28. -27. 452. -11.
      5. -62. -83. -81.</_>
    <_>
      0. 10. -379. 618. 616. 465. -3. 11. -525. -33. -33. -27. -5. 16.
      -505. -73. -70. -51.</_>
    <_>
      10. -379. -351. 616. 465. 157. 11. -525. -501. -33. -27. -15. 16.
      -505. -481. -70. -51. -23.</_>
    <_>
      -379. -351. 59. 465. 157. -5. -525. -501. 57. -27. -15. -5. -505.
      -481. 62. -51. -23. -8.</_>
    <_>
      665. 52. -457. -11. -6. 3. 644. 70. -433. -42. -50. -17. 509. 98.
      -293. -151. -250. -115.</_>
    <_>
      11. -525. -501. -33. -27. -15. 16. -505. -481. -70. -51. -23. 65.
      -393. -386. -409. -267. -88.</_>
    <_>
      644. 70. -433. -42. -50. -17. 509. 98. -293. -151. -250. -115.
      311. 111. -100. -57. -143. -72.</_>
    <_>
      -15. -353. -372. 225. 155. 50. -4. -464. -452. 144. 114. 28. 7.
      -439. -395. -329. -263. -95.</_>
    <_>
      18. -336. -463. 224. 168. 63. 15. -382. -515. -11. -4. 3. 12.
      -266. -406. -444. -338. -120.</_>
    <_>
      344. 368. 22. 80. 242. 330. 447. 462. 20. 23. 58. 62. 459. 473. 6.
      -11. -23. -30.</_>
    <_>
      353. 441. 21. 21. 229. 325. 438. 497. -21. 100. 33. -49. 287. 293.
      -30. -149. -437. -568.</_>
    <_>
      441. 21. 57. 229. 325. 261. 497. -21. -11. 33. -49. -95. 293. -30.
      -28. -437. -568. -548.</_>
    <_>
      -32. -4. -464. 82. 144. 114. -13. 7. -439. -297. -329. -263. -36.
      -13. -235. -500. -511. -393.</_>
    <_>
      -464. -452. 70. 114. 28. 0. -439. -395. 76. -263. -95. -4. -235.
      -178. 81. -393. -140. -9.</_>
    <_>
      -9. 8. -487. 21. 30. 29. -14. 17. -494. -8. -13. -10. -26. 0.
      -354. -542. -566. -446.</_>
    <_>
      8. -487. -472. 30. 29. 4. 17. -494. -482. -13. -10. -2. 0. -354.
      -330. -566. -446. -162.</_>
    <_>
      438. 497. -21. 100. 33. -49. 287. 293. -30. -149. -437. -568. -18.
      47. 39. -254. -517. -563.</_>
    <_>
      497. -21. -11. 33. -49. -95. 293. -30. -28. -437. -568. -548. 47.
      39. 42. -517. -563. -444.</_>
    <_>
      68. 318. 124. -158. -24. 162. 64. 541. 233. -150. -65. 81. 58.
      518. 282. 6. -108. -228.</_>
    <_>
      318. 124. -202. -24. 162. 124. 541. 233. -348. -65. 81. 82. 518.
      282. -299. -108. -228. -131.</_>
    <_>
      459. 473. 6. -11. -23. -30. 344. 358. -7. -110. -328. -449. 96.
      93. -20. -148. -443. -600.</_>
    <_>
      473. 6. 1. -23. -30. -43. 358. -7. -28. -328. -449. -478. 93. -20.
      -39. -443. -600. -595.</_>
    <_>
      -2. -14. 17. -16. -8. -13. 8. -26. 0. -532. -542. -566. -7. -27.
      -15. -613. -619. -611.</_>
    <_>
      -14. 17. -494. -8. -13. -10. -26. 0. -354. -542. -566. -446. -27.
      -15. -79. -619. -611. -471.</_>
    <_>
      17. -494. -482. -13. -10. -2. 0. -354. -330. -566. -446. -162.
      -15. -79. -31. -611. -471. -181.</_>
    <_>
      -494. -482. 13. -10. -2. 3. -354. -330. 17. -446. -162. -11. -79.
      -31. 30. -471. -181. -20.</_>
    <_>
      287. 293. -30. -149. -437. -568. -18. 47. 39. -254. -517. -563.
      -165. -54. 102. 29. 44. 52.</_>
    <_>
      293. -30. -28. -437. -568. -548. 47. 39. 42. -517. -563. -444.
      -54. 102. 94. 44. 52. 48.</_>
    <_>
      541. 233. -348. -65. 81. 82. 518. 282. -299. -108. -228. -131.
      321. 262. -113. -83. -180. -111.</_>
    <_>
      358. -7. -28. -328. -449. -478. 93. -20. -39. -443. -600. -595.
      -78. -20. -15. -64. -78. -59.</_>
    <_>
      4. 8. -26. -514. -532. -542. -19. -7. -27. -593. -613. -619. -16.
      -20. -14. -34. -24. -18.</_>
    <_>
      8. -26. 0. -532. -542. -566. -7. -27. -15. -613. -619. -611. -20.
      -14. -10. -24. -18. -8.</_>
    <_>
      -26. 0. -354. -542. -566. -446. -27. -15. -79. -619. -611. -471.
      -14. -10. 54. -18. -8. -10.</_>
    <_>
      0. -354. -330. -566. -446. -162. -15. -79. -31. -611. -471. -181.
      -10. 54. 120. -8. -10. -16.</_>
    <_>
      -23. 11. 189. -429. -447. -319. -50. 17. 305. 18. 15. 9. -7. 37.
      190. 357. 423. 334.</_>
    <_>
      11. 189. 195. -447. -319. -97. 17. 305. 294. 15. 9. 2. 37. 190.
      182. 423. 334. 114.</_>
    <_>
      -191. 357. 271. -19. -199. -55. -218. 261. 397. 72. 129. 15. -45.
      206. 264. 1. 62. -12.</_>
    <_>
      390. -210. -620. 96. 86. 144. 238. -86. -628. 242. 224. 282. 135.
      -6. -592. 139. 134. 192.</_>
    <_>
      -210. -620. -91. 86. 144. 63. -86. -628. -301. 224. 282. 145. -6.
      -592. -508. 134. 192. 158.</_>
    <_>
      -620. -91. -10. 144. 63. -4. -628. -301. -4. 282. 145. 8. -592.
      -508. -44. 192. 158. 48.</_>
    <_>
      -22. -14. -5. -462. -488. -495. -38. -18. -6. 10. 16. 18. -13. -7.
      -2. 501. 531. 544.</_>
    <_>
      -14. -5. 9. -488. -495. -495. -18. -6. 7. 16. 18. 15. -7. -2. 4.
      531. 544. 548.</_>
    <_>
      -5. 9. 18. -495. -495. -482. -6. 7. 26. 18. 15. 8. -2. 4. 10. 544.
      548. 536.</_>
    <_>
      9. 18. 28. -495. -482. -450. 7. 26. 47. 15. 8. 3. 4. 10. 21. 548.
      536. 499.</_>
    <_>
      238. -86. -628. 242. 224. 282. 135. -6. -592. 139. 134. 192. 102.
      80. -408. -154. -96. 116.</_>
    <_>
      -86. -628. -301. 224. 282. 145. -6. -592. -508. 134. 192. 158. 80.
      -408. -569. -96. 116. 273.</_>
    <_>
      -628. -301. -4. 282. 145. 8. -592. -508. -44. 192. 158. 48. -408.
      -569. -218. 116. 273. 148.</_>
    <_>
      -18. -8. 8. -490. -498. -500. -16. -8. 6. 50. 60. 60. -2. -7. 2.
      530. 535. 532.</_>
    <_>
      -8. 8. -7. -498. -500. -501. -8. 6. -9. 60. 60. 57. -7. 2. -6.
      535. 532. 534.</_>
    <_>
      8. -7. 14. -500. -501. -496. 6. -9. 11. 60. 57. 47. 2. -6. -1.
      532. 534. 535.</_>
    <_>
      -7. 14. 39. -501. -496. -469. -9. 11. 51. 57. 47. 29. -6. -1. 24.
      534. 535. 514.</_>
    <_>
      -17. 23. 11. 29. 15. 9. -17. 13. 6. 487. 491. 482. -79. -48. 39.
      -303. -430. -449.</_>
    <_>
      -175. -295. -115. -277. -391. -367. -353. -168. 11. -297. -234.
      -5. -477. 9. 185. -51. -61. 61.</_>
    <_>
      -6. -592. -508. 134. 192. 158. 80. -408. -569. -96. 116. 273. 143.
      -140. -416. -23. 96. 360.</_>
    <_>
      -592. -508. -44. 192. 158. 48. -408. -569. -218. 116. 273. 148.
      -140. -416. -455. 96. 360. 401.</_>
    <_>
      -39. -17. 13. 453. 487. 491. -72. -79. -48. -174. -303. -430.
      -121. -142. -93. -581. -564. -545.</_>
    <_>
      -17. 13. 6. 487. 491. 482. -79. -48. 39. -303. -430. -449. -142.
      -93. 77. -564. -545. -533.</_>
    <_>
      13. 6. -13. 491. 482. 501. -48. 39. 38. -430. -449. -384. -93. 77.
      71. -545. -533. -527.</_>
    <_>
      6. -13. -7. 482. 501. 531. 39. 38. 91. -449. -384. -265. 77. 71.
      177. -533. -527. -527.</_>
    <_>
      -13. -7. -2. 501. 531. 544. 38. 91. 98. -384. -265. -80. 71. 177.
      198. -527. -527. -526.</_>
    <_>
      -7. -2. 4. 531. 544. 548. 91. 98. 7. -265. -80. 19. 177. 198. 32.
      -527. -526. -500.</_>
    <_>
      -2. 4. 10. 544. 548. 536. 98. 7. 0. -80. 19. 24. 198. 32. 13.
      -526. -500. -467.</_>
    <_>
      -285. -353. -168. -117. -297. -234. -386. -477. 9. -6. -51. -61.
      -335. -422. 32. -91. 60. 148.</_>
    <_>
      -353. -168. 11. -297. -234. -5. -477. 9. 185. -51. -61. 61. -422.
      32. 226. 60. 148. 90.</_>
    <_>
      -227. -227. 78. -307. -343. -270. -283. -127. 20. 3. 83. 52. -165.
      -156. -149. 315. 324. 157.</_>
    <_>
      -408. -569. -218. 116. 273. 148. -140. -416. -455. 96. 360. 401.
      0. -139. -415. -20. 133. 409.</_>
    <_>
      -569. -218. -20. 273. 148. 12. -416. -455. -160. 360. 401. 160.
      -139. -415. -409. 133. 409. 441.</_>
    <_>
      -218. -20. 0. 148. 12. 10. -455. -160. 0. 401. 160. 22. -415.
      -409. 0. 409. 441. 330.</_>
    <_>
      22. 6. -10. 64. 32. 2. -134. -145. -37. -158. -433. -581. -281.
      -285. -34. -571. -583. -572.</_>
    <_>
      6. -10. -61. 32. 2. -67. -145. -37. -111. -433. -581. -589. -285.
      -34. -53. -583. -572. -503.</_>
    <_>
      -10. -61. -72. 2. -67. -174. -37. -111. -121. -581. -589. -581.
      -34. -53. -26. -572. -503. -358.</_>
    <_>
      91. 98. 7. -265. -80. 19. 177. 198. 32. -527. -526. -500. 78. 107.
      42. -272. -463. -570.</_>
    <_>
      98. 7. 0. -80. 19. 24. 198. 32. 13. -526. -500. -467. 107. 42. 20.
      -463. -570. -586.</_>
    <_>
      0. 2. 4. 24. 32. 40. 13. 21. 122. -467. -443. -314. 20. 36. 270.
      -586. -588. -554.</_>
    <_>
      2. 4. 0. 32. 40. 38. 21. 122. 96. -443. -314. -98. 36. 270. 327.
      -588. -554. -391.</_>
    <_>
      -416. -455. -160. 360. 401. 160. -139. -415. -409. 133. 409. 441.
      -7. -135. -378. 3. 139. 418.</_>
    <_>
      -455. -160. 0. 401. 160. 22. -415. -409. 0. 409. 441. 330. -135.
      -378. 0. 139. 418. 560.</_>
    <_>
      -3. 1. -134. -5. -15. -158. -128. -146. -281. -158. -420. -571.
      -279. -291. -159. -547. -581. -453.</_>
    <_>
      1. -134. -145. -15. -158. -433. -146. -281. -285. -420. -571.
      -583. -291. -159. -148. -581. -453. -182.</_>
    <_>
      -134. -145. -37. -158. -433. -581. -281. -285. -34. -571. -583.
      -572. -159. -148. -5. -453. -182. -27.</_>
    <_>
      -145. -37. -111. -433. -581. -589. -285. -34. -53. -583. -572.
      -503. -148. -5. 10. -182. -27. -4.</_>
    <_>
      -37. -111. -121. -581. -589. -581. -34. -53. -26. -572. -503.
      -358. -5. 10. 68. -27. -4. 8.</_>
    <_>
      177. 198. 32. -527. -526. -500. 78. 107. 42. -272. -463. -570.
      -10. 18. -6. -44. -30. -60.</_>
    <_>
      198. 32. 13. -526. -500. -467. 107. 42. 20. -463. -570. -586. 18.
      -6. -14. -30. -60. -126.</_>
    <_>
      13. 21. 122. -467. -443. -314. 20. 36. 270. -586. -588. -554. -14.
      24. 188. -126. -170. -298.</_>
    <_>
      21. 122. 96. -443. -314. -98. 36. 270. 327. -588. -554. -391. 24.
      188. 372. -170. -298. -498.</_>
    <_>
      122. 96. -8. -314. -98. -6. 270. 327. 92. -554. -391. -152. 188.
      372. 289. -298. -498. -495.</_>
    <_>
      96. -8. 7. -98. -6. -17. 327. 92. 16. -391. -152. -32. 372. 289.
      167. -498. -495. -267.</_>
    <_>
      -415. -409. 0. 409. 441. 330. -135. -378. 0. 139. 418. 560. -10.
      -110. 0. 0. 114. 240.</_>
    <_>
      -128. -146. -281. -158. -420. -571. -279. -291. -159. -547. -581.
      -453. -186. -163. -15. -432. -177. -33.</_>
    <_>
      -146. -281. -285. -420. -571. -583. -291. -159. -148. -581. -453.
      -182. -163. -15. 0. -177. -33. -12.</_>
    <_>
      -281. -285. -34. -571. -583. -572. -159. -148. -5. -453. -182.
      -27. -15. 0. 19. -33. -12. 5.</_>
    <_>
      36. 270. 327. -588. -554. -391. 24. 188. 372. -170. -298. -498.
      -17. 42. 160. 9. -50. -208.</_>
    <_>
      270. 327. 92. -554. -391. -152. 188. 372. 289. -298. -498. -495.
      42. 160. 279. -50. -208. -433.</_>
    <_>
      327. 92. 16. -391. -152. -32. 372. 289. 167. -498. -495. -267.
      160. 279. 381. -208. -433. -457.</_>
    <_>
      92. 16. 23. -152. -32. -15. 289. 167. 89. -495. -267. -67. 279.
      381. 284. -433. -457. -248.</_>
    <_>
      -9. 387. 229. -105. -91. 103. 49. 454. 291. 65. 176. 111. 223.
      400. 122. 57. 66. -92.</_>
    <_>
      -11. -143. -146. -5. -121. -378. -145. -395. -289. -143. -413.
      -551. -412. -421. -159. -422. -445. -203.</_>
    <_>
      -143. -146. -279. -121. -378. -547. -395. -289. -186. -413. -551.
      -432. -421. -159. -38. -445. -203. -44.</_>
    <_>
      372. 289. 167. -498. -495. -267. 160. 279. 381. -208. -433. -457.
      24. 101. 327. -14. -103. -311.</_>
    <_>
      289. 167. 89. -495. -267. -67. 279. 381. 284. -433. -457. -248.
      101. 327. 472. -103. -311. -386.</_>
    <_>
      167. 89. 15. -267. -67. -9. 381. 284. 66. -457. -248. -60. 327.
      472. 259. -311. -386. -193.</_>
    <_>
      -2. -145. -395. -8. -143. -413. -138. -412. -421. -154. -422.
      -445. -410. -421. -178. -402. -415. -158.</_>
    <_>
      -145. -395. -289. -143. -413. -551. -412. -421. -159. -422. -445.
      -203. -421. -178. -23. -415. -158. -21.</_>
    <_>
      -395. -289. -186. -413. -551. -432. -421. -159. -38. -445. -203.
      -44. -178. -23. -7. -158. -21. -13.</_>
    <_>
      279. 381. 284. -433. -457. -248. 101. 327. 472. -103. -311. -386.
      18. 121. 404. -14. -95. -294.</_>
    <_>
      381. 284. 66. -457. -248. -60. 327. 472. 259. -311. -386. -193.
      121. 404. 470. -95. -294. -344.</_>
    <_>
      284. 66. 12. -248. -60. -10. 472. 259. 34. -386. -193. -28. 404.
      470. 188. -294. -344. -144.</_>
    <_>
      -12. -138. -412. -10. -154. -422. -147. -410. -421. -139. -402.
      -415. -398. -424. -180. -394. -396. -156.</_>
    <_>
      -138. -412. -421. -154. -422. -445. -410. -421. -178. -402. -415.
      -158. -424. -180. -33. -396. -156. -27.</_>
    <_>
      -412. -421. -159. -422. -445. -203. -421. -178. -23. -415. -158.
      -21. -180. -33. -12. -156. -27. -8.</_>
    <_>
      327. 472. 259. -311. -386. -193. 121. 404. 470. -95. -294. -344.
      45. 178. 448. 5. -98. -296.</_>
    <_>
      472. 259. 34. -386. -193. -28. 404. 470. 188. -294. -344. -144.
      178. 448. 420. -98. -296. -286.</_>
    <_>
      -147. -410. -421. -139. -402. -415. -398. -424. -180. -394. -396.
      -156. -409. -179. -49. -393. -157. -21.</_>
    <_>
      404. 470. 188. -294. -344. -144. 178. 448. 420. -98. -296. -286.
      70. 245. 503. 4. -109. -239.</_>
    <_>
      -97. -67. -147. -245. -365. -331. -276. -220. -74. -128. -340.
      -454. -401. -263. -65. -117. -73. 7.</_>
    <_>
      448. 420. 116. -296. -286. -88. 245. 503. 316. -109. -239. -154.
      86. 358. 454. -12. -186. -278.</_>
    <_>
      -276. -220. -74. -128. -340. -454. -401. -263. -65. -117. -73. 7.
      -345. -80. -21. -339. -144. 3.</_>
    <_>
      28. -203. -207. -354. -407. -349. -34. -129. -108. -298. -233.
      -118. -31. -15. -87. 363. 415. 435.</_>
    <_>
      -7. -136. -395. -3. -130. -381. -121. -389. -416. -115. -355.
      -378. -357. -531. -204. -117. -255. -162.</_>
    <_>
      -136. -395. -409. -130. -381. -393. -389. -416. -178. -355. -378.
      -156. -531. -204. -56. -255. -162. -50.</_>
    <_>
      -121. -389. -416. -115. -355. -378. -357. -531. -204. -117. -255.
      -162. -505. -442. -76. -263. -184. -60.</_>
    <_>
      -389. -416. -178. -355. -378. -156. -531. -204. -56. -255. -162.
      -50. -442. -76. -42. -184. -60. -30.</_>
    <_>
      -200. 35. 210. -270. -389. -294. -359. 11. 268. -161. -225. -286.
      -375. 28. 96. 23. 88. -6.</_>
    <_>
      2. -357. -531. 2. -117. -255. -112. -505. -442. -120. -263. -184.
      -367. -540. -208. -145. -292. -172.</_>
    <_>
      -357. -531. -204. -117. -255. -162. -505. -442. -76. -263. -184.
      -60. -540. -208. -46. -292. -172. -32.</_>
    <_>
      -7. -112. -505. -5. -120. -263. -6. -367. -540. -6. -145. -292.
      -131. -520. -430. -125. -264. -160.</_>
    <_>
      -112. -505. -442. -120. -263. -184. -367. -540. -208. -145. -292.
      -172. -520. -430. -66. -264. -160. -28.</_>
    <_>
      345. 509. 189. -153. -245. -121. 150. 506. 409. -136. -242. -149.
      34. 401. 531. -58. -173. -249.</_>
    <_>
      509. 189. 21. -245. -121. -1. 506. 409. 47. -242. -149. -23. 401.
      531. 181. -173. -249. -119.</_>
    <_>
      -180. 34. -19. -42. -232. -347. -299. -231. -26. -81. -275. -432.
      -252. -301. -18. -298. -127. -32.</_>
    <_>
      43. 136. 112. -363. -272. -94. 41. 331. 306. -399. -297. -86. 59.
      387. 404. 115. 87. 30.</_>
    <_>
      -6. -367. -540. -6. -145. -292. -131. -520. -430. -125. -264.
      -160. -379. -526. -192. -169. -284. -156.</_>
    <_>
      -367. -540. -208. -145. -292. -172. -520. -430. -66. -264. -160.
      -28. -526. -192. -41. -284. -156. -25.</_>
    <_>
      150. 506. 409. -136. -242. -149. 34. 401. 531. -58. -173. -249. 9.
      177. 559. 29. -105. -225.</_>
    <_>
      506. 409. 47. -242. -149. -23. 401. 531. 181. -173. -249. -119.
      177. 559. 398. -105. -225. -110.</_>
    <_>
      -361. -370. 115. -75. -176. -149. -472. -439. 176. -32. -111.
      -146. -444. -402. 96. 74. 218. 210.</_>
    <_>
      -370. 115. 84. -176. -149. 20. -439. 176. 261. -111. -146. -77.
      -402. 96. 190. 218. 210. -10.</_>
    <_>
      -275. -234. 226. -165. -224. -266. -357. -147. 160. -101. -37. 26.
      -359. -5. 140. 153. 229. 288.</_>
    <_>
      41. 331. 306. -399. -297. -86. 59. 387. 404. 115. 87. 30. 68. 348.
      408. -112. -114. -92.</_>
    <_>
      331. 306. 0. -297. -86. 22. 387. 404. -5. 87. 30. 15. 348. 408. 3.
      -114. -92. -65.</_>
    <_>
      -9. -131. -520. -5. -125. -264. -26. -379. -526. -24. -169. -284.
      -170. -517. -401. -132. -269. -167.</_>
    <_>
      -131. -520. -430. -125. -264. -160. -379. -526. -192. -169. -284.
      -156. -517. -401. -64. -269. -167. -42.</_>
    <_>
      34. 401. 531. -58. -173. -249. 9. 177. 559. 29. -105. -225. -42.
      13. 484. 88. 7. -112.</_>
    <_>
      401. 531. 181. -173. -249. -119. 177. 559. 398. -105. -225. -110.
      13. 484. 532. 7. -112. -168.</_>
    <_>
      531. 181. 15. -249. -119. -3. 559. 398. 25. -225. -110. 1. 484.
      532. 101. -112. -168. -69.</_>
    <_>
      -472. -439. 176. -32. -111. -146. -444. -402. 96. 74. 218. 210.
      -298. -282. -7. 78. 200. 225.</_>
    <_>
