<?xml version="1.0"?>
<opencv_storage>
<opencv_ml_svm>
  <format>3</format>
  <svmType>C_SVC</svmType>
  <kernel>
    <type>LINEAR</type></kernel>
  <C>1.0000000000000001e-01</C>
  <term_criteria><iterations>10000000</iterations></term_criteria>
  <var_count>18</var_count>
  <class_count>2</class_count>
  <class_labels type_id="opencv-matrix">
    <rows>2</rows>
    <cols>1</cols>
    <dt>i</dt>
    <data>
      -1 1</data></class_labels>
  <sv_total>1</sv_total>
  <support_vectors>
    <_>
      -1.17239551e-13 -1.11688436e-13 -3.55271368e-15 -1.77635684e-15
      2.98427949e-13 -2.73558953e-13 6.39488462e-14 2.20268248e-13
      1.20792265e-13 -6.39488462e-14 -8.52651283e-14 -2.20268248e-13
      1.77635684e-13 -4.68514116e-14 -4.76063633e-13 -1.06581410e-13
      -2.20268248e-13 -3.33955086e-13</_></support_vectors>
  <uncompressed_sv_total>277</uncompressed_sv_total>
  <uncompressed_support_vectors>
    <_>
      14. -2. -12. -80. -70. -76. 48. -4. -10. 4. 26. 32. 69. -1. 0. 17.
      19. 26.</_>
    <_>
      -10. -22. 77. 48. 46. 139. -17. -29. 267. -11. -23. 67. -28. -36.
      281. -10. -16. -99.</_>
    <_>
      77. 80. -70. 139. 326. 336. 267. 256. -242. 67. 246. 240. 281.
      265. -249. -99. -255. -247.</_>
    <_>
      80. -70. -65. 326. 336. 179. 256. -242. -215. 246. 240. 75. 265.
      -249. -212. -255. -247. -86.</_>
    <_>
      -70. -65. -4. 336. 179. 100. -242. -215. -7. 240. 75. 1. -249.
      -212. -1. -247. -86. -3.</_>
    <_>
      104. 100. 13. 128. 74. -39. 89. -11. -17. 51. -21. -49. 37. -32.
      -47. -25. -26. -49.</_>
    <_>
      -17. -29. 267. -11. -23. 67. -28. -36. 281. -10. -16. -99. -73.
      -33. 110. 41. 5. -80.</_>
    <_>
      267. 256. -242. 67. 246. 240. 281. 265. -249. -99. -255. -247.
      110. 104. -76. -80. -256. -252.</_>
    <_>
      256. -242. -215. 246. 240. 75. 265. -249. -212. -255. -247. -86.
      104. -76. -56. -256. -252. -84.</_>
    <_>
      -242. -215. -7. 240. 75. 1. -249. -212. -1. -247. -86. -3. -76.
      -56. 8. -252. -84. -2.</_>
    <_>
      281. 265. -249. -99. -255. -247. 110. 104. -76. -80. -256. -252.
      23. 17. 7. 59. 61. 53.</_>
    <_>
      265. -249. -212. -255. -247. -86. 104. -76. -56. -256. -252. -84.
      17. 7. -3. 61. 53. 21.</_>
    <_>
      122. 12. -160. 80. 116. 54. 104. 102. -148. -88. -52. 112. -12.
      224. -25. -4. -34. 47.</_>
    <_>
      102. -148. -36. -52. 112. 114. 224. -25. -113. -34. 47. 91. 146.
      96. -78. 52. 14. 126.</_>
    <_>
      88. 37. -15. 120. 203. 209. 138. 53. -24. 58. 41. 42. -8. 31. 22.
      48. -103. -80.</_>
    <_>
      -18. 146. 96. 106. 52. 14. 25. 32. 170. 31. 14. 12. 25. -4. 118.
      17. -2. -88.</_>
    <_>
      30. -65. 3. 16. -1. -31. -81. -64. -8. -49. -142. -122. -271. -79.
      0. 73. -39. -66.</_>
    <_>
      46. -3. -81. 46. 95. -49. 198. -32. -271. 74. 148. 73. 213. -55.
      -317. 95. 13. 19.</_>
    <_>
      -3. -81. -64. 95. -49. -142. -32. -271. -79. 148. 73. -39. -55.
      -317. -145. 13. 19. 19.</_>
    <_>
      71. -68. -100. 167. 216. 86. 178. -123. -130. 2. 5. 50. 98. -61.
      8. -164. -185. -30.</_>
    <_>
      33. 12. -1. -17. -18. -19. 16. 1. -8. -140. -167. -184. -114. -87.
      -13. 86. -105. -181.</_>
    <_>
      126. 245. 164. -100. -33. 48. 152. 184. 190. 156. 54. -62. 116.
      -33. 125. 222. 71. -95.</_>
    <_>
      245. 164. -224. -33. 48. 96. 184. 190. -158. 54. -62. -18. -33.
      125. -77. 71. -95. -123.</_>
    <_>
      164. -224. -102. 48. 96. 68. 190. -158. -121. -62. -18. 57. 125.
      -77. -46. -95. -123. -42.</_>
    <_>
      198. -32. -271. 74. 148. 73. 213. -55. -317. 95. 13. 19. 147. -71.
      -245. -193. -193. -143.</_>
    <_>
      -32. -271. -79. 148. 73. -39. -55. -317. -145. 13. 19. 19. -71.
      -245. -132. -193. -143. -58.</_>
    <_>
      178. -123. -130. 2. 5. 50. 98. -61. 8. -164. -185. -30. -5. -18.
      31. 111. 72. -17.</_>
    <_>
      28. -76. -85. 138. 98. -39. 50. -141. -80. 42. 39. 116. 0. -50.
      41. -116. -72. 63.</_>
    <_>
      16. 1. -8. -140. -167. -184. -114. -87. -13. 86. -105. -181. -215.
      -274. -50. 285. 188. 40.</_>
    <_>
      1. -8. -4. -167. -184. -192. -87. -13. -5. -105. -181. -179. -274.
      -50. 96. 188. 40. 102.</_>
    <_>
      0. 3. 1. -174. -175. -177. -1. -3. 1. -85. -91. -95. -32. 13. 32.
      424. 415. 466.</_>
    <_>
      -3. 4. 0. -175. -172. -174. 9. 2. -9. -85. -78. -87. 0. -3. -129.
      478. 457. 341.</_>
    <_>
      4. 0. -11. -172. -174. -175. 2. -9. -8. -78. -87. -92. -3. -129.
      -117. 457. 341. 117.</_>
    <_>
      0. -11. -6. -174. -175. -174. -9. -8. -5. -87. -92. -89. -129.
      -117. -5. 341. 117. 5.</_>
    <_>
      129. -34. -5. 85. 162. 147. 277. -107. 56. 205. 203. 206. 329.
      -158. 42. 11. 14. -54.</_>
    <_>
      152. 184. 190. 156. 54. -62. 116. -33. 125. 222. 71. -95. 81. -97.
      62. -119. -67. -28.</_>
    <_>
      227. 213. -55. 75. 95. 13. 227. 147. -71. -107. -193. -193. 100.
      138. -22. -106. -156. -116.</_>
    <_>
      213. -55. -317. 95. 13. 19. 147. -71. -245. -193. -193. -143. 138.
      -22. -157. -156. -116. -29.</_>
    <_>
      8. 50. -141. -30. 42. 39. 31. 0. -50. -17. -116. -72. -41. -44. 4.
      65. 48. 14.</_>
    <_>
      -5. -114. -87. 191. 86. -105. 81. -215. -274. 195. 285. 188. 206.
      -48. -419. -72. 130. 249.</_>
    <_>
      -87. -13. -5. -105. -181. -179. -274. -50. 96. 188. 40. 102. -419.
      -190. 325. 249. 112. 139.</_>
    <_>
      -13. -5. -1. -181. -179. -175. -50. 96. 20. 40. 102. 220. -190.
      325. 82. 112. 139. 312.</_>
    <_>
      -15. -11. 0. -161. -141. -126. -84. 74. 12. 158. 154. 236. -194.
      194. -19. 326. 340. 347.</_>
    <_>
      -11. 13. 4. -83. -87. -96. -75. 25. 118. 137. 89. 224. -191. 37.
      337. 267. 211. 307.</_>
    <_>
      -1. -3. 1. -85. -91. -95. -32. 13. 32. 424. 415. 466. -71. 40. 80.
      435. 432. 456.</_>
    <_>
      9. 2. -9. -85. -78. -87. 0. -3. -129. 478. 457. 341. -45. -28.
      -336. 447. 398. 282.</_>
    <_>
      2. -9. -8. -78. -87. -92. -3. -129. -117. 457. 341. 117. -28.
      -336. -320. 398. 282. 96.</_>
    <_>
      -9. -8. -5. -87. -92. -89. -129. -117. -5. 341. 117. 5. -336.
      -320. -5. 282. 96. 5.</_>
    <_>
      -8. -5. -5. -92. -89. -83. -117. -5. -2. 117. 5. 2. -320. -5. -6.
      96. 5. 4.</_>
    <_>
      187. 277. -107. 79. 205. 203. 268. 329. -158. 4. 11. 14. 194. 289.
      -118. -70. -191. -194.</_>
    <_>
      277. -107. 56. 205. 203. 206. 329. -158. 42. 11. 14. -54. 289.
      -118. -88. -191. -194. -216.</_>
    <_>
      56. 116. -33. 206. 222. 71. 42. 81. -97. -54. -119. -67. -88. 119.
      44. -216. -243. -116.</_>
    <_>
      116. -33. 125. 222. 71. -95. 81. -97. 62. -119. -67. -28. 119. 44.
      35. -243. -116. -41.</_>
    <_>
      41. 81. -215. 63. 195. 285. 42. 206. -48. -66. -72. 130. -23. 225.
      157. -9. -49. -27.</_>
    <_>
      81. -215. -274. 195. 285. 188. 206. -48. -419. -72. 130. 249. 225.
      157. -398. -49. -27. 80.</_>
    <_>
      -215. -274. -50. 285. 188. 40. -48. -419. -190. 130. 249. 112.
      157. -398. -355. -27. 80. 73.</_>
    <_>
      -274. -50. 96. 188. 40. 102. -419. -190. 325. 249. 112. 139. -398.
      -355. 352. 80. 73. -92.</_>
    <_>
      -50. 96. 20. 40. 102. 220. -190. 325. 82. 112. 139. 312. -355.
      352. 110. 73. -92. -210.</_>
    <_>
      96. 20. -84. 102. 220. 158. 325. 82. -194. 139. 312. 326. 352.
      110. -142. -92. -210. -144.</_>
    <_>
      20. -84. 74. 220. 158. 154. 82. -194. 194. 312. 326. 340. 110.
      -142. 162. -210. -144. -138.</_>
    <_>
      -84. 74. 12. 158. 154. 236. -194. 194. -19. 326. 340. 347. -142.
      162. -65. -144. -138. -223.</_>
    <_>
      74. 12. -19. 154. 236. 217. 194. -19. -86. 340. 347. 268. 162.
      -65. -104. -138. -223. -208.</_>
    <_>
      12. -19. 3. 236. 217. 199. -19. -86. 54. 347. 268. 270. -65. -104.
      92. -223. -208. -190.</_>
    <_>
      -75. 25. 118. 137. 89. 224. -191. 37. 337. 267. 211. 307. -171. 8.
      334. -129. -82. -210.</_>
    <_>
      25. 118. 62. 89. 224. 396. 37. 337. 136. 211. 307. 428. 8. 334.
      94. -82. -210. -376.</_>
    <_>
      118. 62. -32. 224. 396. 424. 337. 136. -71. 307. 428. 435. 334.
      94. -51. -210. -376. -405.</_>
    <_>
      62. -32. 13. 396. 424. 415. 136. -71. 40. 428. 435. 432. 94. -51.
      25. -376. -405. -397.</_>
    <_>
      -32. 13. 32. 424. 415. 466. -71. 40. 80. 435. 432. 456. -51. 25.
      66. -405. -397. -450.</_>
    <_>
      13. 32. 0. 415. 466. 478. 40. 80. -45. 432. 456. 447. 25. 66. -55.
      -397. -450. -465.</_>
    <_>
      32. 0. -3. 466. 478. 457. 80. -45. -28. 456. 447. 398. 66. -55.
      -45. -450. -465. -443.</_>
    <_>
      0. -3. -129. 478. 457. 341. -45. -28. -336. 447. 398. 282. -55.
      -45. -318. -465. -443. -326.</_>
    <_>
      -3. -129. -117. 457. 341. 117. -28. -336. -320. 398. 282. 96. -45.
      -318. -304. -443. -326. -106.</_>
    <_>
      -129. -117. -5. 341. 117. 5. -336. -320. -5. 282. 96. 5. -318.
      -304. -4. -326. -106. 2.</_>
    <_>
      201. -130. 5. 1. -6. -5. 194. -133. 7. 2. -1. -3. 195. -129. 5. 3.
      11. 15.</_>
    <_>
      -11. -16. 268. 9. 4. 4. -19. -23. 194. 21. 11. -70. -8. -9. 42.
      322. 357. 300.</_>
    <_>
      268. 329. -158. 4. 11. 14. 194. 289. -118. -70. -191. -194. 42.
      157. -100. 300. 137. 26.</_>
    <_>
      329. -158. 42. 11. 14. -54. 289. -118. -88. -191. -194. -216. 157.
      -100. -87. 137. 26. 67.</_>
    <_>
      25. 58. 38. 189. 190. 212. 10. 131. 124. 92. 149. 286. -7. 258.
      238. -33. 20. 124.</_>
    <_>
      58. 38. 26. 190. 212. 248. 131. 124. 41. 149. 286. 351. 258. 238.
      19. 20. 124. 151.</_>
    <_>
      38. 26. 6. 212. 248. 246. 124. 41. -43. 286. 351. 319. 238. 19.
      -134. 124. 151. 70.</_>
    <_>
      26. 6. -38. 248. 246. 178. 41. -43. -161. 351. 319. 215. 19. -134.
      -273. 151. 70. -29.</_>
    <_>
      6. -38. -35. 246. 178. 131. -43. -161. -63. 319. 215. 111. -134.
      -273. -78. 70. -29. -52.</_>
    <_>
      206. -48. -419. -72. 130. 249. 225. 157. -398. -49. -27. 80. 124.
      207. -214. -60. -133. -6.</_>
    <_>
      -48. -419. -190. 130. 249. 112. 157. -398. -355. -27. 80. 73. 207.
      -214. -404. -133. -6. 136.</_>
    <_>
      -419. -190. 325. 249. 112. 139. -398. -355. 352. 80. 73. -92.
      -214. -404. 47. -6. 136. -53.</_>
    <_>
      325. 82. -194. 139. 312. 326. 352. 110. -142. -92. -210. -144. 47.
      49. -32. -53. -301. -318.</_>
    <_>
      82. -194. 194. 312. 326. 340. 110. -142. 162. -210. -144. -138.
      49. -32. 43. -301. -318. -333.</_>
    <_>
      -194. 194. -19. 326. 340. 347. -142. 162. -65. -144. -138. -223.
      -32. 43. -36. -318. -333. -338.</_>
    <_>
      194. -19. -86. 340. 347. 268. 162. -65. -104. -138. -223. -208.
      43. -36. -40. -333. -338. -260.</_>
    <_>
      -19. -86. 54. 347. 268. 270. -65. -104. 92. -223. -208. -190. -36.
      -40. 42. -338. -260. -264.</_>
    <_>
      54. -191. 37. 270. 267. 211. 92. -171. 8. -190. -129. -82. 42.
      -55. 0. -264. -259. -198.</_>
    <_>
      -191. 37. 337. 267. 211. 307. -171. 8. 334. -129. -82. -210. -55.
      0. 122. -259. -198. -290.</_>
    <_>
      37. 337. 136. 211. 307. 428. 8. 334. 94. -82. -210. -376. 0. 122.
      32. -198. -290. -398.</_>
    <_>
      337. 136. -71. 307. 428. 435. 334. 94. -51. -210. -376. -405. 122.
      32. -6. -290. -398. -386.</_>
    <_>
      136. -71. 40. 428. 435. 432. 94. -51. 25. -376. -405. -397. 32.
      -6. -17. -398. -386. -391.</_>
    <_>
      -71. 40. 80. 435. 432. 456. -51. 25. 66. -405. -397. -450. -6.
      -17. 44. -386. -391. -402.</_>
    <_>
      40. 80. -45. 432. 456. 447. 25. 66. -55. -397. -450. -465. -17.
      44. -17. -391. -402. -371.</_>
    <_>
      80. -45. -28. 456. 447. 398. 66. -55. -45. -450. -465. -443. 44.
      -17. -37. -402. -371. -347.</_>
    <_>
      -45. -28. -336. 447. 398. 282. -55. -45. -318. -465. -443. -326.
      -17. -37. -108. -371. -347. -246.</_>
    <_>
      -28. -336. -320. 398. 282. 96. -45. -318. -304. -443. -326. -106.
      -37. -108. -123. -347. -246. -75.</_>
    <_>
      -336. -320. -5. 282. 96. 5. -318. -304. -4. -326. -106. 2. -108.
      -123. -4. -246. -75. -2.</_>
    <_>
      2. -19. -23. 24. 21. 11. 26. -8. -9. 284. 322. 357. 24. -10. 41.
      344. 302. 315.</_>
    <_>
      -19. -23. 194. 21. 11. -70. -8. -9. 42. 322. 357. 300. -10. 41.
      -30. 302. 315. 350.</_>
    <_>
      194. 289. -118. -70. -191. -194. 42. 157. -100. 300. 137. 26. -30.
      55. -187. 350. 339. 261.</_>
    <_>
      289. -118. -88. -191. -194. -216. 157. -100. -87. 137. 26. 67. 55.
      -187. -15. 339. 261. 205.</_>
    <_>
      -118. -88. 119. -194. -216. -243. -100. -87. 151. 26. 67. 127.
      -187. -15. 152. 261. 205. 218.</_>
    <_>
      44. 35. -57. -116. -41. -63. 60. 29. -76. 48. -17. -20. -98. 21.
      -78. 140. 39. 32.</_>
    <_>
      10. 131. 124. 92. 149. 286. -7. 258. 238. -33. 20. 124. -4. 239.
      220. -76. -145. -286.</_>
    <_>
      131. 124. 41. 149. 286. 351. 258. 238. 19. 20. 124. 151. 239. 220.
      0. -145. -286. -350.</_>
    <_>
      124. 41. -43. 286. 351. 319. 238. 19. -134. 124. 151. 70. 220. 0.
      -171. -286. -350. -325.</_>
    <_>
      41. -43. -161. 351. 319. 215. 19. -134. -273. 151. 70. -29. 0.
      -171. -237. -350. -325. -227.</_>
    <_>
      -43. -161. -63. 319. 215. 111. -134. -273. -78. 70. -29. -52.
      -171. -237. -28. -325. -227. -118.</_>
    <_>
      225. 157. -398. -49. -27. 80. 124. 207. -214. -60. -133. -6. -1.
      97. 22. 195. 33. 32.</_>
    <_>
      157. -398. -355. -27. 80. 73. 207. -214. -404. -133. -6. 136. 97.
      22. -371. 33. 32. 159.</_>
    <_>
      352. 110. -142. -92. -210. -144. 47. 49. -32. -53. -301. -318.
      -127. 81. -16. 207. 313. 378.</_>
    <_>
      110. -142. 162. -210. -144. -138. 49. -32. 43. -301. -318. -333.
      81. -16. 17. 313. 378. 383.</_>
    <_>
      -142. 162. -65. -144. -138. -223. -32. 43. -36. -318. -333. -338.
      -16. 17. -5. 378. 383. 393.</_>
    <_>
      162. -65. -104. -138. -223. -208. 43. -36. -40. -333. -338. -260.
      17. -5. -37. 383. 393. 349.</_>
    <_>
      -65. -104. 92. -223. -208. -190. -36. -40. 42. -338. -260. -264.
      -5. -37. -24. 393. 349. 290.</_>
    <_>
      92. -171. 8. -190. -129. -82. 42. -55. 0. -264. -259. -198. -24.
      53. 53. 290. 327. 427.</_>
    <_>
      8. 334. 94. -82. -210. -376. 0. 122. 32. -198. -290. -398. 53. -4.
      8. 427. 446. 404.</_>
    <_>
      334. 94. -51. -210. -376. -405. 122. 32. -6. -290. -398. -386. -4.
      8. -2. 446. 404. 372.</_>
    <_>
      94. -51. 25. -376. -405. -397. 32. -6. -17. -398. -386. -391. 8.
      -2. -22. 404. 372. 376.</_>
    <_>
      -51. 25. 66. -405. -397. -450. -6. -17. 44. -386. -391. -402. -2.
      -22. 65. 372. 376. 403.</_>
    <_>
      25. 66. -55. -397. -450. -465. -17. 44. -17. -391. -402. -371.
      -22. 65. 8. 376. 403. 418.</_>
    <_>
      66. -55. -45. -450. -465. -443. 44. -17. -37. -402. -371. -347.
      65. 8. -30. 403. 418. 426.</_>
    <_>
      -55. -45. -318. -465. -443. -326. -17. -37. -108. -371. -347.
      -246. 8. -30. -129. 418. 426. 311.</_>
    <_>
      -45. -318. -304. -443. -326. -106. -37. -108. -123. -347. -246.
      -75. -30. -129. -146. 426. 311. 96.</_>
    <_>
      3. 53. 104. 1. 43. 174. 1. 178. 294. 1. 82. 266. 2. 229. 349. 10.
      -19. -97.</_>
    <_>
      104. 26. -8. 174. 284. 322. 294. 24. -10. 266. 344. 302. 349. -12.
      -56. -97. -156. -196.</_>
    <_>
      26. -8. -9. 284. 322. 357. 24. -10. 41. 344. 302. 315. -12. -56.
      61. -156. -196. -235.</_>
    <_>
      -8. -9. 42. 322. 357. 300. -10. 41. -30. 302. 315. 350. -56. 61.
      -15. -196. -235. -235.</_>
    <_>
      -9. 42. 157. 357. 300. 137. 41. -30. 55. 315. 350. 339. 61. -15.
      10. -235. -235. -254.</_>
    <_>
      157. -100. -87. 137. 26. 67. 55. -187. -15. 339. 261. 205. 10.
      -217. -33. -254. -251. -243.</_>
    <_>
      151. 60. 29. 127. 48. -17. 152. -98. 21. 218. 140. 39. 182. -56.
      6. -244. -94. 34.</_>
    <_>
      258. 238. 19. 20. 124. 151. 239. 220. 0. -145. -286. -350. 91. 80.
      -8. -209. -356. -440.</_>
    <_>
      238. 19. -134. 124. 151. 70. 220. 0. -171. -286. -350. -325. 80.
      -8. -71. -356. -440. -373.</_>
    <_>
      19. -134. -273. 151. 70. -29. 0. -171. -237. -350. -325. -227. -8.
      -71. -90. -440. -373. -224.</_>
    <_>
      -134. -273. -78. 70. -29. -52. -171. -237. -28. -325. -227. -118.
      -71. -90. 10. -373. -224. -148.</_>
    <_>
      -10. 21. 3. -20. -43. -35. -63. 3. 78. -187. -235. -186. -132.
      -43. 136. -132. -199. -236.</_>
    <_>
      124. 207. -214. -60. -133. -6. -1. 97. 22. 195. 33. 32. -60. -41.
      178. 44. 9. 28.</_>
    <_>
      207. -214. -404. -133. -6. 136. 97. 22. -371. 33. 32. 159. -41.
      178. -351. 9. 28. 77.</_>
    <_>
      -404. 47. 49. 136. -53. -301. -371. -127. 81. 159. 207. 313. -351.
      -44. 211. 77. 132. 239.</_>
    <_>
      -40. 42. -55. -260. -264. -259. -37. -24. 53. 349. 290. 327. -82.
      -66. 71. 322. 294. 233.</_>
    <_>
      0. 122. 32. -198. -290. -398. 53. -4. 8. 427. 446. 404. 54. -16.
      -48. 152. 122. 96.</_>
    <_>
      -6. -17. 44. -386. -391. -402. -2. -22. 65. 372. 376. 403. -46. 0.
      39. 28. 2. -29.</_>
    <_>
      178. 294. 24. 82. 266. 344. 229. 349. -12. -19. -97. -156. 119.
      185. -14. 15. -181. -288.</_>
    <_>
      294. 24. -10. 266. 344. 302. 349. -12. -56. -97. -156. -196. 185.
      -14. -62. -181. -288. -256.</_>
    <_>
      24. -10. 41. 344. 302. 315. -12. -56. 61. -156. -196. -235. -14.
      -62. 82. -288. -256. -202.</_>
    <_>
      41. -30. 55. 315. 350. 339. 61. -15. 10. -235. -235. -254. 82. 14.
      -32. -202. -152. -146.</_>
    <_>
      -30. 55. -187. 350. 339. 261. -15. 10. -217. -235. -254. -251. 14.
      -32. -151. -152. -146. -125.</_>
    <_>
      55. -187. -15. 339. 261. 205. 10. -217. -33. -254. -251. -243.
      -32. -151. -16. -146. -125. -50.</_>
    <_>
      -187. -15. 152. 261. 205. 218. -217. -33. 182. -251. -243. -244.
      -151. -16. 192. -125. -50. -22.</_>
    <_>
      152. -98. 21. 218. 140. 39. 182. -56. 6. -244. -94. 34. 192. 72.
      42. -22. -34. 2.</_>
    <_>
      -13. 13. 7. 5. 5. 1. -20. -89. -80. 338. 229. 44. -24. -297. -269.
      366. 263. 51.</_>
    <_>
      13. 7. -21. 5. 1. -1. -89. -80. -8. 229. 44. -28. -297. -269. 18.
      263. 51. -40.</_>
    <_>
      239. 220. 0. -145. -286. -350. 91. 80. -8. -209. -356. -440. 16.
      -2. -10. 28. 18. 18.</_>
    <_>
      220. 0. -171. -286. -350. -325. 80. -8. -71. -356. -440. -373. -2.
      -10. 5. 18. 18. 25.</_>
    <_>
      0. -171. -237. -350. -325. -227. -8. -71. -90. -440. -373. -224.
      -10. 5. -40. 18. 25. 2.</_>
    <_>
      -1. 97. 22. 195. 33. 32. -60. -41. 178. 44. 9. 28. -63. 6. 250.
      -155. -76. 24.</_>
    <_>
      22. -371. -127. 32. 159. 207. 178. -351. -44. 28. 77. 132. 250.
      -342. -140. 24. 56. -86.</_>
    <_>
      -371. -127. 81. 159. 207. 313. -351. -44. 211. 77. 132. 239. -342.
      -140. 184. 56. -86. -316.</_>
    <_>
      -127. 81. -16. 207. 313. 378. -44. 211. -37. 132. 239. 283. -140.
      184. -29. -86. -316. -379.</_>
    <_>
      81. -16. 17. 313. 378. 383. 211. -37. 51. 239. 283. 291. 184. -29.
      55. -316. -379. -375.</_>
    <_>
      -16. 17. -5. 378. 383. 393. -37. 51. -1. 283. 291. 319. -29. 55.
      13. -379. -375. -385.</_>
    <_>
      17. -5. -37. 383. 393. 349. 51. -1. -82. 291. 319. 322. 55. 13.
      -57. -375. -385. -349.</_>
    <_>
      -5. -37. -24. 393. 349. 290. -1. -82. -66. 319. 322. 294. 13. -57.
      -64. -385. -349. -294.</_>
    <_>
      -37. -24. 53. 349. 290. 327. -82. -66. 71. 322. 294. 233. -57.
      -64. -27. -349. -294. -329.</_>
    <_>
      -24. 53. 53. 290. 327. 427. -66. 71. 54. 294. 233. 152. -64. -27.
      -25. -294. -329. -425.</_>
    <_>
      53. 53. -4. 327. 427. 446. 71. 54. -16. 233. 152. 122. -27. -25.
      15. -329. -425. -443.</_>
    <_>
      53. -4. 8. 427. 446. 404. 54. -16. -48. 152. 122. 96. -25. 15.
      -65. -425. -443. -403.</_>
    <_>
      -4. 8. -2. 446. 404. 372. -16. -48. -46. 122. 96. 28. 15. -65.
      -68. -443. -403. -374.</_>
    <_>
      8. -2. -22. 404. 372. 376. -48. -46. 0. 96. 28. 2. -65. -68. -9.
      -403. -374. -379.</_>
    <_>
      -2. -22. 65. 372. 376. 403. -46. 0. 39. 28. 2. -29. -68. -9. -6.
      -374. -379. -402.</_>
    <_>
      -22. 65. 8. 376. 403. 418. 0. 39. 8. 2. -29. -70. -9. -6. -3.
      -379. -402. -417.</_>
    <_>
      65. 8. -30. 403. 418. 426. 39. 8. -2. -29. -70. -50. -6. -3. 17.
      -402. -417. -429.</_>
    <_>
      8. -30. -129. 418. 426. 311. 8. -2. -247. -70. -50. -25. -3. 17.
      -125. -417. -429. -313.</_>
    <_>
      -30. -129. -146. 426. 311. 96. -2. -247. -229. -50. -25. -11. 17.
      -125. -120. -429. -313. -96.</_>
    <_>
      -129. -146. -3. 311. 96. 1. -247. -229. -1. -25. -11. 3. -125.
      -120. 1. -313. -96. 1.</_>
    <_>
      229. 349. -12. -19. -97. -156. 119. 185. -14. 15. -181. -288. 48.
      40. -56. 354. 334. 254.</_>
    <_>
      349. -12. -56. -97. -156. -196. 185. -14. -62. -181. -288. -256.
      40. -56. -47. 334. 254. 195.</_>
    <_>
      -12. -56. 61. -156. -196. -235. -14. -62. 82. -288. -256. -202.
      -56. -47. 143. 254. 195. 217.</_>
    <_>
      10. -217. -33. -254. -251. -243. -32. -151. -16. -146. -125. -50.
      -37. -128. 29. 243. 240. 233.</_>
    <_>
      182. -56. 6. -244. -94. 34. 192. 72. 42. -22. -34. 2. 142. -17.
      83. 200. 73. -11.</_>
    <_>
      -56. 6. -86. -94. 34. 18. 72. 42. -122. -34. 2. 18. -17. 83. -140.
      73. -11. -4.</_>
    <_>
      -6. 36. 114. -122. -72. 86. 10. 142. 344. -140. -68. 110. 9. 166.
      458. 45. -4. -44.</_>
    <_>
      114. 59. -20. 86. 271. 338. 344. 200. -24. 110. 296. 366. 458.
      300. -64. -44. -16. -26.</_>
    <_>
      59. -20. -89. 271. 338. 229. 200. -24. -297. 296. 366. 263. 300.
      -64. -403. -16. -26. -69.</_>
    <_>
      -20. -89. -80. 338. 229. 44. -24. -297. -269. 366. 263. 51. -64.
      -403. -327. -26. -69. -21.</_>
    <_>
      -89. -80. -8. 229. 44. -28. -297. -269. 18. 263. 51. -40. -403.
      -327. 26. -69. -21. 20.</_>
    <_>
      178. -351. -44. 28. 77. 132. 250. -342. -140. 24. 56. -86. 260.
      -308. -368. -46. -34. -86.</_>
    <_>
      -44. 211. -37. 132. 239. 283. -140. 184. -29. -86. -316. -379.
      -368. 50. -11. -86. -218. -271.</_>
    <_>
      211. -37. 51. 239. 283. 291. 184. -29. 55. -316. -379. -375. 50.
      -11. 62. -218. -271. -250.</_>
    <_>
      -37. 51. -1. 283. 291. 319. -29. 55. 13. -379. -375. -385. -11.
      62. 3. -271. -250. -243.</_>
    <_>
      51. -1. -82. 291. 319. 322. 55. 13. -57. -375. -385. -349. 62. 3.
      -53. -250. -243. -285.</_>
    <_>
      -1. -82. -66. 319. 322. 294. 13. -57. -64. -385. -349. -294. 3.
      -53. -23. -243. -285. -295.</_>
    <_>
      -82. -66. 71. 322. 294. 233. -57. -64. -27. -349. -294. -329. -53.
      -23. -44. -285. -295. -236.</_>
    <_>
      -66. 71. 54. 294. 233. 152. -64. -27. -25. -294. -329. -425. -23.
      -44. 101. -295. -236. -31.</_>
    <_>
      71. 54. -16. 233. 152. 122. -27. -25. 15. -329. -425. -443. -44.
      101. 40. -236. -31. 138.</_>
    <_>
      -16. -48. -46. 122. 96. 28. 15. -65. -68. -443. -403. -374. 40.
      -134. -21. 138. 54. 3.</_>
    <_>
      -48. -46. 0. 96. 28. 2. -65. -68. -9. -403. -374. -379. -134. -21.
      96. 54. 3. 160.</_>
    <_>
      -46. 0. 39. 28. 2. -29. -68. -9. -6. -374. -379. -402. -21. 96.
      -3. 3. 160. 291.</_>
    <_>
      39. 8. -2. -29. -70. -50. -6. -3. 17. -402. -417. -429. -3. -46.
      16. 291. 266. 234.</_>
    <_>
      8. -2. -247. -70. -50. -25. -3. 17. -125. -417. -429. -313. -46.
      16. -87. 266. 234. 155.</_>
    <_>
      -2. -247. -229. -50. -25. -11. 17. -125. -120. -429. -313. -96.
      16. -87. 17. 234. 155. 113.</_>
    <_>
      -247. -229. -1. -25. -11. 3. -125. -120. 1. -313. -96. 1. -87. 17.
      74. 155. 113. 226.</_>
    <_>
      153. -181. -191. -7. -9. 19. 148. -183. -71. 6. 1. 91. 144. -191.
      69. 0. -7. 35.</_>
    <_>
      119. 185. -14. 15. -181. -288. 48. 40. -56. 354. 334. 254. 97. -3.
      -102. 311. 337. 328.</_>
    <_>
      185. -14. -62. -181. -288. -256. 40. -56. -47. 334. 254. 195. -3.
      -102. -54. 337. 328. 334.</_>
    <_>
      82. 14. -32. -202. -152. -146. 143. 27. -37. 217. 241. 243. 111.
      -60. -82. 273. 130. -4.</_>
    <_>
      14. -32. -151. -152. -146. -125. 27. -37. -128. 241. 243. 240.
      -60. -82. -117. 130. -4. -35.</_>
    <_>
      192. 72. 42. -22. -34. 2. 142. -17. 83. 200. 73. -11. 88. -129.
      90. 40. 1. -20.</_>
    <_>
      10. 142. 344. -140. -68. 110. 9. 166. 458. 45. -4. -44. -20. 107.
      438. 70. 31. -8.</_>
    <_>
      142. 344. 200. -68. 110. 296. 166. 458. 300. -4. -44. -16. 107.
      438. 352. 31. -8. -4.</_>
    <_>
      344. 200. -24. 110. 296. 366. 458. 300. -64. -44. -16. -26. 438.
      352. -177. -8. -4. -55.</_>
    <_>
      200. -24. -297. 296. 366. 263. 300. -64. -403. -16. -26. -69. 352.
      -177. -395. -4. -55. -117.</_>
    <_>
      -24. -297. -269. 366. 263. 51. -64. -403. -327. -26. -69. -21.
      -177. -395. -200. -55. -117. -30.</_>
    <_>
      -297. -269. 18. 263. 51. -40. -403. -327. 26. -69. -21. 20. -395.
      -200. 27. -117. -30. 57.</_>
    <_>
      250. -342. -140. 24. 56. -86. 260. -308. -368. -46. -34. -86. 203.
      -246. -298. -53. -60. 124.</_>
    <_>
      -342. -140. 184. 56. -86. -316. -308. -368. 50. -34. -86. -218.
      -246. -298. 68. -60. 124. 344.</_>
    <_>
      -140. 184. -29. -86. -316. -379. -368. 50. -11. -86. -218. -271.
      -298. 68. -43. 124. 344. 383.</_>
    <_>
      184. -29. 55. -316. -379. -375. 50. -11. 62. -218. -271. -250. 68.
      -43. 68. 344. 383. 336.</_>
    <_>
      55. 13. -57. -375. -385. -349. 62. 3. -53. -250. -243. -285. 68.
      -24. -92. 336. 308. 284.</_>
    <_>
      13. -57. -64. -385. -349. -294. 3. -53. -23. -243. -285. -295.
      -24. -92. 45. 308. 284. 323.</_>
    <_>
      -57. -64. -27. -349. -294. -329. -53. -23. -44. -285. -295. -236.
      -92. 45. -66. 284. 323. 310.</_>
    <_>
      -65. -68. -9. -403. -374. -379. -134. -21. 96. 54. 3. 160. -281.
      52. 281. 331. 308. 409.</_>
    <_>
      -3. 17. -125. -417. -429. -313. -46. 16. -87. 266. 234. 155. -70.
      3. -292. 438. 433. 294.</_>
    <_>
      -125. -120. 1. -313. -96. 1. -87. 17. 74. 155. 113. 226. -292. 92.
      235. 294. 206. 329.</_>
    <_>
      -2. -8. 3. 4. 6. 5. 30. -13. -38. 328. 353. 308. 11. -31. -101.
      369. 307. 271.</_>
    <_>
      3. 13. 188. 5. 3. 2. -38. -58. 123. 308. 198. 63. -101. -203. 11.
      271. 173. 51.</_>
    <_>
      13. 188. 205. 3. 2. -1. -58. 123. 200. 198. 63. -4. -203. 11. 197.
      173. 51. 3.</_>
    <_>
      148. -183. -71. 6. 1. 91. 144. -191. 69. 0. -7. 35. 124. -190. 70.
      -4. -16. -56.</_>
    <_>
      -71. 134. 48. 91. 266. 354. 69. 309. 97. 35. 175. 311. 70. 338.
      98. -56. -166. -272.</_>
    <_>
      134. 48. 40. 266. 354. 334. 309. 97. -3. 175. 311. 337. 338. 98.
      -36. -166. -272. -330.</_>
    <_>
      48. 40. -56. 354. 334. 254. 97. -3. -102. 311. 337. 328. 98. -36.
      -52. -272. -330. -304.</_>
    <_>
      40. -56. -47. 334. 254. 195. -3. -102. -54. 337. 328. 334. -36.
      -52. -41. -330. -304. -247.</_>
    <_>
      143. 27. -37. 217. 241. 243. 111. -60. -82. 273. 130. -4. -3.
      -128. -116. -287. -326. -294.</_>
    <_>
      -37. -128. 29. 243. 240. 233. -82. -117. 68. -4. -35. 22. -116.
      -74. 103. -294. -254. -233.</_>
    <_>
      142. -17. 83. 200. 73. -11. 88. -129. 90. 40. 1. -20. 106. -55.
      82. -198. -67. 20.</_>
    <_>
      9. 166. 458. 45. -4. -44. -20. 107. 438. 70. 31. -8. -55. 100.
      362. 45. 42. -2.</_>
    <_>
      458. 300. -64. -44. -16. -26. 438. 352. -177. -8. -4. -55. 362.
      339. -188. -2. -95. -68.</_>
    <_>
      300. -64. -403. -16. -26. -69. 352. -177. -395. -4. -55. -117.
      339. -188. -390. -95. -68. -12.</_>
    <_>
      -64. -403. -327. -26. -69. -21. -177. -395. -200. -55. -117. -30.
      -188. -390. -119. -68. -12. -13.</_>
    <_>
      260. -308. -368. -46. -34. -86. 203. -246. -298. -53. -60. 124.
      135. -167. -89. -63. -45. 59.</_>
    <_>
      -368. 50. -11. -86. -218. -271. -298. 68. -43. 124. 344. 383. -89.
      159. -78. 59. 139. 156.</_>
    <_>
      -44. 101. 40. -236. -31. 138. -66. 248. 133. 310. 230. 301. -138.
      101. 216. 38. -101. -236.</_>
    <_>
      101. 40. -134. -31. 138. 54. 248. 133. -281. 230. 301. 331. 101.
      216. -238. -101. -236. -140.</_>
    <_>
      40. -134. -21. 138. 54. 3. 133. -281. 52. 301. 331. 308. 216.
      -238. 67. -236. -140. -59.</_>
    <_>
      96. -3. -46. 160. 291. 266. 281. -16. -70. 409. 450. 438. 235.
      -46. -22. -191. -308. -278.</_>
    <_>
      -3. -46. 16. 291. 266. 234. -16. -70. 3. 450. 438. 433. -46. -22.
      -24. -308. -278. -252.</_>
    <_>
      16. -87. 17. 234. 155. 113. 3. -292. 92. 433. 294. 206. -24. -327.
      99. -252. -175. -115.</_>
    <_>
      74. 30. -13. 226. 328. 353. 235. 11. -31. 329. 369. 307. 254. -72.
      -42. -212. -316. -348.</_>
    <_>
      30. -13. -38. 328. 353. 308. 11. -31. -101. 369. 307. 271. -72.
      -42. -83. -316. -348. -305.</_>
    <_>
      -13. -38. -58. 353. 308. 198. -31. -101. -203. 307. 271. 173. -42.
      -83. -207. -348. -305. -193.</_>
    <_>
      -38. -58. 123. 308. 198. 63. -101. -203. 11. 271. 173. 51. -83.
      -207. 26. -305. -193. -60.</_>
    <_>
      144. -191. 69. 0. -7. 35. 124. -190. 70. -4. -16. -56. 113. -186.
      -43. 19. 24. -45.</_>
    <_>
      69. 309. 97. 35. 175. 311. 70. 338. 98. -56. -166. -272. -43. 152.
      19. -45. -234. -393.</_>
    <_>
      309. 97. -3. 175. 311. 337. 338. 98. -36. -166. -272. -330. 152.
      19. -29. -234. -393. -407.</_>
    <_>
      97. -3. -102. 311. 337. 328. 98. -36. -52. -272. -330. -304. 19.
      -29. -6. -393. -407. -380.</_>
    <_>
      -3. -102. -54. 337. 328. 334. -36. -52. -41. -330. -304. -247.
      -29. -6. -35. -407. -380. -385.</_>
    <_>
      -102. -54. 111. 328. 334. 273. -52. -41. -3. -304. -247. -287. -6.
      -35. -62. -380. -385. -398.</_>
    <_>
      -54. 111. -60. 334. 273. 130. -41. -3. -128. -247. -287. -326.
      -35. -62. -65. -385. -398. -355.</_>
    <_>
      111. -60. -82. 273. 130. -4. -3. -128. -116. -287. -326. -294.
      -62. -65. -34. -398. -355. -242.</_>
    <_>
      68. 88. -129. 22. 40. 1. 103. 106. -55. -233. -198. -67. 32. 170.
      137. -212. -254. -129.</_>
    <_>
      57. -7. -95. 27. -29. 35. -8. -29. 6. -18. -49. -34. 3. -22. -22.
      329. 378. 342.</_>
    <_>
      -95. -90. -20. 35. 94. 70. 6. -66. -55. -34. 32. 45. -22. -19.
      -132. 342. 295. 252.</_>
    <_>
      -20. 107. 438. 70. 31. -8. -55. 100. 362. 45. 42. -2. -132. -7.
      232. 252. 71. -122.</_>
    <_>
      107. 438. 352. 31. -8. -4. 100. 362. 339. 42. -2. -95. -7. 232.
      322. 71. -122. -176.</_>
    <_>
      438. 352. -177. -8. -4. -55. 362. 339. -188. -2. -95. -68. 232.
      322. 19. -122. -176. -13.</_>
    <_>
      352. -177. -395. -4. -55. -117. 339. -188. -390. -95. -68. -12.
      322. 19. -296. -176. -13. 232.</_>
    <_>
      27. -8. 14. 57. 58. 46. 32. 7. 28. -14. 5. 46. 16. 31. 45. 360.
      349. 349.</_>
    <_>
      14. -52. -75. 46. 48. 63. 28. -11. -31. 46. 99. 169. 45. 32. 26.
      349. 356. 386.</_>
    <_>
      -52. -75. 14. 48. 63. 68. -11. -31. 34. 99. 169. 228. 32. 26. 54.
      356. 386. 404.</_>
    <_>
      14. 11. 6. 68. 63. 54. 34. 39. -32. 228. 281. 280. 54. 66. -106.
      404. 398. 352.</_>
    <_>
      11. 6. 2. 63. 54. 42. 39. -32. -90. 281. 280. 162. 66. -106. -273.
      398. 352. 213.</_>
    <_>
      6. 2. 3. 54. 42. 27. -32. -90. -46. 280. 162. 36. -106. -273.
      -143. 352. 213. 59.</_>
    <_>
      2. 3. 1. 42. 27. 13. -90. -46. -3. 162. 36. -3. -273. -143. -2.
      213. 59. 2.</_></uncompressed_support_vectors>
  <decision_functions>
    <_>
      <sv_count>1</sv_count>
      <rho>-1.0000000000011506e+00</rho>
      <alpha>
        1.</alpha>
      <index>
        0</index></_></decision_functions></opencv_ml_svm>
</opencv_storage>
