<?xml version="1.0"?>
<opencv_storage>
<opencv_ml_svm>
  <format>3</format>
  <svmType>C_SVC</svmType>
  <kernel>
    <type>LINEAR</type></kernel>
  <C>1.0000000000000001e-01</C>
  <term_criteria><iterations>10000000</iterations></term_criteria>
  <var_count>18</var_count>
  <class_count>2</class_count>
  <class_labels type_id="opencv-matrix">
    <rows>2</rows>
    <cols>1</cols>
    <dt>i</dt>
    <data>
      -1 1</data></class_labels>
  <sv_total>1</sv_total>
  <support_vectors>
    <_>
      -5.42367436e-03 2.50116712e-03 -2.57462682e-03 -3.97980260e-03
      3.15695070e-03 -1.38726842e-03 -2.02524522e-03 3.81168968e-04
      1.82446511e-03 1.99374813e-03 -3.86457471e-03 2.95873825e-03
      2.83139967e-03 -2.29776269e-04 3.88734828e-04 -3.33245099e-03
      6.77157147e-03 -2.09841691e-03</_></support_vectors>
  <uncompressed_sv_total>49</uncompressed_sv_total>
  <uncompressed_support_vectors>
    <_>
      77. 80. -70. 139. 326. 336. 267. 256. -242. 67. 246. 240. 281.
      265. -249. -99. -255. -247.</_>
    <_>
      80. -70. -65. 326. 336. 179. 256. -242. -215. 246. 240. 75. 265.
      -249. -212. -255. -247. -86.</_>
    <_>
      267. 256. -242. 67. 246. 240. 281. 265. -249. -99. -255. -247.
      110. 104. -76. -80. -256. -252.</_>
    <_>
      256. -242. -215. 246. 240. 75. 265. -249. -212. -255. -247. -86.
      104. -76. -56. -256. -252. -84.</_>
    <_>
      -242. -215. -7. 240. 75. 1. -249. -212. -1. -247. -86. -3. -76.
      -56. 8. -252. -84. -2.</_>
    <_>
      265. -249. -212. -255. -247. -86. 104. -76. -56. -256. -252. -84.
      17. 7. -3. 61. 53. 21.</_>
    <_>
      88. 37. -15. 120. 203. 209. 138. 53. -24. 58. 41. 42. -8. 31. 22.
      48. -103. -80.</_>
    <_>
      115. -253. -77. 41. 43. -9. 130. -269. -123. 8. 5. -5. 126. -253.
      -119. -56. -41. -11.</_>
    <_>
      130. -269. -123. 8. 5. -5. 126. -253. -119. -56. -41. -11. 125.
      -235. -85. -25. -23. -1.</_>
    <_>
      170. 11. -141. 12. 63. 97. 118. 43. -78. -88. -159. -98. 2. 50.
      68. -134. -172. -80.</_>
    <_>
      30. -65. 3. 16. -1. -31. -81. -64. -8. -49. -142. -122. -271. -79.
      0. 73. -39. -66.</_>
    <_>
      150. 4. -164. 2. -10. 4. 108. -2. -97. -118. -154. -107. 18. 0.
      15. -114. -166. -99.</_>
    <_>
      65. 5. -59. 109. 199. 119. 150. 7. -161. -62. -65. -85. 83. 6.
      -108. -145. -210. -138.</_>
    <_>
      71. -68. -100. 167. 216. 86. 178. -123. -130. 2. 5. 50. 98. -61.
      8. -164. -185. -30.</_>
    <_>
      33. 12. -1. -17. -18. -19. 16. 1. -8. -140. -167. -184. -114. -87.
      -13. 86. -105. -181.</_>
    <_>
      245. 164. -224. -33. 48. 96. 184. 190. -158. 54. -62. -18. -33.
      125. -77. 71. -95. -123.</_>
    <_>
      164. -224. -102. 48. 96. 68. 190. -158. -121. -62. -18. 57. 125.
      -77. -46. -95. -123. -42.</_>
    <_>
      -32. -271. -79. 148. 73. -39. -55. -317. -145. 13. 19. 19. -71.
      -245. -132. -193. -143. -58.</_>
    <_>
      227. 213. -55. 75. 95. 13. 227. 147. -71. -107. -193. -193. 100.
      138. -22. -106. -156. -116.</_>
    <_>
      213. -55. -317. 95. 13. 19. 147. -71. -245. -193. -193. -143. 138.
      -22. -157. -156. -116. -29.</_>
    <_>
      176. -185. -200. 0. -25. -46. 164. -198. -204. -4. -4. 0. 162.
      -192. -202. -4. 0. 4.</_>
    <_>
      277. -107. 56. 205. 203. 206. 329. -158. 42. 11. 14. -54. 289.
      -118. -88. -191. -194. -216.</_>
    <_>
      116. -33. 125. 222. 71. -95. 81. -97. 62. -119. -67. -28. 119. 44.
      35. -243. -116. -41.</_>
    <_>
      81. -215. -274. 195. 285. 188. 206. -48. -419. -72. 130. 249. 225.
      157. -398. -49. -27. 80.</_>
    <_>
      96. 20. -84. 102. 220. 158. 325. 82. -194. 139. 312. 326. 352.
      110. -142. -92. -210. -144.</_>
    <_>
      -84. 74. 12. 158. 154. 236. -194. 194. -19. 326. 340. 347. -142.
      162. -65. -144. -138. -223.</_>
    <_>
      118. 62. -32. 224. 396. 424. 337. 136. -71. 307. 428. 435. 334.
      94. -51. -210. -376. -405.</_>
    <_>
      62. -32. 13. 396. 424. 415. 136. -71. 40. 428. 435. 432. 94. -51.
      25. -376. -405. -397.</_>
    <_>
      13. 32. 0. 415. 466. 478. 40. 80. -45. 432. 456. 447. 25. 66. -55.
      -397. -450. -465.</_>
    <_>
      32. 0. -3. 466. 478. 457. 80. -45. -28. 456. 447. 398. 66. -55.
      -45. -450. -465. -443.</_>
    <_>
      0. -3. -129. 478. 457. 341. -45. -28. -336. 447. 398. 282. -55.
      -45. -318. -465. -443. -326.</_>
    <_>
      -3. -129. -117. 457. 341. 117. -28. -336. -320. 398. 282. 96. -45.
      -318. -304. -443. -326. -106.</_>
    <_>
      -129. -117. -5. 341. 117. 5. -336. -320. -5. 282. 96. 5. -318.
      -304. -4. -326. -106. 2.</_>
    <_>
      201. -130. 5. 1. -6. -5. 194. -133. 7. 2. -1. -3. 195. -129. 5. 3.
      11. 15.</_>
    <_>
      329. -158. 42. 11. 14. -54. 289. -118. -88. -191. -194. -216. 157.
      -100. -87. 137. 26. 67.</_>
    <_>
      6. -38. -35. 246. 178. 131. -43. -161. -63. 319. 215. 111. -134.
      -273. -78. 70. -29. -52.</_>
    <_>
      325. 82. -194. 139. 312. 326. 352. 110. -142. -92. -210. -144. 47.
      49. -32. -53. -301. -318.</_>
    <_>
      82. -194. 194. 312. 326. 340. 110. -142. 162. -210. -144. -138.
      49. -32. 43. -301. -318. -333.</_>
    <_>
      -194. 194. -19. 326. 340. 347. -142. 162. -65. -144. -138. -223.
      -32. 43. -36. -318. -333. -338.</_>
    <_>
      194. -19. -86. 340. 347. 268. 162. -65. -104. -138. -223. -208.
      43. -36. -40. -333. -338. -260.</_>
    <_>
      -19. -86. 54. 347. 268. 270. -65. -104. 92. -223. -208. -190. -36.
      -40. 42. -338. -260. -264.</_>
    <_>
      54. -191. 37. 270. 267. 211. 92. -171. 8. -190. -129. -82. 42.
      -55. 0. -264. -259. -198.</_>
    <_>
      37. 337. 136. 211. 307. 428. 8. 334. 94. -82. -210. -376. 0. 122.
      32. -198. -290. -398.</_>
    <_>
      337. 136. -71. 307. 428. 435. 334. 94. -51. -210. -376. -405. 122.
      32. -6. -290. -398. -386.</_>
    <_>
      136. -71. 40. 428. 435. 432. 94. -51. 25. -376. -405. -397. 32.
      -6. -17. -398. -386. -391.</_>
    <_>
      -71. 40. 80. 435. 432. 456. -51. 25. 66. -405. -397. -450. -6.
      -17. 44. -386. -391. -402.</_>
    <_>
      40. 80. -45. 432. 456. 447. 25. 66. -55. -397. -450. -465. -17.
      44. -17. -391. -402. -371.</_>
    <_>
      80. -45. -28. 456. 447. 398. 66. -55. -45. -450. -465. -443. 44.
      -17. -37. -402. -371. -347.</_>
    <_>
      -28. -336. -320. 398. 282. 96. -45. -318. -304. -443. -326. -106.
      -37. -108. -123. -347. -246. -75.</_></uncompressed_support_vectors>
  <decision_functions>
    <_>
      <sv_count>1</sv_count>
      <rho>-2.2598264380150188e+00</rho>
      <alpha>
        1.</alpha>
      <index>
        0</index></_></decision_functions></opencv_ml_svm>
</opencv_storage>
