<?xml version="1.0"?>
<opencv_storage>
<opencv_ml_svm>
  <format>3</format>
  <svmType>C_SVC</svmType>
  <kernel>
    <type>LINEAR</type></kernel>
  <C>1.0000000000000001e-01</C>
  <term_criteria><iterations>10000000</iterations></term_criteria>
  <var_count>18</var_count>
  <class_count>2</class_count>
  <class_labels type_id="opencv-matrix">
    <rows>2</rows>
    <cols>1</cols>
    <dt>i</dt>
    <data>
      -1 1</data></class_labels>
  <sv_total>1</sv_total>
  <support_vectors>
    <_>
      -6.08763548e-05 5.91506796e-06 -2.52168131e-04 -1.06953383e-04
      -1.68949351e-04 2.30233112e-04 5.82335815e-05 -1.75962385e-04
      2.82192952e-04 -1.15062736e-04 -1.15834278e-04 -1.62533106e-04
      -7.50068866e-05 6.45090331e-05 -1.51645916e-04 -4.24909842e-04
      -3.16907361e-04 -4.63575998e-04</_></support_vectors>
  <uncompressed_sv_total>1108</uncompressed_sv_total>
  <uncompressed_support_vectors>
    <_>
      -4. 2. 2. 148. 130. 120. -17. -11. -3. -69. -77. -85. -15. -14.
      -6. -311. -304. -302.</_>
    <_>
      101. 326. 167. -239. -68. -77. 294. 526. -151. -8. 214. 105. 540.
      592. -414. 84. 174. 86.</_>
    <_>
      326. 167. -450. -68. -77. -204. 526. -151. -417. 214. 105. -53.
      592. -414. -306. 174. 86. 92.</_>
    <_>
      167. -450. 379. -77. -204. -115. -151. -417. 420. 105. -53. -68.
      -414. -306. 286. 86. 92. 84.</_>
    <_>
      294. 526. -151. -8. 214. 105. 540. 592. -414. 84. 174. 86. 630.
      453. -471. 268. 129. 21.</_>
    <_>
      526. -151. -417. 214. 105. -53. 592. -414. -306. 174. 86. 92. 453.
      -471. -265. 129. 21. -1.</_>
    <_>
      145. 197. 276. 109. 367. 506. 404. 290. 39. 388. 482. 199. 386.
      129. -224. -220. -493. -634.</_>
    <_>
      197. 276. 118. 367. 506. 358. 290. 39. -262. 482. 199. -270. 129.
      -224. -363. -493. -634. -529.</_>
    <_>
      276. 118. -188. 506. 358. -78. 39. -262. -361. 199. -270. -387.
      -224. -363. -133. -634. -529. -285.</_>
    <_>
      14. 540. 592. -24. 84. 174. 177. 630. 453. 123. 268. 129. 478.
      621. 191. 152. 299. 167.</_>
    <_>
      540. 592. -414. 84. 174. 86. 630. 453. -471. 268. 129. 21. 621.
      191. -438. 299. 167. 46.</_>
    <_>
      141. 404. 290. 125. 388. 482. 168. 386. 129. 34. -220. -493. -87.
      118. -3. -247. -516. -643.</_>
    <_>
      404. 290. 39. 388. 482. 199. 386. 129. -224. -220. -493. -634.
      118. -3. -116. -516. -643. -526.</_>
    <_>
      290. 39. -262. 482. 199. -270. 129. -224. -363. -493. -634. -529.
      -3. -116. -127. -643. -526. -287.</_>
    <_>
      39. -262. -361. 199. -270. -387. -224. -363. -133. -634. -529.
      -285. -116. -127. -4. -526. -287. -166.</_>
    <_>
      -27. 177. 630. -27. 123. 268. -15. 478. 621. -11. 152. 299. 137.
      626. 484. 133. 270. 134.</_>
    <_>
      177. 630. 453. 123. 268. 129. 478. 621. 191. 152. 299. 167. 626.
      484. -62. 270. 134. -124.</_>
    <_>
      453. -471. -265. 129. 21. -1. 191. -438. -434. 167. 46. -68. -62.
      -429. -369. -124. -247. -59.</_>
    <_>
      386. 129. -224. -220. -493. -634. 118. -3. -116. -516. -643. -526.
      -7. -2. 7. -19. -16. -9.</_>
    <_>
      129. -224. -363. -493. -634. -529. -3. -116. -127. -643. -526.
      -287. -2. 7. 3. -16. -9. 5.</_>
    <_>
      -15. 478. 621. -11. 152. 299. 137. 626. 484. 133. 270. 134. 441.
      566. 89. 175. 282. -37.</_>
    <_>
      478. 621. 191. 152. 299. 167. 626. 484. -62. 270. 134. -124. 566.
      89. -265. 282. -37. -377.</_>
    <_>
      621. 191. -438. 299. 167. 46. 484. -62. -429. 134. -124. -247. 89.
      -265. -343. -37. -377. -371.</_>
    <_>
      137. 626. 484. 133. 270. 134. 441. 566. 89. 175. 282. -37. 576.
      434. -226. 10. -94. -222.</_>
    <_>
      -28. 441. 566. 8. 175. 282. -151. 576. 434. 165. 10. -94. -264.
      483. 206. 238. 187. -30.</_>
    <_>
      441. 566. 89. 175. 282. -37. 576. 434. -226. 10. -94. -222. 483.
      206. -227. 187. -30. -131.</_>
    <_>
      -151. 576. 434. 165. 10. -94. -264. 483. 206. 238. 187. -30. -129.
      310. -30. 27. 40. -152.</_>
    <_>
      138. 7. 261. 456. 587. 541. 230. -123. 37. 540. 371. 63. 44. -188.
      -113. -218. -300. -207.</_>
    <_>
      7. 261. -217. 587. 541. 369. -123. 37. -342. 371. 63. -114. -188.
      -113. -167. -300. -207. -5.</_>
    <_>
      -20. 98. -88. 252. 284. 198. 54. 53. 100. -494. -497. -268. 20.
      74. 347. -564. -574. -535.</_>
    <_>
      291. 40. -268. 169. 472. 432. 504. 246. -423. -202. -86. 5. 362.
      197. -238. -192. -499. -454.</_>
    <_>
      189. 184. -21. 51. -58. -107. 120. 53. 12. -444. -535. -584. -8.
      -44. 1. -300. -434. -493.</_>
    <_>
      493. 470. -144. 103. 44. -66. 382. 441. -150. -88. -169. -94. 136.
      303. 18. -188. -491. -536.</_>
    <_>
      -113. -3. -2. 261. 383. 382. 78. -20. -20. 204. 256. 222. -37.
      -40. -31. -537. -724. -721.</_>
    <_>
      -3. -2. -3. 383. 382. 363. -20. -20. -37. 256. 222. 189. -40. -31.
      0. -724. -721. -662.</_>
    <_>
      77. 310. 392. -473. -248. 128. -2. 434. 378. 4. -176. -442. -66.
      159. 156. 2. -157. -388.</_>
    <_>
      78. -20. -20. 204. 256. 222. -37. -40. -31. -537. -724. -721.
      -298. -28. -13. -226. -288. -261.</_>
    <_>
      -20. -20. -37. 256. 222. 189. -40. -31. 0. -724. -721. -662. -28.
      -13. 95. -288. -261. -207.</_>
    <_>
      -37. -40. -31. -537. -724. -721. -298. -28. -13. -226. -288. -261.
      -343. -10. -3. 81. 116. 117.</_>
    <_>
      -40. -31. 0. -724. -721. -662. -28. -13. 95. -288. -261. -207.
      -10. -3. 119. 116. 117. 97.</_>
    <_>
      153. 109. -196. -301. -155. -42. 217. 202. -73. -535. -524. -421.
      64. 130. 206. -376. -612. -508.</_>
    <_>
      109. -196. -246. -155. -42. -10. 202. -73. -73. -524. -421. -157.
      130. 206. 250. -612. -508. -170.</_>
    <_>
      -340. -25. 67. 40. 49. 41. -148. 119. 48. 234. 561. 694. 156. 286.
      7. 302. 446. 439.</_>
    <_>
      202. -73. -73. -524. -421. -157. 130. 206. 250. -612. -508. -170.
      66. 372. 393. 40. 38. 9.</_>
    <_>
      119. 48. 22. 561. 694. 656. 286. 7. -11. 446. 439. 403. 185. -29.
      -25. -73. -203. -217.</_>
    <_>
      -325. -16. 41. 15. 50. 69. -138. -1. -41. 492. 659. 573. 156. -18.
      -128. 384. 494. 476.</_>
    <_>
      251. -4. -497. 471. 460. 213. 281. -230. -620. 193. 8. -94. 88.
      -387. -526. 76. -89. -50.</_>
    <_>
      -4. -497. -280. 460. 213. 28. -230. -620. -282. 8. -94. -34. -387.
      -526. -259. -89. -50. 7.</_>
    <_>
      84. 192. 68. -64. -80. -54. 32. 113. 60. -352. -467. -580. 18. 30.
      17. -572. -554. -567.</_>
    <_>
      192. 68. -296. -80. -54. -18. 113. 60. -131. -467. -580. -459. 30.
      17. 155. -554. -567. -445.</_>
    <_>
      68. -296. -334. -54. -18. -34. 60. -131. -243. -580. -459. -187.
      17. 155. 31. -567. -445. -157.</_>
    <_>
      259. -444. -529. 255. 280. 117. 328. -521. -609. 16. -17. -11.
      201. -555. -509. -11. -139. -79.</_>
    <_>
      -444. -529. 13. 280. 117. 9. -521. -609. 5. -17. -11. 9. -555.
      -509. 4. -139. -79. 0.</_>
    <_>
      -240. -196. 307. 432. 148. 167. -425. -374. 482. 137. 58. 36.
      -463. -413. 496. 11. 13. 10.</_>
    <_>
      307. -44. -293. 167. 428. 381. 482. 204. -468. 36. 198. 318. 496.
      401. -407. 10. 59. 197.</_>
    <_>
      -375. 36. 52. 17. 30. 40. -275. 120. 125. 243. 414. 561. -31. 168.
      99. 491. 612. 487.</_>
    <_>
      -275. 120. 125. 243. 414. 561. -31. 168. 99. 491. 612. 487. 150.
      61. -10. 152. 105. 14.</_>
    <_>
      -405. 26. 1. 35. 68. 79. -206. 46. -2. 534. 720. 726. 17. 36. 58.
      297. 324. 368.</_>
    <_>
      -365. 36. 157. 67. 124. 143. -181. 46. 109. 457. 594. 537. 91. -3.
      19. 403. 489. 407.</_>
    <_>
      46. -2. -17. 720. 726. 707. 36. 58. -21. 324. 368. 443. -50. 171.
      12. -252. -269. -198.</_>
    <_>
      -2. -17. 19. 726. 707. 679. 58. -21. 31. 368. 443. 479. 171. 12.
      51. -269. -198. -181.</_>
    <_>
      -11. -90. -184. 579. 554. 394. -3. -141. -412. 559. 541. 422. -3.
      -152. -508. 57. 64. 76.</_>
    <_>
      -90. -184. -48. 554. 394. 210. -141. -412. -174. 541. 422. 252.
      -152. -508. -261. 64. 76. 63.</_>
    <_>
      96. 87. 25. 186. 531. 691. 424. 381. -82. 154. 431. 458. 536. 431.
      -297. -42. -157. -349.</_>
    <_>
      87. 25. 36. 531. 691. 680. 381. -82. -76. 431. 458. 250. 431.
      -297. -160. -157. -349. -440.</_>
    <_>
      25. 36. 29. 691. 680. 679. -82. -76. 96. 458. 250. 206. -297.
      -160. 267. -349. -440. -309.</_>
    <_>
      36. 29. 2. 680. 679. 678. -76. 96. 102. 250. 206. 374. -160. 267.
      231. -440. -309. -177.</_>
    <_>
      29. 2. 1. 679. 678. 659. 96. 102. -8. 206. 374. 484. 267. 231. 17.
      -309. -177. -133.</_>
    <_>
      21. -130. -171. 635. 516. 257. 7. -338. -438. 485. 382. 166. 6.
      -423. -531. -110. -93. -55.</_>
    <_>
      126. 127. 42. 156. 441. 588. 398. 387. 32. 122. 369. 472. 519.
      506. 1. -17. -24. -39.</_>
    <_>
      424. 381. -82. 154. 431. 458. 536. 431. -297. -42. -157. -349.
      467. 321. -338. -37. -101. -60.</_>
    <_>
      398. 387. 32. 122. 369. 472. 519. 506. 1. -17. -24. -39. 512. 504.
      -4. -4. -6. 2.</_>
    <_>
      252. 102. 45. 14. -28. -17. 180. 61. 44. -244. -315. -368. 69. 12.
      11. -549. -638. -667.</_>
    <_>
      14. -374. -520. -4. 8. 22. -6. -286. -412. -402. -346. -164. -27.
      -76. -134. -687. -554. -248.</_>
    <_>
      -219. -544. -408. 71. 152. 86. -74. -549. -581. 146. 205. 93. 39.
      -577. -642. -77. -51. -28.</_>
    <_>
      -74. -549. -581. 146. 205. 93. 39. -577. -642. -77. -51. -28. 24.
      -509. -520. -312. -285. -118.</_>
    <_>
      39. -577. -642. -77. -51. -28. 24. -509. -520. -312. -285. -118.
      -101. -299. -346. -369. -311. -94.</_>
    <_>
      -396. 52. 686. 6. -6. 2. -410. 46. 686. 10. 2. -12. -409. 38. 670.
      -7. -6. -16.</_>
    <_>
      -410. 46. 686. 10. 2. -12. -409. 38. 670. -7. -6. -16. -408. 38.
      668. 2. 2. 10.</_>
    <_>
      -409. 38. 670. -7. -6. -16. -408. 38. 668. 2. 2. 10. -417. 41.
      674. 9. 3. 4.</_>
    <_>
      466. 391. -260. -62. -205. -218. 437. 366. -227. 29. 118. 139.
      501. 490. -288. 29. 128. 170.</_>
    <_>
      -427. 42. 659. 7. 4. -11. -425. 38. 643. 25. 26. 21. -410. 29.
      626. 28. 33. 12.</_>
    <_>
      428. 496. -217. -96. -262. -227. 336. 434. -131. 16. 28. 17. 432.
      497. -230. 80. 227. 202.</_>
    <_>
      -132. 212. 358. -168. -364. -238. -348. 81. 572. -48. -199. -242.
      -406. -80. 630. 10. -58. -118.</_>
    <_>
      -348. 81. 572. -48. -199. -242. -406. -80. 630. 10. -58. -118.
      -420. -156. 637. 8. -14. -23.</_>
    <_>
      81. 572. 162. -199. -242. -94. -80. 630. 317. -58. -118. -53.
      -156. 637. 388. -14. -23. -10.</_>
    <_>
      -406. -80. 630. 10. -58. -118. -420. -156. 637. 8. -14. -23. -427.
      -192. 641. 11. -10. -33.</_>
    <_>
      -420. -156. 637. 8. -14. -23. -427. -192. 641. 11. -10. -33. -324.
      -177. 542. -62. 77. 16.</_>
    <_>
      488. 419. -117. 78. 269. 247. 634. 403. -124. 0. -61. -62. 604.
      290. -149. -30. -112. -249.</_>
    <_>
      166. -475. -548. -238. -59. 40. 273. -355. -515. -101. -53. 1.
      243. -376. -492. 167. 68. 16.</_>
    <_>
      273. -355. -515. -101. -53. 1. 243. -376. -492. 167. 68. 16. 59.
      -308. -340. -405. -422. -150.</_>
    <_>
      -86. 243. -376. 160. 167. 68. -65. 59. -308. -235. -405. -422.
      -106. -47. -39. -638. -615. -435.</_>
    <_>
      -61. 492. 346. -31. -146. -120. 61. 300. 439. 329. 374. 249. 332.
      244. 232. 210. 380. 242.</_>
    <_>
      410. 43. 22. -8. -5. -4. 270. 24. 18. -382. -544. -568. -21. -44.
      10. -371. -568. -620.</_>
    <_>
      14. -112. -488. -6. 10. 34. 5. -30. -322. -613. -556. -332. -7.
      104. 3. -653. -588. -353.</_>
    <_>
      465. 465. -15. -7. -23. -29. 312. 290. -36. -148. -460. -650. 39.
      -41. -74. -139. -431. -610.</_>
    <_>
      465. -15. -55. -23. -29. -59. 290. -36. -70. -460. -650. -656.
      -41. -74. -18. -431. -610. -590.</_>
    <_>
      -15. -55. -169. -29. -59. -61. -36. -70. -133. -650. -656. -633.
      -74. -18. -74. -610. -590. -502.</_>
    <_>
      -55. -169. -116. -59. -61. -78. -70. -133. -157. -656. -633. -621.
      -18. -74. -111. -590. -502. -409.</_>
    <_>
      61. 300. 439. 329. 374. 249. 332. 244. 232. 210. 380. 242. 358.
      221. 38. 280. 113. 34.</_>
    <_>
      9. 5. -30. -603. -613. -556. 2. -7. 104. -644. -653. -588. 3. -5.
      170. 47. 59. 62.</_>
    <_>
      5. -30. -322. -613. -556. -332. -7. 104. 3. -653. -588. -353. -5.
      170. 147. 59. 62. 37.</_>
    <_>
      290. -36. -70. -460. -650. -656. -41. -74. -18. -431. -610. -590.
      -177. -81. 17. 53. 89. 97.</_>
    <_>
      -36. -70. -133. -650. -656. -633. -74. -18. -74. -610. -590. -502.
      -81. 17. -51. 89. 97. 67.</_>
    <_>
      -70. -133. -157. -656. -633. -621. -18. -74. -111. -590. -502.
      -409. 17. -51. -94. 97. 67. 14.</_>
    <_>
      -181. -158. 13. -3. -28. -57. -18. 4. -1. 162. 512. 689. 312. 339.
      -6. 156. 471. 624.</_>
    <_>
      -158. 13. 19. -28. -57. -89. 4. -1. 0. 512. 689. 688. 339. -6. 0.
      471. 624. 620.</_>
    <_>
      -13. 0. 91. -81. -16. -3. 16. 16. -73. 668. 648. 487. 0. 10. -379.
      618. 616. 465.</_>
    <_>
      27. 199. 332. -3. 37. 210. 2. 171. 358. 548. 455. 280. -29. 73.
      149. 575. 539. 407.</_>
    <_>
      199. 332. 244. 37. 210. 380. 171. 358. 221. 455. 280. 113. 73.
      149. 78. 539. 407. 222.</_>
    <_>
      -166. 176. 397. 12. 146. 399. -45. 434. 350. 151. 396. 354. 247.
      417. 83. 345. 375. 133.</_>
    <_>
      -18. 4. -1. 162. 512. 689. 312. 339. -6. 156. 471. 624. 463. 484.
      -10. 3. -16. -28.</_>
    <_>
      4. -1. 0. 512. 689. 688. 339. -6. 0. 471. 624. 620. 484. -10. 1.
      -16. -28. -27.</_>
    <_>
      16. 16. -73. 668. 648. 487. 0. 10. -379. 618. 616. 465. -3. 11.
      -525. -33. -33. -27.</_>
    <_>
      16. -73. -29. 648. 487. 167. 10. -379. -351. 616. 465. 157. 11.
      -525. -501. -33. -27. -15.</_>
    <_>
      503. 65. -307. 183. 327. 155. 665. 52. -457. -11. -6. 3. 644. 70.
      -433. -42. -50. -17.</_>
    <_>
      312. 339. -6. 156. 471. 624. 463. 484. -10. 3. -16. -28. 436. 452.
      -11. -22. -62. -83.</_>
    <_>
      10. -379. -351. 616. 465. 157. 11. -525. -501. -33. -27. -15. 16.
      -505. -481. -70. -51. -23.</_>
    <_>
      438. 497. -21. 100. 33. -49. 287. 293. -30. -149. -437. -568. -18.
      47. 39. -254. -517. -563.</_>
    <_>
      497. -21. -11. 33. -49. -95. 293. -30. -28. -437. -568. -548. 47.
      39. 42. -517. -563. -444.</_>
    <_>
      473. 6. 1. -23. -30. -43. 358. -7. -28. -328. -449. -478. 93. -20.
      -39. -443. -600. -595.</_>
    <_>
      -14. 17. -494. -8. -13. -10. -26. 0. -354. -542. -566. -446. -27.
      -15. -79. -619. -611. -471.</_>
    <_>
      17. -494. -482. -13. -10. -2. 0. -354. -330. -566. -446. -162.
      -15. -79. -31. -611. -471. -181.</_>
    <_>
      293. -30. -28. -437. -568. -548. 47. 39. 42. -517. -563. -444.
      -54. 102. 94. 44. 52. 48.</_>
    <_>
      390. -210. -620. 96. 86. 144. 238. -86. -628. 242. 224. 282. 135.
      -6. -592. 139. 134. 192.</_>
    <_>
      -592. -508. -44. 192. 158. 48. -408. -569. -218. 116. 273. 148.
      -140. -416. -455. 96. 360. 401.</_>
    <_>
      -39. -17. 13. 453. 487. 491. -72. -79. -48. -174. -303. -430.
      -121. -142. -93. -581. -564. -545.</_>
    <_>
      -17. 13. 6. 487. 491. 482. -79. -48. 39. -303. -430. -449. -142.
      -93. 77. -564. -545. -533.</_>
    <_>
      13. 6. -13. 491. 482. 501. -48. 39. 38. -430. -449. -384. -93. 77.
      71. -545. -533. -527.</_>
    <_>
      6. -13. -7. 482. 501. 531. 39. 38. 91. -449. -384. -265. 77. 71.
      177. -533. -527. -527.</_>
    <_>
      -13. -7. -2. 501. 531. 544. 38. 91. 98. -384. -265. -80. 71. 177.
      198. -527. -527. -526.</_>
    <_>
      -7. -2. 4. 531. 544. 548. 91. 98. 7. -265. -80. 19. 177. 198. 32.
      -527. -526. -500.</_>
    <_>
      -408. -569. -218. 116. 273. 148. -140. -416. -455. 96. 360. 401.
      0. -139. -415. -20. 133. 409.</_>
    <_>
      -569. -218. -20. 273. 148. 12. -416. -455. -160. 360. 401. 160.
      -139. -415. -409. 133. 409. 441.</_>
    <_>
      -416. -455. -160. 360. 401. 160. -139. -415. -409. 133. 409. 441.
      -7. -135. -378. 3. 139. 418.</_>
    <_>
      -455. -160. 0. 401. 160. 22. -415. -409. 0. 409. 441. 330. -135.
      -378. 0. 139. 418. 560.</_>
    <_>
      1. -134. -145. -15. -158. -433. -146. -281. -285. -420. -571.
      -583. -291. -159. -148. -581. -453. -182.</_>
    <_>
      -134. -145. -37. -158. -433. -581. -281. -285. -34. -571. -583.
      -572. -159. -148. -5. -453. -182. -27.</_>
    <_>
      -128. -146. -281. -158. -420. -571. -279. -291. -159. -547. -581.
      -453. -186. -163. -15. -432. -177. -33.</_>
    <_>
      -146. -281. -285. -420. -571. -583. -291. -159. -148. -581. -453.
      -182. -163. -15. 0. -177. -33. -12.</_>
    <_>
      -143. -146. -279. -121. -378. -547. -395. -289. -186. -413. -551.
      -432. -421. -159. -38. -445. -203. -44.</_>
    <_>
      -2. -145. -395. -8. -143. -413. -138. -412. -421. -154. -422.
      -445. -410. -421. -178. -402. -415. -158.</_>
    <_>
      -145. -395. -289. -143. -413. -551. -412. -421. -159. -422. -445.
      -203. -421. -178. -23. -415. -158. -21.</_>
    <_>
      -12. -138. -412. -10. -154. -422. -147. -410. -421. -139. -402.
      -415. -398. -424. -180. -394. -396. -156.</_>
    <_>
      -138. -412. -421. -154. -422. -445. -410. -421. -178. -402. -415.
      -158. -424. -180. -33. -396. -156. -27.</_>
    <_>
      -136. -395. -409. -130. -381. -393. -389. -416. -178. -355. -378.
      -156. -531. -204. -56. -255. -162. -50.</_>
    <_>
      -121. -389. -416. -115. -355. -378. -357. -531. -204. -117. -255.
      -162. -505. -442. -76. -263. -184. -60.</_>
    <_>
      -6. -367. -540. -6. -145. -292. -131. -520. -430. -125. -264.
      -160. -379. -526. -192. -169. -284. -156.</_>
    <_>
      -26. -379. -526. -24. -169. -284. -170. -517. -401. -132. -269.
      -167. -404. -485. -175. -238. -303. -147.</_>
    <_>
      -67. -404. -485. -69. -238. -303. -243. -535. -327. -113. -251.
      -159. -437. -560. -140. -91. -172. -102.</_>
    <_>
      -18. -437. -560. -10. -91. -172. -136. -531. -454. -116. -247.
      -154. -372. -556. -226. -128. -258. -148.</_>
    <_>
      305. 40. 61. -317. -284. -217. 244. 9. 183. -446. -571. -547. 29.
      -45. 152. -123. -267. -376.</_>
    <_>
      9. 183. 280. -571. -547. -378. -45. 152. 450. -267. -376. -406.
      -68. -57. 315. 368. 245. -69.</_>
    <_>
      2. 13. 22. -434. -575. -578. -162. -6. 104. -506. -548. -482. -61.
      73. 68. 251. 473. 450.</_>
    <_>
      13. 22. -38. -575. -578. -542. -6. 104. 80. -548. -482. -318. 73.
      68. 61. 473. 450. 231.</_>
    <_>
      -35. -162. -6. -415. -506. -548. 37. -61. 73. -13. 251. 473. 246.
      51. 77. 426. 483. 377.</_>
    <_>
      -162. -6. 104. -506. -548. -482. -61. 73. 68. 251. 473. 450. 51.
      77. -47. 483. 377. 289.</_>
    <_>
      -53. -20. 11. -449. -554. -537. -192. -27. 82. -480. -521. -474.
      -174. 66. 156. 150. 302. 422.</_>
    <_>
      -20. 11. -22. -554. -537. -458. -27. 82. 51. -521. -474. -409. 66.
      156. 89. 302. 422. 469.</_>
    <_>
      11. -22. -168. -537. -458. -268. 82. 51. 71. -474. -409. -287.
      156. 89. 17. 422. 469. 331.</_>
    <_>
      413. 284. -193. 11. 254. 245. 563. 444. -256. -7. 60. 166. 554.
      489. -76. 40. 9. 128.</_>
    <_>
      280. -18. -446. -236. -196. -336. 265. -175. -516. 79. -133. -220.
      -73. -358. -333. 87. -222. -135.</_>
    <_>
      380. 181. -30. 84. 245. 262. 507. 366. -84. 109. 260. 374. 535.
      512. -108. 33. 56. 64.</_>
    <_>
      507. 366. -84. 109. 260. 374. 535. 512. -108. 33. 56. 64. 492.
      371. -225. 68. -139. -405.</_>
    <_>
      -257. 48. 262. -509. -462. -384. -216. -12. 137. 80. 14. -249.
      -126. -131. -16. 452. 489. 480.</_>
    <_>
      -39. 248. 166. -405. -390. -290. -77. 263. 237. -413. -451. -465.
      -66. 133. 189. -66. -147. -311.</_>
    <_>
      154. 61. -102. -254. -319. -212. 66. 77. 3. 510. 503. 517. 75. 46.
      18. 627. 612. 582.</_>
    <_>
      -8. -5. -5. 598. 597. 593. -3. -7. -114. 569. 573. 466. -44. -114.
      -273. -84. -236. -395.</_>
    <_>
      -5. -5. -101. 597. 593. 481. -7. -114. -321. 573. 466. 249. -114.
      -273. -328. -236. -395. -344.</_>
    <_>
      -5. -101. 252. 593. 481. 150. -114. -321. -98. 466. 249. 10. -273.
      -328. -121. -395. -344. -135.</_>
    <_>
      194. 74. 75. 462. 566. 561. 281. 150. 114. -235. -176. -56. 160.
      232. 270. -316. -414. -296.</_>
    <_>
      -3. -7. -114. 569. 573. 466. -44. -114. -273. -84. -236. -395.
      -198. -274. -220. -228. -390. -338.</_>
    <_>
      -7. -114. -321. 573. 466. 249. -114. -273. -328. -236. -395. -344.
      -274. -220. -119. -390. -338. -127.</_>
    <_>
      -3. -11. -26. 15. 15. -14. -144. -17. -38. -452. -599. -588. -445.
      -12. 2. -473. -622. -588.</_>
    <_>
      -60. -202. 47. -36. -190. -267. -249. -437. 116. -147. -417. -506.
      -337. -492. -37. 43. 170. 51.</_>
    <_>
      -202. 47. 207. -190. -267. -123. -437. 116. 455. -417. -506. -333.
      -492. -37. 519. 170. 51. -211.</_>
    <_>
      -136. -144. -17. -162. -452. -599. -433. -445. -12. -165. -473.
      -622. -590. -595. -18. 6. 7. 0.</_>
    <_>
      -144. -17. -38. -452. -599. -588. -445. -12. 2. -473. -622. -588.
      -595. -18. 28. 7. 0. -14.</_>
    <_>
      17. 382. 306. -539. -398. -126. 12. 423. 490. -152. -257. -304. 3.
      176. 519. -7. -158. -329.</_>
    <_>
      -437. 116. 455. -417. -506. -333. -492. -37. 519. 170. 51. -211.
      -408. -280. 426. -4. -44. -118.</_>
    <_>
      116. 455. 115. -506. -333. -91. -37. 519. 366. 51. -211. -138.
      -280. 426. 569. -44. -118. -81.</_>
    <_>
      -13. -433. -445. -7. -165. -473. -15. -590. -595. 7. 6. 7. -20.
      -538. -582. -88. -40. 24.</_>
    <_>
      -433. -445. -12. -165. -473. -622. -590. -595. -18. 6. 7. 0. -538.
      -582. -29. -40. 24. 33.</_>
    <_>
      -445. -12. 2. -473. -622. -588. -595. -18. 28. 7. 0. -14. -582.
      -29. 14. 24. 33. 22.</_>
    <_>
      -342. 331. 639. 84. 1. -61. -506. 222. 652. 150. -40. -74. -494.
      217. 494. 130. 327. 198.</_>
    <_>
      -58. -63. 350. -486. -417. -272. -11. 14. 533. -351. -296. -181.
      12. 47. 617. -34. -33. -31.</_>
    <_>
      -63. 350. 389. -417. -272. -85. 14. 533. 522. -296. -181. -52. 47.
      617. 585. -33. -31. -13.</_>
    <_>
      -299. -506. 222. 305. 150. -40. -315. -494. 217. -21. 130. 327.
      -165. -165. 120. 171. 499. 534.</_>
    <_>
      -506. 222. 652. 150. -40. -74. -494. 217. 494. 130. 327. 198.
      -165. 120. 170. 499. 534. 242.</_>
    <_>
      14. 533. 522. -296. -181. -52. 47. 617. 585. -33. -31. -13. 45.
      620. 597. 1. 0. -3.</_>
    <_>
      533. 522. 6. -181. -52. -2. 617. 585. 7. -31. -13. 1. 620. 597. 9.
      0. -3. -3.</_>
    <_>
      -494. 217. 494. 130. 327. 198. -165. 120. 170. 499. 534. 242.
      -163. -8. 168. -473. -634. -472.</_>
    <_>
      217. 494. 109. 327. 198. 21. 120. 170. 52. 534. 242. 38. -8. 168.
      166. -634. -472. -156.</_>
    <_>
      47. 617. 585. -33. -31. -13. 45. 620. 597. 1. 0. -3. 55. 614. 584.
      25. 30. 14.</_>
    <_>
      617. 585. 7. -31. -13. 1. 620. 597. 9. 0. -3. -3. 614. 584. 9. 30.
      14. 1.</_>
    <_>
      -165. -165. 120. 171. 499. 534. -154. -163. -8. -158. -473. -634.
      -462. -461. 155. -160. -451. -425.</_>
    <_>
      -165. 120. 170. 499. 534. 242. -163. -8. 168. -473. -634. -472.
      -461. 155. 469. -451. -425. -123.</_>
    <_>
      120. 170. 52. 534. 242. 38. -8. 168. 166. -634. -472. -156. 155.
      469. 313. -425. -123. 9.</_>
    <_>
      45. 620. 597. 1. 0. -3. 55. 614. 584. 25. 30. 14. 67. 591. 544.
      93. 77. 30.</_>
    <_>
      -154. -163. -8. -158. -473. -634. -462. -461. 155. -160. -451.
      -425. -629. -436. 494. -13. 136. 474.</_>
    <_>
      -163. -8. 168. -473. -634. -472. -461. 155. 469. -451. -425. -123.
      -436. 494. 446. 136. 474. 488.</_>
    <_>
      -8. 168. 166. -634. -472. -156. 155. 469. 313. -425. -123. 9. 494.
      446. 141. 474. 488. 161.</_>
    <_>
      -479. -417. 382. 25. 39. 62. -490. -458. 401. 44. -22. -67. -530.
      -568. 282. -2. -86. -270.</_>
    <_>
      -462. -461. 155. -160. -451. -425. -629. -436. 494. -13. 136. 474.
      -498. -230. 521. 152. 340. 235.</_>
    <_>
      -461. 155. 469. -451. -425. -123. -436. 494. 446. 136. 474. 488.
      -230. 521. 236. 340. 235. 38.</_>
    <_>
      155. 469. 313. -425. -123. 9. 494. 446. 141. 474. 488. 161. 521.
      236. -21. 235. 38. -7.</_>
    <_>
      -458. 401. -154. -22. -67. -16. -568. 282. 70. -86. -270. -216.
      -639. 30. 259. 11. -128. -245.</_>
    <_>
      -629. -436. 494. -13. 136. 474. -498. -230. 521. 152. 340. 235.
      -327. -331. 338. 35. -83. -262.</_>
    <_>
      -436. 494. 446. 136. 474. 488. -230. 521. 236. 340. 235. 38. -331.
      338. 329. -83. -262. -155.</_>
    <_>
      494. 446. 141. 474. 488. 161. 521. 236. -21. 235. 38. -7. 338.
      329. -11. -262. -155. -7.</_>
    <_>
      -568. 282. 70. -86. -270. -216. -639. 30. 259. 11. -128. -245.
      -644. -118. 170. 26. 12. -108.</_>
    <_>
      -230. 521. 236. 340. 235. 38. -331. 338. 329. -83. -262. -155.
      -548. 312. 539. -72. -136. -59.</_>
    <_>
      -331. 338. 329. -83. -262. -155. -548. 312. 539. -72. -136. -59.
      -630. 212. 620. 78. -40. -136.</_>
    <_>
      -14. -552. -576. 6. -8. -18. -11. -580. -576. 7. -4. -22. -8.
      -447. -433. 8. 155. 449.</_>
    <_>
      -552. -576. -25. -8. -18. 49. -580. -576. 66. -4. -22. 2. -447.
      -433. 63. 155. 449. 565.</_>
    <_>
      -284. 101. 288. -70. -93. -124. -363. -100. 366. 239. -18. -110.
      -289. -286. 290. 441. 586. 416.</_>
    <_>
      -580. -576. 66. -4. -22. 2. -447. -433. 63. 155. 449. 565. -153.
      -143. 14. 157. 447. 572.</_>
    <_>
      -576. 66. 55. -22. 2. 65. -433. 63. 53. 449. 565. 497. -143. 14.
      9. 447. 572. 547.</_>
    <_>
      -100. 366. 529. -18. -110. -13. -286. 290. 416. 586. 416. 130.
      -151. 140. 145. 121. 276. 141.</_>
    <_>
      -433. 63. 53. 449. 565. 497. -143. 14. 9. 447. 572. 547. -1. -2.
      -1. 7. 8. 7.</_>
    <_>
      -289. -286. 290. 441. 586. 416. -141. -151. 140. -17. 121. 276.
      -317. -95. 314. -317. -575. -500.</_>
    <_>
      -286. 290. 416. 586. 416. 130. -151. 140. 145. 121. 276. 141. -95.
      314. 168. -575. -500. -168.</_>
    <_>
      -303. 45. 299. -15. 117. 211. -447. 12. 444. -189. -498. -480.
      -510. -93. 508. 154. 295. 236.</_>
    <_>
      -447. 12. 444. -189. -498. -480. -510. -93. 508. 154. 295. 236.
      -411. 84. 407. 65. 200. 335.</_>
    <_>
      12. 444. 278. -498. -480. -156. -93. 508. 369. 295. 236. 67. 84.
      407. 130. 200. 335. 164.</_>
    <_>
      -510. -93. 508. 154. 295. 236. -411. 84. 407. 65. 200. 335. -528.
      352. 525. -394. -378. -127.</_>
    <_>
      -93. 508. 369. 295. 236. 67. 84. 407. 130. 200. 335. 164. 352.
      525. -31. -378. -127. 1.</_>
    <_>
      -218. -411. 84. 36. 65. 200. -334. -528. 352. -132. -394. -378.
      -384. -481. 382. -128. 131. 192.</_>
    <_>
      -411. 84. 407. 65. 200. 335. -528. 352. 525. -394. -378. -127.
      -481. 382. 488. 131. 192. -66.</_>
    <_>
      -334. -528. 352. -132. -394. -378. -384. -481. 382. -128. 131.
      192. -135. -153. 139. -25. 293. 317.</_>
    <_>
      -528. 352. 525. -394. -378. -127. -481. 382. 488. 131. 192. -66.
      -153. 139. 171. 293. 317. 15.</_>
    <_>
      140. 339. 442. -152. -383. -372. 13. 134. 571. -15. -116. -203.
      26. 45. 447. 480. 505. 379.</_>
    <_>
      339. 442. 242. -383. -372. -136. 134. 571. 455. -116. -203. -97.
      45. 447. 427. 505. 379. 121.</_>
    <_>
      13. 134. 571. -15. -116. -203. 26. 45. 447. 480. 505. 379. 43. 42.
      165. 543. 532. 373.</_>
    <_>
      134. 571. 455. -116. -203. -97. 45. 447. 427. 505. 379. 121. 42.
      165. 162. 532. 373. 84.</_>
    <_>
      -3. 129. 108. 31. 9. 6. -1. 100. 97. 423. 418. 381. 18. 55. 53.
      714. 693. 641.</_>
    <_>
      -79. -43. 3. 29. 31. 33. -60. -32. 0. 754. 782. 788. -24. -14. -4.
      644. 670. 678.</_>
    <_>
      -43. 3. 4. 31. 33. 34. -32. 0. 1. 782. 788. 781. -14. -4. 0. 670.
      678. 680.</_>
    <_>
      3. 4. 1. 33. 34. 35. 0. 1. 1. 788. 781. 777. -4. 0. -1. 678. 680.
      681.</_>
    <_>
      4. 1. 2. 34. 35. 38. 1. 1. 2. 781. 777. 774. 0. -1. -3. 680. 681.
      677.</_>
    <_>
      2. 0. 189. 38. 32. 15. -2. -8. 133. 750. 744. 697. -5. -7. 48.
      671. 675. 638.</_>
    <_>
      0. 189. 222. 32. 15. -2. -8. 133. 161. 744. 697. 597. -7. 48. 56.
      675. 638. 548.</_>
    <_>
      189. 222. 58. 15. -2. -6. 133. 161. 44. 697. 597. 526. 48. 56. 14.
      638. 548. 484.</_>
    <_>
      -32. 0. 1. 782. 788. 781. -14. -4. 0. 670. 678. 680. -4. -3. 3.
      -82. -79. -77.</_>
    <_>
      0. 1. 1. 788. 781. 777. -4. 0. -1. 678. 680. 681. -3. 3. 2. -79.
      -77. -72.</_>
    <_>
      1. 1. 2. 781. 777. 774. 0. -1. -3. 680. 681. 677. 3. 2. -3. -77.
      -72. -65.</_>
    <_>
      -2. -8. 133. 750. 744. 697. -5. -7. 48. 671. 675. 638. -1. -1. 7.
      -49. -43. -41.</_>
    <_>
      -8. 30. 90. 52. 8. 0. -52. 25. 55. 732. 727. 695. -25. 17. 23.
      665. 689. 681.</_>
    <_>
      30. 90. 24. 8. 0. -16. 25. 55. 13. 727. 695. 665. 17. 23. 16. 689.
      681. 682.</_>
    <_>
      -90. -52. 25. 700. 732. 727. -28. -25. 17. 608. 665. 689. -4. 4.
      8. 4. 0. -4.</_>
    <_>
      -52. 25. 55. 732. 727. 695. -25. 17. 23. 665. 689. 681. 4. 8. 9.
      0. -4. -19.</_>
    <_>
      1. 7. 5. -7. -3. 1. 2. 7. 6. -552. -555. -558. 1. 1. 5. -729.
      -733. -737.</_>
    <_>
      7. 5. -3. -3. 1. 1. 7. 6. -2. -555. -558. -556. 1. 5. 11. -733.
      -737. -727.</_>
    <_>
      -1. 2. 7. -555. -552. -555. 1. 1. 1. -727. -729. -733. -1. -2. -1.
      -195. -198. -199.</_>
    <_>
      2. 7. 6. -552. -555. -558. 1. 1. 5. -729. -733. -737. -2. -1. 23.
      -198. -199. -179.</_>
    <_>
      7. 6. -2. -555. -558. -556. 1. 5. 11. -733. -737. -727. -1. 23.
      45. -199. -179. -137.</_>
    <_>
      1. 5. 11. -733. -737. -727. -1. 23. 45. -199. -179. -137. 5. 42.
      58. -9. -4. -14.</_>
    <_>
      0. -4. -9. 42. 44. 45. 0. -1. -11. 784. 785. 785. 1. 0. -12. 649.
      650. 650.</_>
    <_>
      -4. -9. 5. 44. 45. 31. -1. -11. -9. 785. 785. 783. 0. -12. -7.
      650. 650. 653.</_>
    <_>
      5. 6. 140. 31. 22. 16. -9. 9. 88. 783. 781. 738. -7. 8. 21. 653.
      656. 631.</_>
    <_>
      0. 5. 0. 780. 783. 784. 3. 7. 1. 645. 647. 649. 2. 4. 2. -100.
      -106. -110.</_>
    <_>
      5. 0. -1. 783. 784. 785. 7. 1. 0. 647. 649. 650. 4. 2. 1. -106.
      -110. -109.</_>
    <_>
      0. -1. -11. 784. 785. 785. 1. 0. -12. 649. 650. 650. 2. 1. -7.
      -110. -109. -103.</_>
    <_>
      -1. -11. -9. 785. 785. 783. 0. -12. -7. 650. 650. 653. 1. -7. -1.
      -109. -103. -95.</_>
    <_>
      -9. 9. 88. 783. 781. 738. -7. 8. 21. 653. 656. 631. -1. 5. -2.
      -95. -95. -96.</_>
    <_>
      -111. -8. 33. -95. -86. -57. -104. 29. 44. 364. 399. 418. -49. 44.
      31. 667. 702. 685.</_>
    <_>
      -50. -70. -40. -76. -74. -34. -28. -19. 5. 498. 569. 625. 8. 26.
      13. 700. 710. 707.</_>
    <_>
      -70. -40. 32. -74. -34. 38. -19. 5. 63. 569. 625. 629. 26. 13. 37.
      710. 707. 685.</_>
    <_>
      172. 22. -42. 88. 22. 34. 107. 0. 13. 555. 534. 555. 42. 16. 17.
      562. 534. 533.</_>
    <_>
      -141. -3. 95. 65. 31. 29. -124. 4. 76. 682. 740. 730. -37. 12. 39.
      641. 678. 659.</_>
    <_>
      -5. -11. -32. -27. -31. -12. -3. -9. -6. 751. 759. 768. 0. -7. -2.
      664. 661. 658.</_>
    <_>
      -11. -32. -35. -31. -12. 29. -9. -6. -8. 759. 768. 780. -7. -2.
      -2. 661. 658. 656.</_>
    <_>
      -32. -35. -13. -12. 29. 49. -6. -8. -13. 768. 780. 787. -2. -2.
      -11. 658. 656. 657.</_>
    <_>
      -35. -13. 23. 29. 49. 49. -8. -13. 16. 780. 787. 780. -2. -11. 4.
      656. 657. 654.</_>
    <_>
      -13. 23. 22. 49. 49. 52. -13. 16. 14. 787. 780. 762. -11. 4. 0.
      657. 654. 646.</_>
    <_>
      -28. -19. 5. 498. 569. 625. 8. 26. 13. 700. 710. 707. 9. 14. 2.
      171. 150. 130.</_>
    <_>
      -19. 5. 63. 569. 625. 629. 26. 13. 37. 710. 707. 685. 14. 2. 8.
      150. 130. 112.</_>
    <_>
      -124. 4. 76. 682. 740. 730. -37. 12. 39. 641. 678. 659. -2. 9. 10.
      -32. -37. -50.</_>
    <_>
      3. 2. 3. -37. -44. -45. -17. 30. 5. -637. -622. -591. -66. 70. 6.
      -662. -686. -676.</_>
    <_>
      2. 3. 6. -44. -45. -38. 30. 5. -17. -622. -591. -619. 70. 6. -48.
      -686. -676. -678.</_>
    <_>
      2. -26. -17. -600. -608. -637. 33. -77. -66. -579. -591. -662. 85.
      -151. -128. 3. -7. -72.</_>
    <_>
      -26. -17. 30. -608. -637. -622. -77. -66. 70. -591. -662. -686.
      -151. -128. 60. -7. -72. -120.</_>
    <_>
      -17. 30. 5. -637. -622. -591. -66. 70. 6. -662. -686. -676. -128.
      60. 2. -72. -120. -144.</_>
    <_>
      30. 5. -17. -622. -591. -619. 70. 6. -48. -686. -676. -678. 60. 2.
      -9. -120. -144. -107.</_>
    <_>
      -17. 7. 18. -619. -645. -618. -48. 24. 91. -678. -666. -603. -9.
      69. 122. -107. -35. -22.</_>
    <_>
      -171. -81. 49. -21. -77. -113. -188. -114. 16. 30. 36. 6. -130.
      -95. -14. 712. 783. 802.</_>
    <_>
      -81. 49. 61. -77. -113. -101. -114. 16. 54. 36. 6. -46. -95. -14.
      13. 783. 802. 783.</_>
    <_>
      -207. -172. 37. 7. 34. 43. -149. -92. 20. 279. 390. 444. -50. -13.
      18. 602. 669. 692.</_>
    <_>
      -172. 37. -6. 34. 43. 24. -92. 20. -5. 390. 444. 447. -13. 18. 5.
      669. 692. 697.</_>
    <_>
      -6. 133. 196. 24. 67. 116. -5. 150. 165. 447. 422. 359. 5. 75. 84.
      697. 657. 564.</_>
    <_>
      -112. -188. -114. 12. 30. 36. -75. -130. -95. 635. 712. 783. -27.
      -38. -47. 523. 586. 655.</_>
    <_>
      -188. -114. 16. 30. 36. 6. -130. -95. -14. 712. 783. 802. -38.
      -47. -17. 586. 655. 681.</_>
    <_>
      -114. 16. 54. 36. 6. -46. -95. -14. 13. 783. 802. 783. -47. -17.
      -5. 655. 681. 679.</_>
    <_>
      16. 54. 60. 6. -46. -70. -14. 13. 31. 802. 783. 737. -17. -5. 3.
      681. 679. 679.</_>
    <_>
      -130. -95. -14. 712. 783. 802. -38. -47. -17. 586. 655. 681. 1.
      -10. -11. -103. -96. -79.</_>
    <_>
      -95. -14. 13. 783. 802. 783. -47. -17. -5. 655. 681. 679. -10.
      -11. -4. -96. -79. -70.</_>
    <_>
      -14. 13. 31. 802. 783. 737. -17. -5. 3. 681. 679. 679. -11. -4. 3.
      -79. -70. -69.</_>
    <_>
      -7. 4. 1. -41. -44. -45. -47. -16. 4. -613. -670. -686. -118. -35.
      8. -640. -673. -672.</_>
    <_>
      4. 1. -9. -44. -45. -47. -16. 4. -8. -670. -686. -680. -35. 8.
      -15. -673. -672. -681.</_>
    <_>
      1. -9. 1. -45. -47. -47. 4. -8. 4. -686. -680. -676. 8. -15. 24.
      -672. -681. -672.</_>
    <_>
      -9. 1. 2. -47. -47. -48. -8. 4. 11. -680. -676. -663. -15. 24. 46.
      -681. -672. -630.</_>
    <_>
      1. 2. -2. -47. -48. -52. 4. 11. 0. -676. -663. -648. 24. 46. 1.
      -672. -630. -609.</_>
    <_>
      2. -2. -8. -48. -52. -54. 11. 0. -11. -663. -648. -647. 46. 1.
      -19. -630. -609. -617.</_>
    <_>
      10. 37. 50. -632. -603. -532. 7. 112. 141. -661. -618. -523. 5.
      172. 208. -59. -44. -12.</_>
    <_>
      -23. -47. -16. -561. -613. -670. -68. -118. -35. -576. -640. -673.
      -135. -163. -7. -45. -93. -77.</_>
    <_>
      -47. -16. 4. -613. -670. -686. -118. -35. 8. -640. -673. -672.
      -163. -7. 6. -93. -77. -52.</_>
    <_>
      -16. 4. -8. -670. -686. -680. -35. 8. -15. -673. -672. -681. -7.
      6. -19. -77. -52. -49.</_>
    <_>
      4. -8. 4. -686. -680. -676. 8. -15. 24. -672. -681. -672. 6. -19.
      66. -52. -49. -20.</_>
    <_>
      -8. 4. 11. -680. -676. -663. -15. 24. 46. -681. -672. -630. -19.
      66. 71. -49. -20. 5.</_>
    <_>
      4. 11. 0. -676. -663. -648. 24. 46. 1. -672. -630. -609. 66. 71.
      -16. -20. 5. -8.</_>
    <_>
      -60. -21. 5. -628. -683. -679. -133. -26. 34. -501. -524. -504.
      -111. -18. 38. 49. 102. 94.</_>
    <_>
      -21. 5. 20. -683. -679. -642. -26. 34. 76. -524. -504. -456. -18.
      38. 75. 102. 94. 49.</_>
    <_>
      -223. 369. 251. -47. -127. 97. -345. 265. 515. -55. -201. -265.
      -339. 119. 559. -25. -19. -57.</_>
    <_>
      -345. 265. 515. -55. -201. -265. -339. 119. 559. -25. -19. -57.
      -279. 195. 543. -13. 117. 215.</_>
    <_>
      559. 279. -163. -57. -25. 15. 543. 215. -161. 215. 103. 1. 530.
      104. -167. 30. 18. 3.</_>
    <_>
      308. 226. 103. -178. -370. -349. 75. 130. 330. -343. -480. -370.
      -17. 87. 403. 169. 171. 91.</_>
    <_>
      266. 222. -278. 94. 372. 428. 389. 258. -410. 15. -104. -256. 238.
      -34. -292. -152. -476. -498.</_>
    <_>
      149. 209. 54. 143. 409. 458. 448. 262. -33. -18. 68. -15. 402.
      225. -13. -348. -517. -451.</_>
    <_>
      402. 225. -13. -348. -517. -451. 52. 128. 211. -206. -484. -423.
      -142. -2. 253. 282. 236. 87.</_>
    <_>
      47. 33. 97. -367. -523. -591. -158. -104. 62. -138. -324. -428.
      -206. -114. 29. 266. 394. 455.</_>
    <_>
      69. 70. 119. -569. -526. -401. 45. 154. 275. -169. -152. -37. 70.
      184. 271. 392. 430. 341.</_>
    <_>
      109. 78. -138. 245. 430. 424. 318. 174. -393. 432. 552. 399. 317.
      96. -428. -273. -472. -432.</_>
    <_>
      78. -138. -141. 430. 424. 175. 174. -393. -433. 552. 399. 101. 96.
      -428. -433. -472. -432. -169.</_>
    <_>
      119. 318. 174. 219. 432. 552. 216. 317. 96. -156. -273. -472. 140.
      103. -22. -336. -509. -642.</_>
    <_>
      318. 174. -393. 432. 552. 399. 317. 96. -428. -273. -472. -432.
      103. -22. -127. -509. -642. -499.</_>
    <_>
      174. -393. -433. 552. 399. 101. 96. -428. -433. -472. -432. -169.
      -22. -127. -117. -642. -499. -145.</_>
    <_>
      317. 96. -428. -273. -472. -432. 103. -22. -127. -509. -642. -499.
      1. -55. 89. -79. -81. -41.</_>
    <_>
      145. 151. 268. 395. 489. 400. 388. 28. 41. 364. 390. 129. 485. 65.
      -74. -153. -45. 138.</_>
    <_>
      139. 90. 176. 153. 358. 348. 414. 321. -32. 158. 459. 492. 522.
      547. -126. -32. 1. 100.</_>
    <_>
      414. 321. -32. 158. 459. 492. 522. 547. -126. -32. 1. 100. 400.
      597. -2. -96. -201. -126.</_>
    <_>
      -1. -2. 8. 561. 564. 552. 1. -4. 0. 207. 204. 206. 1. -3. -2.
      -593. -589. -592.</_>
    <_>
      -26. 1. 16. 540. 563. 542. 2. -3. 0. 214. 215. 216. 1. -2. 1.
      -595. -596. -595.</_>
    <_>
      -29. -5. 2. 501. 551. 558. 9. 7. -3. 217. 217. 217. 6. 7. -2.
      -598. -601. -600.</_>
    <_>
      -5. 2. 3. 551. 558. 543. 7. -3. -7. 217. 217. 217. 7. -2. -2.
      -601. -600. -594.</_>
    <_>
      -611. -357. 164. 231. 125. 82. -592. -527. 276. 136. 91. 76. -558.
      -593. 326. 32. 45. 44.</_>
    <_>
      -549. -271. 340. 253. 151. 64. -549. -458. 377. 229. 144. 81.
      -561. -455. 386. 19. 95. 170.</_>
    <_>
      -567. -421. 176. 239. 133. 88. -571. -573. 274. 103. 53. 44. -563.
      -617. 306. 35. 49. 46.</_>
    <_>
      -549. -458. 377. 229. 144. 81. -561. -455. 386. 19. 95. 170. -559.
      -279. 398. -23. 79. 192.</_>
    <_>
      -543. -558. 257. 43. 30. 51. -489. -578. 302. 49. 96. 100. -413.
      -577. 242. 183. 213. 150.</_>
    <_>
      -561. -455. 386. 19. 95. 170. -559. -279. 398. -23. 79. 192. -567.
      -149. 429. 11. 31. 79.</_>
    <_>
      -527. -232. 325. 3. 18. 23. -382. -164. 223. 322. 520. 481. -101.
      -24. 60. 289. 512. 528.</_>
    <_>
      -164. 223. 93. 520. 481. 297. -24. 60. -36. 512. 528. 420. 80. 29.
      -42. 6. 63. 134.</_>
    <_>
      -750. -363. 373. 10. 13. -1. -545. -356. 200. 109. 318. 166. -181.
      -285. -76. -65. 161. 108.</_>
    <_>
      -589. -390. 355. 29. 14. 13. -453. -295. 268. -293. -47. -38.
      -160. -113. 34. 190. 419. 358.</_>
    <_>
      319. 454. 145. -17. -8. 83. 121. 447. 348. -151. -365. -260. -21.
      250. 510. 45. -80. -220.</_>
    <_>
      250. 510. 242. -80. -220. -68. 198. 464. 337. 174. 216. 113. 259.
      292. 135. 509. 356. 85.</_>
    <_>
      90. 129. 259. 308. 503. 509. 380. 221. 98. 160. 347. 272. 255.
      291. 85. -137. -379. -247.</_>
    <_>
      483. 188. 23. -111. -354. -341. 270. 53. 144. -278. -383. -410.
      127. 47. 27. 411. 367. 271.</_>
    <_>
      198. 72. -62. 64. 42. 52. 170. 27. -19. -420. -471. -483. 82. 12.
      2. -530. -582. -564.</_>
    <_>
      149. 198. 282. 503. 558. 502. 163. 212. 150. 13. -14. -76. 293.
      259. 12. -339. -135. -164.</_>
    <_>
      -63. -66. -168. 473. 426. 220. -197. -258. -278. 77. -202. -298.
      -460. -526. -147. -68. -320. -361.</_>
    <_>
      -197. -258. -278. 77. -202. -298. -460. -526. -147. -68. -320.
      -361. -591. -646. -72. 57. 58. 54.</_>
    <_>
      97. 351. -460. -345. -81. -68. 359. 502. -591. -99. 50. 57. 539.
      517. -586. -27. 19. 32.</_>
    <_>
      351. -460. -526. -81. -68. -320. 502. -591. -646. 50. 57. 58. 517.
      -586. -624. 19. 32. 58.</_>
    <_>
      -460. -526. -147. -68. -320. -361. -591. -646. -72. 57. 58. 54.
      -586. -624. -82. 32. 58. 74.</_>
    <_>
      502. -591. -646. 50. 57. 58. 517. -586. -624. 19. 32. 58. 526.
      -528. -602. -2. 52. 106.</_>
    <_>
      -22. 539. 517. -146. -27. 19. 79. 600. 526. -69. -26. -2. 114.
      608. 532. -138. -138. -148.</_>
    <_>
      -286. -120. 270. -110. -368. -316. -444. -368. 318. 276. 128.
      -124. -395. -488. 10. 63. 140. -36.</_>
    <_>
      79. 600. 526. -69. -26. -2. 114. 608. 532. -138. -138. -148. 153.
      465. 362. -51. -155. -458.</_>
    <_>
      600. 526. -528. -26. -2. 52. 608. 532. -407. -138. -148. -75. 465.
      362. -144. -155. -458. -438.</_>
    <_>
      526. -528. -602. -2. 52. 106. 532. -407. -512. -148. -75. 82. 362.
      -144. -137. -458. -438. 43.</_>
    <_>
      608. 532. -407. -138. -148. -75. 465. 362. -144. -155. -458. -438.
      235. 79. 222. -127. -337. -274.</_>
    <_>
      465. 362. -144. -155. -458. -438. 235. 79. 222. -127. -337. -274.
      268. 20. 308. 40. 224. 188.</_>
    <_>
      -468. -205. 501. 20. 1. -43. -443. -186. 536. -181. -118. -20.
      -303. 67. 474. -137. 193. 286.</_>
    <_>
      536. 67. -575. -20. 33. 19. 474. -90. -529. 286. 14. -83. 200.
      -273. -296. -62. -247. -100.</_>
    <_>
      362. 13. -502. -210. -165. -248. 480. 32. -431. 8. 100. 273. 495.
      247. -186. -19. 119. 406.</_>
    <_>
      -502. -175. 3. -248. -139. 15. -431. -8. 9. 273. 402. 421. -186.
      59. -10. 406. 589. 618.</_>
    <_>
      -431. -8. 9. 273. 402. 421. -186. 59. -10. 406. 589. 618. 16. 92.
      20. -326. -274. -240.</_>
    <_>
      247. -186. 59. 119. 406. 589. 323. 16. 92. -317. -326. -274. 150.
      54. 65. -348. -474. -515.</_>
    <_>
      -186. 59. -10. 406. 589. 618. 16. 92. 20. -326. -274. -240. 54.
      65. 48. -474. -515. -548.</_>
    <_>
      59. -10. -62. 589. 618. 612. 92. 20. -11. -274. -240. -153. 65.
      48. 60. -515. -548. -536.</_>
    <_>
      -10. -62. -62. 618. 612. 612. 20. -11. -4. -240. -153. -44. 48.
      60. 61. -548. -536. -509.</_>
    <_>
      -5. -79. 53. 517. 575. 633. 15. 12. 38. 325. 378. 396. 45. 43. 23.
      -451. -443. -445.</_>
    <_>
      -79. 53. 159. 575. 633. 509. 12. 38. -101. 378. 396. 245. 43. 23.
      -242. -443. -445. -450.</_>
    <_>
      159. -129. 101. 509. 359. 379. -101. -106. 48. 245. 158. 108.
      -242. -93. -5. -450. -491. -481.</_>
    <_>
      153. 49. -632. -15. -13. 4. 126. 30. -467. -452. -500. -371. 18.
      -4. -170. -462. -556. -422.</_>
    <_>
      49. -632. -123. -13. 4. 19. 30. -467. -91. -500. -371. -189. -4.
      -170. -24. -556. -422. -240.</_>
    <_>
      -3. -207. -32. -19. -375. -610. -198. -395. -208. 298. 271. 142.
      -124. -513. -495. 460. 443. 167.</_>
    <_>
      -207. -32. 21. -375. -610. -651. -395. -208. 3. 271. 142. -11.
      -513. -495. -24. 443. 167. 6.</_>
    <_>
      147. -198. -395. 293. 298. 271. 374. -124. -513. 164. 460. 443.
      416. -175. -493. -158. -463. -477.</_>
    <_>
      -198. -395. -208. 298. 271. 142. -124. -513. -495. 460. 443. 167.
      -175. -493. -488. -463. -477. -174.</_>
    <_>
      325. 374. -124. -67. 164. 460. 342. 416. -175. 14. -158. -463.
      175. 152. -358. 63. -196. -338.</_>
    <_>
      374. -124. -513. 164. 460. 443. 416. -175. -493. -158. -463. -477.
      152. -358. -334. -196. -338. -348.</_>
    <_>
      -124. -513. -495. 460. 443. 167. -175. -493. -488. -463. -477.
      -174. -358. -334. -165. -338. -348. -169.</_>
    <_>
      -513. -495. -24. 443. 167. 6. -493. -488. -23. -477. -174. -5.
      -334. -165. -9. -348. -169. -1.</_>
    <_>
      416. -175. -493. -158. -463. -477. 152. -358. -334. -196. -338.
      -348. 43. -108. -331. -97. 186. 449.</_>
    <_>
      -175. -493. -488. -463. -477. -174. -358. -334. -165. -338. -348.
      -169. -108. -331. -129. 186. 449. 309.</_>
    <_>
      7. -68. 138. -575. -546. -338. -25. -24. 329. -41. -58. -31. -171.
      -2. 389. 439. 332. 387.</_>
    <_>
      329. 420. -170. -31. 64. 52. 389. 194. -322. 387. 126. -240. 140.
      -252. -219. 66. -368. -345.</_>
    <_>
      130. 509. 257. -108. -245. -135. 65. 360. 273. 275. 198. -45. 276.
      -16. 103. 460. 372. 69.</_>
    <_>
      -185. 147. 263. -27. -407. -269. -536. 159. 408. 84. 125. 144.
      -627. 417. 191. 47. 173. 195.</_>
    <_>
      182. 74. -171. 390. 542. 439. 240. -47. -126. 314. 99. 126. -130.
      -157. 183. -228. -493. -321.</_>
    <_>
      -536. 159. 408. 84. 125. 144. -627. 417. 191. 47. 173. 195. -630.
      567. 36. 26. 47. 20.</_>
    <_>
      13. 276. -16. 55. 460. 372. 376. 336. -349. 298. 316. 131. 213.
      35. -369. 283. -199. -335.</_>
    <_>
      225. 15. 2. 471. 553. 560. 293. 9. 77. 19. -1. 61. 88. 15. 124.
      -264. -443. -452.</_>
    <_>
      261. 39. -169. 325. -43. -359. -81. -298. 70. -97. -408. -190.
      -351. -142. 380. -201. -4. 244.</_>
    <_>
      301. 187. -108. -47. 41. 88. 445. 196. -153. 309. 374. 291. 563.
      147. -312. 297. 301. 176.</_>
    <_>
      92. 548. -323. 44. 256. 159. 314. 570. -505. 2. 34. -29. 328. 573.
      -557. 16. 1. 15.</_>
    <_>
      445. 196. -153. 309. 374. 291. 563. 147. -312. 297. 301. 176. 628.
      123. -365. -112. -75. -27.</_>
    <_>
      314. 570. -505. 2. 34. -29. 328. 573. -557. 16. 1. 15. 139. 581.
      -464. -3. -169. -82.</_>
    <_>
      18. 267. 563. -256. -5. 297. 37. 455. 628. -19. -63. -112. 53.
      365. 620. -9. -39. -88.</_>
    <_>
      267. 563. 147. -5. 297. 301. 455. 628. 123. -63. -112. -75. 365.
      620. 198. -39. -88. -58.</_>
    <_>
      563. 147. -312. 297. 301. 176. 628. 123. -365. -112. -75. -27.
      620. 198. -358. -88. -58. -24.</_>
    <_>
      -204. 274. -149. -158. -248. -39. -433. 400. 144. -111. -124. 86.
      -528. 505. 290. 2. 25. 66.</_>
    <_>
      265. 375. -149. -337. -147. -5. 334. 383. -307. 138. 25. -267.
      272. 91. -370. -30. -271. -334.</_>
    <_>
      -535. 397. 348. -1. -139. -230. -552. 127. 468. -28. -177. -236.
      -568. -40. 568. -24. -58. -66.</_>
    <_>
      -552. 127. 468. -28. -177. -236. -568. -40. 568. -24. -58. -66.
      -589. -61. 452. -17. -25. -154.</_>
    <_>
      -574. -145. 353. -156. -91. 129. -519. 19. 517. -119. 35. 143.
      -275. 203. 519. -147. 127. 205.</_>
    <_>
      -408. -444. 1. -252. -238. -3. -498. -170. 245. -316. -146. 137.
      -334. 165. 444. -176. 153. 404.</_>
    <_>
      -266. -498. -170. -144. -316. -146. -456. -334. 165. -322. -176.
      153. -305. 57. 430. -269. 127. 454.</_>
    <_>
      -498. -170. 245. -316. -146. 137. -334. 165. 444. -176. 153. 404.
      57. 430. 390. 127. 454. 414.</_>
    <_>
      -456. -334. 165. -322. -176. 153. -305. 57. 430. -269. 127. 454.
      73. 327. 363. 279. 531. 407.</_>
    <_>
      -334. 165. 444. -176. 153. 404. 57. 430. 390. 127. 454. 414. 327.
      363. 116. 531. 407. 106.</_>
    <_>
      -133. -311. -305. -247. -421. -269. -281. -96. 73. -403. -162.
      279. -8. 204. 274. 124. 456. 516.</_>
    <_>
      -311. -305. 57. -421. -269. 127. -96. 73. 327. -162. 279. 531.
      204. 274. 223. 456. 516. 361.</_>
    <_>
      -216. -281. -96. -318. -403. -162. -157. -8. 204. -293. 124. 456.
      66. 254. 201. 404. 472. 399.</_>
    <_>
      255. 104. -311. 111. 252. 177. 475. 202. -529. 89. 266. 221. 514.
      229. -541. -84. -195. -135.</_>
    <_>
      402. 236. -279. -62. -142. -185. 286. 122. -88. -140. -290. -170.
      143. 94. 111. 473. 452. 503.</_>
    <_>
      175. 369. 129. 379. 585. 585. 319. 257. 72. 189. 15. -154. 140.
      49. 82. -212. -425. -454.</_>
    <_>
      369. 129. -246. 585. 585. 462. 257. 72. -119. 15. -154. 39. 49.
      82. 132. -425. -454. -386.</_>
    <_>
      -2. -525. -537. -2. -9. -15. -128. -536. -417. -120. -250. -135.
      -391. -543. -167. -121. -261. -133.</_>
    <_>
      544. 444. -128. -172. -82. -120. 558. 537. -391. -6. 11. -121.
      446. 551. -417. -124. -239. -119.</_>
    <_>
      558. 537. -391. -6. 11. -121. 446. 551. -417. -124. -239. -119.
      181. 492. -165. -131. -340. -267.</_>
    <_>
      537. -391. -543. 11. -121. -261. 551. -417. -550. -239. -119. -12.
      492. -165. -490. -340. -267. -62.</_>
    <_>
      551. -417. -550. -239. -119. -12. 492. -165. -490. -340. -267.
      -62. 317. 130. -284. 95. 142. 438.</_>
    <_>
      492. -165. -490. -340. -267. -62. 317. 130. -284. 95. 142. 438.
      135. 419. -75. 205. 265. 467.</_>
    <_>
      -490. -18. -4. -62. 6. 2. -284. -15. -11. 438. 579. 579. -75. -16.
      -139. 467. 534. 405.</_>
    <_>
      -57. 317. 130. 299. 95. 142. -285. 135. 419. 411. 205. 265. -472.
      38. 422. 104. 26. -128.</_>
    <_>
      130. -284. -15. 142. 438. 579. 419. -75. -16. 265. 467. 534. 422.
      -146. -34. -128. -398. -554.</_>
    <_>
      -284. -15. -11. 438. 579. 579. -75. -16. -139. 467. 534. 405.
      -146. -34. -269. -398. -554. -573.</_>
    <_>
      -15. -11. -3. 579. 579. 577. -16. -139. -136. 534. 405. 146. -34.
      -269. -265. -554. -573. -573.</_>
    <_>
      -11. -3. -47. 579. 577. 527. -139. -136. -105. 405. 146. 5. -269.
      -265. -66. -573. -573. -522.</_>
    <_>
      -107. 55. 112. 369. 301. 444. -185. 230. 317. 27. 192. 429. -16.
      458. 425. -336. -104. -5.</_>
    <_>
      55. 112. -2. 301. 444. 548. 230. 317. 1. 192. 429. 533. 458. 425.
      2. -104. -5. 0.</_>
    <_>
      167. 202. 100. 165. 430. 554. 419. 434. 35. 77. 296. 339. 548.
      536. -16. -20. -8. 0.</_>
    <_>
      202. 100. 136. 430. 554. 544. 434. 35. 73. 296. 339. 221. 536.
      -16. 8. -8. 0. 2.</_>
    <_>
      -285. 135. 419. 411. 205. 265. -472. 38. 422. 104. 26. -128. -528.
      15. 294. -2. -3. 0.</_>
    <_>
      -75. -16. -139. 467. 534. 405. -146. -34. -269. -398. -554. -573.
      -278. -169. -282. 10. -101. -230.</_>
    <_>
      -139. -136. -105. 405. 146. 5. -269. -265. -66. -573. -573. -522.
      -282. -145. -13. -230. -123. -1.</_>
    <_>
      -283. 419. 434. -41. 77. 296. -144. 548. 536. -170. -20. -8. -45.
      551. 538. 59. 11. 4.</_>
    <_>
      419. 434. 35. 77. 296. 339. 548. 536. -16. -20. -8. 0. 551. 538.
      -12. 11. 4. 2.</_>
    <_>
      422. -146. -34. -128. -398. -554. 294. -278. -169. 0. 10. -101.
      417. -130. -270. 107. 368. 526.</_>
    <_>
      -146. -34. -269. -398. -554. -573. -278. -169. -282. 10. -101.
      -230. -130. -270. -288. 368. 526. 548.</_>
    <_>
      -34. -269. -265. -554. -573. -573. -169. -282. -145. -101. -230.
      -123. -270. -288. -27. 526. 548. 553.</_>
    <_>
      -269. -265. -66. -573. -573. -522. -282. -145. -13. -230. -123.
      -1. -288. -27. -70. 548. 553. 492.</_>
    <_>
      -66. -16. 458. -522. -336. -104. -13. 117. 550. -1. -1. -8. -70.
      -33. 474. 492. 285. 66.</_>
    <_>
      -35. -136. -144. -549. -438. -170. -118. -140. -45. 430. 232. 59.
      -182. -210. -85. 420. 484. 547.</_>
    <_>
      -136. -144. 548. -438. -170. -20. -140. -45. 551. 232. 59. 11.
      -210. -85. 410. 484. 547. 414.</_>
    <_>
      -144. 548. 536. -170. -20. -8. -45. 551. 538. 59. 11. 4. -85. 410.
      398. 547. 414. 140.</_>
    <_>
      -169. -282. -145. -101. -230. -123. -270. -288. -27. 526. 548.
      553. -133. -142. -12. 121. 382. 538.</_>
    <_>
      -282. -145. -13. -230. -123. -1. -288. -27. -70. 548. 553. 492.
      -142. -12. -133. 382. 538. 551.</_>
    <_>
      117. 550. 436. -1. -8. -4. -33. 474. 447. 285. 66. -3. -204. 265.
      341. 524. 363. 117.</_>
    <_>
      -140. -45. 551. 232. 59. 11. -210. -85. 410. 484. 547. 414. -14.
      -38. 140. 308. 488. 398.</_>
    <_>
      -45. 551. 538. 59. 11. 4. -85. 410. 398. 547. 414. 140. -38. 140.
      128. 488. 398. 132.</_>
    <_>
      1. 9. 134. -521. -517. -386. 3. 17. 395. -555. -549. -411. 3. 23.
      535. -41. -41. -33.</_>
    <_>
      9. 134. 127. -517. -386. -133. 17. 395. 385. -549. -411. -145. 23.
      535. 525. -41. -33. -19.</_>
    <_>
      17. 395. 385. -549. -411. -145. 23. 535. 525. -41. -33. -19. 27.
      545. 529. -3. 3. 3.</_>
    <_>
      395. 385. 6. -411. -145. -10. 535. 525. 11. -33. -19. -9. 545.
      529. 12. 3. 3. -2.</_>
    <_>
      -3. 187. 549. 17. 67. 115. 0. 194. 405. 566. 526. 341. 6. 78. 130.
      544. 474. 268.</_>
    <_>
      -67. 181. 356. -61. 217. 450. 202. 474. 314. 234. 518. 536. 490.
      563. 145. 364. 457. 359.</_>
    <_>
      181. 356. 38. 217. 450. 352. 474. 314. -209. 518. 536. 345. 563.
      145. -331. 457. 359. 259.</_>
    <_>
      -86. 202. 474. -58. 234. 518. 127. 490. 563. 155. 364. 457. 328.
      593. 459. 232. 327. 233.</_>
    <_>
      202. 474. 314. 234. 518. 536. 490. 563. 145. 364. 457. 359. 593.
      459. 25. 327. 233. 107.</_>
    <_>
      474. 314. -209. 518. 536. 345. 563. 145. -331. 457. 359. 259. 459.
      25. -249. 233. 107. 169.</_>
    <_>
      127. 490. 563. 155. 364. 457. 328. 593. 459. 232. 327. 233. 503.
      571. 268. 111. 169. 50.</_>
    <_>
      490. 563. 145. 364. 457. 359. 593. 459. 25. 327. 233. 107. 571.
      268. 16. 169. 50. -24.</_>
    <_>
      328. 593. 459. 232. 327. 233. 503. 571. 268. 111. 169. 50. 550.
      464. 144. 2. -116. -228.</_>
    <_>
      -9. -530. -541. -9. -6. -3. -13. -535. -543. 15. 3. -7. -17. -413.
      -414. -537. -407. -146.</_>
    <_>
      -6. -13. -535. 18. 15. 3. 0. -17. -413. -542. -537. -407. 4. -8.
      -142. -570. -562. -412.</_>
    <_>
      290. 127. -179. 300. 375. 223. 472. 23. -332. 410. 413. 308. 467.
      -34. -322. 301. 236. 294.</_>
    <_>
      78. 0. -17. -548. -542. -537. 41. 4. -8. -531. -570. -562. 5. 3.
      0. 425. 427. 426.</_>
    <_>
      0. -17. -413. -542. -537. -407. 4. -8. -142. -570. -562. -412. 3.
      0. -2. 427. 426. 424.</_>
    <_>
      -17. -413. -414. -537. -407. -146. -8. -142. -143. -562. -412.
      -131. 0. -2. -12. 426. 424. 414.</_>
    <_>
      41. 4. -8. -531. -570. -562. 5. 3. 0. 425. 427. 426. 4. -1. -5.
      422. 415. 407.</_>
    <_>
      4. -8. -142. -570. -562. -412. 3. 0. -2. 427. 426. 424. -1. -5.
      -14. 415. 407. 392.</_>
    <_>
      157. 303. 528. -19. 119. 296. 205. 526. 590. 39. 172. 280. 233.
      656. 537. 41. 66. 35.</_>
    <_>
      303. 528. 467. 119. 296. 301. 526. 590. 275. 172. 280. 145. 656.
      537. 116. 66. 35. -42.</_>
    <_>
      205. 526. 590. 39. 172. 280. 233. 656. 537. 41. 66. 35. 253. 578.
      428. 81. -2. -158.</_>
    <_>
      526. 590. 275. 172. 280. 145. 656. 537. 116. 66. 35. -42. 578.
      428. 68. -2. -158. -238.</_>
    <_>
      -74. -176. -65. -10. -252. -137. -299. -293. 461. -251. -351. -57.
      -362. -148. 643. -310. -128. -95.</_>
    <_>
      -299. -293. 461. -251. -351. -57. -362. -148. 643. -310. -128.
      -95. -194. 97. 384. -172. 59. 12.</_>
    <_>
      -258. -316. 310. -130. -334. -332. -392. -422. 311. 34. -2. -109.
      -422. -426. 102. -4. -2. -108.</_>
    <_>
      -316. 310. 311. -334. -332. -121. -422. 311. 362. -2. -109. -268.
      -426. 102. 201. -2. -108. -319.</_>
    <_>
      248. 159. -326. 272. 165. -156. 199. -236. -503. 331. -6. -257.
      195. -424. -471. -227. -82. 13.</_>
    <_>
      -236. -503. 14. -6. -257. -228. -424. -471. 161. -82. 13. 163.
      -175. -322. 256. 69. 372. 466.</_>
    <_>
      -503. 14. 419. -257. -228. -105. -471. 161. 484. 13. 163. 252.
      -322. 256. 333. 372. 466. 321.</_>
    <_>
      -54. 329. 580. -138. -117. -118. -6. 260. 593. -2. -44. -99. 0.
      145. 440. 568. 501. 288.</_>
    <_>
      -6. 260. 593. -2. -44. -99. 0. 145. 440. 568. 501. 288. -2. 29.
      152. 586. 535. 344.</_>
    <_>
      -557. -569. 0. -17. -29. -30. -431. -430. 0. 143. 420. 560. -152.
      -153. 0. 158. 437. 574.</_>
    <_>
      -426. -114. 455. 4. 20. 15. -358. -52. 425. 46. 160. 197. -217.
      45. 289. 447. 571. 495.</_>
    <_>
      -114. 455. 457. 20. 15. 11. -52. 425. 413. 160. 197. 127. 45. 289.
      257. 571. 495. 273.</_>
    <_>
      -154. -131. 5. 42. 81. 143. -128. -50. 10. 494. 562. 586. -48.
      -16. -1. 500. 546. 545.</_>
    <_>
      -358. -52. 425. 46. 160. 197. -217. 45. 289. 447. 571. 495. -63.
      41. 91. 409. 435. 309.</_>
    <_>
      -195. 17. 552. 107. 83. 56. -138. 24. 524. -80. 8. 14. -23. 21.
      418. 497. 521. 406.</_>
    <_>
      17. 552. 591. 83. 56. 13. 24. 524. 575. 8. 14. 13. 21. 418. 430.
      521. 406. 156.</_>
    <_>
      552. 591. 18. 56. 13. 0. 524. 575. 12. 14. 13. 4. 418. 430. 2.
      406. 156. 10.</_>
    <_>
      -362. -230. -4. -166. -44. 80. -178. -41. 7. 332. 583. 659. 36.
      35. 9. 550. 589. 591.</_>
    <_>
      -230. -4. -3. -44. 80. 91. -41. 7. -6. 583. 659. 656. 35. 9. -12.
      589. 591. 590.</_>
    <_>
      9. 244. 35. 111. -6. -143. 3. 68. 8. 603. 538. 472. -1. 6. 5. 589.
      588. 589.</_>
    <_>
      244. 35. -138. -6. -143. -80. 68. 8. -23. 538. 472. 497. 6. 5. 4.
      588. 589. 588.</_>
    <_>
      -138. 24. 524. -80. 8. 14. -23. 21. 418. 497. 521. 406. 4. 10.
      173. 588. 580. 439.</_>
    <_>
      24. 524. 575. 8. 14. 13. 21. 418. 430. 521. 406. 156. 10. 173.
      151. 580. 439. 165.</_>
    <_>
      -310. -171. 28. -110. -89. -32. -283. -53. -5. 405. 529. 557. -98.
      -19. -2. 452. 547. 556.</_>
    <_>
      21. 418. 430. 521. 406. 156. 10. 173. 151. 580. 439. 165. 5. 39.
      7. 23. 25. 21.</_>
    <_>
      -283. -53. -5. 405. 529. 557. -98. -19. -2. 452. 547. 556. -7. -9.
      0. 5. 11. 14.</_>
    <_>
      82. 127. -183. 90. 369. 393. 274. 488. -484. 204. 478. 514. 374.
      665. -635. 52. 55. 45.</_>
    <_>
      127. -183. -90. 369. 393. 94. 488. -484. -431. 478. 514. 171. 665.
      -635. -645. 55. 45. 23.</_>
    <_>
      274. 488. -484. 204. 478. 514. 374. 665. -635. 52. 55. 45. 468.
      556. -622. 40. 22. -64.</_>
    <_>
      488. -484. -431. 478. 514. 171. 665. -635. -645. 55. 45. 23. 556.
      -622. -631. 22. -64. -15.</_>
    <_>
      -484. -431. 162. 514. 171. 24. -635. -645. 245. 45. 23. 39. -622.
      -631. 201. -64. -15. -61.</_>
    <_>
      473. -310. -407. 75. 66. 41. 468. -273. -462. 158. 199. 206. 422.
      -109. -521. 128. 205. 303.</_>
    <_>
      323. -159. -328. 23. 47. 16. 413. -135. -417. 179. 269. 235. 500.
      -12. -532. 194. 314. 356.</_>
    <_>
      374. 665. -635. 52. 55. 45. 468. 556. -622. 40. 22. -64. 542. 356.
      -495. 12. -96. -83.</_>
    <_>
      665. -635. -645. 55. 45. 23. 556. -622. -631. 22. -64. -15. 356.
      -495. -554. -96. -83. 72.</_>
    <_>
      512. -120. -488. 90. 182. 242. 484. 39. -532. 136. 175. 230. 372.
      102. -534. 112. 24. 30.</_>
    <_>
      369. 86. -370. 203. 348. 356. 499. 193. -489. 239. 331. 311. 509.
      202. -515. 105. 32. 35.</_>
    <_>
      413. -135. -417. 179. 269. 235. 500. -12. -532. 194. 314. 356.
      461. 142. -566. 83. 78. 156.</_>
    <_>
      -135. -417. 28. 269. 235. 72. -12. -532. -239. 314. 356. 137. 142.
      -566. -489. 78. 156. 91.</_>
    <_>
      315. -457. -415. 137. 59. 11. 268. -458. -477. 132. 162. 147. 290.
      -289. -548. 66. 227. 340.</_>
    <_>
      499. 193. -489. 239. 331. 311. 509. 202. -515. 105. 32. 35. 384.
      166. -386. 110. 22. 112.</_>
    <_>
      193. -489. -440. 331. 311. 134. 202. -515. -564. 32. 35. 62. 166.
      -386. -563. 22. 112. 215.</_>
    <_>
      500. -12. -532. 194. 314. 356. 461. 142. -566. 83. 78. 156. 333.
      195. -524. 79. 9. 26.</_>
    <_>
      -538. 149. 417. 18. 59. 161. -566. 217. 453. 106. 105. 107. -565.
      101. 463. 265. 151. 43.</_>
    <_>
      -289. -548. -237. 227. 340. 161. -44. -572. -490. 122. 230. 132.
      64. -563. -553. 10. 19. 63.</_>
    <_>
      -566. 217. 453. 106. 105. 107. -565. 101. 463. 265. 151. 43. -574.
      -89. 439. 124. 39. -67.</_>
    <_>
      -250. -535. -237. 148. 291. 165. -10. -521. -412. 90. 201. 166.
      81. -493. -317. -257. -249. -91.</_>
    <_>
      -572. -490. 255. 230. 132. 29. -563. -553. 278. 19. 63. 126. -498.
      -389. 330. -84. 101. 254.</_>
    <_>
      -527. -158. 287. 279. 208. 155. -566. -203. 354. -36. -49. 26.
      -629. -132. 432. -147. -126. -52.</_>
    <_>
      126. -454. -533. 14. 22. 55. 123. -427. -520. 203. 219. 226. 112.
      -385. -574. 192. 207. 188.</_>
    <_>
      -570. -159. 333. 146. -23. -247. -634. -345. 158. -52. -133. -270.
      -679. -396. 83. -15. -30. -19.</_>
    <_>
      161. -92. -468. -345. -178. -92. 346. -6. -506. -330. -226. -264.
      480. -14. -576. 10. 32. -8.</_>
    <_>
      -555. -79. 357. 251. 55. -165. -591. -268. 263. -107. -136. -199.
      -628. -193. 229. -206. -139. -35.</_>
    <_>
      123. -427. -520. 203. 219. 226. 112. -385. -574. 192. 207. 188.
      100. -351. -616. 0. 7. 18.</_>
    <_>
      346. -6. -506. -330. -226. -264. 480. -14. -576. 10. 32. -8. 498.
      -20. -618. -12. -22. -30.</_>
    <_>
      -629. -132. 432. -147. -126. -52. -671. -101. 467. 5. -27. -35.
      -705. -122. 474. 21. -2. -8.</_>
    <_>
      329. 38. -628. -245. -172. -206. 438. 27. -683. 24. 49. 17. 469.
      29. -718. 3. 11. 10.</_>
    <_>
      38. -628. -193. -172. -206. -139. 27. -683. -109. 49. 17. -21. 29.
      -718. -117. 11. 10. 5.</_>
    <_>
      -705. -122. 474. 21. -2. -8. -722. -131. 475. 0. -3. -5. -727.
      -136. 477. 9. 2. 1.</_>
    <_>
      -859. -208. 320. -3. -20. -18. -869. -219. 325. 5. 1. -7. -863.
      -229. 318. 11. 11. 2.</_>
    <_>
      -722. -131. 475. 0. -3. -5. -727. -136. 477. 9. 2. 1. -720. -138.
      476. -4. 8. 6.</_>
    <_>
      -869. -219. 325. 5. 1. -7. -863. -229. 318. 11. 11. 2. -859. -236.
      313. 5. 2. -1.</_>
    <_>
      -727. -136. 477. 9. 2. 1. -720. -138. 476. -4. 8. 6. -694. -143.
      472. -14. -5. -12.</_>
    <_>
      -182. -868. -121. 12. 28. 19. -152. -867. -148. 20. 35. 18. -139.
      -869. -158. -13. -17. -12.</_>
    <_>
      34. 83. 65. -112. -269. -413. -44. -99. -130. 550. 447. 214. -26.
      -181. -269. 536. 575. 587.</_>
    <_>
      83. 65. 30. -269. -413. -480. -99. -130. -38. 447. 214. 18. -181.
      -269. -106. 575. 587. 576.</_>
    <_>
      417. -53. -865. -9. 1. 11. 498. -32. -874. -80. 12. 14. 679. 21.
      -889. -191. -49. -13.</_>
    <_>
      -53. -865. -159. 1. 11. 1. -32. -874. -186. 12. 14. -12. 21. -889.
      -201. -49. -13. -17.</_>
    <_>
      -72. -124. -129. 556. 440. 187. -26. -233. -284. 556. 609. 598.
      23. -110. -160. 37. 156. 414.</_>
    <_>
      498. -32. -874. -80. 12. 14. 679. 21. -889. -191. -49. -13. 774.
      69. -893. -30. -29. -21.</_>
    <_>
      -32. -874. -186. 12. 14. -12. 21. -889. -201. -49. -13. -17. 69.
      -893. -185. -29. -21. -5.</_>
    <_>
      219. 679. 21. -255. -191. -49. 161. 774. 69. -3. -30. -29. 133.
      715. 92. -21. -81. -118.</_>
    <_>
      679. 21. -889. -191. -49. -13. 774. 69. -893. -30. -29. -21. 715.
      92. -844. -81. -118. -54.</_>
    <_>
      21. -889. -201. -49. -13. -17. 69. -893. -185. -29. -21. -5. 92.
      -844. -169. -118. -54. -5.</_>
    <_>
      -260. -150. -105. 562. 394. 119. -168. -292. -341. 488. 606. 503.
      -22. -158. -329. 62. 224. 473.</_>
    <_>
      774. 69. -893. -30. -29. -21. 715. 92. -844. -81. -118. -54. 481.
      181. -611. -311. -419. -161.</_>
    <_>
      715. 92. -844. -81. -118. -54. 481. 181. -611. -311. -419. -161.
      156. 204. -277. -154. -348. -249.</_>
    <_>
      -365. -233. -66. 501. 297. 76. -276. -386. -289. 342. 482. 327.
      -58. -268. -496. 104. 300. 366.</_>
    <_>
      -386. -289. -77. 482. 327. 101. -268. -496. -296. 300. 366. 166.
      -89. -444. -497. 75. 240. 291.</_>
    <_>
      -763. -3. 380. 7. -3. 44. -778. -4. 462. 6. 0. 34. -787. -7. 456.
      13. 7. -36.</_>
    <_>
      -778. -4. 462. 6. 0. 34. -787. -7. 456. 13. 7. -36. -793. -17.
      395. 15. 5. -23.</_>
    <_>
      -787. -7. 456. 13. 7. -36. -793. -17. 395. 15. 5. -23. -805. -28.
      386. 11. -2. 6.</_>
    <_>
      -793. -17. 395. 15. 5. -23. -805. -28. 386. 11. -2. 6. -819. -28.
      396. 1. 0. 2.</_>
    <_>
      -819. -28. 396. 1. 0. 2. -827. -24. 388. 3. 0. -6. -833. -27. 378.
      11. 5. -2.</_>
    <_>
      -827. -24. 388. 3. 0. -6. -833. -27. 378. 11. 5. -2. -837. -29.
      370. 3. 3. 0.</_>
    <_>
      -833. -27. 378. 11. 5. -2. -837. -29. 370. 3. 3. 0. -843. -30.
      362. 7. 0. -6.</_>
    <_>
      -837. -29. 370. 3. 3. 0. -843. -30. 362. 7. 0. -6. -849. -33. 354.
      5. 3. -2.</_>
    <_>
      -843. -30. 362. 7. 0. -6. -849. -33. 354. 5. 3. -2. -848. -35.
      348. 4. 5. 2.</_>
    <_>
      -849. -33. 354. 5. 3. -2. -848. -35. 348. 4. 5. 2. -845. -40. 344.
      7. 4. -2.</_>
    <_>
      -671. -34. 504. 25. 4. -2. -684. -33. 495. -14. -5. -7. -597. -31.
      497. -79. 1. 7.</_>
    <_>
      184. -398. -545. 194. 180. 75. 249. -515. -601. 119. 81. 13. 305.
      -542. -613. -99. -32. -3.</_>
    <_>
      -686. -56. 437. 12. 2. -9. -696. -63. 463. 8. 1. 31. -702. -65.
      529. -2. -3. 31.</_>
    <_>
      -696. -63. 463. 8. 1. 31. -702. -65. 529. -2. -3. 31. -692. -64.
      526. -18. -6. -42.</_>
    <_>
      -644. -196. 439. 2. 8. 7. -644. -199. 466. 8. -1. 24. -660. -203.
      539. 14. 3. 47.</_>
    <_>
      -702. -65. 529. -2. -3. 31. -692. -64. 526. -18. -6. -42. -652.
      -65. 476. -26. 1. -14.</_>
    <_>
      -703. -40. 484. 57. 12. 16. -737. -42. 479. -1. 8. -3. -714. -41.
      458. -2. 13. 4.</_>
    <_>
      -644. -199. 466. 8. -1. 24. -660. -203. 539. 14. 3. 47. -663.
      -212. 517. 15. 14. -61.</_>
    <_>
      -692. -64. 526. -18. -6. -42. -652. -65. 476. -26. 1. -14. -604.
      -67. 494. -24. -5. 26.</_>
    <_>
      -660. -203. 539. 14. 3. 47. -663. -212. 517. 15. 14. -61. -655.
      -223. 417. 9. 7. -29.</_>
    <_>
      -650. -85. 436. 6. -3. -8. -626. -87. 424. -14. 17. 8. -649. 8.
      422. 145. 186. 288.</_>
    <_>
      -853. -196. 293. 7. 4. -5. -844. -205. 286. 6. 9. 2. -842. -262.
      343. 116. 58. 65.</_>
    <_>
      29. -644. -130. -3. 8. 18. 102. -688. -135. 232. 250. 191. 183.
      -746. -136. 11. 16. 16.</_>
    <_>
      -456. -67. 261. 20. 25. 19. -556. 43. 327. 284. 289. 471. -675.
      149. 409. 7. -11. -5.</_>
    <_>
      -626. -87. 424. -14. 17. 8. -649. 8. 422. 145. 186. 288. -715.
      120. 480. 15. 20. 88.</_>
    <_>
      -844. -205. 286. 6. 9. 2. -842. -262. 343. 116. 58. 65. -863.
      -299. 411. 3. 3. 27.</_>
    <_>
      102. -688. -135. 232. 250. 191. 183. -746. -136. 11. 16. 16. 120.
      -714. -125. -214. -250. -207.</_>
    <_>
      -688. -135. 335. 250. 191. 263. -746. -136. 425. 16. 16. 33. -714.
      -125. 366. -250. -207. -272.</_>
    <_>
      241. -34. -591. 223. 222. 113. 302. -61. -670. 242. 277. 280. 319.
      -67. -470. -171. -195. -4.</_>
    <_>
      -591. -8. 404. 113. 56. 96. -670. 45. 292. 280. 311. 212. -470.
      128. 45. -4. 248. 183.</_>
    <_>
      -165. -367. 49. 195. 127. 165. -150. -462. -1. 380. 368. 185. -23.
      -463. -335. 265. 403. 251.</_>
    <_>
      278. 51. -556. 290. 343. 284. 300. 101. -675. -2. 17. 7. 302. 63.
      -590. -290. -345. -288.</_>
    <_>
      51. -556. 43. 343. 284. 289. 101. -675. 149. 17. 7. -11. 63. -590.
      47. -345. -288. -287.</_>
    <_>
      -556. 43. 327. 284. 289. 471. -675. 149. 409. 7. -11. -5. -590.
      47. 343. -288. -287. -461.</_>
    <_>
      -649. 8. 422. 145. 186. 288. -715. 120. 480. 15. 20. 88. -685. 40.
      524. -139. -194. -298.</_>
    <_>
      92. -842. -262. 50. 116. 58. 181. -863. -299. 1. 3. 3. 138. -878.
      -240. -52. -112. -68.</_>
    <_>
      -842. -262. 343. 116. 58. 65. -863. -299. 411. 3. 3. 27. -878.
      -240. 359. -112. -68. -85.</_>
    <_>
      183. -746. -136. 11. 16. 16. 120. -714. -125. -214. -250. -207.
      39. -693. -123. 11. -13. -33.</_>
    <_>
      -746. -136. 425. 16. 16. 33. -714. -125. 366. -250. -207. -272.
      -693. -123. 282. -13. -33. -50.</_>
    <_>
      -150. -462. -1. 380. 368. 185. -23. -463. -335. 265. 403. 251. 77.
      -263. -589. 43. 205. 303.</_>
    <_>
      -675. 149. 409. 7. -11. -5. -590. 47. 343. -288. -287. -461. -467.
      -57. 272. -29. -11. -12.</_>
    <_>
      -715. 120. 480. 15. 20. 88. -685. 40. 524. -139. -194. -298. -646.
      -86. 475. -12. -44. -115.</_>
    <_>
      181. -863. -299. 1. 3. 3. 138. -878. -240. -52. -112. -68. 66.
      -864. -228. -4. -2. -20.</_>
    <_>
      -863. -299. 411. 3. 3. 27. -878. -240. 359. -112. -68. -85. -864.
      -228. 297. -2. -20. -53.</_>
    <_>
      120. -714. -125. -214. -250. -207. 39. -693. -123. 11. -13. -33.
      32. -715. -129. 10. 5. -3.</_>
    <_>
      -714. -125. 366. -250. -207. -272. -693. -123. 282. -13. -33. -50.
      -715. -129. 269. 5. -3. -5.</_>
    <_>
      -463. -335. 117. 403. 251. -193. -263. -589. -263. 205. 303. 113.
      -108. -637. -434. 44. 53. 24.</_>
    <_>
      -685. 40. 524. -139. -194. -298. -646. -86. 475. -12. -44. -115.
      -627. -120. 429. -21. -4. -13.</_>
    <_>
      -878. -240. 359. -112. -68. -85. -864. -228. 297. -2. -20. -53.
      -848. -266. 291. 2. -2. -13.</_>
    <_>
      -263. -589. -263. 205. 303. 113. -108. -637. -434. 44. 53. 24.
      -190. -646. -347. -110. -210. -103.</_>
    <_>
      -864. -228. 297. -2. -20. -53. -848. -266. 291. 2. -2. -13. -843.
      -283. 288. -1. -9. -18.</_>
    <_>
      -146. 8. 155. -254. -378. -207. -288. 10. 334. -410. -426. -416.
      -154. -22. 207. -188. -70. -239.</_>
    <_>
      56. 148. 120. -512. -330. -74. -22. 370. 356. -282. -320. -118.
      -154. 327. 388. 444. 307. 94.</_>
    <_>
      -845. -310. 285. 7. 2. -7. -842. -324. 280. 0. -6. -16. -839.
      -343. 276. -5. -15. -28.</_>
    <_>
      207. 223. 432. -239. -341. -130. 45. 349. 594. -11. 55. 132. 80.
      448. 490. 202. 270. 188.</_>
    <_>
      -842. -324. 280. 0. -6. -16. -839. -343. 276. -5. -15. -28. -829.
      -363. 271. -11. -11. -23.</_>
    <_>
      430. 75. -839. -4. -5. -5. 427. 73. -829. -15. -19. -11. 376. 60.
      -696. -302. -362. -250.</_>
    <_>
      75. -839. -343. -5. -5. -15. 73. -829. -363. -19. -11. -11. 60.
      -696. -325. -362. -250. -79.</_>
    <_>
      -839. -343. 276. -5. -15. -28. -829. -363. 271. -11. -11. -23.
      -696. -325. 236. -250. -79. -64.</_>
    <_>
      427. 73. -829. -15. -19. -11. 376. 60. -696. -302. -362. -250.
      216. 24. -374. -398. -534. -360.</_>
    <_>
      73. -829. -363. -19. -11. -11. 60. -696. -325. -362. -250. -79.
      24. -374. -190. -534. -360. -74.</_>
    <_>
      -829. -363. 271. -11. -11. -23. -696. -325. 236. -250. -79. -64.
      -374. -190. 143. -360. -74. -47.</_>
    <_>
      -101. -266. -169. 433. 304. -47. 46. -380. -499. 240. 402. 309.
      107. -131. -522. -9. 139. 458.</_>
    <_>
      -380. -499. -163. 402. 309. 21. -131. -522. -424. 139. 458. 462.
      68. -217. -461. -56. 129. 393.</_>
    <_>
      -499. -163. 29. 309. 21. -75. -522. -424. 66. 458. 462. 334. -217.
      -461. -23. 129. 393. 395.</_>
    <_>
      -424. 66. -50. 462. 334. 316. -461. -23. -105. 393. 395. 269.
      -223. -172. -175. 205. 292. 199.</_>
    <_>
      203. 458. -17. -335. -118. 9. 270. 640. -57. -2. 30. 45. 205. 496.
      -54. 365. 124. -32.</_>
    <_>
      138. 117. -5. 134. 419. 559. 440. 388. -3. 122. 410. 543. 447.
      404. -9. 263. -2. -125.</_>
    <_>
      52. 440. 388. -28. 122. 410. 142. 447. 404. 316. 263. -2. 260.
      126. 192. 390. 240. -28.</_>
    <_>
      440. 388. -3. 122. 410. 543. 447. 404. -9. 263. -2. -125. 126.
      192. -20. 240. -28. -128.</_>
    <_>
      470. 486. 11. 82. 226. 309. 440. 521. 94. -120. -259. -224. 204.
      429. 239. -142. -331. -313.</_>
    <_>
      156. 99. 9. 0. 253. 353. 315. 205. 133. -469. -457. -327. 170.
      123. 270. -288. -527. -602.</_>
    <_>
      99. 9. 10. 253. 353. 354. 205. 133. 129. -457. -327. -85. 123.
      270. 259. -527. -602. -577.</_>
    <_>
      9. 10. 11. 353. 354. 355. 133. 129. 8. -327. -85. 30. 270. 259.
      94. -602. -577. -476.</_>
    <_>
      229. 126. -2. -85. 176. 294. 326. 261. 87. -554. -583. -477. 158.
      158. 199. -170. -412. -509.</_>
    <_>
      126. -2. 4. 176. 294. 290. 261. 87. 88. -583. -477. -300. 158.
      199. 250. -412. -509. -412.</_>
    <_>
      149. 8. 6. 73. 238. 248. 375. 122. 56. -427. -252. -98. 302. 236.
      213. -516. -650. -533.</_>
    <_>
      346. 90. 9. -98. 188. 291. 575. 316. -5. -149. 20. 129. 451. 461.
      89. -315. -463. -333.</_>
    <_>
      575. 316. -5. -149. 20. 129. 451. 461. 89. -315. -463. -333. 145.
      378. 321. -157. -398. -379.</_>
    <_>
      151. -9. -5. 121. 289. 293. 460. 128. 0. -222. 56. 194. 435. 257.
      131. -505. -679. -557.</_>
    <_>
      460. 128. 0. -222. 56. 194. 435. 257. 131. -505. -679. -557. 138.
      123. 266. -154. -411. -532.</_>
    <_>
      128. 0. 4. 56. 194. 194. 257. 131. 126. -679. -557. -304. 123.
      266. 251. -411. -532. -525.</_>
    <_>
      317. 155. 8. -171. 183. 354. 439. 425. 147. -257. -219. 19. 210.
      375. 298. -182. -499. -636.</_>
    <_>
      155. 8. 4. 183. 354. 358. 425. 147. 52. -219. 19. 202. 375. 298.
      202. -499. -636. -518.</_>
    <_>
      425. 147. 52. -219. 19. 202. 375. 298. 202. -499. -636. -518. 134.
      186. 262. -128. -344. -514.</_>
    <_>
      147. 52. 0. 19. 202. 252. 298. 202. 99. -636. -518. -319. 186.
      262. 294. -344. -514. -458.</_>
    <_>
      -114. -332. -76. 36. 4. -18. -228. -341. -19. -314. -405. -335.
      -452. -247. 67. -348. -387. -277.</_>
    <_>
      -112. -228. -341. -90. -314. -405. -345. -452. -247. -115. -348.
      -387. -480. -569. -168. -10. -29. -28.</_>
    <_>
      74. -20. -58. 122. 182. 110. 151. -29. -122. -469. -461. -462. 82.
      -10. -78. -626. -684. -620.</_>
    <_>
      367. 382. -480. -251. -74. -10. 485. 464. -495. -21. 2. 5. 504.
      468. -500. 6. 6. 2.</_>
    <_>
      421. 371. -2. 129. 363. 474. 546. 485. -3. -4. 1. 3. 544. 393.
      -39. -14. -113. -243.</_>
    <_>
      -377. -302. 532. 221. 114. 6. -413. -385. 505. 23. 11. 9. -251.
      -397. 368. 113. 275. 128.</_>
    <_>
      -302. 532. 511. 114. 6. -1. -385. 505. 504. 11. 9. -18. -397. 368.
      483. 275. 128. -3.</_>
    <_>
      -385. 505. 504. 11. 9. -18. -397. 368. 483. 275. 128. -3. -426.
      141. 469. 224. 115. 5.</_>
    <_>
      -397. 368. 483. 275. 128. -3. -426. 141. 469. 224. 115. 5. -338.
      55. 468. -134. -23. 0.</_>
    <_>
      116. -321. -549. -94. -41. 15. 80. -339. -546. 178. 71. 0. 27.
      -372. -536. -69. -48. 0.</_>
    <_>
      -415. -41. 296. 65. -321. -552. -388. -359. 166. 366. 461. 244.
      74. -297. 26. 6. 435. 574.</_>
    <_>
      -41. 296. 101. -321. -552. -467. -359. 166. 245. 461. 244. 173.
      -297. 26. 232. 435. 574. 492.</_>
    <_>
      296. 101. 119. -552. -467. -233. 166. 245. 266. 244. 173. 230. 26.
      232. 120. 574. 492. 276.</_>
    <_>
      -388. -359. 166. 366. 461. 244. 74. -297. 26. 6. 435. 574. 328.
      -126. -153. -136. -140. -287.</_>
    <_>
      -359. 166. 245. 461. 244. 173. -297. 26. 232. 435. 574. 492. -126.
      -153. 188. -140. -287. -428.</_>
    <_>
      166. 245. 266. 244. 173. 230. 26. 232. 120. 574. 492. 276. -153.
      188. 146. -287. -428. -230.</_>
    <_>
      -241. 109. 116. 217. 381. 440. -81. 85. 57. 275. 247. 105. -27.
      -6. 1. -563. -572. -577.</_>
    <_>
      116. -191. 26. 440. 413. 230. 57. -124. -111. 105. 140. 253. 1.
      -14. -38. -577. -558. -488.</_>
    <_>
      -81. 85. 57. 275. 247. 105. -27. -6. 1. -563. -572. -577. -35.
      -21. -10. -507. -521. -542.</_>
    <_>
      -271. -133. 221. -137. -445. -457. -356. -436. 148. 56. -24. -388.
      -186. -457. -243. 86. 315. 267.</_>
    <_>
      -133. 221. -216. -445. -457. -106. -436. 148. 193. -24. -388.
      -403. -457. -243. 171. 315. 267. -131.</_>
    <_>
      221. -132. -545. -149. -60. 11. 224. -169. -549. 246. 123. 11.
      158. -363. -554. 248. 111. 24.</_>
    <_>
      101. 75. -18. -133. -15. 50. 163. 110. 1. -619. -640. -651. -73.
      31. -17. -297. -591. -677.</_>
    <_>
      75. -18. -139. -15. 50. 87. 110. 1. -72. -640. -651. -602. 31.
      -17. -26. -591. -677. -698.</_>
    <_>
      -18. -139. -229. 50. 87. 69. 1. -72. -176. -651. -602. -464. -17.
      -26. -55. -677. -698. -669.</_>
    <_>
      -139. -229. -376. 87. 69. 24. -72. -176. -276. -602. -464. -266.
      -26. -55. -91. -698. -669. -561.</_>
    <_>
      -229. -376. -291. 69. 24. -17. -176. -276. -279. -464. -266. -113.
      -55. -91. -117. -669. -561. -367.</_>
    <_>
      322. 66. -285. -100. -52. -257. 449. 30. -476. -335. -292. -314.
      516. 30. -525. 22. 46. 19.</_>
    <_>
      -436. 148. 193. -24. -388. -403. -457. -243. 171. 315. 267. -131.
      -252. -174. -137. -186. 136. 295.</_>
    <_>
      25. 39. 99. -585. -595. -603. 7. 169. 201. -99. 23. 263. 5. 385.
      450. -37. 55. 280.</_>
    <_>
      39. 99. 149. -595. -603. -609. 169. 201. -72. 23. 263. 150. 385.
      450. -339. 55. 280. 375.</_>
    <_>
      99. 149. 163. -603. -609. -619. 201. -72. -73. 263. 150. -297.
      450. -339. -442. 280. 375. 186.</_>
    <_>
      149. 163. 110. -609. -619. -640. -72. -73. 31. 150. -297. -591.
      -339. -442. -57. 375. 186. 23.</_>
    <_>
      163. 110. 1. -619. -640. -651. -73. 31. -17. -297. -591. -677.
      -442. -57. -37. 186. 23. 1.</_>
    <_>
      110. 1. -72. -640. -651. -602. 31. -17. -26. -591. -677. -698.
      -57. -37. -28. 23. 1. 0.</_>
    <_>
      1. -72. -176. -651. -602. -464. -17. -26. -55. -677. -698. -669.
      -37. -28. -14. 1. 0. 10.</_>
    <_>
      449. 30. -476. -335. -292. -314. 516. 30. -525. 22. 46. 19. 367.
      -110. -450. 243. -70. -108.</_>
    <_>
      30. -476. 173. -292. -314. -289. 30. -525. 258. 46. 19. 30. -110.
      -450. 409. -70. -108. 107.</_>
    <_>
      -476. 173. 135. -314. -289. -201. -525. 258. 177. 19. 30. 69.
      -450. 409. 177. -108. 107. 219.</_>
    <_>
      -291. 176. 153. -409. -418. -73. -470. 363. 469. 18. 35. 193.
      -450. 287. 585. -26. -99. -217.</_>
    <_>
      176. 153. -258. -418. -73. 86. 363. 469. -321. 35. 193. 287. 287.
      585. -256. -99. -217. -130.</_>
    <_>
      -73. 31. -17. -297. -591. -677. -442. -57. -37. 186. 23. 1. -417.
      49. -59. 197. 491. 597.</_>
    <_>
      31. -17. -26. -591. -677. -698. -57. -37. -28. 23. 1. 0. 49. -59.
      -95. 491. 597. 509.</_>
    <_>
      -17. -26. -55. -677. -698. -669. -37. -28. -14. 1. 0. 10. -59.
      -95. 18. 597. 509. 464.</_>
    <_>
      -26. -55. -91. -698. -669. -561. -28. -14. 31. 0. 10. 65. -95. 18.
      125. 509. 464. 535.</_>
    <_>
      -55. -91. -117. -669. -561. -367. -14. 31. -8. 10. 65. 102. 18.
      125. -16. 464. 535. 584.</_>
    <_>
      239. -338. -287. 433. 424. 111. 469. -532. -496. 165. 210. 120.
      418. -545. -398. 142. 33. 208.</_>
    <_>
      5. 385. 450. -37. 55. 280. -134. 306. 581. 272. -38. -211. -199.
      -45. 460. 441. 335. 36.</_>
    <_>
      -442. -57. -37. 186. 23. 1. -417. 49. -59. 197. 491. 597. -106.
      279. -229. 172. 419. 373.</_>
    <_>
      367. -110. -450. 243. -70. -108. 27. -398. -327. 417. 102. -25.
      -87. -548. -399. 147. 198. 103.</_>
    <_>
      -110. -450. 409. -70. -108. 107. -398. -327. 536. 102. -25. 10.
      -548. -399. 547. 198. 103. 7.</_>
    <_>
      469. -532. -496. 165. 210. 120. 418. -545. -398. 142. 33. 208.
      268. -364. -136. 26. 166. 434.</_>
    <_>
      -532. -496. 124. 210. 120. 198. -545. -398. 258. 33. 208. 362.
      -364. -136. 1. 166. 434. 285.</_>
    <_>
      -96. -2. 127. 84. 14. 135. -316. 33. 396. 416. 301. 484. -461. 54.
      390. 453. 444. 276.</_>
    <_>
      127. 155. -59. 135. 397. 483. 396. 174. -133. 484. 510. 369. 390.
      -243. 41. 276. -173. -275.</_>
    <_>
      155. -59. -134. 397. 483. 272. 174. -133. -199. 510. 369. 441.
      -243. 41. 188. -173. -275. 214.</_>
    <_>
      -134. 306. 581. 272. -38. -211. -199. -45. 460. 441. 335. 36. 188.
      -359. 197. 214. 393. 115.</_>
    <_>
      -417. 49. -59. 197. 491. 597. -106. 279. -229. 172. 419. 373. 26.
      148. -487. 226. -20. -363.</_>
    <_>
      49. -59. -95. 491. 597. 509. 279. -229. -117. 419. 373. 269. 148.
      -487. 107. -20. -363. -293.</_>
    <_>
      171. 293. 91. 321. 437. 575. 70. 405. 45. 326. 221. 149. 35. 379.
      -28. -49. -5. -32.</_>
    <_>
      27. -398. -327. 417. 102. -25. -87. -548. -399. 147. 198. 103. 3.
      -535. -506. -13. 39. 40.</_>
    <_>
      -398. -327. 536. 102. -25. 10. -548. -399. 547. 198. 103. 7. -535.
      -506. 459. 39. 40. -59.</_>
    <_>
      82. 88. 37. 288. 472. 577. 233. 327. -101. 205. 411. 407. 261.
      541. -403. -63. -27. -111.</_>
    <_>
      88. 37. 131. 472. 577. 601. 327. -101. 64. 411. 407. 178. 541.
      -403. -25. -27. -111. -273.</_>
    <_>
      131. -105. -316. 601. 585. 416. 64. 46. -461. 178. 278. 453. -25.
      400. -378. -273. -108. 154.</_>
    <_>
      -105. -316. 33. 585. 416. 301. 46. -461. 54. 278. 453. 444. 400.
      -378. 10. -108. 154. 202.</_>
    <_>
      -316. 33. 396. 416. 301. 484. -461. 54. 390. 453. 444. 276. -378.
      10. 144. 154. 202. 80.</_>
    <_>
      33. 396. 174. 301. 484. 510. 54. 390. -243. 444. 276. -173. 10.
      144. -394. 202. 80. 132.</_>
    <_>
      -45. 460. -83. 335. 36. -23. -359. 197. 106. 393. 115. 100. -395.
      155. 381. -341. -141. 107.</_>
    <_>
      -548. -399. 547. 198. 103. 7. -535. -506. 459. 39. 40. -59. -498.
      -530. 242. 2. 14. -128.</_>
    <_>
      -349. 233. 327. 233. 205. 411. -484. 261. 541. 16. -63. -27. -533.
      206. 606. 57. 32. 6.</_>
    <_>
      233. 327. -101. 205. 411. 407. 261. 541. -403. -63. -27. -111.
      206. 606. -558. 32. 6. 0.</_>
    <_>
      41. 188. -359. -275. 214. 393. 125. 244. -395. 167. -182. -341.
      -240. -5. -180. -14. -279. -154.</_>
    <_>
      148. -487. 107. -20. -363. -293. -152. -594. 241. 172. 108. 65.
      -69. -388. 48. -85. 268. 324.</_>
    <_>
      -487. 107. 307. -363. -293. 5. -594. 241. 491. 108. 65. 85. -388.
      48. 438. 268. 324. 58.</_>
    <_>
      -484. 261. 541. 16. -63. -27. -533. 206. 606. 57. 32. 6. -431.
      127. 495. 211. 259. 95.</_>
    <_>
      -403. -25. 400. -111. -273. -108. -558. -38. 594. 0. -6. 10. -524.
      -27. 561. 24. 75. 37.</_>
    <_>
      -594. 241. 491. 108. 65. 85. -388. 48. 438. 268. 324. 58. 84.
      -240. 47. -40. 88. -325.</_>
    <_>
      -533. 206. 606. 57. 32. 6. -431. 127. 495. 211. 259. 95. -197. 39.
      233. -347. -249. -435.</_>
    <_>
      206. 606. -558. 32. 6. 0. 127. 495. -524. 259. 95. 24. 39. 233.
      -347. -249. -435. -449.</_>
    <_>
      -558. -38. 594. 0. -6. 10. -524. -27. 561. 24. 75. 37. -347. -9.
      355. -449. -305. -455.</_>
    <_>
      275. 486. -72. -19. -42. -154. 249. 311. -308. 343. 165. -134.
      223. 71. -374. -339. -427. -434.</_>
    <_>
      -72. -69. -388. -154. -85. 268. -308. 71. 84. -134. -299. -40.
      -374. 27. 290. -434. -379. -476.</_>
    <_>
      48. 438. -246. 324. 58. -34. -240. 47. -46. 88. -325. -424. -355.
      -244. 85. -513. -506. -567.</_>
    <_>
      438. -246. -334. 58. -34. 38. 47. -46. -152. -325. -424. -114.
      -244. 85. -15. -506. -567. -609.</_>
    <_>
      -246. -334. -63. -34. 38. 103. -46. -152. -195. -424. -114. -129.
      85. -15. -204. -567. -609. -466.</_>
    <_>
      437. -286. -10. 53. -170. -248. 167. -292. 25. -463. -516. -409.
      -76. -105. 14. -356. -359. -290.</_>
    <_>
      -286. -10. 36. -170. -248. -118. -292. 25. 188. -516. -409. -352.
      -105. 14. 118. -359. -290. -428.</_>
    <_>
      36. -271. 173. -118. -13. 135. 188. -131. 169. -352. -165. -177.
      118. 8. 10. -428. -546. -554.</_>
    <_>
      -271. 173. -76. -13. 135. 428. -131. 169. 59. -165. -177. -339. 8.
      10. 34. -546. -554. -576.</_>
    <_>
      173. -76. 103. 135. 428. 433. 169. 59. -9. -177. -339. -321. 10.
      34. 20. -554. -576. -590.</_>
    <_>
      -76. 103. 272. 428. 433. 202. 59. -9. 87. -339. -321. -387. 34.
      20. 1. -576. -590. -581.</_>
    <_>
      103. 272. -431. 433. 202. 211. -9. 87. -197. -321. -387. -347. 20.
      1. -29. -590. -581. -539.</_>
    <_>
      272. -431. 127. 202. 211. 259. 87. -197. 39. -387. -347. -249. 1.
      -29. 7. -581. -539. -501.</_>
    <_>
      -431. 127. 495. 211. 259. 95. -197. 39. 233. -347. -249. -435.
      -29. 7. 39. -539. -501. -541.</_>
    <_>
      127. 495. -524. 259. 95. 24. 39. 233. -347. -249. -435. -449. 7.
      39. -112. -501. -541. -486.</_>
    <_>
      495. -524. -27. 95. 24. 75. 233. -347. -9. -435. -449. -305. 39.
      -112. -5. -541. -486. -391.</_>
    <_>
      -524. -27. 561. 24. 75. 37. -347. -9. 355. -449. -305. -455. -112.
      -5. 99. -486. -391. -493.</_>
    <_>
      -27. 561. -414. 75. 37. -12. -9. 355. -280. -305. -455. -478. -5.
      99. -80. -391. -493. -526.</_>
    <_>
      561. -414. -130. 37. -12. -98. 355. -280. -212. -455. -478. -340.
      99. -80. -115. -493. -526. -367.</_>
    <_>
      -414. -130. 424. -12. -98. -192. -280. -212. 273. -478. -340.
      -479. -80. -115. 71. -526. -367. -333.</_>
    <_>
      -130. 424. -190. -98. -192. -120. -212. 273. 44. -340. -479. -468.
      -115. 71. 116. -367. -333. -474.</_>
    <_>
      424. -190. -388. -192. -120. 74. 273. 44. -136. -479. -468. -176.
      71. 116. 9. -333. -474. -549.</_>
    <_>
      71. 84. -240. -299. -40. 88. 27. 290. -355. -379. -476. -513. 48.
      123. -176. 264. 215. 264.</_>
    <_>
      84. -240. 47. -40. 88. -325. 290. -355. -244. -476. -513. -506.
      123. -176. -181. 215. 264. 499.</_>
    <_>
      -240. 47. -46. 88. -325. -424. -355. -244. 85. -513. -506. -567.
      -176. -181. -79. 264. 499. 459.</_>
    <_>
      47. -46. -152. -325. -424. -114. -244. 85. -15. -506. -567. -609.
      -181. -79. -111. 499. 459. 241.</_>
    <_>
      -291. -2. 399. -257. -348. -69. -562. 93. 539. 104. 19. -25. -333.
      -34. 394. 349. 536. 308.</_>
    <_>
      -9. 355. -280. -305. -455. -478. -5. 99. -80. -391. -493. -526.
      -8. -6. -11. 66. 60. 57.</_>
    <_>
      290. -355. -244. -476. -513. -506. 123. -176. -181. 215. 264. 499.
      91. 22. -78. 459. 576. 642.</_>
    <_>
      -355. -244. 85. -513. -506. -567. -176. -181. -79. 264. 499. 459.
      22. -78. -302. 576. 642. 562.</_>
    <_>
      -244. 85. -15. -506. -567. -609. -181. -79. -111. 499. 459. 241.
      -78. -302. -319. 642. 562. 349.</_>
    <_>
      85. -15. -204. -567. -609. -466. -79. -111. -88. 459. 241. 118.
      -302. -319. -131. 562. 349. 221.</_>
    <_>
      34. 20. 1. -576. -590. -581. 22. 16. 9. 60. 58. 53. 23. 15. 15.
      581. 583. 593.</_>
    <_>
      20. 1. -29. -590. -581. -539. 16. 9. 11. 58. 53. 59. 15. 15. 18.
      583. 593. 600.</_>
    <_>
      1. -29. 7. -581. -539. -501. 9. 11. 8. 53. 59. 62. 15. 18. 7. 593.
      600. 603.</_>
    <_>
      -29. 7. 39. -539. -501. -541. 11. 8. -4. 59. 62. 60. 18. 7. -1.
      600. 603. 607.</_>
    <_>
      7. 39. -112. -501. -541. -486. 8. -4. -11. 62. 60. 63. 7. -1. -4.
      603. 607. 614.</_>
    <_>
      39. -112. -5. -541. -486. -391. -4. -11. -8. 60. 63. 66. -1. -4.
      -8. 607. 614. 618.</_>
    <_>
      -112. -5. 99. -486. -391. -493. -11. -8. -6. 63. 66. 60. -4. -8.
      -14. 614. 618. 616.</_>
    <_>
      -5. 99. -80. -391. -493. -526. -8. -6. -11. 66. 60. 57. -8. -14.
      -10. 618. 616. 612.</_>
    <_>
      123. -176. -181. 215. 264. 499. 91. 22. -78. 459. 576. 642. 143.
      74. -84. -47. -60. -80.</_>
    <_>
      -176. -181. -79. 264. 499. 459. 22. -78. -302. 576. 642. 562. 74.
      -84. -408. -60. -80. -112.</_>
    <_>
      -181. -79. -111. 499. 459. 241. -78. -302. -319. 642. 562. 349.
      -84. -408. -365. -80. -112. -51.</_>
    <_>
      -402. -152. 219. -150. -444. -357. -409. -404. 180. 131. 166.
      -212. -141. -355. -262. 137. 419. 404.</_>
    <_>
      22. -78. -302. 576. 642. 562. 74. -84. -408. -60. -80. -112. 40.
      -135. -413. -58. -123. -147.</_>
    <_>
      63. 330. 292. -289. -264. -154. -296. 307. 448. 310. -97. -74.
      -297. 115. 412. 281. 495. 244.</_>
    <_>
      -296. 307. 448. 310. -97. -74. -297. 115. 412. 281. 495. 244. 228.
      68. 173. -396. -132. -167.</_>
    <_>
      172. 228. 68. -354. -396. -132. -241. 292. 152. 367. 60. -56. -51.
      64. 140. 243. 512. 388.</_>
    <_>
      -13. 207. 155. -541. -445. -175. -122. 148. 414. -100. -364. -434.
      -125. -182. 255. 481. 412. -7.</_>
    <_>
      -169. 41. 309. 193. 523. 389. 229. 87. 171. -433. -319. -277. 156.
      -68. 338. -16. -358. -388.</_>
    <_>
      -173. -1. 25. -433. -573. -293. -131. -152. 127. -69. -38. -367.
      306. -296. -186. 306. 568. 440.</_>
    <_>
      -68. 338. 362. -358. -388. -120. -354. 362. 460. 406. 174. 28.
      -243. 130. 363. 155. 266. 83.</_>
    <_>
      -296. -186. -3. 568. 440. 57. -148. -159. -264. 108. 411. 560. -9.
      -2. -130. 15. 8. 150.</_>
    <_>
      175. 444. 153. -261. -220. -57. -158. 387. 325. 284. -147. -195.
      -450. -55. 467. 268. -35. -287.</_>
    <_>
      -354. 362. 460. 406. 174. 28. -243. 130. 363. 155. 266. 83. -73.
      171. 330. -327. -227. -36.</_>
    <_>
      -565. 98. 577. 169. 56. -17. -547. 6. 586. -25. 14. 4. -207. 148.
      424. -285. 158. 148.</_>
    <_>
      -295. 442. 107. -171. -312. -251. -449. 289. 231. -29. -195. -285.
      -273. 175. 227. 57. 285. 257.</_>
    <_>
      -259. 149. 348. 133. -367. -416. -524. -312. 339. 286. 60. -361.
      -345. -436. -6. 141. 422. 374.</_>
    <_>
      149. 348. -68. -367. -416. -118. -312. 339. 317. 60. -361. -283.
      -436. -6. 301. 422. 374. -65.</_>
    <_>
      -524. -312. 339. 286. 60. -361. -345. -436. -6. 141. 422. 374.
      -74. -287. -154. 126. 265. 314.</_>
    <_>
      -312. 339. 317. 60. -361. -283. -436. -6. 301. 422. 374. -65.
      -287. -154. 22. 265. 314. 326.</_>
    <_>
      339. 317. -128. -361. -283. 212. -6. 301. 206. 374. -65. -242.
      -154. 22. -2. 314. 326. 16.</_>
    <_>
      -379. -59. 268. -149. -195. 134. -528. 17. 551. -40. -67. -37.
      -557. 21. 573. 5. 7. 3.</_>
    <_>
      -268. 127. 399. 126. -359. -401. -416. -189. 272. 408. 429. 28.
      -139. -158. -148. 129. 416. 428.</_>
    <_>
      -107. -153. -73. -89. -321. -521. -319. -306. -26. -125. -258.
      -164. -478. -167. 258. -34. 79. 408.</_>
    <_>
      -225. -434. 79. 79. 208. -89. 158. -495. -170. -102. 91. 78. -18.
      -260. -175. -272. -406. -163.</_>
    <_>
      -528. 17. 551. -40. -67. -37. -557. 21. 573. 5. 7. 3. -474. 12.
      494. 82. 154. 70.</_>
    <_>
      -535. -602. 331. 27. 16. -15. -534. -623. 299. 18. 9. -13. -430.
      -634. 276. -100. 2. -10.</_>
    <_>
      35. -534. -623. 13. 18. 9. 44. -430. -634. -208. -100. 2. 46.
      -233. -641. -182. -91. -3.</_>
    <_>
      44. -430. -634. -208. -100. 2. 46. -233. -641. -182. -91. -3. 88.
      -166. -646. 16. 34. 8.</_>
    <_>
      -309. 85. 498. 159. 25. -14. -455. 140. 518. -163. -120. -6. -460.
      383. 531. -338. -143. -1.</_>
    <_>
      -540. 141. 291. -126. -131. 39. -431. -97. 269. 383. 259. -171.
      -149. -327. -234. 251. 427. 124.</_>
    <_>
      -33. -455. 140. 41. -163. -120. -267. -460. 383. -303. -338. -143.
      -305. -419. 542. -59. -21. -16.</_>
    <_>
      -455. 140. 518. -163. -120. -6. -460. 383. 531. -338. -143. -1.
      -419. 542. 535. -21. -16. 5.</_>
    <_>
      -267. -460. 383. -303. -338. -143. -305. -419. 542. -59. -21. -16.
      -175. -361. 563. -225. -75. -1.</_>
    <_>
      -460. 383. 531. -338. -143. -1. -419. 542. 535. -21. -16. 5. -361.
      563. 537. -75. -1. 1.</_>
    <_>
      -419. 542. 535. -21. -16. 5. -361. 563. 537. -75. -1. 1. -145.
      562. 538. -141. 0. -2.</_>
    <_>
      -68. -578. -294. 64. 282. -40. 252. -479. -441. -110. 91. 365.
      345. -231. -136. 5. 145. 424.</_>
    <_>
      -578. -294. 258. 282. -40. -328. -479. -441. 44. 91. 365. 292.
      -231. -136. -185. 145. 424. 573.</_>
    <_>
      -294. 258. 139. -40. -328. -151. -441. 44. 149. 365. 292. -89.
      -136. -185. -215. 424. 573. 361.</_>
    <_>
      -361. 563. 537. -75. -1. 1. -145. 562. 538. -141. 0. -2. 5. 556.
      536. -1. 2. -4.</_>
    <_>
      -145. 562. 538. -141. 0. -2. 5. 556. 536. -1. 2. -4. 13. 547. 532.
      1. -3. -10.</_>
    <_>
      266. -193. -615. -8. -13. -3. 116. -267. -602. 290. 71. 0. -22.
      -434. -593. 178. 92. 5.</_>
    <_>
      116. -267. -602. 290. 71. 0. -22. -434. -593. 178. 92. 5. -9.
      -523. -592. -7. 3. 2.</_>
    <_>
      -22. -434. -593. 178. 92. 5. -9. -523. -592. -7. 3. 2. -12. -409.
      -462. -504. -403. -158.</_>
    <_>
      -9. -523. -592. -7. 3. 2. -12. -409. -462. -504. -403. -158. -30.
      -168. -183. -570. -448. -173.</_>
    <_>
      -592. -17. 515. 2. -9. 15. -462. -16. 555. -158. -16. 1. -183. 5.
      552. -173. -15. -14.</_>
    <_>
      455. 533. 81. -21. -37. -13. 323. 409. 93. -109. -349. -485. 107.
      149. 57. -99. -335. -495.</_>
    <_>
      3. -13. -48. -497. -523. -548. -27. -47. -49. -553. -591. -601.
      74. -138. -96. 280. 328. 200.</_>
    <_>
      -13. -48. -130. -523. -548. -562. -47. -49. -77. -591. -601. -535.
      -138. -96. 54. 328. 200. 218.</_>
    <_>
      -48. -130. -196. -548. -562. -566. -49. -77. -97. -601. -535.
      -379. -96. 54. -14. 200. 218. 276.</_>
    <_>
      9. -27. -47. -535. -553. -591. 92. 74. -138. 78. 280. 328. 198.
      293. -178. 176. 299. 430.</_>
    <_>
      -27. -47. -49. -553. -591. -601. 74. -138. -96. 280. 328. 200.
      293. -178. -132. 299. 430. 482.</_>
    <_>
      -47. -49. -77. -591. -601. -535. -138. -96. 54. 328. 200. 218.
      -178. -132. 32. 430. 482. 406.</_>
    <_>
      536. 482. -43. -4. -6. -9. 428. 365. -57. -106. -329. -457. 191.
      134. -62. -115. -360. -468.</_>
    <_>
      560. 507. -411. 6. 3. 31. 426. 413. -320. 284. 59. 28. 141. 181.
      -154. 371. 79. 44.</_>
    <_>
      -41. -223. -442. -69. -127. -202. -39. -274. -355. -473. -464.
      -353. -63. -158. -132. -525. -442. -214.</_>
    <_>
      -31. 7. -14. 341. 355. 332. -144. 0. -1. -330. -464. -435. -368.
      -14. 114. -372. -476. -404.</_>
    <_>
      -107. -144. 0. -81. -330. -464. -342. -368. -14. -162. -372. -476.
      -418. -450. 32. 86. 138. 206.</_>
    <_>
      -3. -93. 5. -313. -377. -469. 14. -57. -10. 246. 363. 476. 109.
      252. 18. 67. 354. 578.</_>
    <_>
      -93. 5. 20. -377. -469. -440. -57. -10. 28. 363. 476. 440. 252.
      18. -65. 354. 578. 549.</_>
    <_>
      5. 20. 168. -469. -440. -366. -10. 28. 83. 476. 440. 289. 18. -65.
      -62. 578. 549. 462.</_>
    <_>
      -203. -295. -146. -47. -269. -464. -392. -488. -107. -76. -236.
      -195. -364. -402. -146. 112. 386. 392.</_>
    <_>
      22. -364. -402. -12. 112. 386. 46. -113. -164. -448. -297. -82.
      92. -11. -68. -522. -525. -542.</_>
    <_>
      208. -78. -49. -396. -434. -467. 222. -201. -144. -198. -269.
      -454. 306. -173. -187. 86. 269. 439.</_>
    <_>
      -337. -255. 30. 233. -65. -248. -308. -528. -74. 324. 378. 184.
      -67. -471. -237. 193. 437. 525.</_>
    <_>
      -308. -528. -74. 324. 378. 184. -67. -471. -237. 193. 437. 525.
      -117. -183. -58. -263. -269. 110.</_>
    <_>
      -528. -74. 143. 378. 184. 61. -471. -237. 1. 437. 525. 343. -183.
      -58. -196. -269. 110. 274.</_>
    <_>
      -259. 297. 504. -111. -205. -200. -277. 117. 397. 161. 57. -235.
      -280. -95. -1. 204. 93. -225.</_>
    <_>
      45. 55. -390. 49. 77. -96. 308. -198. -536. 190. 172. -54. 280.
      -281. -473. -378. -471. -265.</_>
    <_>
      55. -390. -531. 77. -96. -133. -198. -536. -445. 172. -54. -77.
      -281. -473. -296. -471. -265. -30.</_>
    <_>
      271. -105. -202. 285. 99. 110. 94. -150. -90. -472. -508. -452.
      -7. -79. -117. -495. -489. -501.</_>
    <_>
      -105. -202. 23. 99. 110. 195. -150. -90. -14. -508. -452. -462.
      -79. -117. -37. -489. -501. -541.</_>
    <_>
      -202. 23. -265. 110. 195. 215. -90. -14. -119. -452. -462. -373.
      -117. -37. 51. -501. -541. -483.</_>
    <_>
      45. -170. 113. -317. -516. -285. -154. -230. 172. 88. 28. -204.
      -121. -110. -252. 145. 358. 286.</_>
    <_>
      -103. 99. -212. -423. -521. -480. -163. 22. -167. -353. -392.
      -465. 67. -65. -178. 145. 327. 302.</_>
    <_>
      219. -343. -486. 11. 9. 2. 99. -400. -481. 359. 184. 139. 87.
      -291. -463. -83. 189. 361.</_>
    <_>
      54. -193. -380. 390. 519. 370. 168. -165. -612. 74. 87. 32. 19.
      -165. -579. -211. -373. -285.</_>
    <_>
      -30. 290. 185. 184. 380. 369. 306. 434. -40. 130. 414. 344. 460.
      375. -194. -62. -251. -394.</_>
    <_>
      290. 185. -245. 380. 369. 159. 434. -40. -410. 414. 344. 164. 375.
      -194. -277. -251. -394. -235.</_>
    <_>
      123. 306. 434. -119. 130. 414. 179. 460. 375. -23. -62. -251. 199.
      245. 77. 149. -7. -331.</_>
    <_>
      445. 59. -261. -107. -103. -83. 445. 102. -328. 359. 398. 354.
      381. 132. -336. 37. -36. 30.</_>
    <_>
      182. -268. -188. 288. 404. 582. 199. -29. -53. -287. -147. 49.
      159. 76. -189. -245. -320. -547.</_>
    <_>
      -268. -188. 0. 404. 582. 644. -29. -53. -101. -147. 49. 21. 76.
      -189. -124. -320. -547. -678.</_>
    <_>
      -188. 0. -22. 582. 644. 474. -53. -101. -102. 49. 21. 10. -189.
      -124. 124. -547. -678. -464.</_>
    <_>
      250. 333. -508. -236. -55. 0. 468. 422. -503. -142. -16. 23. 434.
      428. -381. -104. -258. -169.</_>
    <_>
      422. -503. -416. -16. 23. -8. 428. -381. -509. -258. -169. -109.
      299. -148. -391. -473. -458. -167.</_>
    <_>
      -116. -427. -145. 172. 313. 143. 268. -366. -472. -144. 160. 64.
      374. -158. -459. -464. -454. -137.</_>
    <_>
      -301. -202. -124. 337. 422. 278. -96. -244. -367. 216. 294. 153.
      52. -251. -340. -428. -365. -204.</_>
    <_>
      -234. -115. -40. 78. -127. -250. -292. -266. -223. 530. 526. 315.
      -132. -235. -418. 198. 393. 440.</_>
    <_>
      -40. 259. 135. -368. -403. -201. -296. 333. 382. -320. -467. -348.
      -420. 230. 444. -12. -92. -252.</_>
    <_>
      -296. 333. 382. -320. -467. -348. -420. 230. 444. -12. -92. -252.
      -406. 137. 287. -20. -19. -109.</_>
    <_>
      178. 354. 156. -412. -424. -148. -116. 395. 347. -144. -385. -429.
      -275. 183. 298. -13. -143. -360.</_>
    <_>
      -308. -39. -5. 206. 29. 1. -366. -145. -150. 514. 527. 304. -139.
      -188. -357. 353. 524. 497.</_>
    <_>
      -288. -19. 6. 172. -17. -62. -349. -119. -147. 519. 547. 339.
      -127. -158. -343. 353. 508. 481.</_>
    <_>
      -393. -308. -57. 207. -14. -209. -312. -379. -218. 280. 511. 474.
      -62. -156. -283. 108. 350. 545.</_>
    <_>
      -308. -57. -15. -14. -209. -263. -379. -218. -159. 511. 474. 223.
