<?xml version="1.0"?>
<opencv_storage>
<opencv_ml_svm>
  <format>3</format>
  <svmType>C_SVC</svmType>
  <kernel>
    <type>LINEAR</type></kernel>
  <C>1.0000000000000001e-01</C>
  <term_criteria><iterations>10000000</iterations></term_criteria>
  <var_count>18</var_count>
  <class_count>2</class_count>
  <class_labels type_id="opencv-matrix">
    <rows>2</rows>
    <cols>1</cols>
    <dt>i</dt>
    <data>
      -1 1</data></class_labels>
  <sv_total>1</sv_total>
  <support_vectors>
    <_>
      -1.27853677e-02 4.77186544e-03 4.20914963e-03 -6.03589136e-03
      7.46038230e-03 -4.54822817e-04 -4.87390533e-03 8.58208816e-03
      -6.74950704e-03 4.43604635e-03 2.66145729e-03 3.42822867e-03
      1.81582686e-03 -6.06848625e-03 -3.71010997e-03 1.96000990e-02
      1.34138456e-02 1.03589671e-03</_></support_vectors>
  <uncompressed_sv_total>9</uncompressed_sv_total>
  <uncompressed_support_vectors>
    <_>
      80. -70. -65. 326. 336. 179. 256. -242. -215. 246. 240. 75. 265.
      -249. -212. -255. -247. -86.</_>
    <_>
      -70. -65. -4. 336. 179. 100. -242. -215. -7. 240. 75. 1. -249.
      -212. -1. -247. -86. -3.</_>
    <_>
      240. 97. -256. -52. 25. 112. 195. 180. -197. -49. -88. -33. 106.
      178. -95. -46. -98. -53.</_>
    <_>
      97. -256. -188. 25. 112. 66. 180. -197. -259. -88. -33. 1. 178.
      -95. -247. -98. -53. 27.</_>
    <_>
      267. 256. -242. 67. 246. 240. 281. 265. -249. -99. -255. -247.
      110. 104. -76. -80. -256. -252.</_>
    <_>
      -242. -215. -7. 240. 75. 1. -249. -212. -1. -247. -86. -3. -76.
      -56. 8. -252. -84. -2.</_>
    <_>
      265. -249. -212. -255. -247. -86. 104. -76. -56. -256. -252. -84.
      17. 7. -3. 61. 53. 21.</_>
    <_>
      65. 5. 3. 11. 15. 15. 68. 9. 5. 0. 3. 9. 54. 13. 10. -102. -115.
      -112.</_>
    <_>
      130. -269. -123. 8. 5. -5. 126. -253. -119. -56. -41. -11. 125.
      -235. -85. -25. -23. -1.</_></uncompressed_support_vectors>
  <decision_functions>
    <_>
      <sv_count>1</sv_count>
      <rho>-5.6807289789454636e+00</rho>
      <alpha>
        1.</alpha>
      <index>
        0</index></_></decision_functions></opencv_ml_svm>
</opencv_storage>
