<?xml version="1.0"?>
<opencv_storage>
<opencv_ml_svm>
  <format>3</format>
  <svmType>C_SVC</svmType>
  <kernel>
    <type>LINEAR</type></kernel>
  <C>1.0000000000000001e-01</C>
  <term_criteria><iterations>10000000</iterations></term_criteria>
  <var_count>18</var_count>
  <class_count>2</class_count>
  <class_labels type_id="opencv-matrix">
    <rows>2</rows>
    <cols>1</cols>
    <dt>i</dt>
    <data>
      -1 1</data></class_labels>
  <sv_total>1</sv_total>
  <support_vectors>
    <_>
      4.21606121e-04 9.05373890e-05 5.95772057e-04 -6.72591676e-04
      -5.18679211e-04 6.86518557e-04 -1.66274770e-03 1.95460720e-03
      -5.98228537e-04 2.44764669e-04 -1.29431879e-04 -6.64560532e-04
      1.43808534e-03 -1.12802220e-04 2.18119429e-04 -9.52864008e-04
      4.54756344e-04 -2.61176348e-04</_></support_vectors>
  <uncompressed_sv_total>663</uncompressed_sv_total>
  <uncompressed_support_vectors>
    <_>
      14. -2. -12. -80. -70. -76. 48. -4. -10. 4. 26. 32. 69. -1. 0. 17.
      19. 26.</_>
    <_>
      -22. 77. 80. 46. 139. 326. -29. 267. 256. -23. 67. 246. -36. 281.
      265. -16. -99. -255.</_>
    <_>
      77. 80. -70. 139. 326. 336. 267. 256. -242. 67. 246. 240. 281.
      265. -249. -99. -255. -247.</_>
    <_>
      80. -70. -65. 326. 336. 179. 256. -242. -215. 246. 240. 75. 265.
      -249. -212. -255. -247. -86.</_>
    <_>
      -70. -65. -4. 336. 179. 100. -242. -215. -7. 240. 75. 1. -249.
      -212. -1. -247. -86. -3.</_>
    <_>
      -29. 267. 256. -23. 67. 246. -36. 281. 265. -16. -99. -255. -33.
      110. 104. 5. -80. -256.</_>
    <_>
      267. 256. -242. 67. 246. 240. 281. 265. -249. -99. -255. -247.
      110. 104. -76. -80. -256. -252.</_>
    <_>
      256. -242. -215. 246. 240. 75. 265. -249. -212. -255. -247. -86.
      104. -76. -56. -256. -252. -84.</_>
    <_>
      -242. -215. -7. 240. 75. 1. -249. -212. -1. -247. -86. -3. -76.
      -56. 8. -252. -84. -2.</_>
    <_>
      281. 265. -249. -99. -255. -247. 110. 104. -76. -80. -256. -252.
      23. 17. 7. 59. 61. 53.</_>
    <_>
      265. -249. -212. -255. -247. -86. 104. -76. -56. -256. -252. -84.
      17. 7. -3. 61. 53. 21.</_>
    <_>
      122. 12. -160. 80. 116. 54. 104. 102. -148. -88. -52. 112. -12.
      224. -25. -4. -34. 47.</_>
    <_>
      245. 164. -224. -33. 48. 96. 184. 190. -158. 54. -62. -18. -33.
      125. -77. 71. -95. -123.</_>
    <_>
      178. -123. -130. 2. 5. 50. 98. -61. 8. -164. -185. -30. -5. -18.
      31. 111. 72. -17.</_>
    <_>
      16. 1. -8. -140. -167. -184. -114. -87. -13. 86. -105. -181. -215.
      -274. -50. 285. 188. 40.</_>
    <_>
      1. -8. -4. -167. -184. -192. -87. -13. -5. -105. -181. -179. -274.
      -50. 96. 188. 40. 102.</_>
    <_>
      0. 3. 1. -174. -175. -177. -1. -3. 1. -85. -91. -95. -32. 13. 32.
      424. 415. 466.</_>
    <_>
      1. -3. 4. -177. -175. -172. 1. 9. 2. -95. -85. -78. 32. 0. -3.
      466. 478. 457.</_>
    <_>
      0. -11. -6. -174. -175. -174. -9. -8. -5. -87. -92. -89. -129.
      -117. -5. 341. 117. 5.</_>
    <_>
      129. -34. -5. 85. 162. 147. 277. -107. 56. 205. 203. 206. 329.
      -158. 42. 11. 14. -54.</_>
    <_>
      152. 184. 190. 156. 54. -62. 116. -33. 125. 222. 71. -95. 81. -97.
      62. -119. -67. -28.</_>
    <_>
      -80. -5. -114. 116. 191. 86. 41. 81. -215. 63. 195. 285. 42. 206.
      -48. -66. -72. 130.</_>
    <_>
      -5. -114. -87. 191. 86. -105. 81. -215. -274. 195. 285. 188. 206.
      -48. -419. -72. 130. 249.</_>
    <_>
      -114. -87. -13. 86. -105. -181. -215. -274. -50. 285. 188. 40.
      -48. -419. -190. 130. 249. 112.</_>
    <_>
      -87. -13. -5. -105. -181. -179. -274. -50. 96. 188. 40. 102. -419.
      -190. 325. 249. 112. 139.</_>
    <_>
      -13. -5. -1. -181. -179. -175. -50. 96. 20. 40. 102. 220. -190.
      325. 82. 112. 139. 312.</_>
    <_>
      13. 4. -2. -87. -96. -90. 25. 118. 62. 89. 224. 396. 37. 337. 136.
      211. 307. 428.</_>
    <_>
      -2. -1. -3. -90. -85. -91. 62. -32. 13. 396. 424. 415. 136. -71.
      40. 428. 435. 432.</_>
    <_>
      -1. -3. 1. -85. -91. -95. -32. 13. 32. 424. 415. 466. -71. 40. 80.
      435. 432. 456.</_>
    <_>
      -3. 1. 9. -91. -95. -85. 13. 32. 0. 415. 466. 478. 40. 80. -45.
      432. 456. 447.</_>
    <_>
      1. 9. 2. -95. -85. -78. 32. 0. -3. 466. 478. 457. 80. -45. -28.
      456. 447. 398.</_>
    <_>
      9. 2. -9. -85. -78. -87. 0. -3. -129. 478. 457. 341. -45. -28.
      -336. 447. 398. 282.</_>
    <_>
      2. -9. -8. -78. -87. -92. -3. -129. -117. 457. 341. 117. -28.
      -336. -320. 398. 282. 96.</_>
    <_>
      -9. -8. -5. -87. -92. -89. -129. -117. -5. 341. 117. 5. -336.
      -320. -5. 282. 96. 5.</_>
    <_>
      187. 277. -107. 79. 205. 203. 268. 329. -158. 4. 11. 14. 194. 289.
      -118. -70. -191. -194.</_>
    <_>
      277. -107. 56. 205. 203. 206. 329. -158. 42. 11. 14. -54. 289.
      -118. -88. -191. -194. -216.</_>
    <_>
      56. 116. -33. 206. 222. 71. 42. 81. -97. -54. -119. -67. -88. 119.
      44. -216. -243. -116.</_>
    <_>
      116. -33. 125. 222. 71. -95. 81. -97. 62. -119. -67. -28. 119. 44.
      35. -243. -116. -41.</_>
    <_>
      41. 81. -215. 63. 195. 285. 42. 206. -48. -66. -72. 130. -23. 225.
      157. -9. -49. -27.</_>
    <_>
      81. -215. -274. 195. 285. 188. 206. -48. -419. -72. 130. 249. 225.
      157. -398. -49. -27. 80.</_>
    <_>
      -215. -274. -50. 285. 188. 40. -48. -419. -190. 130. 249. 112.
      157. -398. -355. -27. 80. 73.</_>
    <_>
      -274. -50. 96. 188. 40. 102. -419. -190. 325. 249. 112. 139. -398.
      -355. 352. 80. 73. -92.</_>
    <_>
      -50. 96. 20. 40. 102. 220. -190. 325. 82. 112. 139. 312. -355.
      352. 110. 73. -92. -210.</_>
    <_>
      96. 20. -84. 102. 220. 158. 325. 82. -194. 139. 312. 326. 352.
      110. -142. -92. -210. -144.</_>
    <_>
      20. -84. 74. 220. 158. 154. 82. -194. 194. 312. 326. 340. 110.
      -142. 162. -210. -144. -138.</_>
    <_>
      -84. 74. 12. 158. 154. 236. -194. 194. -19. 326. 340. 347. -142.
      162. -65. -144. -138. -223.</_>
    <_>
      -75. 25. 118. 137. 89. 224. -191. 37. 337. 267. 211. 307. -171. 8.
      334. -129. -82. -210.</_>
    <_>
      25. 118. 62. 89. 224. 396. 37. 337. 136. 211. 307. 428. 8. 334.
      94. -82. -210. -376.</_>
    <_>
      118. 62. -32. 224. 396. 424. 337. 136. -71. 307. 428. 435. 334.
      94. -51. -210. -376. -405.</_>
    <_>
      62. -32. 13. 396. 424. 415. 136. -71. 40. 428. 435. 432. 94. -51.
      25. -376. -405. -397.</_>
    <_>
      -32. 13. 32. 424. 415. 466. -71. 40. 80. 435. 432. 456. -51. 25.
      66. -405. -397. -450.</_>
    <_>
      13. 32. 0. 415. 466. 478. 40. 80. -45. 432. 456. 447. 25. 66. -55.
      -397. -450. -465.</_>
    <_>
      32. 0. -3. 466. 478. 457. 80. -45. -28. 456. 447. 398. 66. -55.
      -45. -450. -465. -443.</_>
    <_>
      0. -3. -129. 478. 457. 341. -45. -28. -336. 447. 398. 282. -55.
      -45. -318. -465. -443. -326.</_>
    <_>
      -3. -129. -117. 457. 341. 117. -28. -336. -320. 398. 282. 96. -45.
      -318. -304. -443. -326. -106.</_>
    <_>
      -129. -117. -5. 341. 117. 5. -336. -320. -5. 282. 96. 5. -318.
      -304. -4. -326. -106. 2.</_>
    <_>
      -11. -16. 268. 9. 4. 4. -19. -23. 194. 21. 11. -70. -8. -9. 42.
      322. 357. 300.</_>
    <_>
      -16. 268. 329. 4. 4. 11. -23. 194. 289. 11. -70. -191. -9. 42.
      157. 357. 300. 137.</_>
    <_>
      268. 329. -158. 4. 11. 14. 194. 289. -118. -70. -191. -194. 42.
      157. -100. 300. 137. 26.</_>
    <_>
      329. -158. 42. 11. 14. -54. 289. -118. -88. -191. -194. -216. 157.
      -100. -87. 137. 26. 67.</_>
    <_>
      58. 38. 26. 190. 212. 248. 131. 124. 41. 149. 286. 351. 258. 238.
      19. 20. 124. 151.</_>
    <_>
      6. -38. -35. 246. 178. 131. -43. -161. -63. 319. 215. 111. -134.
      -273. -78. 70. -29. -52.</_>
    <_>
      206. -48. -419. -72. 130. 249. 225. 157. -398. -49. -27. 80. 124.
      207. -214. -60. -133. -6.</_>
    <_>
      -48. -419. -190. 130. 249. 112. 157. -398. -355. -27. 80. 73. 207.
      -214. -404. -133. -6. 136.</_>
    <_>
      -419. -190. 325. 249. 112. 139. -398. -355. 352. 80. 73. -92.
      -214. -404. 47. -6. 136. -53.</_>
    <_>
      -190. 325. 82. 112. 139. 312. -355. 352. 110. 73. -92. -210. -404.
      47. 49. 136. -53. -301.</_>
    <_>
      325. 82. -194. 139. 312. 326. 352. 110. -142. -92. -210. -144. 47.
      49. -32. -53. -301. -318.</_>
    <_>
      82. -194. 194. 312. 326. 340. 110. -142. 162. -210. -144. -138.
      49. -32. 43. -301. -318. -333.</_>
    <_>
      -194. 194. -19. 326. 340. 347. -142. 162. -65. -144. -138. -223.
      -32. 43. -36. -318. -333. -338.</_>
    <_>
      194. -19. -86. 340. 347. 268. 162. -65. -104. -138. -223. -208.
      43. -36. -40. -333. -338. -260.</_>
    <_>
      -19. -86. 54. 347. 268. 270. -65. -104. 92. -223. -208. -190. -36.
      -40. 42. -338. -260. -264.</_>
    <_>
      54. -191. 37. 270. 267. 211. 92. -171. 8. -190. -129. -82. 42.
      -55. 0. -264. -259. -198.</_>
    <_>
      -191. 37. 337. 267. 211. 307. -171. 8. 334. -129. -82. -210. -55.
      0. 122. -259. -198. -290.</_>
    <_>
      37. 337. 136. 211. 307. 428. 8. 334. 94. -82. -210. -376. 0. 122.
      32. -198. -290. -398.</_>
    <_>
      337. 136. -71. 307. 428. 435. 334. 94. -51. -210. -376. -405. 122.
      32. -6. -290. -398. -386.</_>
    <_>
      136. -71. 40. 428. 435. 432. 94. -51. 25. -376. -405. -397. 32.
      -6. -17. -398. -386. -391.</_>
    <_>
      -71. 40. 80. 435. 432. 456. -51. 25. 66. -405. -397. -450. -6.
      -17. 44. -386. -391. -402.</_>
    <_>
      40. 80. -45. 432. 456. 447. 25. 66. -55. -397. -450. -465. -17.
      44. -17. -391. -402. -371.</_>
    <_>
      80. -45. -28. 456. 447. 398. 66. -55. -45. -450. -465. -443. 44.
      -17. -37. -402. -371. -347.</_>
    <_>
      -45. -28. -336. 447. 398. 282. -55. -45. -318. -465. -443. -326.
      -17. -37. -108. -371. -347. -246.</_>
    <_>
      -28. -336. -320. 398. 282. 96. -45. -318. -304. -443. -326. -106.
      -37. -108. -123. -347. -246. -75.</_>
    <_>
      -336. -320. -5. 282. 96. 5. -318. -304. -4. -326. -106. 2. -108.
      -123. -4. -246. -75. -2.</_>
    <_>
      -19. -23. 194. 21. 11. -70. -8. -9. 42. 322. 357. 300. -10. 41.
      -30. 302. 315. 350.</_>
    <_>
      -23. 194. 289. 11. -70. -191. -9. 42. 157. 357. 300. 137. 41. -30.
      55. 315. 350. 339.</_>
    <_>
      194. 289. -118. -70. -191. -194. 42. 157. -100. 300. 137. 26. -30.
      55. -187. 350. 339. 261.</_>
    <_>
      289. -118. -88. -191. -194. -216. 157. -100. -87. 137. 26. 67. 55.
      -187. -15. 339. 261. 205.</_>
    <_>
      -118. -88. 119. -194. -216. -243. -100. -87. 151. 26. 67. 127.
      -187. -15. 152. 261. 205. 218.</_>
    <_>
      131. 124. 41. 149. 286. 351. 258. 238. 19. 20. 124. 151. 239. 220.
      0. -145. -286. -350.</_>
    <_>
      124. 41. -43. 286. 351. 319. 238. 19. -134. 124. 151. 70. 220. 0.
      -171. -286. -350. -325.</_>
    <_>
      41. -43. -161. 351. 319. 215. 19. -134. -273. 151. 70. -29. 0.
      -171. -237. -350. -325. -227.</_>
    <_>
      -43. -161. -63. 319. 215. 111. -134. -273. -78. 70. -29. -52.
      -171. -237. -28. -325. -227. -118.</_>
    <_>
      225. 157. -398. -49. -27. 80. 124. 207. -214. -60. -133. -6. -1.
      97. 22. 195. 33. 32.</_>
    <_>
      157. -398. -355. -27. 80. 73. 207. -214. -404. -133. -6. 136. 97.
      22. -371. 33. 32. 159.</_>
    <_>
      -398. -355. 352. 80. 73. -92. -214. -404. 47. -6. 136. -53. 22.
      -371. -127. 32. 159. 207.</_>
    <_>
      -355. 352. 110. 73. -92. -210. -404. 47. 49. 136. -53. -301. -371.
      -127. 81. 159. 207. 313.</_>
    <_>
      352. 110. -142. -92. -210. -144. 47. 49. -32. -53. -301. -318.
      -127. 81. -16. 207. 313. 378.</_>
    <_>
      110. -142. 162. -210. -144. -138. 49. -32. 43. -301. -318. -333.
      81. -16. 17. 313. 378. 383.</_>
    <_>
      -142. 162. -65. -144. -138. -223. -32. 43. -36. -318. -333. -338.
      -16. 17. -5. 378. 383. 393.</_>
    <_>
      162. -65. -104. -138. -223. -208. 43. -36. -40. -333. -338. -260.
      17. -5. -37. 383. 393. 349.</_>
    <_>
      -65. -104. 92. -223. -208. -190. -36. -40. 42. -338. -260. -264.
      -5. -37. -24. 393. 349. 290.</_>
    <_>
      -104. 92. -171. -208. -190. -129. -40. 42. -55. -260. -264. -259.
      -37. -24. 53. 349. 290. 327.</_>
    <_>
      92. -171. 8. -190. -129. -82. 42. -55. 0. -264. -259. -198. -24.
      53. 53. 290. 327. 427.</_>
    <_>
      -171. 8. 334. -129. -82. -210. -55. 0. 122. -259. -198. -290. 53.
      53. -4. 327. 427. 446.</_>
    <_>
      8. 334. 94. -82. -210. -376. 0. 122. 32. -198. -290. -398. 53. -4.
      8. 427. 446. 404.</_>
    <_>
      334. 94. -51. -210. -376. -405. 122. 32. -6. -290. -398. -386. -4.
      8. -2. 446. 404. 372.</_>
    <_>
      94. -51. 25. -376. -405. -397. 32. -6. -17. -398. -386. -391. 8.
      -2. -22. 404. 372. 376.</_>
    <_>
      -51. 25. 66. -405. -397. -450. -6. -17. 44. -386. -391. -402. -2.
      -22. 65. 372. 376. 403.</_>
    <_>
      25. 66. -55. -397. -450. -465. -17. 44. -17. -391. -402. -371.
      -22. 65. 8. 376. 403. 418.</_>
    <_>
      66. -55. -45. -450. -465. -443. 44. -17. -37. -402. -371. -347.
      65. 8. -30. 403. 418. 426.</_>
    <_>
      -55. -45. -318. -465. -443. -326. -17. -37. -108. -371. -347.
      -246. 8. -30. -129. 418. 426. 311.</_>
    <_>
      -45. -318. -304. -443. -326. -106. -37. -108. -123. -347. -246.
      -75. -30. -129. -146. 426. 311. 96.</_>
    <_>
      -318. -304. -4. -326. -106. 2. -108. -123. -4. -246. -75. -2.
      -129. -146. -3. 311. 96. 1.</_>
    <_>
      53. 104. 26. 43. 174. 284. 178. 294. 24. 82. 266. 344. 229. 349.
      -12. -19. -97. -156.</_>
    <_>
      104. 26. -8. 174. 284. 322. 294. 24. -10. 266. 344. 302. 349. -12.
      -56. -97. -156. -196.</_>
    <_>
      26. -8. -9. 284. 322. 357. 24. -10. 41. 344. 302. 315. -12. -56.
      61. -156. -196. -235.</_>
    <_>
      -8. -9. 42. 322. 357. 300. -10. 41. -30. 302. 315. 350. -56. 61.
      -15. -196. -235. -235.</_>
    <_>
      -9. 42. 157. 357. 300. 137. 41. -30. 55. 315. 350. 339. 61. -15.
      10. -235. -235. -254.</_>
    <_>
      42. 157. -100. 300. 137. 26. -30. 55. -187. 350. 339. 261. -15.
      10. -217. -235. -254. -251.</_>
    <_>
      157. -100. -87. 137. 26. 67. 55. -187. -15. 339. 261. 205. 10.
      -217. -33. -254. -251. -243.</_>
    <_>
      -100. -87. 151. 26. 67. 127. -187. -15. 152. 261. 205. 218. -217.
      -33. 182. -251. -243. -244.</_>
    <_>
      -7. 258. 238. -33. 20. 124. -4. 239. 220. -76. -145. -286. 3. 91.
      80. -137. -209. -356.</_>
    <_>
      258. 238. 19. 20. 124. 151. 239. 220. 0. -145. -286. -350. 91. 80.
      -8. -209. -356. -440.</_>
    <_>
      238. 19. -134. 124. 151. 70. 220. 0. -171. -286. -350. -325. 80.
      -8. -71. -356. -440. -373.</_>
    <_>
      19. -134. -273. 151. 70. -29. 0. -171. -237. -350. -325. -227. -8.
      -71. -90. -440. -373. -224.</_>
    <_>
      -134. -273. -78. 70. -29. -52. -171. -237. -28. -325. -227. -118.
      -71. -90. 10. -373. -224. -148.</_>
    <_>
      124. 207. -214. -60. -133. -6. -1. 97. 22. 195. 33. 32. -60. -41.
      178. 44. 9. 28.</_>
    <_>
      207. -214. -404. -133. -6. 136. 97. 22. -371. 33. 32. 159. -41.
      178. -351. 9. 28. 77.</_>
    <_>
      -214. -404. 47. -6. 136. -53. 22. -371. -127. 32. 159. 207. 178.
      -351. -44. 28. 77. 132.</_>
    <_>
      -404. 47. 49. 136. -53. -301. -371. -127. 81. 159. 207. 313. -351.
      -44. 211. 77. 132. 239.</_>
    <_>
      47. 49. -32. -53. -301. -318. -127. 81. -16. 207. 313. 378. -44.
      211. -37. 132. 239. 283.</_>
    <_>
      49. -32. 43. -301. -318. -333. 81. -16. 17. 313. 378. 383. 211.
      -37. 51. 239. 283. 291.</_>
    <_>
      -32. 43. -36. -318. -333. -338. -16. 17. -5. 378. 383. 393. -37.
      51. -1. 283. 291. 319.</_>
    <_>
      -36. -40. 42. -338. -260. -264. -5. -37. -24. 393. 349. 290. -1.
      -82. -66. 319. 322. 294.</_>
    <_>
      -40. 42. -55. -260. -264. -259. -37. -24. 53. 349. 290. 327. -82.
      -66. 71. 322. 294. 233.</_>
    <_>
      42. -55. 0. -264. -259. -198. -24. 53. 53. 290. 327. 427. -66. 71.
      54. 294. 233. 152.</_>
    <_>
      -55. 0. 122. -259. -198. -290. 53. 53. -4. 327. 427. 446. 71. 54.
      -16. 233. 152. 122.</_>
    <_>
      0. 122. 32. -198. -290. -398. 53. -4. 8. 427. 446. 404. 54. -16.
      -48. 152. 122. 96.</_>
    <_>
      122. 32. -6. -290. -398. -386. -4. 8. -2. 446. 404. 372. -16. -48.
      -46. 122. 96. 28.</_>
    <_>
      32. -6. -17. -398. -386. -391. 8. -2. -22. 404. 372. 376. -48.
      -46. 0. 96. 28. 2.</_>
    <_>
      -6. -17. 44. -386. -391. -402. -2. -22. 65. 372. 376. 403. -46. 0.
      39. 28. 2. -29.</_>
    <_>
      -17. 44. -17. -391. -402. -371. -22. 65. 8. 376. 403. 418. 0. 39.
      8. 2. -29. -70.</_>
    <_>
      44. -17. -37. -402. -371. -347. 65. 8. -30. 403. 418. 426. 39. 8.
      -2. -29. -70. -50.</_>
    <_>
      -17. -37. -108. -371. -347. -246. 8. -30. -129. 418. 426. 311. 8.
      -2. -247. -70. -50. -25.</_>
    <_>
      -108. -123. -4. -246. -75. -2. -129. -146. -3. 311. 96. 1. -247.
      -229. -1. -25. -11. 3.</_>
    <_>
      178. 294. 24. 82. 266. 344. 229. 349. -12. -19. -97. -156. 119.
      185. -14. 15. -181. -288.</_>
    <_>
      294. 24. -10. 266. 344. 302. 349. -12. -56. -97. -156. -196. 185.
      -14. -62. -181. -288. -256.</_>
    <_>
      24. -10. 41. 344. 302. 315. -12. -56. 61. -156. -196. -235. -14.
      -62. 82. -288. -256. -202.</_>
    <_>
      -10. 41. -30. 302. 315. 350. -56. 61. -15. -196. -235. -235. -62.
      82. 14. -256. -202. -152.</_>
    <_>
      41. -30. 55. 315. 350. 339. 61. -15. 10. -235. -235. -254. 82. 14.
      -32. -202. -152. -146.</_>
    <_>
      -30. 55. -187. 350. 339. 261. -15. 10. -217. -235. -254. -251. 14.
      -32. -151. -152. -146. -125.</_>
    <_>
      55. -187. -15. 339. 261. 205. 10. -217. -33. -254. -251. -243.
      -32. -151. -16. -146. -125. -50.</_>
    <_>
      -187. -15. 152. 261. 205. 218. -217. -33. 182. -251. -243. -244.
      -151. -16. 192. -125. -50. -22.</_>
    <_>
      -15. 152. -98. 205. 218. 140. -33. 182. -56. -243. -244. -94. -16.
      192. 72. -50. -22. -34.</_>
    <_>
      152. -98. 21. 218. 140. 39. 182. -56. 6. -244. -94. 34. 192. 72.
      42. -22. -34. 2.</_>
    <_>
      13. 7. -21. 5. 1. -1. -89. -80. -8. 229. 44. -28. -297. -269. 18.
      263. 51. -40.</_>
    <_>
      239. 220. 0. -145. -286. -350. 91. 80. -8. -209. -356. -440. 16.
      -2. -10. 28. 18. 18.</_>
    <_>
      220. 0. -171. -286. -350. -325. 80. -8. -71. -356. -440. -373. -2.
      -10. 5. 18. 18. 25.</_>
    <_>
      97. 22. -371. 33. 32. 159. -41. 178. -351. 9. 28. 77. 6. 250.
      -342. -76. 24. 56.</_>
    <_>
      22. -371. -127. 32. 159. 207. 178. -351. -44. 28. 77. 132. 250.
      -342. -140. 24. 56. -86.</_>
    <_>
      -371. -127. 81. 159. 207. 313. -351. -44. 211. 77. 132. 239. -342.
      -140. 184. 56. -86. -316.</_>
    <_>
      -127. 81. -16. 207. 313. 378. -44. 211. -37. 132. 239. 283. -140.
      184. -29. -86. -316. -379.</_>
    <_>
      81. -16. 17. 313. 378. 383. 211. -37. 51. 239. 283. 291. 184. -29.
      55. -316. -379. -375.</_>
    <_>
      -16. 17. -5. 378. 383. 393. -37. 51. -1. 283. 291. 319. -29. 55.
      13. -379. -375. -385.</_>
    <_>
      17. -5. -37. 383. 393. 349. 51. -1. -82. 291. 319. 322. 55. 13.
      -57. -375. -385. -349.</_>
    <_>
      -5. -37. -24. 393. 349. 290. -1. -82. -66. 319. 322. 294. 13. -57.
      -64. -385. -349. -294.</_>
    <_>
      -37. -24. 53. 349. 290. 327. -82. -66. 71. 322. 294. 233. -57.
      -64. -27. -349. -294. -329.</_>
    <_>
      -24. 53. 53. 290. 327. 427. -66. 71. 54. 294. 233. 152. -64. -27.
      -25. -294. -329. -425.</_>
    <_>
      53. 53. -4. 327. 427. 446. 71. 54. -16. 233. 152. 122. -27. -25.
      15. -329. -425. -443.</_>
    <_>
      53. -4. 8. 427. 446. 404. 54. -16. -48. 152. 122. 96. -25. 15.
      -65. -425. -443. -403.</_>
    <_>
      -4. 8. -2. 446. 404. 372. -16. -48. -46. 122. 96. 28. 15. -65.
      -68. -443. -403. -374.</_>
    <_>
      8. -2. -22. 404. 372. 376. -48. -46. 0. 96. 28. 2. -65. -68. -9.
      -403. -374. -379.</_>
    <_>
      -2. -22. 65. 372. 376. 403. -46. 0. 39. 28. 2. -29. -68. -9. -6.
      -374. -379. -402.</_>
    <_>
      -22. 65. 8. 376. 403. 418. 0. 39. 8. 2. -29. -70. -9. -6. -3.
      -379. -402. -417.</_>
    <_>
      65. 8. -30. 403. 418. 426. 39. 8. -2. -29. -70. -50. -6. -3. 17.
      -402. -417. -429.</_>
    <_>
      8. -30. -129. 418. 426. 311. 8. -2. -247. -70. -50. -25. -3. 17.
      -125. -417. -429. -313.</_>
    <_>
      -30. -129. -146. 426. 311. 96. -2. -247. -229. -50. -25. -11. 17.
      -125. -120. -429. -313. -96.</_>
    <_>
      -129. -146. -3. 311. 96. 1. -247. -229. -1. -25. -11. 3. -125.
      -120. 1. -313. -96. 1.</_>
    <_>
      2. 229. 349. 10. -19. -97. 29. 119. 185. 69. 15. -181. 134. 48.
      40. 266. 354. 334.</_>
    <_>
      229. 349. -12. -19. -97. -156. 119. 185. -14. 15. -181. -288. 48.
      40. -56. 354. 334. 254.</_>
    <_>
      349. -12. -56. -97. -156. -196. 185. -14. -62. -181. -288. -256.
      40. -56. -47. 334. 254. 195.</_>
    <_>
      -12. -56. 61. -156. -196. -235. -14. -62. 82. -288. -256. -202.
      -56. -47. 143. 254. 195. 217.</_>
    <_>
      -6. 36. 114. -122. -72. 86. 10. 142. 344. -140. -68. 110. 9. 166.
      458. 45. -4. -44.</_>
    <_>
      36. 114. 59. -72. 86. 271. 142. 344. 200. -68. 110. 296. 166. 458.
      300. -4. -44. -16.</_>
    <_>
      114. 59. -20. 86. 271. 338. 344. 200. -24. 110. 296. 366. 458.
      300. -64. -44. -16. -26.</_>
    <_>
      59. -20. -89. 271. 338. 229. 200. -24. -297. 296. 366. 263. 300.
      -64. -403. -16. -26. -69.</_>
    <_>
      -20. -89. -80. 338. 229. 44. -24. -297. -269. 366. 263. 51. -64.
      -403. -327. -26. -69. -21.</_>
    <_>
      -89. -80. -8. 229. 44. -28. -297. -269. 18. 263. 51. -40. -403.
      -327. 26. -69. -21. 20.</_>
    <_>
      178. -351. -44. 28. 77. 132. 250. -342. -140. 24. 56. -86. 260.
      -308. -368. -46. -34. -86.</_>
    <_>
      -351. -44. 211. 77. 132. 239. -342. -140. 184. 56. -86. -316.
      -308. -368. 50. -34. -86. -218.</_>
    <_>
      -44. 211. -37. 132. 239. 283. -140. 184. -29. -86. -316. -379.
      -368. 50. -11. -86. -218. -271.</_>
    <_>
      211. -37. 51. 239. 283. 291. 184. -29. 55. -316. -379. -375. 50.
      -11. 62. -218. -271. -250.</_>
    <_>
      -37. 51. -1. 283. 291. 319. -29. 55. 13. -379. -375. -385. -11.
      62. 3. -271. -250. -243.</_>
    <_>
      51. -1. -82. 291. 319. 322. 55. 13. -57. -375. -385. -349. 62. 3.
      -53. -250. -243. -285.</_>
    <_>
      -1. -82. -66. 319. 322. 294. 13. -57. -64. -385. -349. -294. 3.
      -53. -23. -243. -285. -295.</_>
    <_>
      -82. -66. 71. 322. 294. 233. -57. -64. -27. -349. -294. -329. -53.
      -23. -44. -285. -295. -236.</_>
    <_>
      -66. 71. 54. 294. 233. 152. -64. -27. -25. -294. -329. -425. -23.
      -44. 101. -295. -236. -31.</_>
    <_>
      71. 54. -16. 233. 152. 122. -27. -25. 15. -329. -425. -443. -44.
      101. 40. -236. -31. 138.</_>
    <_>
      54. -16. -48. 152. 122. 96. -25. 15. -65. -425. -443. -403. 101.
      40. -134. -31. 138. 54.</_>
    <_>
      -16. -48. -46. 122. 96. 28. 15. -65. -68. -443. -403. -374. 40.
      -134. -21. 138. 54. 3.</_>
    <_>
      -48. -46. 0. 96. 28. 2. -65. -68. -9. -403. -374. -379. -134. -21.
      96. 54. 3. 160.</_>
    <_>
      -46. 0. 39. 28. 2. -29. -68. -9. -6. -374. -379. -402. -21. 96.
      -3. 3. 160. 291.</_>
    <_>
      0. 39. 8. 2. -29. -70. -9. -6. -3. -379. -402. -417. 96. -3. -46.
      160. 291. 266.</_>
    <_>
      39. 8. -2. -29. -70. -50. -6. -3. 17. -402. -417. -429. -3. -46.
      16. 291. 266. 234.</_>
    <_>
      8. -2. -247. -70. -50. -25. -3. 17. -125. -417. -429. -313. -46.
      16. -87. 266. 234. 155.</_>
    <_>
      -2. -247. -229. -50. -25. -11. 17. -125. -120. -429. -313. -96.
      16. -87. 17. 234. 155. 113.</_>
    <_>
      -247. -229. -1. -25. -11. 3. -125. -120. 1. -313. -96. 1. -87. 17.
      74. 155. 113. 226.</_>
    <_>
      29. 119. 185. 69. 15. -181. 134. 48. 40. 266. 354. 334. 309. 97.
      -3. 175. 311. 337.</_>
    <_>
      119. 185. -14. 15. -181. -288. 48. 40. -56. 354. 334. 254. 97. -3.
      -102. 311. 337. 328.</_>
    <_>
      185. -14. -62. -181. -288. -256. 40. -56. -47. 334. 254. 195. -3.
      -102. -54. 337. 328. 334.</_>
    <_>
      -14. -62. 82. -288. -256. -202. -56. -47. 143. 254. 195. 217.
      -102. -54. 111. 328. 334. 273.</_>
    <_>
      10. 142. 344. -140. -68. 110. 9. 166. 458. 45. -4. -44. -20. 107.
      438. 70. 31. -8.</_>
    <_>
      142. 344. 200. -68. 110. 296. 166. 458. 300. -4. -44. -16. 107.
      438. 352. 31. -8. -4.</_>
    <_>
      344. 200. -24. 110. 296. 366. 458. 300. -64. -44. -16. -26. 438.
      352. -177. -8. -4. -55.</_>
    <_>
      200. -24. -297. 296. 366. 263. 300. -64. -403. -16. -26. -69. 352.
      -177. -395. -4. -55. -117.</_>
    <_>
      -24. -297. -269. 366. 263. 51. -64. -403. -327. -26. -69. -21.
      -177. -395. -200. -55. -117. -30.</_>
    <_>
      -297. -269. 18. 263. 51. -40. -403. -327. 26. -69. -21. 20. -395.
      -200. 27. -117. -30. 57.</_>
    <_>
      250. -342. -140. 24. 56. -86. 260. -308. -368. -46. -34. -86. 203.
      -246. -298. -53. -60. 124.</_>
    <_>
      -342. -140. 184. 56. -86. -316. -308. -368. 50. -34. -86. -218.
      -246. -298. 68. -60. 124. 344.</_>
    <_>
      -140. 184. -29. -86. -316. -379. -368. 50. -11. -86. -218. -271.
      -298. 68. -43. 124. 344. 383.</_>
    <_>
      184. -29. 55. -316. -379. -375. 50. -11. 62. -218. -271. -250. 68.
      -43. 68. 344. 383. 336.</_>
    <_>
      -29. 55. 13. -379. -375. -385. -11. 62. 3. -271. -250. -243. -43.
      68. -24. 383. 336. 308.</_>
    <_>
      55. 13. -57. -375. -385. -349. 62. 3. -53. -250. -243. -285. 68.
      -24. -92. 336. 308. 284.</_>
    <_>
      13. -57. -64. -385. -349. -294. 3. -53. -23. -243. -285. -295.
      -24. -92. 45. 308. 284. 323.</_>
    <_>
      -64. -27. -25. -294. -329. -425. -23. -44. 101. -295. -236. -31.
      45. -66. 248. 323. 310. 230.</_>
    <_>
      -27. -25. 15. -329. -425. -443. -44. 101. 40. -236. -31. 138. -66.
      248. 133. 310. 230. 301.</_>
    <_>
      15. -65. -68. -443. -403. -374. 40. -134. -21. 138. 54. 3. 133.
      -281. 52. 301. 331. 308.</_>
    <_>
      -65. -68. -9. -403. -374. -379. -134. -21. 96. 54. 3. 160. -281.
      52. 281. 331. 308. 409.</_>
    <_>
      -6. -3. 17. -402. -417. -429. -3. -46. 16. 291. 266. 234. -16.
      -70. 3. 450. 438. 433.</_>
    <_>
      17. -125. -120. -429. -313. -96. 16. -87. 17. 234. 155. 113. 3.
      -292. 92. 433. 294. 206.</_>
    <_>
      -125. -120. 1. -313. -96. 1. -87. 17. 74. 155. 113. 226. -292. 92.
      235. 294. 206. 329.</_>
    <_>
      -183. -71. 134. 1. 91. 266. -191. 69. 309. -7. 35. 175. -190. 70.
      338. -16. -56. -166.</_>
    <_>
      -71. 134. 48. 91. 266. 354. 69. 309. 97. 35. 175. 311. 70. 338.
      98. -56. -166. -272.</_>
    <_>
      134. 48. 40. 266. 354. 334. 309. 97. -3. 175. 311. 337. 338. 98.
      -36. -166. -272. -330.</_>
    <_>
      48. 40. -56. 354. 334. 254. 97. -3. -102. 311. 337. 328. 98. -36.
      -52. -272. -330. -304.</_>
    <_>
      40. -56. -47. 334. 254. 195. -3. -102. -54. 337. 328. 334. -36.
      -52. -41. -330. -304. -247.</_>
    <_>
      143. 27. -37. 217. 241. 243. 111. -60. -82. 273. 130. -4. -3.
      -128. -116. -287. -326. -294.</_>
    <_>
      9. 166. 458. 45. -4. -44. -20. 107. 438. 70. 31. -8. -55. 100.
      362. 45. 42. -2.</_>
    <_>
      166. 458. 300. -4. -44. -16. 107. 438. 352. 31. -8. -4. 100. 362.
      339. 42. -2. -95.</_>
    <_>
      458. 300. -64. -44. -16. -26. 438. 352. -177. -8. -4. -55. 362.
      339. -188. -2. -95. -68.</_>
    <_>
      300. -64. -403. -16. -26. -69. 352. -177. -395. -4. -55. -117.
      339. -188. -390. -95. -68. -12.</_>
    <_>
      260. -308. -368. -46. -34. -86. 203. -246. -298. -53. -60. 124.
      135. -167. -89. -63. -45. 59.</_>
    <_>
      -308. -368. 50. -34. -86. -218. -246. -298. 68. -60. 124. 344.
      -167. -89. 159. -45. 59. 139.</_>
    <_>
      -368. 50. -11. -86. -218. -271. -298. 68. -43. 124. 344. 383. -89.
      159. -78. 59. 139. 156.</_>
    <_>
      50. -11. 62. -218. -271. -250. 68. -43. 68. 344. 383. 336. 159.
      -78. 2. 139. 156. 102.</_>
    <_>
      -23. -44. 101. -295. -236. -31. 45. -66. 248. 323. 310. 230. 93.
      -138. 101. 49. 38. -101.</_>
    <_>
      -44. 101. 40. -236. -31. 138. -66. 248. 133. 310. 230. 301. -138.
      101. 216. 38. -101. -236.</_>
    <_>
      101. 40. -134. -31. 138. 54. 248. 133. -281. 230. 301. 331. 101.
      216. -238. -101. -236. -140.</_>
    <_>
      40. -134. -21. 138. 54. 3. 133. -281. 52. 301. 331. 308. 216.
      -238. 67. -236. -140. -59.</_>
    <_>
      -134. -21. 96. 54. 3. 160. -281. 52. 281. 331. 308. 409. -238. 67.
      235. -140. -59. -191.</_>
    <_>
      96. -3. -46. 160. 291. 266. 281. -16. -70. 409. 450. 438. 235.
      -46. -22. -191. -308. -278.</_>
    <_>
      -3. -46. 16. 291. 266. 234. -16. -70. 3. 450. 438. 433. -46. -22.
      -24. -308. -278. -252.</_>
    <_>
      -46. 16. -87. 266. 234. 155. -70. 3. -292. 438. 433. 294. -22.
      -24. -327. -278. -252. -175.</_>
    <_>
      16. -87. 17. 234. 155. 113. 3. -292. 92. 433. 294. 206. -24. -327.
      99. -252. -175. -115.</_>
    <_>
      -87. 17. 74. 155. 113. 226. -292. 92. 235. 294. 206. 329. -327.
      99. 254. -175. -115. -212.</_>
    <_>
      74. 30. -13. 226. 328. 353. 235. 11. -31. 329. 369. 307. 254. -72.
      -42. -212. -316. -348.</_>
    <_>
      30. -13. -38. 328. 353. 308. 11. -31. -101. 369. 307. 271. -72.
      -42. -83. -316. -348. -305.</_>
    <_>
      -13. -38. -58. 353. 308. 198. -31. -101. -203. 307. 271. 173. -42.
      -83. -207. -348. -305. -193.</_>
    <_>
      -38. -58. 123. 308. 198. 63. -101. -203. 11. 271. 173. 51. -83.
      -207. 26. -305. -193. -60.</_>
    <_>
      -191. 69. 309. -7. 35. 175. -190. 70. 338. -16. -56. -166. -186.
      -43. 152. 24. -45. -234.</_>
    <_>
      69. 309. 97. 35. 175. 311. 70. 338. 98. -56. -166. -272. -43. 152.
      19. -45. -234. -393.</_>
    <_>
      309. 97. -3. 175. 311. 337. 338. 98. -36. -166. -272. -330. 152.
      19. -29. -234. -393. -407.</_>
    <_>
      97. -3. -102. 311. 337. 328. 98. -36. -52. -272. -330. -304. 19.
      -29. -6. -393. -407. -380.</_>
    <_>
      -3. -102. -54. 337. 328. 334. -36. -52. -41. -330. -304. -247.
      -29. -6. -35. -407. -380. -385.</_>
    <_>
      -102. -54. 111. 328. 334. 273. -52. -41. -3. -304. -247. -287. -6.
      -35. -62. -380. -385. -398.</_>
    <_>
      -54. 111. -60. 334. 273. 130. -41. -3. -128. -247. -287. -326.
      -35. -62. -65. -385. -398. -355.</_>
    <_>
      111. -60. -82. 273. 130. -4. -3. -128. -116. -287. -326. -294.
      -62. -65. -34. -398. -355. -242.</_>
    <_>
      57. -7. -95. 27. -29. 35. -8. -29. 6. -18. -49. -34. 3. -22. -22.
      329. 378. 342.</_>
    <_>
      -7. -95. -90. -29. 35. 94. -29. 6. -66. -49. -34. 32. -22. -22.
      -19. 378. 342. 295.</_>
    <_>
      -95. -90. -20. 35. 94. 70. 6. -66. -55. -34. 32. 45. -22. -19.
      -132. 342. 295. 252.</_>
    <_>
      -20. 107. 438. 70. 31. -8. -55. 100. 362. 45. 42. -2. -132. -7.
      232. 252. 71. -122.</_>
    <_>
      107. 438. 352. 31. -8. -4. 100. 362. 339. 42. -2. -95. -7. 232.
      322. 71. -122. -176.</_>
    <_>
      438. 352. -177. -8. -4. -55. 362. 339. -188. -2. -95. -68. 232.
      322. 19. -122. -176. -13.</_>
    <_>
      352. -177. -395. -4. -55. -117. 339. -188. -390. -95. -68. -12.
      322. 19. -296. -176. -13. 232.</_>
    <_>
      -177. -395. -200. -55. -117. -30. -188. -390. -119. -68. -12. -13.
      19. -296. -95. -13. 232. 351.</_>
    <_>
      -200. 27. -8. -30. 57. 58. -119. 32. 7. -13. -14. 5. -95. 16. 31.
      351. 360. 349.</_>
    <_>
      27. -8. 14. 57. 58. 46. 32. 7. 28. -14. 5. 46. 16. 31. 45. 360.
      349. 349.</_>
    <_>
      14. -52. -75. 46. 48. 63. 28. -11. -31. 46. 99. 169. 45. 32. 26.
      349. 356. 386.</_>
    <_>
      -52. -75. 14. 48. 63. 68. -11. -31. 34. 99. 169. 228. 32. 26. 54.
      356. 386. 404.</_>
    <_>
      -75. 14. 11. 63. 68. 63. -31. 34. 39. 169. 228. 281. 26. 54. 66.
      386. 404. 398.</_>
    <_>
      14. 11. 6. 68. 63. 54. 34. 39. -32. 228. 281. 280. 54. 66. -106.
      404. 398. 352.</_>
    <_>
      6. 2. 3. 54. 42. 27. -32. -90. -46. 280. 162. 36. -106. -273.
      -143. 352. 213. 59.</_>
    <_>
      -298. 68. -43. 124. 344. 383. -89. 159. -78. 59. 139. 156. -134.
      77. -54. -110. -317. -392.</_>
    <_>
      68. -43. 68. 344. 383. 336. 159. -78. 2. 139. 156. 102. 77. -54.
      -38. -317. -392. -354.</_>
    <_>
      45. -66. 248. 323. 310. 230. 93. -138. 101. 49. 38. -101. 43. -87.
      -16. -327. -315. -242.</_>
    <_>
      -66. 248. 133. 310. 230. 301. -138. 101. 216. 38. -101. -236. -87.
      -16. 117. -315. -242. -323.</_>
    <_>
      248. 133. -281. 230. 301. 331. 101. 216. -238. -101. -236. -140.
      -16. 117. -77. -242. -323. -357.</_>
    <_>
      133. -281. 52. 301. 331. 308. 216. -238. 67. -236. -140. -59. 117.
      -77. 9. -323. -357. -335.</_>
    <_>
      -281. 52. 281. 331. 308. 409. -238. 67. 235. -140. -59. -191. -77.
      9. 57. -357. -335. -439.</_>
    <_>
      52. 281. -16. 308. 409. 450. 67. 235. -46. -59. -191. -308. 9. 57.
      -31. -335. -439. -485.</_>
    <_>
      281. -16. -70. 409. 450. 438. 235. -46. -22. -191. -308. -278. 57.
      -31. 1. -439. -485. -477.</_>
    <_>
      -16. -70. 3. 450. 438. 433. -46. -22. -24. -308. -278. -252. -31.
      1. -23. -485. -477. -479.</_>
    <_>
      -70. 3. -292. 438. 433. 294. -22. -24. -327. -278. -252. -175. 1.
      -23. -115. -477. -479. -343.</_>
    <_>
      3. -292. 92. 433. 294. 206. -24. -327. 99. -252. -175. -115. -23.
      -115. 47. -479. -343. -243.</_>
    <_>
      -292. 92. 235. 294. 206. 329. -327. 99. 254. -175. -115. -212.
      -115. 47. 98. -343. -243. -354.</_>
    <_>
      92. 235. 11. 206. 329. 369. 99. 254. -72. -115. -212. -316. 47.
      98. -55. -243. -354. -389.</_>
    <_>
      235. 11. -31. 329. 369. 307. 254. -72. -42. -212. -316. -348. 98.
      -55. -23. -354. -389. -321.</_>
    <_>
      11. -31. -101. 369. 307. 271. -72. -42. -83. -316. -348. -305.
      -55. -23. -11. -389. -321. -273.</_>
    <_>
      -31. -101. -203. 307. 271. 173. -42. -83. -207. -348. -305. -193.
      -23. -11. -64. -321. -273. -170.</_>
    <_>
      -101. -203. 11. 271. 173. 51. -83. -207. 26. -305. -193. -60. -11.
      -64. 134. -273. -170. -52.</_>
    <_>
      70. 338. 98. -56. -166. -272. -43. 152. 19. -45. -234. -393. -144.
      16. 0. 8. -40. -36.</_>
    <_>
      338. 98. -36. -166. -272. -330. 152. 19. -29. -234. -393. -407.
      16. 0. -9. -40. -36. -21.</_>
    <_>
      98. -36. -52. -272. -330. -304. 19. -29. -6. -393. -407. -380. 0.
      -9. -12. -36. -21. -34.</_>
    <_>
      28. -8. -29. 4. -18. -49. 69. 3. -22. 255. 329. 378. 115. 33. 5.
      391. 393. 401.</_>
    <_>
      6. -66. -55. -34. 32. 45. -22. -19. -132. 342. 295. 252. -156. -8.
      -173. 330. 254. 267.</_>
    <_>
      -55. 100. 362. 45. 42. -2. -132. -7. 232. 252. 71. -122. -173.
      -256. 168. 267. 158. 38.</_>
    <_>
      100. 362. 339. 42. -2. -95. -7. 232. 322. 71. -122. -176. -256.
      168. 359. 158. 38. 65.</_>
    <_>
      362. 339. -188. -2. -95. -68. 232. 322. 19. -122. -176. -13. 168.
      359. 188. 38. 65. 108.</_>
    <_>
      339. -188. -390. -95. -68. -12. 322. 19. -296. -176. -13. 232.
      359. 188. -103. 65. 108. 225.</_>
    <_>
      -188. -390. -119. -68. -12. -13. 19. -296. -95. -13. 232. 351.
      188. -103. -41. 108. 225. 353.</_>
    <_>
      -390. -119. 32. -12. -13. -14. -296. -95. 16. 232. 351. 360. -103.
      -41. 0. 225. 353. 382.</_>
    <_>
      -11. -31. 34. 99. 169. 228. 32. 26. 54. 356. 386. 404. 13. 30. 24.
      267. 222. 178.</_>
    <_>
      34. 39. -32. 228. 281. 280. 54. 66. -106. 404. 398. 352. 24. 28.
      -158. 178. 116. 72.</_>
    <_>
      39. -32. -90. 281. 280. 162. 66. -106. -273. 398. 352. 213. 28.
      -158. -381. 116. 72. 51.</_>
    <_>
      -32. -90. -46. 280. 162. 36. -106. -273. -143. 352. 213. 59. -158.
      -381. -218. 72. 51. 22.</_>
    <_>
      -89. 159. -78. 59. 139. 156. -134. 77. -54. -110. -317. -392.
      -266. -83. -18. 8. -77. -126.</_>
    <_>
      159. -78. 2. 139. 156. 102. 77. -54. -38. -317. -392. -354. -83.
      -18. -4. -77. -126. -94.</_>
    <_>
      93. -138. 101. 49. 38. -101. 43. -87. -16. -327. -315. -242. -4.
      -14. -2. 18. 32. 46.</_>
    <_>
      -138. 101. 216. 38. -101. -236. -87. -16. 117. -315. -242. -323.
      -14. -2. 9. 32. 46. 33.</_>
    <_>
      101. 216. -238. -101. -236. -140. -16. 117. -77. -242. -323. -357.
      -2. 9. -14. 46. 33. 22.</_>
    <_>
      216. -238. 67. -236. -140. -59. 117. -77. 9. -323. -357. -335. 9.
      -14. -23. 33. 22. 31.</_>
    <_>
      -238. 67. 235. -140. -59. -191. -77. 9. 57. -357. -335. -439. -14.
      -23. -14. 22. 31. 32.</_>
    <_>
      67. 235. -46. -59. -191. -308. 9. 57. -31. -335. -439. -485. -23.
      -14. -13. 31. 32. 25.</_>
    <_>
      235. -46. -22. -191. -308. -278. 57. -31. 1. -439. -485. -477.
      -14. -13. -15. 32. 25. 19.</_>
    <_>
      -46. -22. -24. -308. -278. -252. -31. 1. -23. -485. -477. -479.
      -13. -15. -13. 25. 19. 15.</_>
    <_>
      -22. -24. -327. -278. -252. -175. 1. -23. -115. -477. -479. -343.
      -15. -13. 9. 19. 15. 13.</_>
    <_>
      -24. -327. 99. -252. -175. -115. -23. -115. 47. -479. -343. -243.
      -13. 9. 16. 15. 13. 6.</_>
    <_>
      -327. 99. 254. -175. -115. -212. -115. 47. 98. -343. -243. -354.
      9. 16. 7. 13. 6. -5.</_>
    <_>
      254. -72. -42. -212. -316. -348. 98. -55. -23. -354. -389. -321.
      7. 0. -2. -5. -6. 2.</_>
    <_>
      152. 19. -29. -234. -393. -407. 16. 0. -9. -40. -36. -21. 0. 12.
      -14. -24. -32. -40.</_>
    <_>
      24. -17. 42. 188. 171. 172. 27. 51. 183. -9. 79. 287. -4. 175.
      347. 12. 17. 97.</_>
    <_>
      -17. 42. 69. 171. 172. 255. 51. 183. 115. 79. 287. 391. 175. 347.
      51. 17. 97. 93.</_>
    <_>
      42. 69. 3. 172. 255. 329. 183. 115. 33. 287. 391. 393. 347. 51.
      18. 97. 93. 12.</_>
    <_>
      69. 3. -22. 255. 329. 378. 115. 33. 5. 391. 393. 401. 51. 18. 7.
      93. 12. -9.</_>
    <_>
      3. -22. -22. 329. 378. 342. 33. 5. -156. 393. 401. 330. 18. 7.
      -166. 12. -9. 54.</_>
    <_>
      -22. -22. -19. 378. 342. 295. 5. -156. -8. 401. 330. 254. 7. -166.
      -9. -9. 54. 119.</_>
    <_>
      -22. -19. -132. 342. 295. 252. -156. -8. -173. 330. 254. 267.
      -166. -9. -97. 54. 119. 181.</_>
    <_>
      -19. -132. -7. 295. 252. 71. -8. -173. -256. 254. 267. 158. -9.
      -97. -388. 119. 181. 234.</_>
    <_>
      -132. -7. 232. 252. 71. -122. -173. -256. 168. 267. 158. 38. -97.
      -388. 81. 181. 234. 135.</_>
    <_>
      -7. 232. 322. 71. -122. -176. -256. 168. 359. 158. 38. 65. -388.
      81. 301. 234. 135. -37.</_>
    <_>
      232. 322. 19. -122. -176. -13. 168. 359. 188. 38. 65. 108. 81.
      301. 177. 135. -37. -149.</_>
    <_>
      322. 19. -296. -176. -13. 232. 359. 188. -103. 65. 108. 225. 301.
      177. 84. -37. -149. -90.</_>
    <_>
      19. -296. -95. -13. 232. 351. 188. -103. -41. 108. 225. 353. 177.
      84. -8. -149. -90. 2.</_>
    <_>
      -95. 16. 31. 351. 360. 349. -41. 0. 23. 353. 382. 369. -8. -3. 11.
      2. 3. 1.</_>
    <_>
      16. 31. 45. 360. 349. 349. 0. 23. 11. 382. 369. 327. -3. 11. -24.
      3. 1. -4.</_>
    <_>
      31. 45. 32. 349. 349. 356. 23. 11. 13. 369. 327. 267. 11. -24.
      -14. 1. -4. -6.</_>
    <_>
      45. 32. 26. 349. 356. 386. 11. 13. 30. 327. 267. 222. -24. -14.
      18. -4. -6. 0.</_>
    <_>
      32. 26. 54. 356. 386. 404. 13. 30. 24. 267. 222. 178. -14. 18. -7.
      -6. 0. 1.</_>
    <_>
      26. 54. 66. 386. 404. 398. 30. 24. 28. 222. 178. 116. 18. -7. -6.
      0. 1. -2.</_>
    <_>
      54. 66. -106. 404. 398. 352. 24. 28. -158. 178. 116. 72. -7. -6.
      -183. 1. -2. -17.</_>
    <_>
      66. -106. -273. 398. 352. 213. 28. -158. -381. 116. 72. 51. -6.
      -183. -417. -2. -17. -57.</_>
    <_>
      -106. -273. -143. 352. 213. 59. -158. -381. -218. 72. 51. 22.
      -183. -417. -239. -17. -57. -85.</_>
    <_>
      -273. -143. -2. 213. 59. 2. -381. -218. -1. 51. 22. 5. -417. -239.
      -1. -57. -85. -89.</_>
    <_>
      -95. -134. 77. -33. -110. -317. -33. -266. -83. 1. 8. -77. 38.
      -290. -169. 10. 50. 25.</_>
    <_>
      -134. 77. -54. -110. -317. -392. -266. -83. -18. 8. -77. -126.
      -290. -169. -7. 50. 25. -1.</_>
    <_>
      77. -54. -38. -317. -392. -354. -83. -18. -4. -77. -126. -94.
      -169. -7. 17. 25. -1. -1.</_>
    <_>
      57. -31. 1. -439. -485. -477. -14. -13. -15. 32. 25. 19. -15. -14.
      -14. 15. 20. 26.</_>
    <_>
      27. 51. 183. -9. 79. 287. -4. 175. 347. 12. 17. 97. -10. 123. 389.
      158. 95. 5.</_>
    <_>
      51. 183. 115. 79. 287. 391. 175. 347. 51. 17. 97. 93. 123. 389.
      -5. 95. 5. -5.</_>
    <_>
      183. 115. 33. 287. 391. 393. 347. 51. 18. 97. 93. 12. 389. -5. -2.
      5. -5. 0.</_>
    <_>
      115. 33. 5. 391. 393. 401. 51. 18. 7. 93. 12. -9. -5. -2. 8. -5.
      0. 2.</_>
    <_>
      33. 5. -156. 393. 401. 330. 18. 7. -166. 12. -9. 54. -2. 8. -47.
      0. 2. 59.</_>
    <_>
      5. -156. -8. 401. 330. 254. 7. -166. -9. -9. 54. 119. 8. -47. -6.
      2. 59. 116.</_>
    <_>
      -156. -8. -173. 330. 254. 267. -166. -9. -97. 54. 119. 181. -47.
      -6. -16. 59. 116. 138.</_>
    <_>
      -8. -173. -256. 254. 267. 158. -9. -97. -388. 119. 181. 234. -6.
      -16. -420. 116. 138. 134.</_>
    <_>
      -173. -256. 168. 267. 158. 38. -97. -388. 81. 181. 234. 135. -16.
      -420. -93. 138. 134. 27.</_>
    <_>
      -256. 168. 359. 158. 38. 65. -388. 81. 301. 234. 135. -37. -420.
      -93. 147. 134. 27. -129.</_>
    <_>
      168. 359. 188. 38. 65. 108. 81. 301. 177. 135. -37. -149. -93.
      147. 160. 27. -129. -188.</_>
    <_>
      359. 188. -103. 65. 108. 225. 301. 177. 84. -37. -149. -90. 147.
      160. 268. -129. -188. -80.</_>
    <_>
      188. -103. -41. 108. 225. 353. 177. 84. -8. -149. -90. 2. 160.
      268. -15. -188. -80. 5.</_>
    <_>
      -41. 0. 23. 353. 382. 369. -8. -3. 11. 2. 3. 1. -15. -17. -13. 5.
      -17. -53.</_>
    <_>
      0. 23. 11. 382. 369. 327. -3. 11. -24. 3. 1. -4. -17. -13. -64.
      -17. -53. -112.</_>
    <_>
      23. 11. 13. 369. 327. 267. 11. -24. -14. 1. -4. -6. -13. -64. -65.
      -53. -112. -201.</_>
    <_>
      11. 13. 30. 327. 267. 222. -24. -14. 18. -4. -6. 0. -64. -65. -18.
      -112. -201. -294.</_>
    <_>
      28. -158. -381. 116. 72. 51. -6. -183. -417. -2. -17. -57. -15.
      -178. -349. -357. -346. -233.</_>
    <_>
      -158. -381. -218. 72. 51. 22. -183. -417. -239. -17. -57. -85.
      -178. -349. -170. -346. -233. -68.</_>
    <_>
      -381. -218. -1. 51. 22. 5. -417. -239. -1. -57. -85. -89. -349.
      -170. 6. -233. -68. 12.</_>
    <_>
      144. -4. 175. -10. 12. 17. 259. -10. 123. 71. 158. 95. 266. 16.
      150. -124. -178. -62.</_>
    <_>
      -4. 175. 347. 12. 17. 97. -10. 123. 389. 158. 95. 5. 16. 150. 235.
      -178. -62. -99.</_>
    <_>
      175. 347. 51. 17. 97. 93. 123. 389. -5. 95. 5. -5. 150. 235. -135.
      -62. -99. -373.</_>
    <_>
      347. 51. 18. 97. 93. 12. 389. -5. -2. 5. -5. 0. 235. -135. 3. -99.
      -373. -503.</_>
    <_>
      51. 18. 7. 93. 12. -9. -5. -2. 8. -5. 0. 2. -135. 3. 8. -373.
      -503. -500.</_>
    <_>
      18. 7. -166. 12. -9. 54. -2. 8. -47. 0. 2. 59. 3. 8. -10. -503.
      -500. -520.</_>
    <_>
      7. -166. -9. -9. 54. 119. 8. -47. -6. 2. 59. 116. 8. -10. -2.
      -500. -520. -536.</_>
    <_>
      -166. -9. -97. 54. 119. 181. -47. -6. -16. 59. 116. 138. -10. -2.
      5. -520. -536. -533.</_>
    <_>
      -9. -97. -388. 119. 181. 234. -6. -16. -420. 116. 138. 134. -2. 5.
      -326. -536. -533. -414.</_>
    <_>
      -97. -388. 81. 181. 234. 135. -16. -420. -93. 138. 134. 27. 5.
      -326. -81. -533. -414. -201.</_>
    <_>
      -388. 81. 301. 234. 135. -37. -420. -93. 147. 134. 27. -129. -326.
      -81. 92. -414. -201. -88.</_>
    <_>
      81. 301. 177. 135. -37. -149. -93. 147. 160. 27. -129. -188. -81.
      92. 92. -201. -88. -152.</_>
    <_>
      301. 177. 84. -37. -149. -90. 147. 160. 268. -129. -188. -80. 92.
      92. 231. -88. -152. -365.</_>
    <_>
      177. 84. -8. -149. -90. 2. 160. 268. -15. -188. -80. 5. 92. 231.
      -22. -152. -365. -494.</_>
    <_>
      84. -8. -3. -90. 2. 3. 268. -15. -17. -80. 5. -17. 231. -22. -27.
      -365. -494. -489.</_>
    <_>
      -8. -3. 11. 2. 3. 1. -15. -17. -13. 5. -17. -53. -22. -27. -44.
      -494. -489. -494.</_>
    <_>
      -3. 11. -24. 3. 1. -4. -17. -13. -64. -17. -53. -112. -27. -44.
      -57. -489. -494. -459.</_>
    <_>
      11. -24. -14. 1. -4. -6. -13. -64. -65. -53. -112. -201. -44. -57.
      -117. -494. -459. -415.</_>
    <_>
      -24. -14. 18. -4. -6. 0. -64. -65. -18. -112. -201. -294. -57.
      -117. -90. -459. -415. -446.</_>
    <_>
      -14. 18. -7. -6. 0. 1. -65. -18. -17. -201. -294. -341. -117. -90.
      4. -415. -446. -450.</_>
    <_>
      18. -7. -6. 0. 1. -2. -18. -17. -15. -294. -341. -357. -90. 4.
      -21. -446. -450. -419.</_>
    <_>
      -7. -6. -183. 1. -2. -17. -17. -15. -178. -341. -357. -346. 4.
      -21. -103. -450. -419. -361.</_>
    <_>
      -6. -183. -417. -2. -17. -57. -15. -178. -349. -357. -346. -233.
      -21. -103. -124. -419. -361. -174.</_>
    <_>
      -183. -417. -239. -17. -57. -85. -178. -349. -170. -346. -233.
      -68. -103. -124. -32. -361. -174. 24.</_>
    <_>
      5. 5. -2. 37. 29. 20. 3. 1. -3. -19. -17. -13. 120. 78. 1. 212.
      404. 481.</_>
    <_>
      5. -2. 1. 29. 20. 13. 1. -3. -1. -17. -13. -9. 78. 1. -120. 404.
      481. 362.</_>
    <_>
      -2. 1. 0. 20. 13. 8. -3. -1. -1. -13. -9. -7. 1. -120. -67. 481.
      362. 175.</_>
    <_>
      1. 0. 6. 13. 8. -2. -1. -1. 0. -9. -7. -4. -120. -67. 132. 362.
      175. 238.</_>
    <_>
      0. 188. 217. -8. -2. -1. 3. 192. 215. -1. 0. 1. 30. 60. 140. 394.
      288. 80.</_>
    <_>
      188. 217. -121. -2. -1. -5. 192. 215. -120. 0. 1. 4. 60. 140.
      -119. 288. 80. 3.</_>
    <_>
      217. -121. 7. -1. -5. -7. 215. -120. 5. 1. 4. 5. 140. -119. 0. 80.
      3. -2.</_>
    <_>
      108. 30. 67. 116. 248. 181. 329. 72. -108. 191. 322. 256. 413. 50.
      -149. 35. -34. -31.</_>
    <_>
      30. 67. 167. 248. 181. 45. 72. -108. 80. 322. 256. 130. 50. -149.
      46. -34. -31. 20.</_>
    <_>
      259. -10. 123. 71. 158. 95. 266. 16. 150. -124. -178. -62. 148.
      101. 323. -90. -69. 73.</_>
    <_>
      -10. 123. 389. 158. 95. 5. 16. 150. 235. -178. -62. -99. 101. 323.
      -102. -69. 73. -54.</_>
    <_>
      123. 389. -5. 95. 5. -5. 150. 235. -135. -62. -99. -373. 323.
      -102. -410. 73. -54. -392.</_>
    <_>
      389. -5. -2. 5. -5. 0. 235. -135. 3. -99. -373. -503. -102. -410.
      38. -54. -392. -502.</_>
    <_>
      -5. -2. 8. -5. 0. 2. -135. 3. 8. -373. -503. -500. -410. 38. 84.
      -392. -502. -394.</_>
    <_>
      -2. 8. -47. 0. 2. 59. 3. 8. -10. -503. -500. -520. 38. 84. 70.
      -502. -394. -218.</_>
    <_>
      8. -47. -6. 2. 59. 116. 8. -10. -2. -500. -520. -536. 84. 70. 58.
      -394. -218. -62.</_>
    <_>
      -47. -6. -16. 59. 116. 138. -10. -2. 5. -520. -536. -533. 70. 58.
      -101. -218. -62. -111.</_>
    <_>
      -6. -16. -420. 116. 138. 134. -2. 5. -326. -536. -533. -414. 58.
      -101. -218. -62. -111. -228.</_>
    <_>
      -16. -420. -93. 138. 134. 27. 5. -326. -81. -533. -414. -201.
      -101. -218. 43. -111. -228. -209.</_>
    <_>
      -420. -93. 147. 134. 27. -129. -326. -81. 92. -414. -201. -88.
      -218. 43. 127. -228. -209. -163.</_>
    <_>
      147. 160. 268. -129. -188. -80. 92. 92. 231. -88. -152. -365. 127.
      -14. 80. -163. -170. -214.</_>
    <_>
      160. 268. -15. -188. -80. 5. 92. 231. -22. -152. -365. -494. -14.
      80. -21. -170. -214. -235.</_>
    <_>
      268. -15. -17. -80. 5. -17. 231. -22. -27. -365. -494. -489. 80.
      -21. -108. -214. -235. -320.</_>
    <_>
      -15. -17. -13. 5. -17. -53. -22. -27. -44. -494. -489. -494. -21.
      -108. -25. -235. -320. -377.</_>
    <_>
      -17. -13. -64. -17. -53. -112. -27. -44. -57. -489. -494. -459.
      -108. -25. 83. -320. -377. -253.</_>
    <_>
      -13. -64. -65. -53. -112. -201. -44. -57. -117. -494. -459. -415.
      -25. 83. 43. -377. -253. 3.</_>
    <_>
      -64. -65. -18. -112. -201. -294. -57. -117. -90. -459. -415. -446.
      83. 43. -26. -253. 3. 258.</_>
    <_>
      -65. -18. -17. -201. -294. -341. -117. -90. 4. -415. -446. -450.
      43. -26. 9. 3. 258. 331.</_>
    <_>
      -18. -17. -15. -294. -341. -357. -90. 4. -21. -446. -450. -419.
      -26. 9. -122. 258. 331. 204.</_>
    <_>
      -17. -15. -178. -341. -357. -346. 4. -21. -103. -450. -419. -361.
      9. -122. -101. 331. 204. 47.</_>
    <_>
      -15. -178. -349. -357. -346. -233. -21. -103. -124. -419. -361.
      -174. -122. -101. 21. 204. 47. 7.</_>
    <_>
      183. -133. -41. 179. 113. 69. 180. -229. -17. 62. 29. 1. 174.
      -172. -15. -170. -86. 1.</_>
    <_>
      -7. -2. 3. -27. -22. -19. -2. 43. 120. 8. 53. 212. -83. 72. 356.
      337. 240. 346.</_>
    <_>
      -2. 3. 1. -22. -19. -17. 43. 120. 78. 53. 212. 404. 72. 356. 75.
      240. 346. 387.</_>
    <_>
      3. 1. -3. -19. -17. -13. 120. 78. 1. 212. 404. 481. 356. 75. -11.
      346. 387. 295.</_>
    <_>
      1. -3. -1. -17. -13. -9. 78. 1. -120. 404. 481. 362. 75. -11.
      -183. 387. 295. 339.</_>
    <_>
      -3. -1. -1. -13. -9. -7. 1. -120. -67. 481. 362. 175. -11. -183.
      -115. 295. 339. 415.</_>
    <_>
      -1. -1. 0. -9. -7. -4. -120. -67. 132. 362. 175. 238. -183. -115.
      287. 339. 415. 459.</_>
    <_>
      -1. 0. 3. -7. -4. -1. -67. 132. 30. 175. 238. 394. -115. 287. -28.
      415. 459. 400.</_>
    <_>
      0. 3. 192. -4. -1. 0. 132. 30. 60. 238. 394. 288. 287. -28. -186.
      459. 400. 202.</_>
    <_>
      3. 192. 215. -1. 0. 1. 30. 60. 140. 394. 288. 80. -28. -186. 22.
      400. 202. 46.</_>
    <_>
      192. 215. -120. 0. 1. 4. 60. 140. -119. 288. 80. 3. -186. 22.
      -125. 202. 46. -1.</_>
    <_>
      4. 97. 329. -6. 35. 191. 5. 170. 413. 1. 34. 35. 6. 261. 321. 4.
      63. 61.</_>
    <_>
      329. 72. -108. 191. 322. 256. 413. 50. -149. 35. -34. -31. 321.
      -65. -41. 61. -77. -87.</_>
    <_>
      72. -108. 80. 322. 256. 130. 50. -149. 46. -34. -31. 20. -65. -41.
      70. -77. -87. -6.</_>
    <_>
      266. 16. 150. -124. -178. -62. 148. 101. 323. -90. -69. 73. 88.
      211. 396. -12. 17. 58.</_>
    <_>
      150. 235. -135. -62. -99. -373. 323. -102. -410. 73. -54. -392.
      396. -325. -549. 58. 35. 11.</_>
    <_>
      235. -135. 3. -99. -373. -503. -102. -410. 38. -54. -392. -502.
      -325. -549. 101. 35. 11. 45.</_>
    <_>
      -135. 3. 8. -373. -503. -500. -410. 38. 84. -392. -502. -394.
      -549. 101. 242. 11. 45. 158.</_>
    <_>
      3. 8. -10. -503. -500. -520. 38. 84. 70. -502. -394. -218. 101.
      242. 264. 45. 158. 334.</_>
    <_>
      5. -326. -81. -533. -414. -201. -101. -218. 43. -111. -228. -209.
      -244. -359. -49. 486. 319. 67.</_>
    <_>
      -326. -81. 92. -414. -201. -88. -218. 43. 127. -228. -209. -163.
      -359. -49. 136. 319. 67. -62.</_>
    <_>
      92. 92. 231. -88. -152. -365. 127. -14. 80. -163. -170. -214. 136.
      13. 198. -62. -19. 170.</_>
    <_>
      92. 231. -22. -152. -365. -494. -14. 80. -21. -170. -214. -235.
      13. 198. -32. -19. 170. 298.</_>
    <_>
      231. -22. -27. -365. -494. -489. 80. -21. -108. -214. -235. -320.
      198. -32. -300. 170. 298. 180.</_>
    <_>
      -22. -27. -44. -494. -489. -494. -21. -108. -25. -235. -320. -377.
      -32. -300. 26. 298. 180. 96.</_>
    <_>
      -27. -44. -57. -489. -494. -459. -108. -25. 83. -320. -377. -253.
      -300. 26. 196. 180. 96. 136.</_>
    <_>
      4. -21. -103. -450. -419. -361. 9. -122. -101. 331. 204. 47. -66.
      -335. -230. 436. 275. 90.</_>
    <_>
      -21. -103. -124. -419. -361. -174. -122. -101. 21. 204. 47. 7.
      -335. -230. 29. 275. 90. 9.</_>
    <_>
      180. -229. -17. 62. 29. 1. 174. -172. -15. -170. -86. 1. 171. -52.
      -13. -69. -36. -1.</_>
    <_>
      1. 2. -2. 5. 8. 8. 55. 59. 17. 277. 385. 461. 155. 141. 42. 359.
      433. 464.</_>
    <_>
      2. -2. -6. 8. 8. 4. 59. 17. -85. 385. 461. 405. 141. 42. -258.
      433. 464. 372.</_>
    <_>
      -2. -6. 2. 8. 4. 4. 17. -85. -70. 461. 405. 254. 42. -258. -214.
      464. 372. 206.</_>
    <_>
      -6. 2. 60. 4. 4. 54. -85. -70. 182. 405. 254. 254. -258. -214.
      237. 372. 206. 117.</_>
    <_>
      2. 60. 0. 4. 54. 102. -70. 182. 58. 254. 254. 386. -214. 237. 111.
      206. 117. 93.</_>
    <_>
      0. -54. 2. 102. 54. 6. 58. -170. -34. 386. 376. 272. 111. -238.
      -84. 93. 88. 74.</_>
    <_>
      -2. 43. 120. 8. 53. 212. -83. 72. 356. 337. 240. 346. -207. -27.
      365. 131. 5. -191.</_>
    <_>
      43. 120. 78. 53. 212. 404. 72. 356. 75. 240. 346. 387. -27. 365.
      -76. 5. -191. -374.</_>
    <_>
      120. 78. 1. 212. 404. 481. 356. 75. -11. 346. 387. 295. 365. -76.
      -31. -191. -374. -453.</_>
    <_>
      78. 1. -120. 404. 481. 362. 75. -11. -183. 387. 295. 339. -76.
      -31. -15. -374. -453. -349.</_>
    <_>
      1. -120. -67. 481. 362. 175. -11. -183. -115. 295. 339. 415. -31.
      -15. -29. -453. -349. -171.</_>
    <_>
      -120. -67. 132. 362. 175. 238. -183. -115. 287. 339. 415. 459.
      -15. -29. 181. -349. -171. -235.</_>
    <_>
      -67. 132. 30. 175. 238. 394. -115. 287. -28. 415. 459. 400. -29.
      181. -134. -171. -235. -388.</_>
    <_>
      132. 30. 60. 238. 394. 288. 287. -28. -186. 459. 400. 202. 181.
      -134. -169. -235. -388. -279.</_>
    <_>
      30. 60. 140. 394. 288. 80. -28. -186. 22. 400. 202. 46. -134.
      -169. -3. -388. -279. -131.</_>
    <_>
      60. 140. -119. 288. 80. 3. -186. 22. -125. 202. 46. -1. -169. -3.
      -130. -279. -131. -114.</_>
    <_>
      5. 170. 413. 1. 34. 35. 6. 261. 321. 4. 63. 61. 5. 262. 189. 1.
      -58. -187.</_>
    <_>
      170. 413. 50. 34. 35. -34. 261. 321. -65. 63. 61. -77. 262. 189.
      -127. -58. -187. -243.</_>
    <_>
      413. 50. -149. 35. -34. -31. 321. -65. -41. 61. -77. -87. 189.
      -127. 81. -187. -243. -173.</_>
    <_>
      148. 101. 323. -90. -69. 73. 88. 211. 396. -12. 17. 58. 77. 197.
      397. -55. -109. -163.</_>
    <_>
      101. 323. -102. -69. 73. -54. 211. 396. -325. 17. 58. 35. 197.
      397. -253. -109. -163. -67.</_>
    <_>
      323. -102. -410. 73. -54. -392. 396. -325. -549. 58. 35. 11. 397.
      -253. -526. -163. -67. 52.</_>
    <_>
      -102. -410. 38. -54. -392. -502. -325. -549. 101. 35. 11. 45.
      -253. -526. 155. -67. 52. 95.</_>
    <_>
      -410. 38. 84. -392. -502. -394. -549. 101. 242. 11. 45. 158. -526.
      155. 342. 52. 95. 136.</_>
    <_>
      38. 84. 70. -502. -394. -218. 101. 242. 264. 45. 158. 334. 155.
      342. 321. 95. 136. 117.</_>
    <_>
      84. 70. 58. -394. -218. -62. 242. 264. 162. 158. 334. 476. 342.
      321. 165. 136. 117. 35.</_>
    <_>
      70. 58. -101. -218. -62. -111. 264. 162. -244. 334. 476. 486. 321.
      165. -288. 117. 35. -16.</_>
    <_>
      58. -101. -218. -62. -111. -228. 162. -244. -359. 476. 486. 319.
      165. -288. -479. 35. -16. -13.</_>
    <_>
      -101. -218. 43. -111. -228. -209. -244. -359. -49. 486. 319. 67.
      -288. -479. -137. -16. -13. 31.</_>
    <_>
      -218. 43. 127. -228. -209. -163. -359. -49. 136. 319. 67. -62.
      -479. -137. 119. -13. 31. 55.</_>
    <_>
      127. -14. 80. -163. -170. -214. 136. 13. 198. -62. -19. 170. 119.
      51. 343. 55. 33. 27.</_>
    <_>
      -21. -108. -25. -235. -320. -377. -32. -300. 26. 298. 180. 96.
      -44. -408. 69. 32. 30. 49.</_>
    <_>
      -108. -25. 83. -320. -377. -253. -300. 26. 196. 180. 96. 136.
      -408. 69. 207. 30. 49. 63.</_>
    <_>
      83. 43. -26. -253. 3. 258. 196. 289. 151. 136. 239. 407. 207. 350.
      225. 63. 32. -1.</_>
    <_>
      43. -26. 9. 3. 258. 331. 289. 151. -66. 239. 407. 436. 350. 225.
      -183. 32. -1. -73.</_>
    <_>
      -26. 9. -122. 258. 331. 204. 151. -66. -335. 407. 436. 275. 225.
      -183. -438. -1. -73. -132.</_>
    <_>
      9. -122. -101. 331. 204. 47. -66. -335. -230. 436. 275. 90. -183.
      -438. -239. -73. -132. -59.</_>
    <_>
      -122. -101. 21. 204. 47. 7. -335. -230. 29. 275. 90. 9. -438.
      -239. 23. -132. -59. 7.</_>
    <_>
      273. 44. -6. 5. 6. 6. 272. 29. -3. 38. 21. 9. 159. 0. -36. 145.
      20. -30.</_>
    <_>
      -226. -225. 44. 14. 91. 176. -187. -99. 174. -29. 59. 230. -230.
      -19. 209. -68. -119. -175.</_>
    <_>
      44. 55. 59. 176. 277. 385. 174. 155. 141. 230. 359. 433. 209. 149.
      114. -175. -275. -382.</_>
    <_>
      55. 59. 17. 277. 385. 461. 155. 141. 42. 359. 433. 464. 149. 114.
      25. -275. -382. -457.</_>
    <_>
      59. 17. -85. 385. 461. 405. 141. 42. -258. 433. 464. 372. 114. 25.
      -275. -382. -457. -399.</_>
    <_>
      17. -85. -70. 461. 405. 254. 42. -258. -214. 464. 372. 206. 25.
      -275. -212. -457. -399. -248.</_>
    <_>
      -85. -70. 182. 405. 254. 254. -258. -214. 237. 372. 206. 117.
      -275. -212. 141. -399. -248. -253.</_>
    <_>
      -70. 182. 58. 254. 254. 386. -214. 237. 111. 206. 117. 93. -212.
      141. 50. -248. -253. -386.</_>
    <_>
      182. 58. -170. 254. 386. 376. 237. 111. -238. 117. 93. 88. 141.
      50. -171. -253. -386. -375.</_>
    <_>
      58. -170. -34. 386. 376. 272. 111. -238. -84. 93. 88. 74. 50.
      -171. -64. -386. -375. -274.</_>
    <_>
      -170. -34. 28. 376. 272. 266. -238. -84. 84. 88. 74. 86. -171.
      -64. 80. -375. -274. -270.</_>
    <_>
      28. 58. -83. 266. 358. 337. 84. 150. -207. 86. 142. 131. 80. 118.
      -164. -270. -362. -340.</_>
    <_>
      58. -83. 72. 358. 337. 240. 150. -207. -27. 142. 131. 5. 118.
      -164. -98. -362. -340. -242.</_>
    <_>
      -83. 72. 356. 337. 240. 346. -207. -27. 365. 131. 5. -191. -164.
      -98. 133. -340. -242. -349.</_>
    <_>
      72. 356. 75. 240. 346. 387. -27. 365. -76. 5. -191. -374. -98.
      133. -69. -242. -349. -391.</_>
    <_>
      356. 75. -11. 346. 387. 295. 365. -76. -31. -191. -374. -453. 133.
      -69. -25. -349. -391. -299.</_>
    <_>
      75. -11. -183. 387. 295. 339. -76. -31. -15. -374. -453. -349.
      -69. -25. 39. -391. -299. -343.</_>
    <_>
      -11. -183. -115. 295. 339. 415. -31. -15. -29. -453. -349. -171.
      -25. 39. 19. -299. -343. -419.</_>
    <_>
      -183. -115. 287. 339. 415. 459. -15. -29. 181. -349. -171. -235.
      39. 19. 24. -343. -419. -464.</_>
    <_>
      -115. 287. -28. 415. 459. 400. -29. 181. -134. -171. -235. -388.
      19. 24. -72. -419. -464. -406.</_>
    <_>
      287. -28. -186. 459. 400. 202. 181. -134. -169. -235. -388. -279.
      24. -72. 79. -464. -406. -205.</_>
    <_>
      -28. -186. 22. 400. 202. 46. -134. -169. -3. -388. -279. -131.
      -72. 79. 57. -406. -205. -45.</_>
    <_>
      261. 321. -65. 63. 61. -77. 262. 189. -127. -58. -187. -243. 105.
      64. -51. -101. -254. -247.</_>
    <_>
      321. -65. -41. 61. -77. -87. 189. -127. 81. -187. -243. -173. 64.
      -51. 150. -254. -247. -172.</_>
    <_>
      88. 211. 396. -12. 17. 58. 77. 197. 397. -55. -109. -163. 74. 109.
      401. -26. -63. -93.</_>
    <_>
      211. 396. -325. 17. 58. 35. 197. 397. -253. -109. -163. -67. 109.
      401. -105. -63. -93. -37.</_>
    <_>
      396. -325. -549. 58. 35. 11. 397. -253. -526. -163. -67. 52. 401.
      -105. -463. -93. -37. 55.</_>
    <_>
      -325. -549. 101. 35. 11. 45. -253. -526. 155. -67. 52. 95. -105.
      -463. 202. -37. 55. 122.</_>
    <_>
      -549. 101. 242. 11. 45. 158. -526. 155. 342. 52. 95. 136. -463.
      202. 367. 55. 122. 153.</_>
    <_>
      101. 242. 264. 45. 158. 334. 155. 342. 321. 95. 136. 117. 202.
      367. 252. 122. 153. 128.</_>
    <_>
      242. 264. 162. 158. 334. 476. 342. 321. 165. 136. 117. 35. 367.
      252. 76. 153. 128. 52.</_>
    <_>
      264. 162. -244. 334. 476. 486. 321. 165. -288. 117. 35. -16. 252.
      76. -375. 128. 52. -73.</_>
    <_>
      162. -244. -359. 476. 486. 319. 165. -288. -479. 35. -16. -13. 76.
      -375. -464. 52. -73. -148.</_>
    <_>
      -244. -359. -49. 486. 319. 67. -288. -479. -137. -16. -13. 31.
      -375. -464. 30. -73. -148. -10.</_>
    <_>
      -359. -49. 136. 319. 67. -62. -479. -137. 119. -13. 31. 55. -464.
      30. 85. -148. -10. 99.</_>
    <_>
      136. 13. 198. -62. -19. 170. 119. 51. 343. 55. 33. 27. 85. -13.
      275. 99. 23. -103.</_>
    <_>
      198. -32. -300. 170. 298. 180. 343. -44. -408. 27. 32. 30. 275.
      -45. -311. -103. -177. -79.</_>
    <_>
      -32. -300. 26. 298. 180. 96. -44. -408. 69. 32. 30. 49. -45. -311.
      104. -177. -79. 34.</_>
    <_>
      -300. 26. 196. 180. 96. 136. -408. 69. 207. 30. 49. 63. -311. 104.
      199. -79. 34. 47.</_>
    <_>
      26. 196. 289. 96. 136. 239. 69. 207. 350. 49. 63. 32. 104. 199.
      305. 34. 47. 25.</_>
    <_>
      196. 289. 151. 136. 239. 407. 207. 350. 225. 63. 32. -1. 199. 305.
      216. 47. 25. 4.</_>
    <_>
      289. 151. -66. 239. 407. 436. 350. 225. -183. 32. -1. -73. 305.
      216. -316. 25. 4. -66.</_>
    <_>
      151. -66. -335. 407. 436. 275. 225. -183. -438. -1. -73. -132.
      216. -316. -433. 4. -66. -135.</_>
    <_>
      -66. -335. -230. 436. 275. 90. -183. -438. -239. -73. -132. -59.
      -316. -433. -104. -66. -135. -68.</_>
    <_>
      -335. -230. 29. 275. 90. 9. -438. -239. 23. -132. -59. 7. -433.
      -104. 27. -135. -68. 5.</_>
    <_>
      33. 11. 242. 1. 5. 22. 36. 128. 270. 2. 118. 246. 39. 372. 258.
      15. 146. 250.</_>
    <_>
      242. 272. 29. 22. 38. 21. 270. 159. 0. 246. 145. 20. 258. -84. 4.
      250. 96. -18.</_>
    <_>
      272. 29. -3. 38. 21. 9. 159. 0. -36. 145. 20. -30. -84. 4. -114.
      96. -18. -42.</_>
    <_>
      -99. 174. 155. 59. 230. 359. -19. 209. 149. -119. -175. -275. -90.
      78. 47. -88. -234. -367.</_>
    <_>
      174. 155. 141. 230. 359. 433. 209. 149. 114. -175. -275. -382. 78.
      47. 31. -234. -367. -445.</_>
    <_>
      155. 141. 42. 359. 433. 464. 149. 114. 25. -275. -382. -457. 47.
      31. 3. -367. -445. -475.</_>
    <_>
      141. 42. -258. 433. 464. 372. 114. 25. -275. -382. -457. -399. 31.
      3. -97. -445. -475. -377.</_>
    <_>
      42. -258. -214. 464. 372. 206. 25. -275. -212. -457. -399. -248.
      3. -97. -73. -475. -377. -211.</_>
    <_>
      -258. -214. 237. 372. 206. 117. -275. -212. 141. -399. -248. -253.
      -97. -73. 31. -377. -211. -177.</_>
    <_>
      -214. 237. 111. 206. 117. 93. -212. 141. 50. -248. -253. -386.
      -73. 31. -1. -211. -177. -205.</_>
    <_>
      237. 111. -238. 117. 93. 88. 141. 50. -171. -253. -386. -375. 31.
      -1. -53. -177. -205. -149.</_>
    <_>
      111. -238. -84. 93. 88. 74. 50. -171. -64. -386. -375. -274. -1.
      -53. -16. -205. -149. -84.</_>
    <_>
      -238. -84. 84. 88. 74. 86. -171. -64. 80. -375. -274. -270. -53.
      -16. 24. -149. -84. -96.</_>
    <_>
      150. -207. -27. 142. 131. 5. 118. -164. -98. -362. -340. -242. 26.
      -41. -41. -152. -143. -61.</_>
    <_>
      -207. -27. 365. 131. 5. -191. -164. -98. 133. -340. -242. -349.
      -41. -41. 7. -143. -61. -23.</_>
    <_>
      -27. 365. -76. 5. -191. -374. -98. 133. -69. -242. -349. -391.
      -41. 7. 5. -61. -23. -33.</_>
    <_>
      365. -76. -31. -191. -374. -453. 133. -69. -25. -349. -391. -299.
      7. 5. -7. -23. -33. -33.</_>
    <_>
      -76. -31. -15. -374. -453. -349. -69. -25. 39. -391. -299. -343.
      5. -7. -10. -33. -33. -20.</_>
    <_>
      -31. -15. -29. -453. -349. -171. -25. 39. 19. -299. -343. -419.
      -7. -10. 0. -33. -20. -12.</_>
    <_>
      -15. -29. 181. -349. -171. -235. 39. 19. 24. -343. -419. -464.
      -10. 0. -1. -20. -12. -11.</_>
    <_>
      -29. 181. -134. -171. -235. -388. 19. 24. -72. -419. -464. -406.
      0. -1. 8. -12. -11. -14.</_>
    <_>
      181. -134. -169. -235. -388. -279. 24. -72. 79. -464. -406. -205.
      -1. 8. 199. -11. -14. -15.</_>
    <_>
      189. -127. 81. -187. -243. -173. 64. -51. 150. -254. -247. -172.
      9. 8. 164. -3. -6. -8.</_>
    <_>
      77. 197. 397. -55. -109. -163. 74. 109. 401. -26. -63. -93. 63.
      16. 348. 113. 46. -70.</_>
    <_>
      197. 397. -253. -109. -163. -67. 109. 401. -105. -63. -93. -37.
      16. 348. -62. 46. -70. -136.</_>
    <_>
      397. -253. -526. -163. -67. 52. 401. -105. -463. -93. -37. 55.
      348. -62. -310. -70. -136. -32.</_>
    <_>
      -253. -526. 155. -67. 52. 95. -105. -463. 202. -37. 55. 122. -62.
      -310. 245. -136. -32. 97.</_>
    <_>
      -526. 155. 342. 52. 95. 136. -463. 202. 367. 55. 122. 153. -310.
      245. 346. -32. 97. 88.</_>
    <_>
      155. 342. 321. 95. 136. 117. 202. 367. 252. 122. 153. 128. 245.
      346. 206. 97. 88. 46.</_>
    <_>
      342. 321. 165. 136. 117. 35. 367. 252. 76. 153. 128. 52. 346. 206.
      -50. 88. 46. -50.</_>
    <_>
      321. 165. -288. 117. 35. -16. 252. 76. -375. 128. 52. -73. 206.
      -50. -455. 46. -50. -131.</_>
    <_>
      165. -288. -479. 35. -16. -13. 76. -375. -464. 52. -73. -148. -50.
      -455. -394. -50. -131. -66.</_>
    <_>
      -288. -479. -137. -16. -13. 31. -375. -464. 30. -73. -148. -10.
      -455. -394. 192. -131. -66. 28.</_>
    <_>
      -479. -137. 119. -13. 31. 55. -464. 30. 85. -148. -10. 99. -394.
      192. 32. -66. 28. 28.</_>
    <_>
      119. 51. 343. 55. 33. 27. 85. -13. 275. 99. 23. -103. 32. -94.
      141. 28. -30. -119.</_>
    <_>
      343. -44. -408. 27. 32. 30. 275. -45. -311. -103. -177. -79. 141.
      -67. -155. -119. -201. -165.</_>
    <_>
      -44. -408. 69. 32. 30. 49. -45. -311. 104. -177. -79. 34. -67.
      -155. 161. -201. -165. -65.</_>
    <_>
      350. 225. -183. 32. -1. -73. 305. 216. -316. 25. 4. -66. 273. 215.
      -412. 17. 5. -22.</_>
    <_>
      225. -183. -438. -1. -73. -132. 216. -316. -433. 4. -66. -135.
      215. -412. -449. 5. -22. -65.</_>
    <_>
      -183. -438. -239. -73. -132. -59. -316. -433. -104. -66. -135.
      -68. -412. -449. -17. -22. -65. -61.</_>
    <_>
      36. 128. 270. 2. 118. 246. 39. 372. 258. 15. 146. 250. 40. 417.
      222. 16. -69. -164.</_>
    <_>
      128. 270. 159. 118. 246. 145. 372. 258. -84. 146. 250. 96. 417.
      222. -129. -69. -164. -91.</_>
    <_>
      270. 159. 0. 246. 145. 20. 258. -84. 4. 250. 96. -18. 222. -129.
      31. -164. -91. 5.</_>
    <_>
      159. 0. -36. 145. 20. -30. -84. 4. -114. 96. -18. -42. -129. 31.
      -156. -91. 5. 14.</_>
    <_>
      209. 149. 114. -175. -275. -382. 78. 47. 31. -234. -367. -445. -7.
      -2. 1. -5. -6. -7.</_>
    <_>
      149. 114. 25. -275. -382. -457. 47. 31. 3. -367. -445. -475. -2.
      1. 3. -6. -7. -7.</_>
    <_>
      114. 25. -275. -382. -457. -399. 31. 3. -97. -445. -475. -377. 1.
      3. 1. -7. -7. -7.</_>
    <_>
      25. -275. -212. -457. -399. -248. 3. -97. -73. -475. -377. -211.
      3. 1. -5. -7. -7. -7.</_>
    <_>
      -275. -212. 141. -399. -248. -253. -97. -73. 31. -377. -211. -177.
      1. -5. -1. -7. -7. -5.</_>
    <_>
      -212. 141. 50. -248. -253. -386. -73. 31. -1. -211. -177. -205.
      -5. -1. 2. -7. -5. -6.</_>
    <_>
      133. -69. -25. -349. -391. -299. 7. 5. -7. -23. -33. -33. 3. 0.
      -3. -1. 0. -1.</_>
    <_>
      24. -72. 79. -464. -406. -205. -1. 8. 199. -11. -14. -15. 1. 3.
      202. -1. -1. -2.</_>
    <_>
      74. 109. 401. -26. -63. -93. 63. 16. 348. 113. 46. -70. 39. -93.
      215. 69. 3. -123.</_>
    <_>
      109. 401. -105. -63. -93. -37. 16. 348. -62. 46. -70. -136. -93.
      215. -89. 3. -123. -217.</_>
    <_>
      401. -105. -463. -93. -37. 55. 348. -62. -310. -70. -136. -32.
      215. -89. -74. -123. -217. -112.</_>
    <_>
      -105. -463. 202. -37. 55. 122. -62. -310. 245. -136. -32. 97. -89.
      -74. 284. -217. -112. 34.</_>
    <_>
      202. 367. 252. 122. 153. 128. 245. 346. 206. 97. 88. 46. 284. 296.
      187. 34. 32. 5.</_>
    <_>
      367. 252. 76. 153. 128. 52. 346. 206. -50. 88. 46. -50. 296. 187.
      -243. 32. 5. -111.</_>
    <_>
      252. 76. -375. 128. 52. -73. 206. -50. -455. 46. -50. -131. 187.
      -243. -452. 5. -111. -220.</_>
    <_>
      76. -375. -464. 52. -73. -148. -50. -455. -394. -50. -131. -66.
      -243. -452. -211. -111. -220. -99.</_>
    <_>
      -375. -464. 30. -73. -148. -10. -455. -394. 192. -131. -66. 28.
      -452. -211. 217. -220. -99. 15.</_>
    <_>
      85. -13. 275. 99. 23. -103. 32. -94. 141. 28. -30. -119. 75. -123.
      8. 83. 155. 82.</_>
    <_>
      275. -45. -311. -103. -177. -79. 141. -67. -155. -119. -201. -165.
      8. -96. -94. 82. 2. -2.</_>
    <_>
      305. 216. -316. 25. 4. -66. 273. 215. -412. 17. 5. -22. 251. 206.
      -445. 7. -12. -27.</_>
    <_>
      216. -316. -433. 4. -66. -135. 215. -412. -449. 5. -22. -65. 206.
      -445. -445. -12. -27. -13.</_>
    <_>
      -316. -433. -104. -66. -135. -68. -412. -449. -17. -22. -65. -61.
      -445. -445. 12. -27. -13. 16.</_>
    <_>
      39. 372. 258. 15. 146. 250. 40. 417. 222. 16. -69. -164. 31. 206.
      219. 1. -134. -253.</_>
    <_>
      372. 258. -84. 146. 250. 96. 417. 222. -129. -69. -164. -91. 206.
      219. 79. -134. -253. -121.</_>
    <_>
      258. -84. 4. 250. 96. -18. 222. -129. 31. -164. -91. 5. 219. 79.
      40. -253. -121. 0.</_>
    <_>
      63. 16. 348. 113. 46. -70. 39. -93. 215. 69. 3. -123. 47. -136.
      85. 17. 48. 1.</_>
    <_>
      348. -62. -310. -70. -136. -32. 215. -89. -74. -123. -217. -112.
      85. -94. 98. 1. -40. 22.</_>
    <_>
      -62. -310. 245. -136. -32. 97. -89. -74. 284. -217. -112. 34. -94.
      98. 328. -40. 22. 92.</_>
    <_>
      245. 346. 206. 97. 88. 46. 284. 296. 187. 34. 32. 5. 328. 253.
      147. 92. 95. 39.</_>
    <_>
      346. 206. -50. 88. 46. -50. 296. 187. -243. 32. 5. -111. 253. 147.
      -337. 95. 39. 21.</_>
    <_>
      206. -50. -455. 46. -50. -131. 187. -243. -452. 5. -111. -220.
      147. -337. -439. 39. 21. 49.</_>
    <_>
      -50. -455. -394. -50. -131. -66. -243. -452. -211. -111. -220.
      -99. -337. -439. -103. 21. 49. 49.</_>
    <_>
      -455. -394. 192. -131. -66. 28. -452. -211. 217. -220. -99. 15.
      -439. -103. 209. 49. 49. 35.</_>
    <_>
      192. 32. -94. 28. 28. -30. 217. 75. -123. 15. 83. 155. 209. 253.
      -139. 35. 137. 227.</_>
    <_>
      141. -67. -155. -119. -201. -165. 8. -96. -94. 82. 2. -2. -182.
      -34. -36. 94. 46. 170.</_>
    <_>
      161. 223. 273. -65. 3. 17. 214. 246. 251. 12. 20. 7. 177. 181.
      236. 177. 67. 0.</_>
    <_>
      273. 215. -412. 17. 5. -22. 251. 206. -445. 7. -12. -27. 236. 199.
      -428. 0. -3. 22.</_>
    <_>
      215. -412. -449. 5. -22. -65. 206. -445. -445. -12. -27. -13. 199.
      -428. -401. -3. 22. 69.</_>
    <_>
      -412. -449. -17. -22. -65. -61. -445. -445. 12. -27. -13. 16.
      -428. -401. 15. 22. 69. 87.</_>
    <_>
      40. 417. 222. 16. -69. -164. 31. 206. 219. 1. -134. -253. 22. 45.
      232. -4. -39. -68.</_>
    <_>
      417. 222. -129. -69. -164. -91. 206. 219. 79. -134. -253. -121.
      45. 232. 226. -39. -68. -40.</_>
    <_>
      39. -93. 215. 69. 3. -123. 47. -136. 85. 17. 48. 1. 187. -109.
      -98. 83. 219. 110.</_>
    <_>
      215. -89. -74. -123. -217. -112. 85. -94. 98. 1. -40. 22. -98.
      -43. 159. 110. 19. 69.</_>
    <_>
      -89. -74. 284. -217. -112. 34. -94. 98. 328. -40. 22. 92. -43.
      159. 373. 19. 69. 105.</_>
    <_>
      284. 296. 187. 34. 32. 5. 328. 253. 147. 92. 95. 39. 373. 220. 61.
      105. 114. 51.</_>
    <_>
      296. 187. -243. 32. 5. -111. 253. 147. -337. 95. 39. 21. 220. 61.
      -204. 114. 51. 116.</_>
    <_>
      187. -243. -452. 5. -111. -220. 147. -337. -439. 39. 21. 49. 61.
      -204. -426. 51. 116. 234.</_>
    <_>
      -243. -452. -211. -111. -220. -99. -337. -439. -103. 21. 49. 49.
      -204. -426. -218. 116. 234. 132.</_>
    <_>
      -452. -211. 217. -220. -99. 15. -439. -103. 209. 49. 49. 35. -426.
      -218. 203. 234. 132. 25.</_>
    <_>
      -211. 217. 75. -99. 15. 83. -103. 209. 253. 49. 35. 137. -218.
      203. 389. 132. 25. 53.</_>
    <_>
      217. 75. -123. 15. 83. 155. 209. 253. -139. 35. 137. 227. 203.
      389. -185. 25. 53. 53.</_>
    <_>
      75. -123. 8. 83. 155. 82. 253. -139. -182. 137. 227. 94. 389.
      -185. -336. 53. 53. -14.</_>
    <_>
      -123. 8. -96. 155. 82. 2. -139. -182. -34. 227. 94. 46. -185.
      -336. 99. 53. -14. 13.</_>
    <_>
      8. -96. -94. 82. 2. -2. -182. -34. -36. 94. 46. 170. -336. 99. 53.
      -14. 13. 111.</_>
    <_>
      214. 246. 251. 12. 20. 7. 177. 181. 236. 177. 67. 0. 98. 85. 220.
      114. 49. 4.</_>
    <_>
      251. 206. -445. 7. -12. -27. 236. 199. -428. 0. -3. 22. 220. 218.
      -304. 4. 10. 128.</_>
    <_>
      206. -445. -445. -12. -27. -13. 199. -428. -401. -3. 22. 69. 218.
      -304. -384. 10. 128. 222.</_>
    <_>
      -445. -445. 12. -27. -13. 16. -428. -401. 15. 22. 69. 87. -304.
      -384. -93. 128. 222. 113.</_>
    <_>
      31. 206. 219. 1. -134. -253. 22. 45. 232. -4. -39. -68. 21. 11.
      241. -9. -9. -5.</_>
    <_>
      206. 219. 79. -134. -253. -121. 45. 232. 226. -39. -68. -40. 11.
      241. 251. -9. -5. 1.</_>
    <_>
      212. 47. -136. 2. 17. 48. 157. 187. -109. 13. 83. 219. 78. 384.
      -78. -18. 30. 122.</_>
    <_>
      85. -94. 98. 1. -40. 22. -98. -43. 159. 110. 19. 69. -311. 16.
      181. 49. -14. 17.</_>
    <_>
      328. 253. 147. 92. 95. 39. 373. 220. 61. 105. 114. 51. 403. 197.
      4. 33. 31. 14.</_>
    <_>
      253. 147. -337. 95. 39. 21. 220. 61. -204. 114. 51. 116. 197. 4.
      -46. 31. 14. 50.</_>
    <_>
      147. -337. -439. 39. 21. 49. 61. -204. -426. 51. 116. 234. 4. -46.
      -399. 14. 50. 117.</_>
    <_>
      -337. -439. -103. 21. 49. 49. -204. -426. -218. 116. 234. 132.
      -46. -399. -358. 50. 117. 106.</_>
    <_>
      -439. -103. 209. 49. 49. 35. -426. -218. 203. 234. 132. 25. -399.
      -358. 180. 117. 106. 50.</_>
    <_>
      -103. 209. 253. 49. 35. 137. -218. 203. 389. 132. 25. 53. -358.
      180. 408. 106. 50. 18.</_>
    <_>
      209. 253. -139. 35. 137. 227. 203. 389. -185. 25. 53. 53. 180.
      408. -141. 50. 18. 81.</_>
    <_>
      253. -139. -182. 137. 227. 94. 389. -185. -336. 53. 53. -14. 408.
      -141. -371. 18. 81. 157.</_>
    <_>
      -139. -182. -34. 227. 94. 46. -185. -336. 99. 53. -14. 13. -141.
      -371. 69. 81. 157. 65.</_>
    <_>
      -182. -34. -36. 94. 46. 170. -336. 99. 53. -14. 13. 111. -371. 69.
      111. 157. 65. -5.</_>
    <_>
      177. 181. 236. 177. 67. 0. 98. 85. 220. 114. 49. 4. 146. 22. 151.
      98. 148. 61.</_>
    <_>
      236. 199. -428. 0. -3. 22. 220. 218. -304. 4. 10. 128. 151. 234.
      -102. 61. 2. 102.</_>
    <_>
      199. -428. -401. -3. 22. 69. 218. -304. -384. 10. 128. 222. 234.
      -102. -354. 2. 102. 240.</_>
    <_>
      15. 20. 5. 87. 64. 45. -93. -1. 0. 113. 7. 0. -293. -42. -4. 179.
      44. 6.</_></uncompressed_support_vectors>
  <decision_functions>
    <_>
      <sv_count>1</sv_count>
      <rho>-9.5541545306380093e-01</rho>
      <alpha>
        1.</alpha>
      <index>
        0</index></_></decision_functions></opencv_ml_svm>
</opencv_storage>
