<?xml version="1.0"?>
<opencv_storage>
<opencv_ml_svm>
  <format>3</format>
  <svmType>C_SVC</svmType>
  <kernel>
    <type>LINEAR</type></kernel>
  <C>1.0000000000000001e-01</C>
  <term_criteria><iterations>10000000</iterations></term_criteria>
  <var_count>18</var_count>
  <class_count>2</class_count>
  <class_labels type_id="opencv-matrix">
    <rows>2</rows>
    <cols>1</cols>
    <dt>i</dt>
    <data>
      -1 1</data></class_labels>
  <sv_total>1</sv_total>
  <support_vectors>
    <_>
      -1.98213704e-04 2.47337975e-05 -9.41943508e-05 -1.51893386e-04
      -7.76337329e-05 -5.93050907e-04 -4.88965132e-04 3.21109866e-04
      -3.04959132e-04 -5.81998436e-04 -6.50633476e-04 -4.96050015e-05
      -1.93559186e-04 2.82529363e-04 -1.61564312e-04 4.71708518e-05
      3.72631388e-04 -1.23582737e-04</_></support_vectors>
  <uncompressed_sv_total>930</uncompressed_sv_total>
  <uncompressed_support_vectors>
    <_>
      14. -2. -12. -80. -70. -76. 48. -4. -10. 4. 26. 32. 69. -1. 0. 17.
      19. 26.</_>
    <_>
      77. 80. -70. 139. 326. 336. 267. 256. -242. 67. 246. 240. 281.
      265. -249. -99. -255. -247.</_>
    <_>
      80. -70. -65. 326. 336. 179. 256. -242. -215. 246. 240. 75. 265.
      -249. -212. -255. -247. -86.</_>
    <_>
      267. 256. -242. 67. 246. 240. 281. 265. -249. -99. -255. -247.
      110. 104. -76. -80. -256. -252.</_>
    <_>
      -114. -87. -13. 86. -105. -181. -215. -274. -50. 285. 188. 40.
      -48. -419. -190. 130. 249. 112.</_>
    <_>
      -87. -13. -5. -105. -181. -179. -274. -50. 96. 188. 40. 102. -419.
      -190. 325. 249. 112. 139.</_>
    <_>
      13. 4. -2. -87. -96. -90. 25. 118. 62. 89. 224. 396. 37. 337. 136.
      211. 307. 428.</_>
    <_>
      4. -2. -1. -96. -90. -85. 118. 62. -32. 224. 396. 424. 337. 136.
      -71. 307. 428. 435.</_>
    <_>
      -2. -1. -3. -90. -85. -91. 62. -32. 13. 396. 424. 415. 136. -71.
      40. 428. 435. 432.</_>
    <_>
      -1. -3. 1. -85. -91. -95. -32. 13. 32. 424. 415. 466. -71. 40. 80.
      435. 432. 456.</_>
    <_>
      -3. 1. 9. -91. -95. -85. 13. 32. 0. 415. 466. 478. 40. 80. -45.
      432. 456. 447.</_>
    <_>
      1. 9. 2. -95. -85. -78. 32. 0. -3. 466. 478. 457. 80. -45. -28.
      456. 447. 398.</_>
    <_>
      9. 2. -9. -85. -78. -87. 0. -3. -129. 478. 457. 341. -45. -28.
      -336. 447. 398. 282.</_>
    <_>
      2. -9. -8. -78. -87. -92. -3. -129. -117. 457. 341. 117. -28.
      -336. -320. 398. 282. 96.</_>
    <_>
      187. 277. -107. 79. 205. 203. 268. 329. -158. 4. 11. 14. 194. 289.
      -118. -70. -191. -194.</_>
    <_>
      277. -107. 56. 205. 203. 206. 329. -158. 42. 11. 14. -54. 289.
      -118. -88. -191. -194. -216.</_>
    <_>
      81. -215. -274. 195. 285. 188. 206. -48. -419. -72. 130. 249. 225.
      157. -398. -49. -27. 80.</_>
    <_>
      -215. -274. -50. 285. 188. 40. -48. -419. -190. 130. 249. 112.
      157. -398. -355. -27. 80. 73.</_>
    <_>
      -274. -50. 96. 188. 40. 102. -419. -190. 325. 249. 112. 139. -398.
      -355. 352. 80. 73. -92.</_>
    <_>
      -50. 96. 20. 40. 102. 220. -190. 325. 82. 112. 139. 312. -355.
      352. 110. 73. -92. -210.</_>
    <_>
      96. 20. -84. 102. 220. 158. 325. 82. -194. 139. 312. 326. 352.
      110. -142. -92. -210. -144.</_>
    <_>
      20. -84. 74. 220. 158. 154. 82. -194. 194. 312. 326. 340. 110.
      -142. 162. -210. -144. -138.</_>
    <_>
      -84. 74. 12. 158. 154. 236. -194. 194. -19. 326. 340. 347. -142.
      162. -65. -144. -138. -223.</_>
    <_>
      -75. 25. 118. 137. 89. 224. -191. 37. 337. 267. 211. 307. -171. 8.
      334. -129. -82. -210.</_>
    <_>
      25. 118. 62. 89. 224. 396. 37. 337. 136. 211. 307. 428. 8. 334.
      94. -82. -210. -376.</_>
    <_>
      118. 62. -32. 224. 396. 424. 337. 136. -71. 307. 428. 435. 334.
      94. -51. -210. -376. -405.</_>
    <_>
      62. -32. 13. 396. 424. 415. 136. -71. 40. 428. 435. 432. 94. -51.
      25. -376. -405. -397.</_>
    <_>
      -32. 13. 32. 424. 415. 466. -71. 40. 80. 435. 432. 456. -51. 25.
      66. -405. -397. -450.</_>
    <_>
      13. 32. 0. 415. 466. 478. 40. 80. -45. 432. 456. 447. 25. 66. -55.
      -397. -450. -465.</_>
    <_>
      32. 0. -3. 466. 478. 457. 80. -45. -28. 456. 447. 398. 66. -55.
      -45. -450. -465. -443.</_>
    <_>
      0. -3. -129. 478. 457. 341. -45. -28. -336. 447. 398. 282. -55.
      -45. -318. -465. -443. -326.</_>
    <_>
      -3. -129. -117. 457. 341. 117. -28. -336. -320. 398. 282. 96. -45.
      -318. -304. -443. -326. -106.</_>
    <_>
      -129. -117. -5. 341. 117. 5. -336. -320. -5. 282. 96. 5. -318.
      -304. -4. -326. -106. 2.</_>
    <_>
      -16. 268. 329. 4. 4. 11. -23. 194. 289. 11. -70. -191. -9. 42.
      157. 357. 300. 137.</_>
    <_>
      -48. -419. -190. 130. 249. 112. 157. -398. -355. -27. 80. 73. 207.
      -214. -404. -133. -6. 136.</_>
    <_>
      -419. -190. 325. 249. 112. 139. -398. -355. 352. 80. 73. -92.
      -214. -404. 47. -6. 136. -53.</_>
    <_>
      -190. 325. 82. 112. 139. 312. -355. 352. 110. 73. -92. -210. -404.
      47. 49. 136. -53. -301.</_>
    <_>
      82. -194. 194. 312. 326. 340. 110. -142. 162. -210. -144. -138.
      49. -32. 43. -301. -318. -333.</_>
    <_>
      -194. 194. -19. 326. 340. 347. -142. 162. -65. -144. -138. -223.
      -32. 43. -36. -318. -333. -338.</_>
    <_>
      -191. 37. 337. 267. 211. 307. -171. 8. 334. -129. -82. -210. -55.
      0. 122. -259. -198. -290.</_>
    <_>
      37. 337. 136. 211. 307. 428. 8. 334. 94. -82. -210. -376. 0. 122.
      32. -198. -290. -398.</_>
    <_>
      337. 136. -71. 307. 428. 435. 334. 94. -51. -210. -376. -405. 122.
      32. -6. -290. -398. -386.</_>
    <_>
      136. -71. 40. 428. 435. 432. 94. -51. 25. -376. -405. -397. 32.
      -6. -17. -398. -386. -391.</_>
    <_>
      -71. 40. 80. 435. 432. 456. -51. 25. 66. -405. -397. -450. -6.
      -17. 44. -386. -391. -402.</_>
    <_>
      40. 80. -45. 432. 456. 447. 25. 66. -55. -397. -450. -465. -17.
      44. -17. -391. -402. -371.</_>
    <_>
      80. -45. -28. 456. 447. 398. 66. -55. -45. -450. -465. -443. 44.
      -17. -37. -402. -371. -347.</_>
    <_>
      -45. -28. -336. 447. 398. 282. -55. -45. -318. -465. -443. -326.
      -17. -37. -108. -371. -347. -246.</_>
    <_>
      -28. -336. -320. 398. 282. 96. -45. -318. -304. -443. -326. -106.
      -37. -108. -123. -347. -246. -75.</_>
    <_>
      -23. 194. 289. 11. -70. -191. -9. 42. 157. 357. 300. 137. 41. -30.
      55. 315. 350. 339.</_>
    <_>
      194. 289. -118. -70. -191. -194. 42. 157. -100. 300. 137. 26. -30.
      55. -187. 350. 339. 261.</_>
    <_>
      289. -118. -88. -191. -194. -216. 157. -100. -87. 137. 26. 67. 55.
      -187. -15. 339. 261. 205.</_>
    <_>
      131. 124. 41. 149. 286. 351. 258. 238. 19. 20. 124. 151. 239. 220.
      0. -145. -286. -350.</_>
    <_>
      124. 41. -43. 286. 351. 319. 238. 19. -134. 124. 151. 70. 220. 0.
      -171. -286. -350. -325.</_>
    <_>
      41. -43. -161. 351. 319. 215. 19. -134. -273. 151. 70. -29. 0.
      -171. -237. -350. -325. -227.</_>
    <_>
      -398. -355. 352. 80. 73. -92. -214. -404. 47. -6. 136. -53. 22.
      -371. -127. 32. 159. 207.</_>
    <_>
      -355. 352. 110. 73. -92. -210. -404. 47. 49. 136. -53. -301. -371.
      -127. 81. 159. 207. 313.</_>
    <_>
      352. 110. -142. -92. -210. -144. 47. 49. -32. -53. -301. -318.
      -127. 81. -16. 207. 313. 378.</_>
    <_>
      110. -142. 162. -210. -144. -138. 49. -32. 43. -301. -318. -333.
      81. -16. 17. 313. 378. 383.</_>
    <_>
      -142. 162. -65. -144. -138. -223. -32. 43. -36. -318. -333. -338.
      -16. 17. -5. 378. 383. 393.</_>
    <_>
      162. -65. -104. -138. -223. -208. 43. -36. -40. -333. -338. -260.
      17. -5. -37. 383. 393. 349.</_>
    <_>
      -65. -104. 92. -223. -208. -190. -36. -40. 42. -338. -260. -264.
      -5. -37. -24. 393. 349. 290.</_>
    <_>
      -104. 92. -171. -208. -190. -129. -40. 42. -55. -260. -264. -259.
      -37. -24. 53. 349. 290. 327.</_>
    <_>
      -171. 8. 334. -129. -82. -210. -55. 0. 122. -259. -198. -290. 53.
      53. -4. 327. 427. 446.</_>
    <_>
      8. 334. 94. -82. -210. -376. 0. 122. 32. -198. -290. -398. 53. -4.
      8. 427. 446. 404.</_>
    <_>
      334. 94. -51. -210. -376. -405. 122. 32. -6. -290. -398. -386. -4.
      8. -2. 446. 404. 372.</_>
    <_>
      94. -51. 25. -376. -405. -397. 32. -6. -17. -398. -386. -391. 8.
      -2. -22. 404. 372. 376.</_>
    <_>
      -51. 25. 66. -405. -397. -450. -6. -17. 44. -386. -391. -402. -2.
      -22. 65. 372. 376. 403.</_>
    <_>
      25. 66. -55. -397. -450. -465. -17. 44. -17. -391. -402. -371.
      -22. 65. 8. 376. 403. 418.</_>
    <_>
      66. -55. -45. -450. -465. -443. 44. -17. -37. -402. -371. -347.
      65. 8. -30. 403. 418. 426.</_>
    <_>
      -55. -45. -318. -465. -443. -326. -17. -37. -108. -371. -347.
      -246. 8. -30. -129. 418. 426. 311.</_>
    <_>
      -45. -318. -304. -443. -326. -106. -37. -108. -123. -347. -246.
      -75. -30. -129. -146. 426. 311. 96.</_>
    <_>
      53. 104. 26. 43. 174. 284. 178. 294. 24. 82. 266. 344. 229. 349.
      -12. -19. -97. -156.</_>
    <_>
      104. 26. -8. 174. 284. 322. 294. 24. -10. 266. 344. 302. 349. -12.
      -56. -97. -156. -196.</_>
    <_>
      -9. 42. 157. 357. 300. 137. 41. -30. 55. 315. 350. 339. 61. -15.
      10. -235. -235. -254.</_>
    <_>
      42. 157. -100. 300. 137. 26. -30. 55. -187. 350. 339. 261. -15.
      10. -217. -235. -254. -251.</_>
    <_>
      258. 238. 19. 20. 124. 151. 239. 220. 0. -145. -286. -350. 91. 80.
      -8. -209. -356. -440.</_>
    <_>
      238. 19. -134. 124. 151. 70. 220. 0. -171. -286. -350. -325. 80.
      -8. -71. -356. -440. -373.</_>
    <_>
      19. -134. -273. 151. 70. -29. 0. -171. -237. -350. -325. -227. -8.
      -71. -90. -440. -373. -224.</_>
    <_>
      -214. -404. 47. -6. 136. -53. 22. -371. -127. 32. 159. 207. 178.
      -351. -44. 28. 77. 132.</_>
    <_>
      -404. 47. 49. 136. -53. -301. -371. -127. 81. 159. 207. 313. -351.
      -44. 211. 77. 132. 239.</_>
    <_>
      47. 49. -32. -53. -301. -318. -127. 81. -16. 207. 313. 378. -44.
      211. -37. 132. 239. 283.</_>
    <_>
      49. -32. 43. -301. -318. -333. 81. -16. 17. 313. 378. 383. 211.
      -37. 51. 239. 283. 291.</_>
    <_>
      -32. 43. -36. -318. -333. -338. -16. 17. -5. 378. 383. 393. -37.
      51. -1. 283. 291. 319.</_>
    <_>
      43. -36. -40. -333. -338. -260. 17. -5. -37. 383. 393. 349. 51.
      -1. -82. 291. 319. 322.</_>
    <_>
      -36. -40. 42. -338. -260. -264. -5. -37. -24. 393. 349. 290. -1.
      -82. -66. 319. 322. 294.</_>
    <_>
      -40. 42. -55. -260. -264. -259. -37. -24. 53. 349. 290. 327. -82.
      -66. 71. 322. 294. 233.</_>
    <_>
      42. -55. 0. -264. -259. -198. -24. 53. 53. 290. 327. 427. -66. 71.
      54. 294. 233. 152.</_>
    <_>
      -55. 0. 122. -259. -198. -290. 53. 53. -4. 327. 427. 446. 71. 54.
      -16. 233. 152. 122.</_>
    <_>
      0. 122. 32. -198. -290. -398. 53. -4. 8. 427. 446. 404. 54. -16.
      -48. 152. 122. 96.</_>
    <_>
      122. 32. -6. -290. -398. -386. -4. 8. -2. 446. 404. 372. -16. -48.
      -46. 122. 96. 28.</_>
    <_>
      32. -6. -17. -398. -386. -391. 8. -2. -22. 404. 372. 376. -48.
      -46. 0. 96. 28. 2.</_>
    <_>
      -6. -17. 44. -386. -391. -402. -2. -22. 65. 372. 376. 403. -46. 0.
      39. 28. 2. -29.</_>
    <_>
      -17. 44. -17. -391. -402. -371. -22. 65. 8. 376. 403. 418. 0. 39.
      8. 2. -29. -70.</_>
    <_>
      44. -17. -37. -402. -371. -347. 65. 8. -30. 403. 418. 426. 39. 8.
      -2. -29. -70. -50.</_>
    <_>
      -17. -37. -108. -371. -347. -246. 8. -30. -129. 418. 426. 311. 8.
      -2. -247. -70. -50. -25.</_>
    <_>
      -37. -108. -123. -347. -246. -75. -30. -129. -146. 426. 311. 96.
      -2. -247. -229. -50. -25. -11.</_>
    <_>
      178. 294. 24. 82. 266. 344. 229. 349. -12. -19. -97. -156. 119.
      185. -14. 15. -181. -288.</_>
    <_>
      220. 0. -171. -286. -350. -325. 80. -8. -71. -356. -440. -373. -2.
      -10. 5. 18. 18. 25.</_>
    <_>
      -371. -127. 81. 159. 207. 313. -351. -44. 211. 77. 132. 239. -342.
      -140. 184. 56. -86. -316.</_>
    <_>
      -127. 81. -16. 207. 313. 378. -44. 211. -37. 132. 239. 283. -140.
      184. -29. -86. -316. -379.</_>
    <_>
      81. -16. 17. 313. 378. 383. 211. -37. 51. 239. 283. 291. 184. -29.
      55. -316. -379. -375.</_>
    <_>
      -16. 17. -5. 378. 383. 393. -37. 51. -1. 283. 291. 319. -29. 55.
      13. -379. -375. -385.</_>
    <_>
      17. -5. -37. 383. 393. 349. 51. -1. -82. 291. 319. 322. 55. 13.
      -57. -375. -385. -349.</_>
    <_>
      -5. -37. -24. 393. 349. 290. -1. -82. -66. 319. 322. 294. 13. -57.
      -64. -385. -349. -294.</_>
    <_>
      -24. 53. 53. 290. 327. 427. -66. 71. 54. 294. 233. 152. -64. -27.
      -25. -294. -329. -425.</_>
    <_>
      53. 53. -4. 327. 427. 446. 71. 54. -16. 233. 152. 122. -27. -25.
      15. -329. -425. -443.</_>
    <_>
      53. -4. 8. 427. 446. 404. 54. -16. -48. 152. 122. 96. -25. 15.
      -65. -425. -443. -403.</_>
    <_>
      -4. 8. -2. 446. 404. 372. -16. -48. -46. 122. 96. 28. 15. -65.
      -68. -443. -403. -374.</_>
    <_>
      8. -2. -22. 404. 372. 376. -48. -46. 0. 96. 28. 2. -65. -68. -9.
      -403. -374. -379.</_>
    <_>
      -22. 65. 8. 376. 403. 418. 0. 39. 8. 2. -29. -70. -9. -6. -3.
      -379. -402. -417.</_>
    <_>
      65. 8. -30. 403. 418. 426. 39. 8. -2. -29. -70. -50. -6. -3. 17.
      -402. -417. -429.</_>
    <_>
      8. -30. -129. 418. 426. 311. 8. -2. -247. -70. -50. -25. -3. 17.
      -125. -417. -429. -313.</_>
    <_>
      -30. -129. -146. 426. 311. 96. -2. -247. -229. -50. -25. -11. 17.
      -125. -120. -429. -313. -96.</_>
    <_>
      349. -12. -56. -97. -156. -196. 185. -14. -62. -181. -288. -256.
      40. -56. -47. 334. 254. 195.</_>
    <_>
      -6. 36. 114. -122. -72. 86. 10. 142. 344. -140. -68. 110. 9. 166.
      458. 45. -4. -44.</_>
    <_>
      36. 114. 59. -72. 86. 271. 142. 344. 200. -68. 110. 296. 166. 458.
      300. -4. -44. -16.</_>
    <_>
      114. 59. -20. 86. 271. 338. 344. 200. -24. 110. 296. 366. 458.
      300. -64. -44. -16. -26.</_>
    <_>
      59. -20. -89. 271. 338. 229. 200. -24. -297. 296. 366. 263. 300.
      -64. -403. -16. -26. -69.</_>
    <_>
      -20. -89. -80. 338. 229. 44. -24. -297. -269. 366. 263. 51. -64.
      -403. -327. -26. -69. -21.</_>
    <_>
      178. -351. -44. 28. 77. 132. 250. -342. -140. 24. 56. -86. 260.
      -308. -368. -46. -34. -86.</_>
    <_>
      -351. -44. 211. 77. 132. 239. -342. -140. 184. 56. -86. -316.
      -308. -368. 50. -34. -86. -218.</_>
    <_>
      -44. 211. -37. 132. 239. 283. -140. 184. -29. -86. -316. -379.
      -368. 50. -11. -86. -218. -271.</_>
    <_>
      211. -37. 51. 239. 283. 291. 184. -29. 55. -316. -379. -375. 50.
      -11. 62. -218. -271. -250.</_>
    <_>
      -66. 71. 54. 294. 233. 152. -64. -27. -25. -294. -329. -425. -23.
      -44. 101. -295. -236. -31.</_>
    <_>
      39. 8. -2. -29. -70. -50. -6. -3. 17. -402. -417. -429. -3. -46.
      16. 291. 266. 234.</_>
    <_>
      8. -2. -247. -70. -50. -25. -3. 17. -125. -417. -429. -313. -46.
      16. -87. 266. 234. 155.</_>
    <_>
      -2. -247. -229. -50. -25. -11. 17. -125. -120. -429. -313. -96.
      16. -87. 17. 234. 155. 113.</_>
    <_>
      29. 119. 185. 69. 15. -181. 134. 48. 40. 266. 354. 334. 309. 97.
      -3. 175. 311. 337.</_>
    <_>
      119. 185. -14. 15. -181. -288. 48. 40. -56. 354. 334. 254. 97. -3.
      -102. 311. 337. 328.</_>
    <_>
      185. -14. -62. -181. -288. -256. 40. -56. -47. 334. 254. 195. -3.
      -102. -54. 337. 328. 334.</_>
    <_>
      -14. -62. 82. -288. -256. -202. -56. -47. 143. 254. 195. 217.
      -102. -54. 111. 328. 334. 273.</_>
    <_>
      10. 142. 344. -140. -68. 110. 9. 166. 458. 45. -4. -44. -20. 107.
      438. 70. 31. -8.</_>
    <_>
      142. 344. 200. -68. 110. 296. 166. 458. 300. -4. -44. -16. 107.
      438. 352. 31. -8. -4.</_>
    <_>
      344. 200. -24. 110. 296. 366. 458. 300. -64. -44. -16. -26. 438.
      352. -177. -8. -4. -55.</_>
    <_>
      200. -24. -297. 296. 366. 263. 300. -64. -403. -16. -26. -69. 352.
      -177. -395. -4. -55. -117.</_>
    <_>
      -24. -297. -269. 366. 263. 51. -64. -403. -327. -26. -69. -21.
      -177. -395. -200. -55. -117. -30.</_>
    <_>
      -342. -140. 184. 56. -86. -316. -308. -368. 50. -34. -86. -218.
      -246. -298. 68. -60. 124. 344.</_>
    <_>
      -140. 184. -29. -86. -316. -379. -368. 50. -11. -86. -218. -271.
      -298. 68. -43. 124. 344. 383.</_>
    <_>
      184. -29. 55. -316. -379. -375. 50. -11. 62. -218. -271. -250. 68.
      -43. 68. 344. 383. 336.</_>
    <_>
      -29. 55. 13. -379. -375. -385. -11. 62. 3. -271. -250. -243. -43.
      68. -24. 383. 336. 308.</_>
    <_>
      55. 13. -57. -375. -385. -349. 62. 3. -53. -250. -243. -285. 68.
      -24. -92. 336. 308. 284.</_>
    <_>
      13. -57. -64. -385. -349. -294. 3. -53. -23. -243. -285. -295.
      -24. -92. 45. 308. 284. 323.</_>
    <_>
      -57. -64. -27. -349. -294. -329. -53. -23. -44. -285. -295. -236.
      -92. 45. -66. 284. 323. 310.</_>
    <_>
      -64. -27. -25. -294. -329. -425. -23. -44. 101. -295. -236. -31.
      45. -66. 248. 323. 310. 230.</_>
    <_>
      -27. -25. 15. -329. -425. -443. -44. 101. 40. -236. -31. 138. -66.
      248. 133. 310. 230. 301.</_>
    <_>
      15. -65. -68. -443. -403. -374. 40. -134. -21. 138. 54. 3. 133.
      -281. 52. 301. 331. 308.</_>
    <_>
      -65. -68. -9. -403. -374. -379. -134. -21. 96. 54. 3. 160. -281.
      52. 281. 331. 308. 409.</_>
    <_>
      -68. -9. -6. -374. -379. -402. -21. 96. -3. 3. 160. 291. 52. 281.
      -16. 308. 409. 450.</_>
    <_>
      -9. -6. -3. -379. -402. -417. 96. -3. -46. 160. 291. 266. 281.
      -16. -70. 409. 450. 438.</_>
    <_>
      -6. -3. 17. -402. -417. -429. -3. -46. 16. 291. 266. 234. -16.
      -70. 3. 450. 438. 433.</_>
    <_>
      -3. 17. -125. -417. -429. -313. -46. 16. -87. 266. 234. 155. -70.
      3. -292. 438. 433. 294.</_>
    <_>
      17. -125. -120. -429. -313. -96. 16. -87. 17. 234. 155. 113. 3.
      -292. 92. 433. 294. 206.</_>
    <_>
      -125. -120. 1. -313. -96. 1. -87. 17. 74. 155. 113. 226. -292. 92.
      235. 294. 206. 329.</_>
    <_>
      -71. 134. 48. 91. 266. 354. 69. 309. 97. 35. 175. 311. 70. 338.
      98. -56. -166. -272.</_>
    <_>
      134. 48. 40. 266. 354. 334. 309. 97. -3. 175. 311. 337. 338. 98.
      -36. -166. -272. -330.</_>
    <_>
      48. 40. -56. 354. 334. 254. 97. -3. -102. 311. 337. 328. 98. -36.
      -52. -272. -330. -304.</_>
    <_>
      9. 166. 458. 45. -4. -44. -20. 107. 438. 70. 31. -8. -55. 100.
      362. 45. 42. -2.</_>
    <_>
      166. 458. 300. -4. -44. -16. 107. 438. 352. 31. -8. -4. 100. 362.
      339. 42. -2. -95.</_>
    <_>
      458. 300. -64. -44. -16. -26. 438. 352. -177. -8. -4. -55. 362.
      339. -188. -2. -95. -68.</_>
    <_>
      300. -64. -403. -16. -26. -69. 352. -177. -395. -4. -55. -117.
      339. -188. -390. -95. -68. -12.</_>
    <_>
      -308. -368. 50. -34. -86. -218. -246. -298. 68. -60. 124. 344.
      -167. -89. 159. -45. 59. 139.</_>
    <_>
      -368. 50. -11. -86. -218. -271. -298. 68. -43. 124. 344. 383. -89.
      159. -78. 59. 139. 156.</_>
    <_>
      -23. -44. 101. -295. -236. -31. 45. -66. 248. 323. 310. 230. 93.
      -138. 101. 49. 38. -101.</_>
    <_>
      -44. 101. 40. -236. -31. 138. -66. 248. 133. 310. 230. 301. -138.
      101. 216. 38. -101. -236.</_>
    <_>
      40. -134. -21. 138. 54. 3. 133. -281. 52. 301. 331. 308. 216.
      -238. 67. -236. -140. -59.</_>
    <_>
      -134. -21. 96. 54. 3. 160. -281. 52. 281. 331. 308. 409. -238. 67.
      235. -140. -59. -191.</_>
    <_>
      -21. 96. -3. 3. 160. 291. 52. 281. -16. 308. 409. 450. 67. 235.
      -46. -59. -191. -308.</_>
    <_>
      96. -3. -46. 160. 291. 266. 281. -16. -70. 409. 450. 438. 235.
      -46. -22. -191. -308. -278.</_>
    <_>
      -3. -46. 16. 291. 266. 234. -16. -70. 3. 450. 438. 433. -46. -22.
      -24. -308. -278. -252.</_>
    <_>
      -46. 16. -87. 266. 234. 155. -70. 3. -292. 438. 433. 294. -22.
      -24. -327. -278. -252. -175.</_>
    <_>
      16. -87. 17. 234. 155. 113. 3. -292. 92. 433. 294. 206. -24. -327.
      99. -252. -175. -115.</_>
    <_>
      -87. 17. 74. 155. 113. 226. -292. 92. 235. 294. 206. 329. -327.
      99. 254. -175. -115. -212.</_>
    <_>
      74. 30. -13. 226. 328. 353. 235. 11. -31. 329. 369. 307. 254. -72.
      -42. -212. -316. -348.</_>
    <_>
      30. -13. -38. 328. 353. 308. 11. -31. -101. 369. 307. 271. -72.
      -42. -83. -316. -348. -305.</_>
    <_>
      69. 309. 97. 35. 175. 311. 70. 338. 98. -56. -166. -272. -43. 152.
      19. -45. -234. -393.</_>
    <_>
      309. 97. -3. 175. 311. 337. 338. 98. -36. -166. -272. -330. 152.
      19. -29. -234. -393. -407.</_>
    <_>
      97. -3. -102. 311. 337. 328. 98. -36. -52. -272. -330. -304. 19.
      -29. -6. -393. -407. -380.</_>
    <_>
      -3. -102. -54. 337. 328. 334. -36. -52. -41. -330. -304. -247.
      -29. -6. -35. -407. -380. -385.</_>
    <_>
      -54. 111. -60. 334. 273. 130. -41. -3. -128. -247. -287. -326.
      -35. -62. -65. -385. -398. -355.</_>
    <_>
      107. 438. 352. 31. -8. -4. 100. 362. 339. 42. -2. -95. -7. 232.
      322. 71. -122. -176.</_>
    <_>
      438. 352. -177. -8. -4. -55. 362. 339. -188. -2. -95. -68. 232.
      322. 19. -122. -176. -13.</_>
    <_>
      352. -177. -395. -4. -55. -117. 339. -188. -390. -95. -68. -12.
      322. 19. -296. -176. -13. 232.</_>
    <_>
      -177. -395. -200. -55. -117. -30. -188. -390. -119. -68. -12. -13.
      19. -296. -95. -13. 232. 351.</_>
    <_>
      -395. -200. 27. -117. -30. 57. -390. -119. 32. -12. -13. -14.
      -296. -95. 16. 232. 351. 360.</_>
    <_>
      -298. 68. -43. 124. 344. 383. -89. 159. -78. 59. 139. 156. -134.
      77. -54. -110. -317. -392.</_>
    <_>
      68. -43. 68. 344. 383. 336. 159. -78. 2. 139. 156. 102. 77. -54.
      -38. -317. -392. -354.</_>
    <_>
      -66. 248. 133. 310. 230. 301. -138. 101. 216. 38. -101. -236. -87.
      -16. 117. -315. -242. -323.</_>
    <_>
      248. 133. -281. 230. 301. 331. 101. 216. -238. -101. -236. -140.
      -16. 117. -77. -242. -323. -357.</_>
    <_>
      133. -281. 52. 301. 331. 308. 216. -238. 67. -236. -140. -59. 117.
      -77. 9. -323. -357. -335.</_>
    <_>
      -281. 52. 281. 331. 308. 409. -238. 67. 235. -140. -59. -191. -77.
      9. 57. -357. -335. -439.</_>
    <_>
      52. 281. -16. 308. 409. 450. 67. 235. -46. -59. -191. -308. 9. 57.
      -31. -335. -439. -485.</_>
    <_>
      281. -16. -70. 409. 450. 438. 235. -46. -22. -191. -308. -278. 57.
      -31. 1. -439. -485. -477.</_>
    <_>
      -16. -70. 3. 450. 438. 433. -46. -22. -24. -308. -278. -252. -31.
      1. -23. -485. -477. -479.</_>
    <_>
      -70. 3. -292. 438. 433. 294. -22. -24. -327. -278. -252. -175. 1.
      -23. -115. -477. -479. -343.</_>
    <_>
      3. -292. 92. 433. 294. 206. -24. -327. 99. -252. -175. -115. -23.
      -115. 47. -479. -343. -243.</_>
    <_>
      -292. 92. 235. 294. 206. 329. -327. 99. 254. -175. -115. -212.
      -115. 47. 98. -343. -243. -354.</_>
    <_>
      235. 11. -31. 329. 369. 307. 254. -72. -42. -212. -316. -348. 98.
      -55. -23. -354. -389. -321.</_>
    <_>
      338. 98. -36. -166. -272. -330. 152. 19. -29. -234. -393. -407.
      16. 0. -9. -40. -36. -21.</_>
    <_>
      100. 362. 339. 42. -2. -95. -7. 232. 322. 71. -122. -176. -256.
      168. 359. 158. 38. 65.</_>
    <_>
      362. 339. -188. -2. -95. -68. 232. 322. 19. -122. -176. -13. 168.
      359. 188. 38. 65. 108.</_>
    <_>
      339. -188. -390. -95. -68. -12. 322. 19. -296. -176. -13. 232.
      359. 188. -103. 65. 108. 225.</_>
    <_>
      -188. -390. -119. -68. -12. -13. 19. -296. -95. -13. 232. 351.
      188. -103. -41. 108. 225. 353.</_>
    <_>
      -390. -119. 32. -12. -13. -14. -296. -95. 16. 232. 351. 360. -103.
      -41. 0. 225. 353. 382.</_>
    <_>
      -119. 32. 7. -13. -14. 5. -95. 16. 31. 351. 360. 349. -41. 0. 23.
      353. 382. 369.</_>
    <_>
      -11. -31. 34. 99. 169. 228. 32. 26. 54. 356. 386. 404. 13. 30. 24.
      267. 222. 178.</_>
    <_>
      -31. 34. 39. 169. 228. 281. 26. 54. 66. 386. 404. 398. 30. 24. 28.
      222. 178. 116.</_>
    <_>
      34. 39. -32. 228. 281. 280. 54. 66. -106. 404. 398. 352. 24. 28.
      -158. 178. 116. 72.</_>
    <_>
      -32. -90. -46. 280. 162. 36. -106. -273. -143. 352. 213. 59. -158.
      -381. -218. 72. 51. 22.</_>
    <_>
      -238. 67. 235. -140. -59. -191. -77. 9. 57. -357. -335. -439. -14.
      -23. -14. 22. 31. 32.</_>
    <_>
      67. 235. -46. -59. -191. -308. 9. 57. -31. -335. -439. -485. -23.
      -14. -13. 31. 32. 25.</_>
    <_>
      235. -46. -22. -191. -308. -278. 57. -31. 1. -439. -485. -477.
      -14. -13. -15. 32. 25. 19.</_>
    <_>
      -46. -22. -24. -308. -278. -252. -31. 1. -23. -485. -477. -479.
      -13. -15. -13. 25. 19. 15.</_>
    <_>
      -22. -24. -327. -278. -252. -175. 1. -23. -115. -477. -479. -343.
      -15. -13. 9. 19. 15. 13.</_>
    <_>
      -24. -327. 99. -252. -175. -115. -23. -115. 47. -479. -343. -243.
      -13. 9. 16. 15. 13. 6.</_>
    <_>
      -327. 99. 254. -175. -115. -212. -115. 47. 98. -343. -243. -354.
      9. 16. 7. 13. 6. -5.</_>
    <_>
      42. 69. 3. 172. 255. 329. 183. 115. 33. 287. 391. 393. 347. 51.
      18. 97. 93. 12.</_>
    <_>
      69. 3. -22. 255. 329. 378. 115. 33. 5. 391. 393. 401. 51. 18. 7.
      93. 12. -9.</_>
    <_>
      3. -22. -22. 329. 378. 342. 33. 5. -156. 393. 401. 330. 18. 7.
      -166. 12. -9. 54.</_>
    <_>
      -22. -22. -19. 378. 342. 295. 5. -156. -8. 401. 330. 254. 7. -166.
      -9. -9. 54. 119.</_>
    <_>
      -22. -19. -132. 342. 295. 252. -156. -8. -173. 330. 254. 267.
      -166. -9. -97. 54. 119. 181.</_>
    <_>
      -132. -7. 232. 252. 71. -122. -173. -256. 168. 267. 158. 38. -97.
      -388. 81. 181. 234. 135.</_>
    <_>
      -7. 232. 322. 71. -122. -176. -256. 168. 359. 158. 38. 65. -388.
      81. 301. 234. 135. -37.</_>
    <_>
      232. 322. 19. -122. -176. -13. 168. 359. 188. 38. 65. 108. 81.
      301. 177. 135. -37. -149.</_>
    <_>
      322. 19. -296. -176. -13. 232. 359. 188. -103. 65. 108. 225. 301.
      177. 84. -37. -149. -90.</_>
    <_>
      19. -296. -95. -13. 232. 351. 188. -103. -41. 108. 225. 353. 177.
      84. -8. -149. -90. 2.</_>
    <_>
      -296. -95. 16. 232. 351. 360. -103. -41. 0. 225. 353. 382. 84. -8.
      -3. -90. 2. 3.</_>
    <_>
      -95. 16. 31. 351. 360. 349. -41. 0. 23. 353. 382. 369. -8. -3. 11.
      2. 3. 1.</_>
    <_>
      16. 31. 45. 360. 349. 349. 0. 23. 11. 382. 369. 327. -3. 11. -24.
      3. 1. -4.</_>
    <_>
      66. -106. -273. 398. 352. 213. 28. -158. -381. 116. 72. 51. -6.
      -183. -417. -2. -17. -57.</_>
    <_>
      -134. 77. -54. -110. -317. -392. -266. -83. -18. 8. -77. -126.
      -290. -169. -7. 50. 25. -1.</_>
    <_>
      51. 183. 115. 79. 287. 391. 175. 347. 51. 17. 97. 93. 123. 389.
      -5. 95. 5. -5.</_>
    <_>
      183. 115. 33. 287. 391. 393. 347. 51. 18. 97. 93. 12. 389. -5. -2.
      5. -5. 0.</_>
    <_>
      115. 33. 5. 391. 393. 401. 51. 18. 7. 93. 12. -9. -5. -2. 8. -5.
      0. 2.</_>
    <_>
      -173. -256. 168. 267. 158. 38. -97. -388. 81. 181. 234. 135. -16.
      -420. -93. 138. 134. 27.</_>
    <_>
      359. 188. -103. 65. 108. 225. 301. 177. 84. -37. -149. -90. 147.
      160. 268. -129. -188. -80.</_>
    <_>
      -158. -381. -218. 72. 51. 22. -183. -417. -239. -17. -57. -85.
      -178. -349. -170. -346. -233. -68.</_>
    <_>
      175. 347. 51. 17. 97. 93. 123. 389. -5. 95. 5. -5. 150. 235. -135.
      -62. -99. -373.</_>
    <_>
      347. 51. 18. 97. 93. 12. 389. -5. -2. 5. -5. 0. 235. -135. 3. -99.
      -373. -503.</_>
    <_>
      7. -166. -9. -9. 54. 119. 8. -47. -6. 2. 59. 116. 8. -10. -2.
      -500. -520. -536.</_>
    <_>
      -166. -9. -97. 54. 119. 181. -47. -6. -16. 59. 116. 138. -10. -2.
      5. -520. -536. -533.</_>
    <_>
      -9. -97. -388. 119. 181. 234. -6. -16. -420. 116. 138. 134. -2. 5.
      -326. -536. -533. -414.</_>
    <_>
      -97. -388. 81. 181. 234. 135. -16. -420. -93. 138. 134. 27. 5.
      -326. -81. -533. -414. -201.</_>
    <_>
      -388. 81. 301. 234. 135. -37. -420. -93. 147. 134. 27. -129. -326.
      -81. 92. -414. -201. -88.</_>
    <_>
      301. 177. 84. -37. -149. -90. 147. 160. 268. -129. -188. -80. 92.
      92. 231. -88. -152. -365.</_>
    <_>
      -14. 18. -7. -6. 0. 1. -65. -18. -17. -201. -294. -341. -117. -90.
      4. -415. -446. -450.</_>
    <_>
      -6. -183. -417. -2. -17. -57. -15. -178. -349. -357. -346. -233.
      -21. -103. -124. -419. -361. -174.</_>
    <_>
      -183. -417. -239. -17. -57. -85. -178. -349. -170. -346. -233.
      -68. -103. -124. -32. -361. -174. 24.</_>
    <_>
      108. 30. 67. 116. 248. 181. 329. 72. -108. 191. 322. 256. 413. 50.
      -149. 35. -34. -31.</_>
    <_>
      123. 389. -5. 95. 5. -5. 150. 235. -135. -62. -99. -373. 323.
      -102. -410. 73. -54. -392.</_>
    <_>
      389. -5. -2. 5. -5. 0. 235. -135. 3. -99. -373. -503. -102. -410.
      38. -54. -392. -502.</_>
    <_>
      -5. -2. 8. -5. 0. 2. -135. 3. 8. -373. -503. -500. -410. 38. 84.
      -392. -502. -394.</_>
    <_>
      -2. 8. -47. 0. 2. 59. 3. 8. -10. -503. -500. -520. 38. 84. 70.
      -502. -394. -218.</_>
    <_>
      8. -47. -6. 2. 59. 116. 8. -10. -2. -500. -520. -536. 84. 70. 58.
      -394. -218. -62.</_>
    <_>
      -47. -6. -16. 59. 116. 138. -10. -2. 5. -520. -536. -533. 70. 58.
      -101. -218. -62. -111.</_>
    <_>
      -6. -16. -420. 116. 138. 134. -2. 5. -326. -536. -533. -414. 58.
      -101. -218. -62. -111. -228.</_>
    <_>
      -16. -420. -93. 138. 134. 27. 5. -326. -81. -533. -414. -201.
      -101. -218. 43. -111. -228. -209.</_>
    <_>
      -420. -93. 147. 134. 27. -129. -326. -81. 92. -414. -201. -88.
      -218. 43. 127. -228. -209. -163.</_>
    <_>
      268. -15. -17. -80. 5. -17. 231. -22. -27. -365. -494. -489. 80.
      -21. -108. -214. -235. -320.</_>
    <_>
      -15. -17. -13. 5. -17. -53. -22. -27. -44. -494. -489. -494. -21.
      -108. -25. -235. -320. -377.</_>
    <_>
      -17. -13. -64. -17. -53. -112. -27. -44. -57. -489. -494. -459.
      -108. -25. 83. -320. -377. -253.</_>
    <_>
      -13. -64. -65. -53. -112. -201. -44. -57. -117. -494. -459. -415.
      -25. 83. 43. -377. -253. 3.</_>
    <_>
      -64. -65. -18. -112. -201. -294. -57. -117. -90. -459. -415. -446.
      83. 43. -26. -253. 3. 258.</_>
    <_>
      -65. -18. -17. -201. -294. -341. -117. -90. 4. -415. -446. -450.
      43. -26. 9. 3. 258. 331.</_>
    <_>
      -18. -17. -15. -294. -341. -357. -90. 4. -21. -446. -450. -419.
      -26. 9. -122. 258. 331. 204.</_>
    <_>
      -17. -15. -178. -341. -357. -346. 4. -21. -103. -450. -419. -361.
      9. -122. -101. 331. 204. 47.</_>
    <_>
      -15. -178. -349. -357. -346. -233. -21. -103. -124. -419. -361.
      -174. -122. -101. 21. 204. 47. 7.</_>
    <_>
      3. 1. -3. -19. -17. -13. 120. 78. 1. 212. 404. 481. 356. 75. -11.
      346. 387. 295.</_>
    <_>
      1. -3. -1. -17. -13. -9. 78. 1. -120. 404. 481. 362. 75. -11.
      -183. 387. 295. 339.</_>
    <_>
      -3. -1. -1. -13. -9. -7. 1. -120. -67. 481. 362. 175. -11. -183.
      -115. 295. 339. 415.</_>
    <_>
      -1. -1. 0. -9. -7. -4. -120. -67. 132. 362. 175. 238. -183. -115.
      287. 339. 415. 459.</_>
    <_>
      -1. 0. 3. -7. -4. -1. -67. 132. 30. 175. 238. 394. -115. 287. -28.
      415. 459. 400.</_>
    <_>
      0. 3. 192. -4. -1. 0. 132. 30. 60. 238. 394. 288. 287. -28. -186.
      459. 400. 202.</_>
    <_>
      3. 192. 215. -1. 0. 1. 30. 60. 140. 394. 288. 80. -28. -186. 22.
      400. 202. 46.</_>
    <_>
      97. 329. 72. 35. 191. 322. 170. 413. 50. 34. 35. -34. 261. 321.
      -65. 63. 61. -77.</_>
    <_>
      266. 16. 150. -124. -178. -62. 148. 101. 323. -90. -69. 73. 88.
      211. 396. -12. 17. 58.</_>
    <_>
      16. 150. 235. -178. -62. -99. 101. 323. -102. -69. 73. -54. 211.
      396. -325. 17. 58. 35.</_>
    <_>
      150. 235. -135. -62. -99. -373. 323. -102. -410. 73. -54. -392.
      396. -325. -549. 58. 35. 11.</_>
    <_>
      235. -135. 3. -99. -373. -503. -102. -410. 38. -54. -392. -502.
      -325. -549. 101. 35. 11. 45.</_>
    <_>
      -135. 3. 8. -373. -503. -500. -410. 38. 84. -392. -502. -394.
      -549. 101. 242. 11. 45. 158.</_>
    <_>
      3. 8. -10. -503. -500. -520. 38. 84. 70. -502. -394. -218. 101.
      242. 264. 45. 158. 334.</_>
    <_>
      8. -10. -2. -500. -520. -536. 84. 70. 58. -394. -218. -62. 242.
      264. 162. 158. 334. 476.</_>
    <_>
      -10. -2. 5. -520. -536. -533. 70. 58. -101. -218. -62. -111. 264.
      162. -244. 334. 476. 486.</_>
    <_>
      -2. 5. -326. -536. -533. -414. 58. -101. -218. -62. -111. -228.
      162. -244. -359. 476. 486. 319.</_>
    <_>
      5. -326. -81. -533. -414. -201. -101. -218. 43. -111. -228. -209.
      -244. -359. -49. 486. 319. 67.</_>
    <_>
      -326. -81. 92. -414. -201. -88. -218. 43. 127. -228. -209. -163.
      -359. -49. 136. 319. 67. -62.</_>
    <_>
      231. -22. -27. -365. -494. -489. 80. -21. -108. -214. -235. -320.
      198. -32. -300. 170. 298. 180.</_>
    <_>
      -22. -27. -44. -494. -489. -494. -21. -108. -25. -235. -320. -377.
      -32. -300. 26. 298. 180. 96.</_>
    <_>
      -27. -44. -57. -489. -494. -459. -108. -25. 83. -320. -377. -253.
      -300. 26. 196. 180. 96. 136.</_>
    <_>
      -44. -57. -117. -494. -459. -415. -25. 83. 43. -377. -253. 3. 26.
      196. 289. 96. 136. 239.</_>
    <_>
      -57. -117. -90. -459. -415. -446. 83. 43. -26. -253. 3. 258. 196.
      289. 151. 136. 239. 407.</_>
    <_>
      -117. -90. 4. -415. -446. -450. 43. -26. 9. 3. 258. 331. 289. 151.
      -66. 239. 407. 436.</_>
    <_>
      -90. 4. -21. -446. -450. -419. -26. 9. -122. 258. 331. 204. 151.
      -66. -335. 407. 436. 275.</_>
    <_>
      4. -21. -103. -450. -419. -361. 9. -122. -101. 331. 204. 47. -66.
      -335. -230. 436. 275. 90.</_>
    <_>
      -21. -103. -124. -419. -361. -174. -122. -101. 21. 204. 47. 7.
      -335. -230. 29. 275. 90. 9.</_>
    <_>
      -6. 1. 2. 2. 5. 8. 44. 55. 59. 176. 277. 385. 174. 155. 141. 230.
      359. 433.</_>
    <_>
      1. 2. -2. 5. 8. 8. 55. 59. 17. 277. 385. 461. 155. 141. 42. 359.
      433. 464.</_>
    <_>
      2. -2. -6. 8. 8. 4. 59. 17. -85. 385. 461. 405. 141. 42. -258.
      433. 464. 372.</_>
    <_>
      -2. -6. 2. 8. 4. 4. 17. -85. -70. 461. 405. 254. 42. -258. -214.
      464. 372. 206.</_>
    <_>
      -6. 2. 60. 4. 4. 54. -85. -70. 182. 405. 254. 254. -258. -214.
      237. 372. 206. 117.</_>
    <_>
      -2. 43. 120. 8. 53. 212. -83. 72. 356. 337. 240. 346. -207. -27.
      365. 131. 5. -191.</_>
    <_>
      43. 120. 78. 53. 212. 404. 72. 356. 75. 240. 346. 387. -27. 365.
      -76. 5. -191. -374.</_>
    <_>
      120. 78. 1. 212. 404. 481. 356. 75. -11. 346. 387. 295. 365. -76.
      -31. -191. -374. -453.</_>
    <_>
      78. 1. -120. 404. 481. 362. 75. -11. -183. 387. 295. 339. -76.
      -31. -15. -374. -453. -349.</_>
    <_>
      1. -120. -67. 481. 362. 175. -11. -183. -115. 295. 339. 415. -31.
      -15. -29. -453. -349. -171.</_>
    <_>
      -120. -67. 132. 362. 175. 238. -183. -115. 287. 339. 415. 459.
      -15. -29. 181. -349. -171. -235.</_>
    <_>
      -67. 132. 30. 175. 238. 394. -115. 287. -28. 415. 459. 400. -29.
      181. -134. -171. -235. -388.</_>
    <_>
      132. 30. 60. 238. 394. 288. 287. -28. -186. 459. 400. 202. 181.
      -134. -169. -235. -388. -279.</_>
    <_>
      30. 60. 140. 394. 288. 80. -28. -186. 22. 400. 202. 46. -134.
      -169. -3. -388. -279. -131.</_>
    <_>
      148. 101. 323. -90. -69. 73. 88. 211. 396. -12. 17. 58. 77. 197.
      397. -55. -109. -163.</_>
    <_>
      101. 323. -102. -69. 73. -54. 211. 396. -325. 17. 58. 35. 197.
      397. -253. -109. -163. -67.</_>
    <_>
      323. -102. -410. 73. -54. -392. 396. -325. -549. 58. 35. 11. 397.
      -253. -526. -163. -67. 52.</_>
    <_>
      -102. -410. 38. -54. -392. -502. -325. -549. 101. 35. 11. 45.
      -253. -526. 155. -67. 52. 95.</_>
    <_>
      -410. 38. 84. -392. -502. -394. -549. 101. 242. 11. 45. 158. -526.
      155. 342. 52. 95. 136.</_>
    <_>
      38. 84. 70. -502. -394. -218. 101. 242. 264. 45. 158. 334. 155.
      342. 321. 95. 136. 117.</_>
    <_>
      84. 70. 58. -394. -218. -62. 242. 264. 162. 158. 334. 476. 342.
      321. 165. 136. 117. 35.</_>
    <_>
      70. 58. -101. -218. -62. -111. 264. 162. -244. 334. 476. 486. 321.
      165. -288. 117. 35. -16.</_>
    <_>
      58. -101. -218. -62. -111. -228. 162. -244. -359. 476. 486. 319.
      165. -288. -479. 35. -16. -13.</_>
    <_>
      -101. -218. 43. -111. -228. -209. -244. -359. -49. 486. 319. 67.
      -288. -479. -137. -16. -13. 31.</_>
    <_>
      -218. 43. 127. -228. -209. -163. -359. -49. 136. 319. 67. -62.
      -479. -137. 119. -13. 31. 55.</_>
    <_>
      80. -21. -108. -214. -235. -320. 198. -32. -300. 170. 298. 180.
      343. -44. -408. 27. 32. 30.</_>
    <_>
      -21. -108. -25. -235. -320. -377. -32. -300. 26. 298. 180. 96.
      -44. -408. 69. 32. 30. 49.</_>
    <_>
      -108. -25. 83. -320. -377. -253. -300. 26. 196. 180. 96. 136.
      -408. 69. 207. 30. 49. 63.</_>
    <_>
      -25. 83. 43. -377. -253. 3. 26. 196. 289. 96. 136. 239. 69. 207.
      350. 49. 63. 32.</_>
    <_>
      83. 43. -26. -253. 3. 258. 196. 289. 151. 136. 239. 407. 207. 350.
      225. 63. 32. -1.</_>
    <_>
      43. -26. 9. 3. 258. 331. 289. 151. -66. 239. 407. 436. 350. 225.
      -183. 32. -1. -73.</_>
    <_>
      -26. 9. -122. 258. 331. 204. 151. -66. -335. 407. 436. 275. 225.
      -183. -438. -1. -73. -132.</_>
    <_>
      9. -122. -101. 331. 204. 47. -66. -335. -230. 436. 275. 90. -183.
      -438. -239. -73. -132. -59.</_>
    <_>
      44. 55. 59. 176. 277. 385. 174. 155. 141. 230. 359. 433. 209. 149.
      114. -175. -275. -382.</_>
    <_>
      55. 59. 17. 277. 385. 461. 155. 141. 42. 359. 433. 464. 149. 114.
      25. -275. -382. -457.</_>
    <_>
      59. 17. -85. 385. 461. 405. 141. 42. -258. 433. 464. 372. 114. 25.
      -275. -382. -457. -399.</_>
    <_>
      17. -85. -70. 461. 405. 254. 42. -258. -214. 464. 372. 206. 25.
      -275. -212. -457. -399. -248.</_>
    <_>
      -85. -70. 182. 405. 254. 254. -258. -214. 237. 372. 206. 117.
      -275. -212. 141. -399. -248. -253.</_>
    <_>
      -70. 182. 58. 254. 254. 386. -214. 237. 111. 206. 117. 93. -212.
      141. 50. -248. -253. -386.</_>
    <_>
      182. 58. -170. 254. 386. 376. 237. 111. -238. 117. 93. 88. 141.
      50. -171. -253. -386. -375.</_>
    <_>
      58. -170. -34. 386. 376. 272. 111. -238. -84. 93. 88. 74. 50.
      -171. -64. -386. -375. -274.</_>
    <_>
      -170. -34. 28. 376. 272. 266. -238. -84. 84. 88. 74. 86. -171.
      -64. 80. -375. -274. -270.</_>
    <_>
      58. -83. 72. 358. 337. 240. 150. -207. -27. 142. 131. 5. 118.
      -164. -98. -362. -340. -242.</_>
    <_>
      -83. 72. 356. 337. 240. 346. -207. -27. 365. 131. 5. -191. -164.
      -98. 133. -340. -242. -349.</_>
    <_>
      72. 356. 75. 240. 346. 387. -27. 365. -76. 5. -191. -374. -98.
      133. -69. -242. -349. -391.</_>
    <_>
      356. 75. -11. 346. 387. 295. 365. -76. -31. -191. -374. -453. 133.
      -69. -25. -349. -391. -299.</_>
    <_>
      75. -11. -183. 387. 295. 339. -76. -31. -15. -374. -453. -349.
      -69. -25. 39. -391. -299. -343.</_>
    <_>
      -11. -183. -115. 295. 339. 415. -31. -15. -29. -453. -349. -171.
      -25. 39. 19. -299. -343. -419.</_>
    <_>
      -183. -115. 287. 339. 415. 459. -15. -29. 181. -349. -171. -235.
      39. 19. 24. -343. -419. -464.</_>
    <_>
      -115. 287. -28. 415. 459. 400. -29. 181. -134. -171. -235. -388.
      19. 24. -72. -419. -464. -406.</_>
    <_>
      287. -28. -186. 459. 400. 202. 181. -134. -169. -235. -388. -279.
      24. -72. 79. -464. -406. -205.</_>
    <_>
      -28. -186. 22. 400. 202. 46. -134. -169. -3. -388. -279. -131.
      -72. 79. 57. -406. -205. -45.</_>
    <_>
      88. 211. 396. -12. 17. 58. 77. 197. 397. -55. -109. -163. 74. 109.
      401. -26. -63. -93.</_>
    <_>
      211. 396. -325. 17. 58. 35. 197. 397. -253. -109. -163. -67. 109.
      401. -105. -63. -93. -37.</_>
    <_>
      396. -325. -549. 58. 35. 11. 397. -253. -526. -163. -67. 52. 401.
      -105. -463. -93. -37. 55.</_>
    <_>
      -325. -549. 101. 35. 11. 45. -253. -526. 155. -67. 52. 95. -105.
      -463. 202. -37. 55. 122.</_>
    <_>
      -549. 101. 242. 11. 45. 158. -526. 155. 342. 52. 95. 136. -463.
      202. 367. 55. 122. 153.</_>
    <_>
      101. 242. 264. 45. 158. 334. 155. 342. 321. 95. 136. 117. 202.
      367. 252. 122. 153. 128.</_>
    <_>
      242. 264. 162. 158. 334. 476. 342. 321. 165. 136. 117. 35. 367.
      252. 76. 153. 128. 52.</_>
    <_>
      264. 162. -244. 334. 476. 486. 321. 165. -288. 117. 35. -16. 252.
      76. -375. 128. 52. -73.</_>
    <_>
      162. -244. -359. 476. 486. 319. 165. -288. -479. 35. -16. -13. 76.
      -375. -464. 52. -73. -148.</_>
    <_>
      -244. -359. -49. 486. 319. 67. -288. -479. -137. -16. -13. 31.
      -375. -464. 30. -73. -148. -10.</_>
    <_>
      -359. -49. 136. 319. 67. -62. -479. -137. 119. -13. 31. 55. -464.
      30. 85. -148. -10. 99.</_>
    <_>
      198. -32. -300. 170. 298. 180. 343. -44. -408. 27. 32. 30. 275.
      -45. -311. -103. -177. -79.</_>
    <_>
      196. 289. 151. 136. 239. 407. 207. 350. 225. 63. 32. -1. 199. 305.
      216. 47. 25. 4.</_>
    <_>
      289. 151. -66. 239. 407. 436. 350. 225. -183. 32. -1. -73. 305.
      216. -316. 25. 4. -66.</_>
    <_>
      151. -66. -335. 407. 436. 275. 225. -183. -438. -1. -73. -132.
      216. -316. -433. 4. -66. -135.</_>
    <_>
      -66. -335. -230. 436. 275. 90. -183. -438. -239. -73. -132. -59.
      -316. -433. -104. -66. -135. -68.</_>
    <_>
      -335. -230. 29. 275. 90. 9. -438. -239. 23. -132. -59. 7. -433.
      -104. 27. -135. -68. 5.</_>
    <_>
      33. 11. 242. 1. 5. 22. 36. 128. 270. 2. 118. 246. 39. 372. 258.
      15. 146. 250.</_>
    <_>
      11. 242. 272. 5. 22. 38. 128. 270. 159. 118. 246. 145. 372. 258.
      -84. 146. 250. 96.</_>
    <_>
      -99. 174. 155. 59. 230. 359. -19. 209. 149. -119. -175. -275. -90.
      78. 47. -88. -234. -367.</_>
    <_>
      174. 155. 141. 230. 359. 433. 209. 149. 114. -175. -275. -382. 78.
      47. 31. -234. -367. -445.</_>
    <_>
      155. 141. 42. 359. 433. 464. 149. 114. 25. -275. -382. -457. 47.
      31. 3. -367. -445. -475.</_>
    <_>
      141. 42. -258. 433. 464. 372. 114. 25. -275. -382. -457. -399. 31.
      3. -97. -445. -475. -377.</_>
    <_>
      42. -258. -214. 464. 372. 206. 25. -275. -212. -457. -399. -248.
      3. -97. -73. -475. -377. -211.</_>
    <_>
      -258. -214. 237. 372. 206. 117. -275. -212. 141. -399. -248. -253.
      -97. -73. 31. -377. -211. -177.</_>
    <_>
      -214. 237. 111. 206. 117. 93. -212. 141. 50. -248. -253. -386.
      -73. 31. -1. -211. -177. -205.</_>
    <_>
      -207. -27. 365. 131. 5. -191. -164. -98. 133. -340. -242. -349.
      -41. -41. 7. -143. -61. -23.</_>
    <_>
      -27. 365. -76. 5. -191. -374. -98. 133. -69. -242. -349. -391.
      -41. 7. 5. -61. -23. -33.</_>
    <_>
      365. -76. -31. -191. -374. -453. 133. -69. -25. -349. -391. -299.
      7. 5. -7. -23. -33. -33.</_>
    <_>
      -76. -31. -15. -374. -453. -349. -69. -25. 39. -391. -299. -343.
      5. -7. -10. -33. -33. -20.</_>
    <_>
      -31. -15. -29. -453. -349. -171. -25. 39. 19. -299. -343. -419.
      -7. -10. 0. -33. -20. -12.</_>
    <_>
      -15. -29. 181. -349. -171. -235. 39. 19. 24. -343. -419. -464.
      -10. 0. -1. -20. -12. -11.</_>
    <_>
      -29. 181. -134. -171. -235. -388. 19. 24. -72. -419. -464. -406.
      0. -1. 8. -12. -11. -14.</_>
    <_>
      181. -134. -169. -235. -388. -279. 24. -72. 79. -464. -406. -205.
      -1. 8. 199. -11. -14. -15.</_>
    <_>
      -134. -169. -3. -388. -279. -131. -72. 79. 57. -406. -205. -45. 8.
      199. 163. -14. -15. 51.</_>
    <_>
      77. 197. 397. -55. -109. -163. 74. 109. 401. -26. -63. -93. 63.
      16. 348. 113. 46. -70.</_>
    <_>
      397. -253. -526. -163. -67. 52. 401. -105. -463. -93. -37. 55.
      348. -62. -310. -70. -136. -32.</_>
    <_>
      -253. -526. 155. -67. 52. 95. -105. -463. 202. -37. 55. 122. -62.
      -310. 245. -136. -32. 97.</_>
    <_>
      -526. 155. 342. 52. 95. 136. -463. 202. 367. 55. 122. 153. -310.
      245. 346. -32. 97. 88.</_>
    <_>
      155. 342. 321. 95. 136. 117. 202. 367. 252. 122. 153. 128. 245.
      346. 206. 97. 88. 46.</_>
    <_>
      342. 321. 165. 136. 117. 35. 367. 252. 76. 153. 128. 52. 346. 206.
      -50. 88. 46. -50.</_>
    <_>
      321. 165. -288. 117. 35. -16. 252. 76. -375. 128. 52. -73. 206.
      -50. -455. 46. -50. -131.</_>
    <_>
      165. -288. -479. 35. -16. -13. 76. -375. -464. 52. -73. -148. -50.
      -455. -394. -50. -131. -66.</_>
    <_>
      -288. -479. -137. -16. -13. 31. -375. -464. 30. -73. -148. -10.
      -455. -394. 192. -131. -66. 28.</_>
    <_>
      225. -183. -438. -1. -73. -132. 216. -316. -433. 4. -66. -135.
      215. -412. -449. 5. -22. -65.</_>
    <_>
      -183. -438. -239. -73. -132. -59. -316. -433. -104. -66. -135.
      -68. -412. -449. -17. -22. -65. -61.</_>
    <_>
      36. 128. 270. 2. 118. 246. 39. 372. 258. 15. 146. 250. 40. 417.
      222. 16. -69. -164.</_>
    <_>
      128. 270. 159. 118. 246. 145. 372. 258. -84. 146. 250. 96. 417.
      222. -129. -69. -164. -91.</_>
    <_>
      270. 159. 0. 246. 145. 20. 258. -84. 4. 250. 96. -18. 222. -129.
      31. -164. -91. 5.</_>
    <_>
      149. 114. 25. -275. -382. -457. 47. 31. 3. -367. -445. -475. -2.
      1. 3. -6. -7. -7.</_>
    <_>
      114. 25. -275. -382. -457. -399. 31. 3. -97. -445. -475. -377. 1.
      3. 1. -7. -7. -7.</_>
    <_>
      25. -275. -212. -457. -399. -248. 3. -97. -73. -475. -377. -211.
      3. 1. -5. -7. -7. -7.</_>
    <_>
      -275. -212. 141. -399. -248. -253. -97. -73. 31. -377. -211. -177.
      1. -5. -1. -7. -7. -5.</_>
    <_>
      -212. 141. 50. -248. -253. -386. -73. 31. -1. -211. -177. -205.
      -5. -1. 2. -7. -5. -6.</_>
    <_>
      401. -105. -463. -93. -37. 55. 348. -62. -310. -70. -136. -32.
      215. -89. -74. -123. -217. -112.</_>
    <_>
      -463. 202. 367. 55. 122. 153. -310. 245. 346. -32. 97. 88. -74.
      284. 296. -112. 34. 32.</_>
    <_>
      202. 367. 252. 122. 153. 128. 245. 346. 206. 97. 88. 46. 284. 296.
      187. 34. 32. 5.</_>
    <_>
      252. 76. -375. 128. 52. -73. 206. -50. -455. 46. -50. -131. 187.
      -243. -452. 5. -111. -220.</_>
    <_>
      76. -375. -464. 52. -73. -148. -50. -455. -394. -50. -131. -66.
      -243. -452. -211. -111. -220. -99.</_>
    <_>
      -375. -464. 30. -73. -148. -10. -455. -394. 192. -131. -66. 28.
      -452. -211. 217. -220. -99. 15.</_>
    <_>
      -464. 30. 85. -148. -10. 99. -394. 192. 32. -66. 28. 28. -211.
      217. 75. -99. 15. 83.</_>
    <_>
      216. -316. -433. 4. -66. -135. 215. -412. -449. 5. -22. -65. 206.
      -445. -445. -12. -27. -13.</_>
    <_>
      -316. -433. -104. -66. -135. -68. -412. -449. -17. -22. -65. -61.
      -445. -445. 12. -27. -13. 16.</_>
    <_>
      39. 372. 258. 15. 146. 250. 40. 417. 222. 16. -69. -164. 31. 206.
      219. 1. -134. -253.</_>
    <_>
      372. 258. -84. 146. 250. 96. 417. 222. -129. -69. -164. -91. 206.
      219. 79. -134. -253. -121.</_>
    <_>
      -310. 245. 346. -32. 97. 88. -74. 284. 296. -112. 34. 32. 98. 328.
      253. 22. 92. 95.</_>
    <_>
      245. 346. 206. 97. 88. 46. 284. 296. 187. 34. 32. 5. 328. 253.
      147. 92. 95. 39.</_>
    <_>
      206. -50. -455. 46. -50. -131. 187. -243. -452. 5. -111. -220.
      147. -337. -439. 39. 21. 49.</_>
    <_>
      -50. -455. -394. -50. -131. -66. -243. -452. -211. -111. -220.
      -99. -337. -439. -103. 21. 49. 49.</_>
    <_>
      -455. -394. 192. -131. -66. 28. -452. -211. 217. -220. -99. 15.
      -439. -103. 209. 49. 49. 35.</_>
    <_>
      -394. 192. 32. -66. 28. 28. -211. 217. 75. -99. 15. 83. -103. 209.
      253. 49. 35. 137.</_>
    <_>
      273. 215. -412. 17. 5. -22. 251. 206. -445. 7. -12. -27. 236. 199.
      -428. 0. -3. 22.</_>
    <_>
      215. -412. -449. 5. -22. -65. 206. -445. -445. -12. -27. -13. 199.
      -428. -401. -3. 22. 69.</_>
    <_>
      -412. -449. -17. -22. -65. -61. -445. -445. 12. -27. -13. 16.
      -428. -401. 15. 22. 69. 87.</_>
    <_>
      417. 222. -129. -69. -164. -91. 206. 219. 79. -134. -253. -121.
      45. 232. 226. -39. -68. -40.</_>
    <_>
      -74. 284. 296. -112. 34. 32. 98. 328. 253. 22. 92. 95. 159. 373.
      220. 69. 105. 114.</_>
    <_>
      284. 296. 187. 34. 32. 5. 328. 253. 147. 92. 95. 39. 373. 220. 61.
      105. 114. 51.</_>
    <_>
      187. -243. -452. 5. -111. -220. 147. -337. -439. 39. 21. 49. 61.
      -204. -426. 51. 116. 234.</_>
    <_>
      -243. -452. -211. -111. -220. -99. -337. -439. -103. 21. 49. 49.
      -204. -426. -218. 116. 234. 132.</_>
    <_>
      -452. -211. 217. -220. -99. 15. -439. -103. 209. 49. 49. 35. -426.
      -218. 203. 234. 132. 25.</_>
    <_>
      -211. 217. 75. -99. 15. 83. -103. 209. 253. 49. 35. 137. -218.
      203. 389. 132. 25. 53.</_>
    <_>
      251. 206. -445. 7. -12. -27. 236. 199. -428. 0. -3. 22. 220. 218.
      -304. 4. 10. 128.</_>
    <_>
      206. -445. -445. -12. -27. -13. 199. -428. -401. -3. 22. 69. 218.
      -304. -384. 10. 128. 222.</_>
    <_>
      -445. -445. 12. -27. -13. 16. -428. -401. 15. 22. 69. 87. -304.
      -384. -93. 128. 222. 113.</_>
    <_>
      328. 253. 147. 92. 95. 39. 373. 220. 61. 105. 114. 51. 403. 197.
      4. 33. 31. 14.</_>
    <_>
      -337. -439. -103. 21. 49. 49. -204. -426. -218. 116. 234. 132.
      -46. -399. -358. 50. 117. 106.</_>
    <_>
      -439. -103. 209. 49. 49. 35. -426. -218. 203. 234. 132. 25. -399.
      -358. 180. 117. 106. 50.</_>
    <_>
      -103. 209. 253. 49. 35. 137. -218. 203. 389. 132. 25. 53. -358.
      180. 408. 106. 50. 18.</_>
    <_>
      209. 253. -139. 35. 137. 227. 203. 389. -185. 25. 53. 53. 180.
      408. -141. 50. 18. 81.</_>
    <_>
      253. -139. -182. 137. 227. 94. 389. -185. -336. 53. 53. -14. 408.
      -141. -371. 18. 81. 157.</_>
    <_>
      199. -428. -401. -3. 22. 69. 218. -304. -384. 10. 128. 222. 234.
      -102. -354. 2. 102. 240.</_>
    <_>
      -428. -401. 15. 22. 69. 87. -304. -384. -93. 128. 222. 113. -102.
      -354. -293. 102. 240. 179.</_>
    <_>
      -27. 157. 187. 67. 13. 83. -34. 78. 384. 14. -18. 30. -34. 71.
      459. 6. 31. 51.</_>
    <_>
      187. -109. -98. 83. 219. 110. 384. -78. -311. 30. 122. 49. 459.
      -47. -395. 51. 65. 85.</_>
    <_>
      -43. 159. 373. 19. 69. 105. 16. 181. 403. -14. 17. 33. 1. 243.
      400. 49. 65. 108.</_>
    <_>
      159. 373. 220. 69. 105. 114. 181. 403. 197. 17. 33. 31. 243. 400.
      139. 65. 108. 49.</_>
    <_>
      373. 220. 61. 105. 114. 51. 403. 197. 4. 33. 31. 14. 400. 139. 1.
      108. 49. 5.</_>
    <_>
      -204. -426. -218. 116. 234. 132. -46. -399. -358. 50. 117. 106.
      -5. -273. -383. 7. 107. 219.</_>
    <_>
      -426. -218. 203. 234. 132. 25. -399. -358. 180. 117. 106. 50.
      -273. -383. 54. 107. 219. 124.</_>
    <_>
      -218. 203. 389. 132. 25. 53. -358. 180. 408. 106. 50. 18. -383.
      54. 392. 219. 124. 14.</_>
    <_>
      203. 389. -185. 25. 53. 53. 180. 408. -141. 50. 18. 81. 54. 392.
      47. 124. 14. 123.</_>
    <_>
      389. -185. -336. 53. 53. -14. 408. -141. -371. 18. 81. 157. 392.
      47. -383. 14. 123. 223.</_>
    <_>
      218. -304. -384. 10. 128. 222. 234. -102. -354. 2. 102. 240. 235.
      8. -219. -23. -12. 95.</_>
    <_>
      -384. -93. -1. 222. 113. 7. -354. -293. -42. 240. 179. 44. -219.
      -382. -173. 95. 202. 117.</_>
    <_>
      -34. 78. 384. 14. -18. 30. -34. 71. 459. 6. 31. 51. -11. 136. 433.
      23. 86. 105.</_>
    <_>
      78. 384. -78. -18. 30. 122. 71. 459. -47. 31. 51. 65. 136. 433.
      52. 86. 105. 164.</_>
    <_>
      384. -78. -311. 30. 122. 49. 459. -47. -395. 51. 65. 85. 433. 52.
      -405. 105. 164. 233.</_>
    <_>
      -78. -311. 16. 122. 49. -14. -47. -395. 1. 65. 85. 49. 52. -405.
      -156. 164. 233. 102.</_>
    <_>
      16. 181. 403. -14. 17. 33. 1. 243. 400. 49. 65. 108. -156. 260.
      389. 102. -54. -91.</_>
    <_>
      181. 403. 197. 17. 33. 31. 243. 400. 139. 65. 108. 49. 260. 389.
      120. -54. -91. -62.</_>
    <_>
      403. 197. 4. 33. 31. 14. 400. 139. 1. 108. 49. 5. 389. 120. -66.
      -91. -62. -104.</_>
    <_>
      -46. -399. -358. 50. 117. 106. -5. -273. -383. 7. 107. 219. 9.
      -16. -304. -159. 12. 236.</_>
    <_>
      -399. -358. 180. 117. 106. 50. -273. -383. 54. 107. 219. 124. -16.
      -304. -133. 12. 236. 223.</_>
    <_>
      -358. 180. 408. 106. 50. 18. -383. 54. 392. 219. 124. 14. -304.
      -133. 314. 236. 223. 68.</_>
    <_>
      180. 408. -141. 50. 18. 81. 54. 392. 47. 124. 14. 123. -133. 314.
      194. 223. 68. 28.</_>
    <_>
      408. -141. -371. 18. 81. 157. 392. 47. -383. 14. 123. 223. 314.
      194. -419. 68. 28. 39.</_>
    <_>
      -141. -371. 69. 81. 157. 65. 47. -383. -170. 123. 223. 64. 194.
      -419. -345. 28. 39. -13.</_>
    <_>
      -371. 69. 111. 157. 65. -5. -383. -170. 196. 223. 64. -20. -419.
      -345. 237. 39. -13. -63.</_>
    <_>
      -102. -354. -293. 102. 240. 179. 8. -219. -382. -12. 95. 202. 131.
      -56. -277. -119. 60. 221.</_>
    <_>
      -354. -293. -42. 240. 179. 44. -219. -382. -173. 95. 202. 117.
      -56. -277. -350. 60. 221. 234.</_>
    <_>
      -34. 71. 459. 6. 31. 51. -11. 136. 433. 23. 86. 105. 47. 183. 377.
      33. 75. 47.</_>
    <_>
      71. 459. -47. 31. 51. 65. 136. 433. 52. 86. 105. 164. 183. 377.
      190. 75. 47. 70.</_>
    <_>
      459. -47. -395. 51. 65. 85. 433. 52. -405. 105. 164. 233. 377.
      190. -433. 47. 70. 111.</_>
    <_>
      -47. -395. 1. 65. 85. 49. 52. -405. -156. 164. 233. 102. 190.
      -433. -337. 70. 111. 33.</_>
    <_>
      1. 243. 400. 49. 65. 108. -156. 260. 389. 102. -54. -91. -337.
      138. 385. 33. -114. -203.</_>
    <_>
      243. 400. 139. 65. 108. 49. 260. 389. 120. -54. -91. -62. 138.
      385. 115. -114. -203. -241.</_>
    <_>
      400. 139. 1. 108. 49. 5. 389. 120. -66. -91. -62. -104. 385. 115.
      -222. -203. -241. -360.</_>
    <_>
      -383. 54. 392. 219. 124. 14. -304. -133. 314. 236. 223. 68. -146.
      -225. 152. 92. 171. 72.</_>
    <_>
      54. 392. 47. 124. 14. 123. -133. 314. 194. 223. 68. 28. -225. 152.
      235. 171. 72. -9.</_>
    <_>
      392. 47. -383. 14. 123. 223. 314. 194. -419. 68. 28. 39. 152. 235.
      -352. 72. -9. 88.</_>
    <_>
      47. -383. -170. 123. 223. 64. 194. -419. -345. 28. 39. -13. 235.
      -352. -374. -9. 88. 178.</_>
    <_>
      -383. -170. 196. 223. 64. -20. -419. -345. 237. 39. -13. -63.
      -352. -374. 61. 88. 178. 23.</_>
    <_>
      -170. 196. 301. 64. -20. 117. -345. 237. 379. -13. -63. -81. -374.
      61. 360. 178. 23. -154.</_>
    <_>
      301. -53. 30. 117. 147. 38. 379. -60. -145. -81. -40. -113. 360.
      47. -365. -154. -107. -147.</_>
    <_>
      -53. 30. 235. 147. 38. -23. -60. -145. 233. -40. -113. -229. 47.
      -365. 145. -107. -147. -339.</_>
    <_>
      30. 235. 8. 38. -23. -12. -145. 233. 131. -113. -229. -119. -365.
      145. 370. -147. -339. -298.</_>
    <_>
      235. 8. -219. -23. -12. 95. 233. 131. -56. -229. -119. 60. 145.
      370. 95. -339. -298. -87.</_>
    <_>
      8. -219. -382. -12. 95. 202. 131. -56. -277. -119. 60. 221. 370.
      95. -88. -298. -87. 92.</_>
    <_>
      -219. -382. -173. 95. 202. 117. -56. -277. -350. 60. 221. 234. 95.
      -88. -434. -87. 92. 184.</_>
    <_>
      -382. -173. -12. 202. 117. 16. -277. -350. -139. 221. 234. 31.
      -88. -434. -354. 92. 184. 88.</_>
    <_>
      136. 433. 52. 86. 105. 164. 183. 377. 190. 75. 47. 70. 186. 354.
      246. -20. -12. -2.</_>
    <_>
      433. 52. -405. 105. 164. 233. 377. 190. -433. 47. 70. 111. 354.
      246. -391. -12. -2. 55.</_>
    <_>
      52. -405. -156. 164. 233. 102. 190. -433. -337. 70. 111. 33. 246.
      -391. -399. -2. 55. 113.</_>
    <_>
      -405. -156. 260. 233. 102. -54. -433. -337. 138. 111. 33. -114.
      -391. -399. -13. 55. 113. 47.</_>
    <_>
      -156. 260. 389. 102. -54. -91. -337. 138. 385. 33. -114. -203.
      -399. -13. 379. 113. 47. -21.</_>
    <_>
      389. 120. -66. -91. -62. -104. 385. 115. -222. -203. -241. -360.
      379. -23. -316. -21. -127. -240.</_>
    <_>
      120. -66. 9. -62. -104. -159. 115. -222. 167. -241. -360. -303.
      -23. -316. 404. -127. -240. -154.</_>
    <_>
      -66. 9. -16. -104. -159. 12. -222. 167. 221. -360. -303. -79.
      -316. 404. 323. -240. -154. -39.</_>
    <_>
      9. -16. -304. -159. 12. 236. 167. 221. -146. -303. -79. 92. 404.
      323. -22. -154. -39. 16.</_>
    <_>
      -133. 314. 194. 223. 68. 28. -225. 152. 235. 171. 72. -9. -255.
      40. 263. 31. -12. -15.</_>
    <_>
      194. -419. -345. 28. 39. -13. 235. -352. -374. -9. 88. 178. 263.
      -152. -392. -15. 116. 208.</_>
    <_>
      -345. 237. 379. -13. -63. -81. -374. 61. 360. 178. 23. -154. -392.
      -211. 267. 208. 73. -115.</_>
    <_>
      379. -60. -145. -81. -40. -113. 360. 47. -365. -154. -107. -147.
      267. 118. -401. -115. -184. -109.</_>
    <_>
      -60. -145. 233. -40. -113. -229. 47. -365. 145. -107. -147. -339.
      118. -401. -35. -184. -109. -133.</_>
    <_>
      -145. 233. 131. -113. -229. -119. -365. 145. 370. -147. -339.
      -298. -401. -35. 490. -109. -133. -234.</_>
    <_>
      233. 131. -56. -229. -119. 60. 145. 370. 95. -339. -298. -87. -35.
      490. 271. -133. -234. -149.</_>
    <_>
      131. -56. -277. -119. 60. 221. 370. 95. -88. -298. -87. 92. 490.
      271. -67. -234. -149. -131.</_>
    <_>
      -56. -277. -350. 60. 221. 234. 95. -88. -434. -87. 92. 184. 271.
      -67. -419. -149. -131. -187.</_>
    <_>
      -277. -350. -139. 221. 234. 31. -88. -434. -354. 92. 184. 88. -67.
      -419. -324. -131. -187. -46.</_>
    <_>
      -350. -139. -9. 234. 31. -97. -434. -354. -14. 184. 88. -4. -419.
      -324. -1. -187. -46. 89.</_>
    <_>
      183. 377. 190. 75. 47. 70. 186. 354. 246. -20. -12. -2. 178. 387.
      244. -38. -21. 0.</_>
    <_>
      377. 190. -433. 47. 70. 111. 354. 246. -391. -12. -2. 55. 387.
      244. -213. -21. 0. 119.</_>
    <_>
      190. -433. -337. 70. 111. 33. 246. -391. -399. -2. 55. 113. 244.
      -213. -425. 0. 119. 213.</_>
    <_>
      -433. -337. 138. 111. 33. -114. -391. -399. -13. 55. 113. 47.
      -213. -425. -191. 119. 213. 75.</_>
    <_>
      -337. 138. 385. 33. -114. -203. -399. -13. 379. 113. 47. -21.
      -425. -191. 298. 213. 75. -116.</_>
    <_>
      138. 385. 115. -114. -203. -241. -13. 379. -23. 47. -21. -127.
      -191. 298. -119. 75. -116. -187.</_>
    <_>
      385. 115. -222. -203. -241. -360. 379. -23. -316. -21. -127. -240.
      298. -119. -265. -116. -187. -119.</_>
    <_>
      115. -222. 167. -241. -360. -303. -23. -316. 404. -127. -240.
      -154. -119. -265. 410. -187. -119. -148.</_>
    <_>
      -222. 167. 221. -360. -303. -79. -316. 404. 323. -240. -154. -39.
      -265. 410. 382. -119. -148. -198.</_>
    <_>
      167. 221. -146. -303. -79. 92. 404. 323. -22. -154. -39. 16. 410.
      382. 33. -148. -198. -139.</_>
    <_>
      235. -352. -374. -9. 88. 178. 263. -152. -392. -15. 116. 208. 287.
      -20. -430. -3. 22. 24.</_>
    <_>
      -352. -374. 61. 88. 178. 23. -152. -392. -211. 116. 208. 73. -20.
      -430. -350. 22. 24. -18.</_>
    <_>
      -374. 61. 360. 178. 23. -154. -392. -211. 267. 208. 73. -115.
      -430. -350. 137. 24. -18. -99.</_>
    <_>
      61. 360. 47. 23. -154. -107. -211. 267. 118. 73. -115. -184. -350.
      137. 127. -18. -99. -151.</_>
    <_>
      360. 47. -365. -154. -107. -147. 267. 118. -401. -115. -184. -109.
      137. 127. -243. -99. -151. -59.</_>
    <_>
      47. -365. 145. -107. -147. -339. 118. -401. -35. -184. -109. -133.
      127. -243. -177. -151. -59. -19.</_>
    <_>
      -365. 145. 370. -147. -339. -298. -401. -35. 490. -109. -133.
      -234. -243. -177. 389. -59. -19. -161.</_>
    <_>
      145. 370. 95. -339. -298. -87. -35. 490. 271. -133. -234. -149.
      -177. 389. 416. -19. -161. -202.</_>
    <_>
      370. 95. -88. -298. -87. 92. 490. 271. -67. -234. -149. -131. 389.
      416. -170. -161. -202. -178.</_>
    <_>
      95. -88. -434. -87. 92. 184. 271. -67. -419. -149. -131. -187.
      416. -170. -414. -202. -178. -220.</_>
    <_>
      -88. -434. -354. 92. 184. 88. -67. -419. -324. -131. -187. -46.
      -170. -414. -90. -178. -220. -122.</_>
    <_>
      -434. -354. -14. 184. 88. -4. -419. -324. -1. -187. -46. 89. -414.
      -90. 14. -220. -122. -8.</_>
    <_>
      354. 246. -391. -12. -2. 55. 387. 244. -213. -21. 0. 119. 399.
      245. -39. 7. -1. 55.</_>
    <_>
      246. -391. -399. -2. 55. 113. 244. -213. -425. 0. 119. 213. 245.
      -39. -462. -1. 55. 98.</_>
    <_>
      -391. -399. -13. 55. 113. 47. -213. -425. -191. 119. 213. 75. -39.
      -462. -359. 55. 98. 31.</_>
    <_>
      -399. -13. 379. 113. 47. -21. -425. -191. 298. 213. 75. -116.
      -462. -359. 144. 98. 31. -100.</_>
    <_>
      -23. -316. 404. -127. -240. -154. -119. -265. 410. -187. -119.
      -148. -103. -146. 223. -167. -100. -139.</_>
    <_>
      -316. 404. 323. -240. -154. -39. -265. 410. 382. -119. -148. -198.
      -146. 223. 455. -100. -139. -203.</_>
    <_>
      404. 323. -22. -154. -39. 16. 410. 382. 33. -148. -198. -139. 223.
      455. 34. -139. -203. -188.</_>
    <_>
      323. -22. -255. -39. 16. 31. 382. 33. -279. -198. -139. -123. 455.
      34. -274. -203. -188. -198.</_>
    <_>
      263. -152. -392. -15. 116. 208. 287. -20. -430. -3. 22. 24. 282.
      1. -453. 10. 1. -3.</_>
    <_>
      -152. -392. -211. 116. 208. 73. -20. -430. -350. 22. 24. -18. 1.
      -453. -374. 1. -3. -8.</_>
    <_>
      -392. -211. 267. 208. 73. -115. -430. -350. 137. 24. -18. -99.
      -453. -374. 82. -3. -8. -6.</_>
    <_>
      118. -401. -35. -184. -109. -133. 127. -243. -177. -151. -59. -19.
      124. -136. -239. -12. 0. 5.</_>
    <_>
      -401. -35. 490. -109. -133. -234. -243. -177. 389. -59. -19. -161.
      -136. -239. 190. 0. 5. -114.</_>
    <_>
      -35. 490. 271. -133. -234. -149. -177. 389. 416. -19. -161. -202.
      -239. 190. 376. 5. -114. -312.</_>
    <_>
      490. 271. -67. -234. -149. -131. 389. 416. -170. -161. -202. -178.
      190. 376. -122. -114. -312. -328.</_>
    <_>
      271. -67. -419. -149. -131. -187. 416. -170. -414. -202. -178.
      -220. 376. -122. -310. -312. -328. -134.</_>
    <_>
      -67. -419. -324. -131. -187. -46. -170. -414. -90. -178. -220.
      -122. -122. -310. 28. -328. -134. -10.</_>
    <_>
      387. 244. -213. -21. 0. 119. 399. 245. -39. 7. -1. 55. 373. 247.
      14. 23. 7. 6.</_>
    <_>
      244. -213. -425. 0. 119. 213. 245. -39. -462. -1. 55. 98. 247. 14.
      -465. 7. 6. 13.</_>
    <_>
      -213. -425. -191. 119. 213. 75. -39. -462. -359. 55. 98. 31. 14.
      -465. -417. 6. 13. 19.</_>
    <_>
      -425. -191. 298. 213. 75. -116. -462. -359. 144. 98. 31. -100.
      -465. -417. 59. 13. 19. 7.</_>
    <_>
      -265. 410. 382. -119. -148. -198. -146. 223. 455. -100. -139.
      -203. -82. 76. 357. 18. -26. -207.</_>
    <_>
      410. 382. 33. -148. -198. -139. 223. 455. 34. -139. -203. -188.
      76. 357. 16. -26. -207. -338.</_>
    <_>
      382. 33. -279. -198. -139. -123. 455. 34. -274. -203. -188. -198.
      357. 16. -129. -207. -338. -201.</_>
    <_>
      33. -279. 77. -139. -123. -67. 34. -274. 241. -188. -198. -85. 16.
      -129. 391. -338. -201. -19.</_>
    <_>
      -279. 77. 287. -123. -67. -3. -274. 241. 282. -198. -85. 10. -129.
      391. 259. -201. -19. 13.</_>
    <_>
      -177. 389. 416. -19. -161. -202. -239. 190. 376. 5. -114. -312.
      -213. 40. 125. 67. 62. -141.</_>
    <_>
      389. 416. -170. -161. -202. -178. 190. 376. -122. -114. -312.
      -328. 40. 125. -18. 62. -141. -272.</_>
    <_>
      416. -170. -414. -202. -178. -220. 376. -122. -310. -312. -328.
      -134. 125. -18. -70. -141. -272. -122.</_>
    <_>
      -462. -359. 144. 98. 31. -100. -465. -417. 59. 13. 19. 7. -426.
      -436. 19. 16. 30. -17.</_>
    <_>
      -146. 223. 455. -100. -139. -203. -82. 76. 357. 18. -26. -207.
      -16. 73. 122. 70. 177. 120.</_>
    <_>
      223. 455. 34. -139. -203. -188. 76. 357. 16. -26. -207. -338. 73.
      122. 43. 177. 120. 43.</_>
    <_>
      455. 34. -274. -203. -188. -198. 357. 16. -129. -207. -338. -201.
      122. 43. 93. 120. 43. 155.</_>
    <_>
      34. -274. 241. -188. -198. -85. 16. -129. 391. -338. -201. -19.
      43. 93. 356. 43. 155. 160.</_>
    <_>
      -274. 241. 282. -198. -85. 10. -129. 391. 259. -201. -19. 13. 93.
      356. 206. 155. 160. 40.</_>
    <_>
      241. 282. 1. -85. 10. 1. 391. 259. 1. -19. 13. -1. 356. 206. 3.
      160. 40. 3.</_>
    <_>
      1. -453. -374. 1. -3. -8. 1. -470. -387. -1. -14. -39. 3. -368.
      -425. 3. 120. 209.</_>
    <_>
      -453. -374. 82. -3. -8. -6. -470. -387. 96. -14. -39. -40. -368.
      -425. -7. 120. 209. 69.</_>
    <_>
      -239. 190. 376. 5. -114. -312. -213. 40. 125. 67. 62. -141. -48.
      -14. -60. 360. 476. 440.</_>
    <_>
      190. 376. -122. -114. -312. -328. 40. 125. -18. 62. -141. -272.
      -14. -60. -101. 476. 440. 303.</_>
    <_>
      376. -122. -310. -312. -328. -134. 125. -18. -70. -141. -272.
      -122. -60. -101. -41. 440. 303. 99.</_>
    <_>
      -122. -310. 28. -328. -134. -10. -18. -70. 30. -272. -122. -4.
      -101. -41. 15. 303. 99. -5.</_>
    <_>
      -82. 76. 357. 18. -26. -207. -16. 73. 122. 70. 177. 120. 159. 217.
      25. 171. 383. 487.</_>
    <_>
      76. 357. 16. -26. -207. -338. 73. 122. 43. 177. 120. 43. 217. 25.
      57. 383. 487. 481.</_>
    <_>
      357. 16. -129. -207. -338. -201. 122. 43. 93. 120. 43. 155. 25.
      57. 109. 487. 481. 399.</_>
    <_>
      16. -129. 391. -338. -201. -19. 43. 93. 356. 43. 155. 160. 57.
      109. 169. 481. 399. 223.</_>
    <_>
      -129. 391. 259. -201. -19. 13. 93. 356. 206. 155. 160. 40. 109.
      169. 109. 399. 223. 59.</_>
    <_>
      1. -470. -387. -1. -14. -39. 3. -368. -425. 3. 120. 209. 6. -132.
      -350. 2. 124. 346.</_>
    <_>
      -470. -387. 96. -14. -39. -40. -368. -425. -7. 120. 209. 69. -132.
      -350. -237. 124. 346. 331.</_>
    <_>
      -387. 96. 121. -39. -40. -23. -425. -7. 146. 209. 69. -26. -350.
      -237. 65. 346. 331. 115.</_>
    <_>
      -94. -213. 40. 4. 67. 62. 49. -48. -14. 115. 360. 476. 223. 177.
      24. 67. 221. 368.</_>
    <_>
      -213. 40. 125. 67. 62. -141. -48. -14. -60. 360. 476. 440. 177.
      24. -98. 221. 368. 404.</_>
    <_>
      40. 125. -18. 62. -141. -272. -14. -60. -101. 476. 440. 303. 24.
      -98. -323. 368. 404. 281.</_>
    <_>
      125. -18. -70. -141. -272. -122. -60. -101. -41. 440. 303. 99.
      -98. -323. -240. 404. 281. 64.</_>
    <_>
      -426. -436. 19. 16. 30. -17. -351. -452. -53. 9. 54. 13. -288.
      -305. -112. -60. 105. 234.</_>
    <_>
      -51. -16. 73. -19. 70. 177. 20. 159. 217. 14. 171. 383. -34. 322.
      350. 120. 72. 156.</_>
    <_>
      -16. 73. 122. 70. 177. 120. 159. 217. 25. 171. 383. 487. 322. 350.
      24. 72. 156. 184.</_>
    <_>
      73. 122. 43. 177. 120. 43. 217. 25. 57. 383. 487. 481. 350. 24.
      24. 156. 184. 156.</_>
    <_>
      122. 43. 93. 120. 43. 155. 25. 57. 109. 487. 481. 399. 24. 24. 23.
      184. 156. 119.</_>
    <_>
      43. 93. 356. 43. 155. 160. 57. 109. 169. 481. 399. 223. 24. 23.
      36. 156. 119. 76.</_>
    <_>
      93. 356. 206. 155. 160. 40. 109. 169. 109. 399. 223. 59. 23. 36.
      27. 119. 76. 25.</_>
    <_>
      3. -368. -425. 3. 120. 209. 6. -132. -350. 2. 124. 346. 2. -5.
      -136. -4. -3. 116.</_>
    <_>
      -368. -425. -7. 120. 209. 69. -132. -350. -237. 124. 346. 331. -5.
      -136. -375. -3. 116. 207.</_>
    <_>
      -425. -7. 146. 209. 69. -26. -350. -237. 65. 346. 331. 115. -136.
      -375. -154. 116. 207. 66.</_>
    <_>
      49. -48. -14. 115. 360. 476. 223. 177. 24. 67. 221. 368. 201. 284.
      167. -127. -196. -93.</_>
    <_>
      -48. -14. -60. 360. 476. 440. 177. 24. -98. 221. 368. 404. 284.
      167. -111. -196. -93. 1.</_>
    <_>
      -14. -60. -101. 476. 440. 303. 24. -98. -323. 368. 404. 281. 167.
      -111. -437. -93. 1. -3.</_>
    <_>
      -60. -101. -41. 440. 303. 99. -98. -323. -240. 404. 281. 64. -111.
      -437. -339. 1. -3. 1.</_>
    <_>
      -101. -41. 15. 303. 99. -5. -323. -240. 1. 281. 64. -45. -437.
      -339. -3. -3. 1. 7.</_>
    <_>
      20. 159. 217. 14. 171. 383. -34. 322. 350. 120. 72. 156. -248.
      294. 386. 64. -130. -206.</_>
    <_>
      159. 217. 25. 171. 383. 487. 322. 350. 24. 72. 156. 184. 294. 386.
      113. -130. -206. -109.</_>
    <_>
      217. 25. 57. 383. 487. 481. 350. 24. 24. 156. 184. 156. 386. 113.
      5. -206. -109. -11.</_>
    <_>
      25. 57. 109. 487. 481. 399. 24. 24. 23. 184. 156. 119. 113. 5. 10.
      -109. -11. -6.</_>
    <_>
      -132. -350. -237. 124. 346. 331. -5. -136. -375. -3. 116. 207. -1.
      -13. -420. -3. 5. -8.</_>
    <_>
      -350. -237. 65. 346. 331. 115. -136. -375. -154. 116. 207. 66.
      -13. -420. -289. 5. -8. -47.</_>
    <_>
      -237. 65. 223. 331. 115. 67. -375. -154. 201. 207. 66. -127. -420.
      -289. 109. -8. -47. -81.</_>
    <_>
      223. 177. 24. 67. 221. 368. 201. 284. 167. -127. -196. -93. 109.
      304. 309. -81. -84. -25.</_>
    <_>
      177. 24. -98. 221. 368. 404. 284. 167. -111. -196. -93. 1. 304.
      309. -122. -84. -25. 12.</_>
    <_>
      24. -98. -323. 368. 404. 281. 167. -111. -437. -93. 1. -3. 309.
      -122. -433. -25. 12. 9.</_>
    <_>
      -98. -323. -240. 404. 281. 64. -111. -437. -339. 1. -3. 1. -122.
      -433. -316. 12. 9. 32.</_>
    <_>
      -323. -240. 1. 281. 64. -45. -437. -339. -3. -3. 1. 7. -433. -316.
      6. 9. 32. 58.</_>
    <_>
      -79. -288. -305. -39. -60. 105. -175. -267. 15. -57. -111. 65.
      -312. -284. 282. -84. -184. -110.</_>
    <_>
      -288. -305. -112. -60. 105. 234. -267. 15. -158. -111. 65. 210.
      -284. 282. -184. -184. -110. -14.</_>
    <_>
      -34. 322. 350. 120. 72. 156. -248. 294. 386. 64. -130. -206. -379.
      149. 326. -25. -107. -236.</_>
    <_>
      322. 350. 24. 72. 156. 184. 294. 386. 113. -130. -206. -109. 149.
      326. 219. -107. -236. -287.</_>
    <_>
      350. 24. 24. 156. 184. 156. 386. 113. 5. -206. -109. -11. 326.
      219. -15. -236. -287. -299.</_>
    <_>
      -5. -136. -375. -3. 116. 207. -1. -13. -420. -3. 5. -8. -130.
      -134. -334. -134. -392. -414.</_>
    <_>
      -136. -375. -154. 116. 207. 66. -13. -420. -289. 5. -8. -47. -134.
      -334. -180. -392. -414. -180.</_>
    <_>
      -375. -154. 201. 207. 66. -127. -420. -289. 109. -8. -47. -81.
      -334. -180. 113. -414. -180. -33.</_>
    <_>
      201. 284. 167. -127. -196. -93. 109. 304. 309. -81. -84. -25. 113.
      241. 235. -33. -89. -285.</_>
    <_>
      167. -111. -437. -93. 1. -3. 309. -122. -433. -25. 12. 9. 235.
      -127. -310. -285. -401. -280.</_>
    <_>
      -111. -437. -339. 1. -3. 1. -122. -433. -316. 12. 9. 32. -127.
      -310. -214. -401. -280. -78.</_>
    <_>
      249. -175. -267. 1. -57. -111. 230. -312. -284. 14. -84. -184.
      167. -445. -372. 39. -59. -180.</_>
    <_>
      -175. -267. 15. -57. -111. 65. -312. -284. 282. -84. -184. -110.
      -445. -372. 293. -59. -180. -331.</_>
    <_>
      -267. 15. -158. -111. 65. 210. -284. 282. -184. -184. -110. -14.
      -372. 293. -122. -180. -331. -354.</_>
    <_>
      15. -158. -248. 65. 210. 64. 282. -184. -379. -110. -14. -25. 293.
      -122. -251. -331. -354. -153.</_>
    <_>
      -248. 294. 386. 64. -130. -206. -379. 149. 326. -25. -107. -236.
      -251. 92. 141. -153. 0. -113.</_>
    <_>
      294. 386. 113. -130. -206. -109. 149. 326. 219. -107. -236. -287.
      92. 141. 96. 0. -113. -370.</_>
    <_>
      386. 113. 5. -206. -109. -11. 326. 219. -15. -236. -287. -299.
      141. 96. -15. -113. -370. -481.</_>
    <_>
      113. 5. 10. -109. -11. -6. 219. -15. 17. -287. -299. -317. 96.
      -15. 82. -370. -481. -398.</_>
    <_>
      5. 10. 10. -11. -6. -2. -15. 17. 92. -299. -317. -232. -15. 82.
      273. -481. -398. -237.</_>
    <_>
      -2. -1. -13. -2. -3. 5. -7. -130. -134. -1. -134. -392. -14. -385.
      -399. -2. -131. -393.</_>
    <_>
      -1. -13. -420. -3. 5. -8. -130. -134. -334. -134. -392. -414.
      -385. -399. -114. -131. -393. -416.</_>
    <_>
      -13. -420. -289. 5. -8. -47. -134. -334. -180. -392. -414. -180.
      -399. -114. 54. -393. -416. -196.</_>
    <_>
      -420. -289. 109. -8. -47. -81. -334. -180. 113. -414. -180. -33.
      -114. 54. 143. -416. -196. -79.</_>
    <_>
      304. 309. -122. -84. -25. 12. 241. 235. -127. -89. -285. -401.
      111. 3. -121. -123. -289. -399.</_>
    <_>
      309. -122. -433. -25. 12. 9. 235. -127. -310. -285. -401. -280. 3.
      -121. -74. -289. -399. -278.</_>
    <_>
      -122. -433. -316. 12. 9. 32. -127. -310. -214. -401. -280. -78.
      -121. -74. -49. -399. -278. -79.</_>
    <_>
      245. 230. -312. 37. 14. -84. 234. 167. -445. 90. 39. -59. 226. 73.
      -496. 100. 49. 2.</_>
    <_>
      230. -312. -284. 14. -84. -184. 167. -445. -372. 39. -59. -180.
      73. -496. -473. 49. 2. -29.</_>
    <_>
      -312. -284. 282. -84. -184. -110. -445. -372. 293. -59. -180.
      -331. -496. -473. 85. 2. -29. -187.</_>
    <_>
      -284. 282. -184. -184. -110. -14. -372. 293. -122. -180. -331.
      -354. -473. 85. -40. -29. -187. -290.</_>
    <_>
      326. 219. -15. -236. -287. -299. 141. 96. -15. -113. -370. -481.
      6. -76. 37. -48. -98. -107.</_>
    <_>
      219. -15. 17. -287. -299. -317. 96. -15. 82. -370. -481. -398.
      -76. 37. 172. -98. -107. -48.</_>
    <_>
      -15. 17. 92. -299. -317. -232. -15. 82. 273. -481. -398. -237. 37.
      172. 300. -107. -48. -92.</_>
    <_>
      17. 92. 79. -317. -232. -73. 82. 273. 225. -398. -237. -69. 172.
      300. 247. -48. -92. -211.</_>
    <_>
      -7. -130. -134. -1. -134. -392. -14. -385. -399. -2. -131. -393.
      -10. -395. -390. -252. -129. 132.</_>
    <_>
      -130. -134. -334. -134. -392. -414. -385. -399. -114. -131. -393.
      -416. -395. -390. 6. -129. 132. 284.</_>
    <_>
      -134. -334. -180. -392. -414. -180. -399. -114. 54. -393. -416.
      -196. -390. 6. 65. 132. 284. 195.</_>
    <_>
      -334. -180. 113. -414. -180. -33. -114. 54. 143. -416. -196. -79.
      6. 65. 83. 284. 195. 29.</_>
    <_>
      241. 235. -127. -89. -285. -401. 111. 3. -121. -123. -289. -399.
      73. -49. -59. -25. 51. 171.</_>
    <_>
      235. -127. -310. -285. -401. -280. 3. -121. -74. -289. -399. -278.
      -49. -59. 37. 51. 171. 223.</_>
    <_>
      -127. -310. -214. -401. -280. -78. -121. -74. -49. -399. -278.
      -79. -59. 37. 18. 171. 223. 202.</_>
    <_>
      190. 266. 234. -4. 48. 90. 197. 363. 226. 1. 53. 100. 199. 394.
      223. 85. 66. 47.</_>
    <_>
      234. 167. -445. 90. 39. -59. 226. 73. -496. 100. 49. 2. 223. 3.
      -482. 47. 25. 16.</_>
    <_>
      167. -445. -372. 39. -59. -180. 73. -496. -473. 49. 2. -29. 3.
      -482. -486. 25. 16. 48.</_>
    <_>
      -445. -372. 293. -59. -180. -331. -496. -473. 85. 2. -29. -187.
      -482. -486. -28. 16. 48. 80.</_>
    <_>
      -372. 293. -122. -180. -331. -354. -473. 85. -40. -29. -187. -290.
      -486. -28. -24. 48. 80. 86.</_>
    <_>
      96. -15. 82. -370. -481. -398. -76. 37. 172. -98. -107. -48. -100.
      24. 177. 72. 44. -23.</_>
    <_>
      -15. 82. 273. -481. -398. -237. 37. 172. 300. -107. -48. -92. 24.
      177. 148. 44. -23. -126.</_>
    <_>
      82. 273. 225. -398. -237. -69. 172. 300. 247. -48. -92. -211. 177.
      148. 104. -23. -126. -302.</_>
    <_>
      225. -14. -385. -69. -2. -131. 247. -10. -395. -211. -252. -129.
      104. -4. -150. -302. -398. -270.</_>
    <_>
      -14. -385. -399. -2. -131. -393. -10. -395. -390. -252. -129. 132.
      -4. -150. -111. -398. -270. -7.</_>
    <_>
      -385. -399. -114. -131. -393. -416. -395. -390. 6. -129. 132. 284.
      -150. -111. 18. -270. -7. 132.</_>
    <_>
      -399. -114. 54. -393. -416. -196. -390. 6. 65. 132. 284. 195.
      -111. 18. -69. -7. 132. 99.</_>
    <_>
      -102. 197. 363. -42. 1. 53. -4. 199. 394. 28. 85. 66. 110. 202.
      320. 54. 114. 62.</_>
    <_>
      197. 363. 226. 1. 53. 100. 199. 394. 223. 85. 66. 47. 202. 320.
      220. 114. 62. 4.</_>
    <_>
      226. 73. -496. 100. 49. 2. 223. 3. -482. 47. 25. 16. 220. -16.
      -467. 4. 4. 9.</_>
    <_>
      73. -496. -473. 49. 2. -29. 3. -482. -486. 25. 16. 48. -16. -467.
      -464. 4. 9. 14.</_>
    <_>
      -496. -473. 85. 2. -29. -187. -482. -486. -28. 16. 48. 80. -467.
      -464. -13. 9. 14. 19.</_>
    <_>
      -473. 85. -40. -29. -187. -290. -486. -28. -24. 48. 80. 86. -464.
      -13. -31. 14. 19. 21.</_>
    <_>
      -395. -390. 6. -129. 132. 284. -150. -111. 18. -270. -7. 132. -14.
      17. 27. -146. -145. -147.</_>
    <_>
      3. -482. -486. 25. 16. 48. -16. -467. -464. 4. 9. 14. -8. -454.
      -456. 4. 20. 36.</_>
    <_>
      -482. -486. -28. 16. 48. 80. -467. -464. -13. 9. 14. 19. -454.
      -456. -7. 20. 36. 45.</_>
    <_>
      -486. -28. -24. 48. 80. 86. -464. -13. -31. 14. 19. 21. -456. -7.
      -22. 36. 45. 58.</_>
    <_>
      -16. -467. -464. 4. 9. 14. -8. -454. -456. 4. 20. 36. -33. -433.
      -404. -29. -49. 8.</_>
    <_>
      -467. -464. -13. 9. 14. 19. -454. -456. -7. 20. 36. 45. -433.
      -404. 4. -49. 8. 62.</_>
    <_>
      -8. -454. -456. 4. 20. 36. -33. -433. -404. -29. -49. 8. -155.
      -369. -206. -89. -127. 78.</_>
    <_>
      -454. -456. -7. 20. 36. 45. -433. -404. 4. -49. 8. 62. -369. -206.
      29. -127. 78. 247.</_>
    <_>
      -456. -7. -22. 36. 45. 58. -404. 4. 0. 8. 62. 82. -206. 29. 31.
      78. 247. 283.</_>
    <_>
      -33. -433. -404. -29. -49. 8. -155. -369. -206. -89. -127. 78.
      -313. -207. 116. -67. -25. 254.</_>
    <_>
      -433. -404. 4. -49. 8. 62. -369. -206. 29. -127. 78. 247. -207.
      116. 34. -25. 254. 412.</_>
    <_>
      -404. 4. 0. 8. 62. 82. -206. 29. 31. 78. 247. 283. 116. 34. 45.
      254. 412. 395.</_>
    <_>
      -155. -369. -206. -89. -127. 78. -313. -207. 116. -67. -25. 254.
      -386. -44. 335. -8. 40. 143.</_>
    <_>
      -369. -206. 29. -127. 78. 247. -207. 116. 34. -25. 254. 412. -44.
      335. -2. 40. 143. 168.</_>
    <_>
      -206. 29. 31. 78. 247. 283. 116. 34. 45. 254. 412. 395. 335. -2.
      16. 143. 168. 120.</_>
    <_>
      29. 31. 20. 247. 283. 316. 34. 45. 35. 412. 395. 391. -2. 16. 18.
      168. 120. 78.</_>
    <_>
      31. 20. -136. 283. 316. 274. 45. 35. -272. 395. 391. 312. 16. 18.
      -368. 120. 78. 44.</_>
    <_>
      20. -136. -89. 316. 274. 133. 35. -272. -272. 391. 312. 134. 18.
      -368. -381. 78. 44. 17.</_>
    <_>
      -136. -89. 32. 274. 133. 32. -272. -272. 2. 312. 134. 22. -368.
      -381. -18. 44. 17. 0.</_>
    <_>
      -313. -207. 116. -67. -25. 254. -386. -44. 335. -8. 40. 143. -385.
      3. 377. 13. 13. -1.</_>
    <_>
      -207. 116. 34. -25. 254. 412. -44. 335. -2. 40. 143. 168. 3. 377.
      -23. 13. -1. -5.</_>
    <_>
      116. 34. 45. 254. 412. 395. 335. -2. 16. 143. 168. 120. 377. -23.
      -8. -1. -5. -2.</_>
    <_>
      45. 35. -272. 395. 391. 312. 16. 18. -368. 120. 78. 44. -8. 0.
      -386. -2. -2. -4.</_>
    <_>
      35. -272. -272. 391. 312. 134. 18. -368. -381. 78. 44. 17. 0.
      -386. -391. -2. -4. -5.</_>
    <_>
      -272. -272. 2. 312. 134. 22. -368. -381. -18. 44. 17. 0. -386.
      -391. -23. -4. -5. -3.</_>
    <_>
      2. -183. -191. 22. 15. 19. -18. -36. -95. 0. 134. 373. -23. 241.
      158. -3. 135. 426.</_>
    <_>
      -183. -191. 154. 15. 19. 10. -36. -95. 5. 134. 373. 329. 241. 158.
      -273. 135. 426. 445.</_>
    <_>
      -191. 154. 170. 19. 10. 6. -95. 5. 80. 373. 329. 94. 158. -273.
      -163. 426. 445. 159.</_>
    <_>
      269. 214. -266. 9. -6. -24. 183. 142. -127. 19. -124. -39. 100.
      70. 40. 404. 392. 402.</_>
    <_>
      214. -266. -152. -6. -24. -36. 142. -127. -113. -124. -39. 151.
      70. 40. -208. 392. 402. 284.</_>
    <_>
      65. 196. 337. 49. 100. 61. 126. 201. 284. -6. 9. 0. 75. 133. 326.
      -137. -271. -288.</_>
    <_>
      196. 337. 217. 100. 61. 21. 201. 284. 215. 9. 0. -15. 133. 326.
      304. -271. -288. -142.</_>
    <_>
      337. 217. 3. 61. 21. 9. 284. 215. 3. 0. -15. -5. 326. 304. 6.
      -288. -142. -60.</_>
    <_>
      -386. -44. 335. -8. 40. 143. -385. 3. 377. 13. 13. -1. -413. 27.
      406. -103. -107. -40.</_>
    <_>
      335. -2. 16. 143. 168. 120. 377. -23. -8. -1. -5. -2. 406. -35.
      -38. -40. -19. -64.</_>
    <_>
      -18. -36. -95. 0. 134. 373. -23. 241. 158. -3. 135. 426. -16. 265.
      237. -6. -113. -301.</_>
    <_>
      -36. -95. 5. 134. 373. 329. 241. 158. -273. 135. 426. 445. 265.
      237. -272. -113. -301. -240.</_>
    <_>
      -95. 5. 80. 373. 329. 94. 158. -273. -163. 426. 445. 159. 237.
      -272. -241. -301. -240. -31.</_>
    <_>
      5. 80. 4. 329. 94. -2. -273. -163. 100. 445. 159. 108. -272. -241.
      151. -240. -31. -7.</_>
    <_>
      23. 56. 183. 15. 66. 19. 47. 83. 100. 413. 413. 404. 23. 54. 71.
      -167. -220. -269.</_>
    <_>
      56. 183. 142. 66. 19. -124. 83. 100. 70. 413. 404. 392. 54. 71.
      30. -220. -269. -326.</_>
    <_>
      183. 142. -127. 19. -124. -39. 100. 70. 40. 404. 392. 402. 71. 30.
      12. -269. -326. -404.</_>
    <_>
      142. -127. -113. -124. -39. 151. 70. 40. -208. 392. 402. 284. 30.
      12. -269. -326. -404. -375.</_>
    <_>
      -127. -113. -11. -39. 151. 97. 40. -208. -216. 402. 284. 38. 12.
      -269. -212. -404. -375. -186.</_>
    <_>
      126. 201. 284. -6. 9. 0. 75. 133. 326. -137. -271. -288. -27. -19.
      293. -73. -193. -361.</_>
    <_>
      201. 284. 215. 9. 0. -15. 133. 326. 304. -271. -288. -142. -19.
      293. 361. -193. -361. -483.</_>
    <_>
      284. 215. 3. 0. -15. -5. 326. 304. 6. -288. -142. -60. 293. 361.
      4. -361. -483. -510.</_>
    <_>
      215. 3. -385. -15. -5. 13. 304. 6. -413. -142. -60. -103. 361. 4.
      -379. -483. -510. -435.</_>
    <_>
      3. -385. 3. -5. 13. 13. 6. -413. 27. -60. -103. -107. 4. -379. 48.
      -510. -435. -376.</_>
    <_>
      -385. 3. 377. 13. 13. -1. -413. 27. 406. -103. -107. -40. -379.
      48. 351. -435. -376. -477.</_>
    <_>
      3. 377. -23. 13. -1. -5. 27. 406. -35. -107. -40. -19. 48. 351.
      -48. -376. -477. -566.</_>
    <_>
      377. -23. -8. -1. -5. -2. 406. -35. -38. -40. -19. -64. 351. -48.
      -69. -477. -566. -565.</_>
    <_>
      -23. -8. 0. -5. -2. -2. -35. -38. -43. -19. -64. -137. -48. -69.
      -83. -566. -565. -563.</_>
    <_>
      -8. 0. -386. -2. -2. -4. -38. -43. -358. -64. -137. -150. -69.
      -83. -185. -565. -563. -417.</_>
    <_>
      0. -386. -391. -2. -4. -5. -43. -358. -336. -137. -150. -66. -83.
      -185. -147. -563. -417. -139.</_>
    <_>
      -386. -391. -23. -4. -5. -3. -358. -336. -16. -150. -66. -6. -185.
      -147. 0. -417. -139. 6.</_>
    <_>
      -23. 241. 158. -3. 135. 426. -16. 265. 237. -6. -113. -301. 0. 18.
      11. 6. -118. -403.</_>
    <_>
      241. 158. -273. 135. 426. 445. 265. 237. -272. -113. -301. -240.
      18. 11. 5. -118. -403. -413.</_>
    <_>
      158. -273. -163. 426. 445. 159. 237. -272. -241. -301. -240. -31.
      11. 5. -25. -403. -413. -129.</_>
    <_>
      -273. -163. 100. 445. 159. 108. -272. -241. 151. -240. -31. -7. 5.
      -25. -30. -413. -129. -118.</_>
    <_>
      100. 110. 47. 108. 310. 413. 151. 169. 23. -7. -99. -167. -30. 9.
      9. -118. -367. -473.</_>
    <_>
      110. 47. 83. 310. 413. 413. 169. 23. 54. -99. -167. -220. 9. 9.
      35. -367. -473. -453.</_>
    <_>
      47. 83. 100. 413. 413. 404. 23. 54. 71. -167. -220. -269. 9. 35.
      80. -473. -453. -414.</_>
    <_>
      83. 100. 70. 413. 404. 392. 54. 71. 30. -220. -269. -326. 35. 80.
      9. -453. -414. -369.</_>
    <_>
      100. 70. 40. 404. 392. 402. 71. 30. 12. -269. -326. -404. 80. 9.
      -19. -414. -369. -343.</_>
    <_>
      70. 40. -208. 392. 402. 284. 30. 12. -269. -326. -404. -375. 9.
      -19. -90. -369. -343. -224.</_>
    <_>
      40. -208. -216. 402. 284. 38. 12. -269. -212. -404. -375. -186.
      -19. -90. -12. -343. -224. -34.</_>
    <_>
      133. 326. 304. -271. -288. -142. -19. 293. 361. -193. -361. -483.
      -63. 101. 205. 111. 43. -183.</_>
    <_>
      326. 304. 6. -288. -142. -60. 293. 361. 4. -361. -483. -510. 101.
      205. 43. 43. -183. -273.</_>
    <_>
      304. 6. -413. -142. -60. -103. 361. 4. -379. -483. -510. -435.
      205. 43. -161. -183. -273. -91.</_>
    <_>
      6. -413. 27. -60. -103. -107. 4. -379. 48. -510. -435. -376. 43.
      -161. 33. -273. -91. 53.</_>
    <_>
      -413. 27. 406. -103. -107. -40. -379. 48. 351. -435. -376. -477.
      -161. 33. 128. -91. 53. -84.</_>
    <_>
      27. 406. -35. -107. -40. -19. 48. 351. -48. -376. -477. -566. 33.
      128. -47. 53. -84. -217.</_>
    <_>
      406. -35. -38. -40. -19. -64. 351. -48. -69. -477. -566. -565.
      128. -47. -46. -84. -217. -194.</_>
    <_>
      -35. -38. -43. -19. -64. -137. -48. -69. -83. -566. -565. -563.
      -47. -46. -67. -217. -194. -157.</_>
    <_>
      -38. -43. -358. -64. -137. -150. -69. -83. -185. -565. -563. -417.
      -46. -67. 17. -194. -157. -85.</_>
    <_>
      -43. -358. -336. -137. -150. -66. -83. -185. -147. -563. -417.
      -139. -67. 17. 25. -157. -85. 11.</_>
    <_>
      -358. -336. -16. -150. -66. -6. -185. -147. 0. -417. -139. 6. 17.
      25. -16. -85. 11. 22.</_>
    <_>
      265. 237. -272. -113. -301. -240. 18. 11. 5. -118. -403. -413.
      -134. -162. 152. -22. -62. -78.</_>
    <_>
      237. -272. -241. -301. -240. -31. 11. 5. -25. -403. -413. -129.
      -162. 152. 140. -62. -78. -50.</_>
    <_>
      -272. -241. 151. -240. -31. -7. 5. -25. -30. -413. -129. -118.
      152. 140. -138. -78. -50. -4.</_>
    <_>
      169. 23. 54. -99. -167. -220. 9. 9. 35. -367. -473. -453. -90. 27.
      46. 38. 63. 72.</_>
    <_>
      23. 54. 71. -167. -220. -269. 9. 35. 80. -473. -453. -414. 27. 46.
      115. 63. 72. 79.</_>
    <_>
      12. -269. -212. -404. -375. -186. -19. -90. -12. -343. -224. -34.
      -18. 4. 55. 74. 50. 21.</_>
    <_>
      -19. 293. 361. -193. -361. -483. -63. 101. 205. 111. 43. -183.
      -25. 9. 59. 153. 167. 155.</_>
    <_>
      293. 361. 4. -361. -483. -510. 101. 205. 43. 43. -183. -273. 9.
      59. 56. 167. 155. 112.</_>
    <_>
      361. 4. -379. -483. -510. -435. 205. 43. -161. -183. -273. -91.
      59. 56. 11. 155. 112. 115.</_>
    <_>
      4. -379. 48. -510. -435. -376. 43. -161. 33. -273. -91. 53. 56.
      11. 44. 112. 115. 154.</_>
    <_>
      -379. 48. 351. -435. -376. -477. -161. 33. 128. -91. 53. -84. 11.
      44. -7. 115. 154. 167.</_>
    <_>
      48. 351. -48. -376. -477. -566. 33. 128. -47. 53. -84. -217. 44.
      -7. -52. 154. 167. 160.</_>
    <_>
      351. -48. -69. -477. -566. -565. 128. -47. -46. -84. -217. -194.
      -7. -52. -18. 167. 160. 160.</_>
    <_>
      -48. -69. -83. -566. -565. -563. -47. -46. -67. -217. -194. -157.
      -52. -18. -56. 160. 160. 162.</_>
    <_>
      -69. -83. -185. -565. -563. -417. -46. -67. 17. -194. -157. -85.
      -18. -56. 26. 160. 162. 110.</_>
    <_>
      18. 11. 5. -118. -403. -413. -134. -162. 152. -22. -62. -78. -150.
      -180. 153. -30. -24. -25.</_>
    <_>
      11. 5. -25. -403. -413. -129. -162. 152. 140. -62. -78. -50. -180.
      153. 169. -24. -25. -23.</_>
    <_>
      9. 9. 35. -367. -473. -453. -90. 27. 46. 38. 63. 72. -75. 28. 38.
      -5. -14. -30.</_>
    <_>
      9. 35. 80. -473. -453. -414. 27. 46. 115. 63. 72. 79. 28. 38. 111.
      -14. -30. -49.</_>
    <_>
      -9. -39. -43. 407. 457. 335. 100. -87. -140. 64. 75. 52. 58. -51.
      -73. -340. -357. -231.</_>
    <_>
      266. 271. -53. -50. -149. -141. 126. 188. 110. -30. -154. -82.
      -35. 141. 205. -189. -273. -297.</_>
    <_>
      110. 103. 88. -82. -3. -52. 205. 73. 119. -297. -311. -261. 126.
      60. 182. -366. -444. -444.</_>
    <_>
      103. 88. -51. -3. -52. -7. 73. 119. 120. -311. -261. -104. 60.
      182. 212. -444. -444. -446.</_>
    <_>
      88. -51. -309. -52. -7. 71. 119. 120. -290. -261. -104. 8. 182.
      212. -151. -444. -446. -327.</_>
    <_>
      -51. -309. -249. -7. 71. 33. 120. -290. -306. -104. 8. 8. 212.
      -151. -222. -446. -327. -104.</_>
    <_>
      205. 73. 119. -297. -311. -261. 126. 60. 182. -366. -444. -444.
      15. -49. 68. 107. -35. -258.</_>
    <_>
      73. 119. 120. -311. -261. -104. 60. 182. 212. -444. -444. -446.
      -49. 68. 136. -35. -258. -446.</_>
    <_>
      119. 120. -290. -261. -104. 8. 182. 212. -151. -444. -446. -327.
      68. 136. 33. -258. -446. -457.</_>
    <_>
      120. -290. -306. -104. 8. 8. 212. -151. -222. -446. -327. -104.
      136. 33. -43. -446. -457. -317.</_>
    <_>
      -290. -306. -14. 8. 8. -4. -151. -222. -11. -327. -104. -5. 33.
      -43. 36. -457. -317. -190.</_>
    <_>
      -180. 186. 202. 14. 22. 38. -132. 138. 159. 274. 266. 159. -39.
      50. 51. 183. 196. 107.</_>
    <_>
      126. 60. 182. -366. -444. -444. 15. -49. 68. 107. -35. -258. -8.
      -151. -84. 92. 109. 78.</_>
    <_>
      60. 182. 212. -444. -444. -446. -49. 68. 136. -35. -258. -446.
      -151. -84. -3. 109. 78. -25.</_>
    <_>
      182. 212. -151. -444. -446. -327. 68. 136. 33. -258. -446. -457.
      -84. -3. 77. 78. -25. -109.</_>
    <_>
      212. -151. -222. -446. -327. -104. 136. 33. -43. -446. -457. -317.
      -3. 77. 64. -25. -109. -98.</_>
    <_>
      -151. -222. -11. -327. -104. -5. 33. -43. 36. -457. -317. -190.
      77. 64. 51. -109. -98. -103.</_>
    <_>
      56. -52. -107. 2. 186. 119. 238. -23. -162. 242. 269. 310. 171.
      -18. 84. 93. 4. 214.</_>
    <_>
      -107. 104. 107. 119. 118. 319. -162. 123. 218. 310. 275. 204. 84.
      -157. 126. 214. 215. -86.</_>
    <_>
      104. 107. -96. 118. 319. 318. 123. 218. -205. 275. 204. 207. -157.
      126. -122. 215. -86. -98.</_>
    <_>
      98. -40. -96. 176. 256. 126. 272. -115. -168. 270. 289. 272. 236.
      -131. 59. 38. -33. 195.</_>
    <_>
      238. -23. -162. 242. 269. 310. 171. -18. 84. 93. 4. 214. 4. 1.
      318. -10. -69. -26.</_>
    <_>
      -162. 123. 218. 310. 275. 204. 84. -157. 126. 214. 215. -86. 318.
      -342. 21. -26. 22. 33.</_>
    <_>
      79. 168. 30. 147. 262. 354. 231. 182. 63. 97. 148. 103. 366. 80.
      32. -46. -64. -152.</_>
    <_>
      30. -196. 71. 354. 298. 207. 63. -234. 36. 103. 154. 172. 32. -97.
      7. -152. -97. -7.</_>
    <_>
      -168. 152. 145. 272. 256. 203. 59. -87. 59. 195. 199. -73. 326.
      -325. -15. 26. 51. 11.</_>
    <_>
      -18. 84. -157. 4. 214. 215. 1. 318. -342. -69. -26. 22. 4. 258.
      -232. -4. -104. -102.</_>
    <_>
      84. -157. 126. 214. 215. -86. 318. -342. 21. -26. 22. 33. 258.
      -232. 116. -104. -102. 92.</_>
    <_>
      105. -315. -195. 127. 185. 83. 213. -357. -304. 79. 87. 38. 241.
      -377. -333. 3. 3. 3.</_>
    <_>
      4. -49. 231. 204. 101. 97. -5. -231. 366. 85. -3. -46. -16. -225.
      369. -160. -77. -25.</_>
    <_>
      231. 182. 63. 97. 148. 103. 366. 80. 32. -46. -64. -152. 369. 118.
      27. -25. 34. 155.</_>
    <_>
      59. -87. 59. 195. 199. -73. 326. -325. -15. 26. 51. 11. 298. -276.
      91. -94. -98. 97.</_>
    <_>
      213. -357. -304. 79. 87. 38. 241. -377. -333. 3. 3. 3. 232. -365.
      -327. -32. -29. -11.</_>
    <_>
      -231. 366. 80. -3. -46. -64. -225. 369. 118. -77. -25. 34. -167.
      234. 210. 43. -86. -188.</_>
    <_>
      366. 80. 32. -46. -64. -152. 369. 118. 27. -25. 34. 155. 234. 210.
      152. -86. -188. -92.</_>
    <_>
      326. -325. -15. 26. 51. 11. 298. -276. 91. -94. -98. 97. 144.
      -173. 243. -64. -111. -51.</_>
    <_>
      -113. 107. 127. -59. -69. 115. -298. 203. 288. -84. -163. -90.
      -289. 175. 325. -5. 55. -9.</_>
    <_>
      258. -232. 116. -104. -102. 92. 115. -162. 258. -35. -110. -92.
      -6. -146. 289. 22. -8. 21.</_>
    <_>
      -225. 369. 118. -77. -25. 34. -167. 234. 210. 43. -86. -188. -284.
      166. 136. 88. 32. -8.</_>
    <_>
      -298. 203. 288. -84. -163. -90. -289. 175. 325. -5. 55. -9. -109.
      250. 238. -101. 94. 146.</_>
    <_>
      -289. 175. 325. -5. 55. -9. -109. 250. 238. -101. 94. 146. -6.
      283. 134. -96. -155. -278.</_>
    <_>
      175. 325. -102. 55. -9. -80. 250. 238. -243. 94. 146. -11. 283.
      134. -282. -155. -278. -264.</_>
    <_>
      325. -102. 21. -9. -80. -115. 238. -243. -29. 146. -11. -167. 134.
      -282. -85. -278. -264. -203.</_>
    <_>
      -102. 21. 36. -80. -115. 38. -243. -29. 246. -11. -167. -160.
      -282. -85. 208. -264. -203. -304.</_>
    <_>
      -169. -162. -231. 87. -108. -107. -230. -236. -68. -214. -154.
      -66. -101. -108. -6. -297. -100. 2.</_>
    <_>
      -46. -73. 45. -34. -157. -199. -161. -166. 177. -123. -208. -127.
      -245. 8. 332. -307. -132. 116.</_>
    <_>
      -243. -29. 246. -11. -167. -160. -282. -85. 208. -264. -203. -304.
      -107. -24. 9. -11. 164. 127.</_>
    <_>
      -29. 246. -86. -167. -160. -100. -85. 208. -31. -203. -304. -347.
      -24. 9. -29. 164. 127. -27.</_>
    <_>
      -161. -166. 177. -123. -208. -127. -245. 8. 332. -307. -132. 116.
      -240. 156. 355. 76. 54. -23.</_>
    <_>
      -166. 177. 175. -208. -127. -17. 8. 332. 105. -132. 116. 91. 156.
      355. 49. 54. -23. -31.</_>
    <_>
      93. -206. 10. -143. -202. -216. 25. -122. 3. -379. -304. -213.
      -31. 7. 10. 135. 133. 178.</_>
    <_>
      134. -282. -85. -278. -264. -203. 63. -107. -24. -101. -11. 164.
      85. -7. 41. 123. 155. 145.</_>
    <_>
      208. -31. -186. -304. -347. -222. 9. -29. 2. 127. -27. 38. -111.
      -118. 100. 127. 72. 16.</_>
    <_>
      -245. 8. 332. -307. -132. 116. -240. 156. 355. 76. 54. -23. -170.
      15. 216. 336. 287. 84.</_>
    <_>
      8. 332. 105. -132. 116. 91. 156. 355. 49. 54. -23. -31. 15. 216.
      87. 287. 84. -9.</_>
    <_>
      -240. 156. 355. 76. 54. -23. -170. 15. 216. 336. 287. 84. -67.
      -38. 67. 43. 142. 143.</_>
    <_>
      156. 355. 49. 54. -23. -31. 15. 216. 87. 287. 84. -9. -38. 67. 45.
      142. 143. 45.</_>
    <_>
      90. 96. -36. 100. 264. 248. 256. 149. -250. 118. 173. 28. 229. 8.
      -282. -35. -258. -286.</_>
    <_>
      134. 109. 153. -248. -251. -185. 66. 56. 281. -82. -200. -191. -6.
      -2. 342. 20. 8. 2.</_>
    <_>
      56. 281. 208. -200. -191. -66. -2. 342. 308. 8. 2. 38. -12. 337.
      348. 8. -1. -2.</_>
    <_>
      281. 208. -3. -191. -66. -7. 342. 308. -4. 2. 38. 78. 337. 348. 1.
      -1. -2. 3.</_>
    <_>
      12. 84. 103. -270. -154. 67. 52. 211. 336. -86. -35. 104. 75. 158.
      410. 195. 114. -4.</_>
    <_>
      103. -64. -90. 67. 150. 44. 336. -73. -232. 104. 245. 200. 410.
      69. -326. -4. 71. 164.</_>
    <_>
      13. -100. -133. 247. 256. 99. 176. -112. -270. 220. 362. 370. 290.
      126. -265. -102. 108. 343.</_>
    <_>
      -100. -133. -39. 256. 99. -5. -112. -270. -146. 362. 370. 230.
      126. -265. -268. 108. 343. 366.</_>
    <_>
      -133. -39. 1. 99. -5. -61. -270. -146. -73. 370. 230. 105. -265.
      -268. -147. 343. 366. 295.</_>
    <_>
      342. 308. -4. 2. 38. 78. 337. 348. 1. -1. -2. 3. 323. 349. 7. 9.
      -3. -1.</_>
    <_>
      -158. 131. 136. -260. -237. -54. -200. 207. 189. 88. 99. 45. -83.
      94. 76. 273. 266. 94.</_>
    <_>
      52. 211. 336. -86. -35. 104. 75. 158. 410. 195. 114. -4. 96. 60.
      346. 58. 62. 18.</_>
    <_>
      211. 336. -73. -35. 104. 245. 158. 410. 69. 114. -4. 71. 60. 346.
      226. 62. 18. 36.</_>
    <_>
      336. -73. -232. 104. 245. 200. 410. 69. -326. -4. 71. 164. 346.
      226. -333. 18. 36. 93.</_>
    <_>
      -232. 120. 176. 200. 136. 220. -326. -13. 290. 164. 1. -102. -333.
      -212. 335. 93. 50. -1.</_>
    <_>
      120. 176. -112. 136. 220. 362. -13. 290. 126. 1. -102. 108. -212.
      335. 304. 50. -1. 12.</_>
    <_>
      176. -112. -270. 220. 362. 370. 290. 126. -265. -102. 108. 343.
      335. 304. -140. -1. 12. 80.</_>
    <_>
      -112. -270. -146. 362. 370. 230. 126. -265. -268. 108. 343. 366.
      304. -140. -288. 12. 80. 162.</_>
    <_>
      -270. -146. -73. 370. 230. 105. -265. -268. -147. 343. 366. 295.
      -140. -288. -199. 80. 162. 161.</_>
    <_>
      -146. -73. -46. 230. 105. 44. -268. -147. -4. 366. 295. 324. -288.
      -199. 142. 162. 161. 226.</_>
    <_>
      -73. -46. 12. 105. 44. 46. -147. -4. 87. 295. 324. 439. -199. 142.
      199. 161. 226. 369.</_>
    <_>
      -46. 12. 45. 44. 46. 45. -4. 87. -59. 324. 439. 411. 142. 199.
      -219. 226. 369. 349.</_>
    <_>
      12. 45. 35. 46. 45. 3. 87. -59. -79. 439. 411. 235. 199. -219.
      -242. 369. 349. 202.</_>
    <_>
      337. 348. 1. -1. -2. 3. 323. 349. 7. 9. -3. -1. 301. 337. 14. 27.
      5. -2.</_>
    <_>
