<?xml version="1.0"?>
<opencv_storage>
<opencv_ml_svm>
  <format>3</format>
  <svmType>C_SVC</svmType>
  <kernel>
    <type>LINEAR</type></kernel>
  <C>1.</C>
  <term_criteria><iterations>10000000</iterations></term_criteria>
  <var_count>18</var_count>
  <class_count>2</class_count>
  <class_labels type_id="opencv-matrix">
    <rows>2</rows>
    <cols>1</cols>
    <dt>i</dt>
    <data>
      -1 1</data></class_labels>
  <sv_total>1</sv_total>
  <support_vectors>
    <_>
      1.89845363e-04 -4.33287001e-04 6.08771916e-05 1.52933484e-04
      7.84162403e-05 -4.40594995e-05 -6.41007908e-04 2.04750060e-04
      -7.12526031e-04 -4.97418841e-05 -1.68040831e-04 -1.80931282e-04
      7.89491023e-05 -4.75819717e-04 -2.10131460e-04 -8.29066448e-06
      1.49395491e-04 -1.58892672e-05</_></support_vectors>
  <uncompressed_sv_total>493</uncompressed_sv_total>
  <uncompressed_support_vectors>
    <_>
      -26. -37. -24. 52. 109. 128. 54. -30. -20. 60. 90. 82. 102. -58.
      -26. 58. 48. 22.</_>
    <_>
      311. 452. 288. 51. 166. 198. 416. 555. 231. 46. 139. 153. 509.
      623. 169. 37. 105. 97.</_>
    <_>
      -102. -130. -74. 466. 532. 630. -27. -7. 59. -131. 1. 159. 6. 37.
      87. -474. -529. -615.</_>
    <_>
      -360. -386. 126. -154. -382. -380. -436. -500. 288. -26. 12. 58.
      -418. -386. 322. 20. 114. 216.</_>
    <_>
      -617. 122. -8. -11. 80. 166. -627. 338. -21. -17. 98. 215. -641.
      477. -18. -39. -29. -4.</_>
    <_>
      541. 507. -27. -3. -5. -1. 410. 440. 99. -132. -328. -273. 150.
      249. 232. -138. -393. -506.</_>
    <_>
      -251. 314. 418. -221. -282. -98. -310. 421. 393. 86. 195. 93.
      -106. 309. 167. 160. 143. -93.</_>
    <_>
      -79. 78. 130. 447. 384. 480. -28. -28. 223. 450. 458. 349. 98.
      -139. 191. 84. 91. 57.</_>
    <_>
      -125. 336. 223. 59. 180. 363. -130. 517. 321. -50. 5. 101. -165.
      469. 404. 239. 101. 40.</_>
    <_>
      147. -13. 71. 205. 391. 391. 279. 177. -168. 177. 313. 264. 182.
      124. -334. 114. -172. -342.</_>
    <_>
      12. -649. -689. -2. -3. -1. 1. -648. -677. -11. -20. -9. -29.
      -649. -645. -23. -45. -25.</_>
    <_>
      164. 57. -83. 54. 37. -15. -61. 193. -43. -295. -367. -139. -263.
      229. 175. -173. -267. -241.</_>
    <_>
      -76. -207. -49. 174. 361. 425. -47. -171. -48. -135. -257. -284.
      -205. -243. -35. -205. -313. -345.</_>
    <_>
      621. -637. -324. -3. -1. -160. 624. -636. -561. -2. 0. -77. 623.
      -633. -644. -5. -5. -8.</_>
    <_>
      -370. -542. -185. 136. 284. 167. -116. -527. -436. 118. 239. 120.
      0. -521. -556. 0. 1. 6.</_>
    <_>
      -120. 94. 409. -86. 130. 407. 96. 294. 386. 280. 480. 380. 283.
      219. 126. 465. 377. 142.</_>
    <_>
      -546. -71. 131. 298. 77. -29. -620. -375. 111. 294. 137. -81.
      -463. -599. -93. 217. 307. 97.</_>
    <_>
      -204. 181. 382. -188. -309. -114. -351. 327. 421. -97. 23. 13.
      -164. 359. 157. -44. 55. -167.</_>
    <_>
      235. -478. -427. 173. -252. -299. -84. -543. -154. -394. -353.
      -98. -150. -225. -39. -396. -185. -7.</_>
    <_>
      -8. -86. -59. 186. 268. 451. -56. 35. 86. 430. 421. 504. -6. 53.
      43. -454. -377. -485.</_>
    <_>
      -126. -92. 121. -416. -432. -381. -249. -96. 111. -389. -500.
      -565. -439. -113. 42. 63. -33. -54.</_>
    <_>
      -249. 274. 186. -85. -158. -16. -397. 89. 254. 307. 47. -212.
      -364. -247. -38. 468. 425. 56.</_>
    <_>
      115. -30. -132. 441. 552. 404. 238. -62. -269. 566. 546. 525. 157.
      -60. -157. 101. 42. 177.</_>
    <_>
      443. 406. 278. 15. -66. -166. 488. 183. 239. 240. 143. -19. 545.
      18. 206. 43. 32. -4.</_>
    <_>
      -312. 399. 648. 48. 5. -2. -282. 377. 671. -54. -3. 5. -237. 385.
      677. -5. -3. 3.</_>
    <_>
      552. 568. -69. 66. 152. 117. 630. 544. -71. 0. -32. -23. 508. 442.
      75. -80. -272. -237.</_>
    <_>
      34. 363. -237. 256. 131. 31. 5. 89. -191. 249. 71. -57. -24. -59.
      -128. -258. -257. -214.</_>
    <_>
      -22. -7. -47. 110. 127. 139. -3. 4. -19. -643. -630. -603. 0. 0.
      6. 26. 12. 6.</_>
    <_>
      -464. -431. 59. 26. 55. 21. -365. -336. -17. -277. -112. -59.
      -196. -142. -34. -366. -168. -44.</_>
    <_>
      -248. -199. -193. -374. -439. -297. -360. -33. 9. -406. -287. -61.
      -316. 83. 129. -36. 5. 15.</_>
    <_>
      -320. -157. -8. 326. 437. 458. -136. -66. -9. 262. 426. 495. -49.
      -7. 24. 11. -7. 16.</_>
    <_>
      78. 203. 196. -208. -11. 30. 211. 410. 306. -559. -416. -140. 264.
      408. 347. 414. 322. 85.</_>
    <_>
      64. 86. -103. -370. -486. -217. -271. 87. 145. 249. 31. 11. -240.
      -92. 233. 388. 458. 387.</_>
    <_>
      84. -19. 306. -302. -313. -310. -77. -226. 400. 17. -340. -456.
      -292. -364. 298. 260. 264. 140.</_>
    <_>
      -451. -501. -174. 165. 247. 128. -137. -518. -407. 71. 286. 155.
      105. -526. -514. 71. 90. 106.</_>
    <_>
      40. 617. 586. -20. -49. -60. 39. 549. 587. -25. -65. -121. 58.
      397. 570. 18. -75. -188.</_>
    <_>
      -657. -537. 637. 87. 27. -107. -598. -629. 587. -2. 25. 17. -445.
      -478. 445. -527. -250. -233.</_>
    <_>
      -202. -422. -141. -92. -396. -519. -292. -450. 19. 20. 206. 461.
      -44. -102. 8. -396. 14. 96.</_>
    <_>
      268. -638. -510. -38. 14. 22. 357. -627. -520. -31. 17. 10. 445.
      -628. -541. -19. 20. 5.</_>
    <_>
      -425. -50. -64. 211. 28. 14. -676. -76. -68. 140. 46. 30. -544.
      -121. -181. 474. 655. 513.</_>
    <_>
      562. 561. -14. -4. -3. -2. 565. 567. -15. -7. 1. 5. 571. 577. -12.
      -9. -1. 8.</_>
    <_>
      -206. -570. -428. -160. -306. -188. -459. -511. -171. -301. -349.
      -151. -578. -276. -43. -282. -118. 47.</_>
    <_>
      473. 542. -85. -33. -144. -255. 390. 336. -76. -100. -278. -364.
      265. 111. -22. -1. -173. -258.</_>
    <_>
      250. 504. -340. 24. -118. -246. 81. 312. -125. 53. -166. -15. -55.
      231. 231. -41. -39. 85.</_>
    <_>
      617. 584. -514. -3. -4. 0. 615. 583. -505. -3. -5. -1. 614. 584.
      -497. -4. -2. 3.</_>
    <_>
      272. 124. -67. 118. 338. 447. 313. 307. 4. -69. -65. 80. 201. 154.
      15. 431. 162. -125.</_>
    <_>
      41. 101. 74. -7. -299. -200. -178. 64. 184. 630. 666. 640. -46.
      40. 50. -258. -186. -318.</_>
    <_>
      -114. 654. 531. 52. 34. 67. -113. 545. 507. 275. 185. 19. -38.
      310. 421. 234. 164. 9.</_>
    <_>
      4. 611. 4. -2. -3. -2. 0. 608. 9. 2. -4. -3. -2. 449. 11. 316.
      161. 3.</_>
    <_>
      71. 51. 36. 617. 625. 634. 40. 28. 21. -494. -556. -603. 90. 102.
      66. -444. -258. -92.</_>
    <_>
      -542. 299. 540. 154. -39. -266. -498. -108. 583. -62. -232. -369.
      -294. -296. 488. 14. 200. 54.</_>
    <_>
      124. -316. -388. -82. 394. 582. 465. 244. -313. -467. -42. 405.
      454. 531. 99. -270. -419. -167.</_>
    <_>
      -126. 544. -428. -4. -6. 0. -134. 551. -420. -10. -9. 0. -139.
      557. -412. -5. -5. 0.</_>
    <_>
      -201. 434. 227. -79. -368. -409. -368. 233. 390. 58. -21. -18.
      -335. 370. 374. -21. 228. 346.</_>
    <_>
      83. 249. 172. -495. -463. -272. -79. 285. 387. 43. -115. -55.
      -207. 230. 313. 493. 468. 279.</_>
    <_>
      208. 117. 15. -270. -57. 57. 128. 314. 120. -218. -314. -126.
      -177. 177. 212. 283. -63. -296.</_>
    <_>
      -165. 551. -121. -111. -243. 35. -426. 433. 357. -116. -363. -281.
      -465. 115. 474. 357. 247. -36.</_>
    <_>
      -92. 513. 569. -156. -99. -29. -35. 592. 588. -111. -32. -4. 76.
      543. 490. 338. 321. 146.</_>
    <_>
      107. 365. 243. 315. 263. 205. 248. 102. 207. 308. 238. -3. 352.
      53. 60. -190. -65. -20.</_>
    <_>
      -352. -65. 344. -338. -327. -100. -462. 161. 426. -4. 101. 182.
      -312. 85. 312. 134. 103. -168.</_>
    <_>
      -151. 51. 100. -411. -575. -464. -130. 18. 222. 42. 194. 172. 285.
      -15. 111. 245. 475. 353.</_>
    <_>
      406. 369. -291. -316. -103. -95. 502. 474. -397. 20. 8. -1. 488.
      472. -395. -10. -14. -5.</_>
    <_>
      -20. -117. -127. -568. -521. -289. -5. 93. 138. -5. 173. 416. 48.
      95. 138. 598. 475. 234.</_>
    <_>
      -72. 99. 164. 618. 597. 478. -18. 23. 51. 514. 513. 443. 4. 2. 2.
      -2. 0. 0.</_>
    <_>
      -392. 495. 474. -58. -59. -28. -315. 441. 464. 71. 95. 0. -235.
      414. 421. -61. -32. -7.</_>
    <_>
      -630. -102. 178. 10. 18. 10. -629. -106. 173. 19. 8. 7. -737.
      -107. 174. 91. -7. -6.</_>
    <_>
      4. -225. -521. 354. 309. 183. -4. -261. -609. 10. 11. 13. -8.
      -247. -609. 4. 13. 25.</_>
    <_>
      -1. -5. 140. 25. 21. 144. 143. 135. 275. 129. 417. 569. 250. 307.
      144. 210. 201. 90.</_>
    <_>
      169. 6. -48. -333. -238. -302. 346. -11. -217. -278. -213. -335.
      330. -49. -383. 116. -3. -85.</_>
    <_>
      495. 34. -10. 163. 44. 30. 122. 17. -7. -314. -585. -585. -333.
      -102. 3. -219. -522. -631.</_>
    <_>
      698. 361. -7. 46. -11. -47. 606. 230. -11. -84. -250. -349. 421.
      27. -25. -113. -335. -453.</_>
    <_>
      -146. 246. 300. -428. -534. -466. -177. 226. 200. -165. -110.
      -298. 47. 138. 33. 39. 120. 53.</_>
    <_>
      -124. -197. -382. -102. -397. -660. -308. -392. -317. -654. -738.
      -605. -267. -203. -87. -557. -243. 43.</_>
    <_>
      -79. -44. -134. -361. -532. -512. -79. -44. 27. -167. 4. 145. 146.
      16. 14. 446. 560. 466.</_>
    <_>
      -211. -444. -250. 459. 446. 248. 124. -316. -388. -82. 394. 582.
      465. 244. -313. -467. -42. 405.</_>
    <_>
      583. -45. -629. -271. 1. 317. 378. 443. -449. 28. 39. 391. -63.
      615. 28. -21. -301. -4.</_>
    <_>
      -93. -244. -91. -143. -314. -263. -347. -243. 197. -467. -549.
      -311. -415. -100. 402. -471. -314. -204.</_>
    <_>
      1. -339. -361. 413. 415. 345. -53. -213. -354. -41. 29. 232. -62.
      -106. -196. -36. -8. 54.</_>
    <_>
      -662. -297. 0. 128. -57. -114. -821. -362. 0. -3. -42. -50. -790.
      -317. 0. -138. -23. 30.</_>
    <_>
      -729. -6. 152. 17. -2. 8. -724. -17. 95. 84. 97. 19. -646. -42.
      -19. 44. 84. 23.</_>
    <_>
      -670. 123. 657. -188. -93. -13. -655. 354. 520. -275. -124. -110.
      -525. 565. 120. -25. 165. -38.</_>
    <_>
      396. 504. 397. 16. 40. -1. 450. 455. 307. 38. 19. -79. 450. 389.
      300. -32. -79. -54.</_>
    <_>
      100. 98. 25. -356. -156. -23. 198. 193. 59. -518. -525. -529. 94.
      88. 27. -170. -372. -505.</_>
    <_>
      -607. 57. 616. -195. -61. 72. -510. 347. 524. -226. 27. 92. -240.
      559. 281. 18. 247. 151.</_>
    <_>
      -375. -196. 433. -315. -434. -307. -271. -129. 403. 119. 409. 319.
      84. -75. 51. 318. 437. 229.</_>
    <_>
      426. -355. -627. 90. 69. -1. 546. -384. -615. -166. -54. -1. 570.
      -219. -558. -272. -195. -26.</_>
    <_>
      281. -321. -361. -389. -411. -155. 232. -62. -334. -164. 68. 98.
      321. -8. -435. 161. 72. -5.</_>
    <_>
      -145. -138. -123. 421. 344. 141. 40. -179. -335. 150. 371. 321.
      272. -52. -392. -332. -194. -74.</_>
    <_>
      20. 84. 96. -466. -426. -356. 42. 78. 238. -382. -406. -340. 29.
      -17. 313. 197. 113. 27.</_>
    <_>
      391. -612. -450. 23. 34. -4. 410. -616. -475. -4. 0. 9. 412. -613.
      -474. 4. 5. 0.</_>
    <_>
      -2. 139. 180. 6. -389. -414. -119. -130. 27. 405. 414. 17. 132. 6.
      -101. -408. -30. 375.</_>
    <_>
      -110. -167. -489. 156. 49. -187. -52. -486. -543. 154. 0. -137.
      -175. -621. -410. -175. -279. -144.</_>
    <_>
      62. 583. 563. 48. 113. 101. 233. 611. 382. 149. 283. 142. 480.
      600. 128. 134. 236. 112.</_>
    <_>
      -532. -517. 504. 26. 5. -6. -435. -359. 511. -339. -63. 113. -145.
      71. 448. -295. 149. 340.</_>
    <_>
      16. 293. 257. 54. 401. 347. 341. 233. -30. 457. 375. 82. 251. -2.
      -179. -189. -432. -523.</_>
    <_>
      526. -59. -537. -2. 27. 25. 404. -37. -410. 244. 115. 266. 128.
      -18. -137. 242. 114. 255.</_>
    <_>
      25. 18. 19. -597. -590. -579. -39. -36. -15. -179. -304. -403.
      -108. -97. -62. 626. 621. 612.</_>
    <_>
      -36. -11. -316. 340. -31. -418. -103. -338. -198. -387. -410.
      -232. -52. -61. 147. -382. -31. 413.</_>
    <_>
      317. -209. -375. 169. 13. -95. 268. -225. -254. -166. -75. 138.
      347. 5. -128. -279. -61. 82.</_>
    <_>
      -363. -37. 52. -379. -425. -302. -335. 210. 114. 31. 352. 538.
      -225. 213. 50. 221. 13. -234.</_>
    <_>
      -186. 6. -70. 128. 0. 50. -407. -90. 118. 361. 172. 214. -280.
      -195. 253. 310. 521. 509.</_>
    <_>
      255. -136. 151. 385. 396. 293. 362. -175. 13. -90. -33. -107. 301.
      -156. -135. -167. -266. -321.</_>
    <_>
      -23. -2. 23. -225. -90. 73. 69. 64. 123. -795. -772. -769. 90. 72.
      44. -128. -122. -196.</_>
    <_>
      2. -6. -8. 6. -2. -12. 154. 138. -161. -458. -154. -153. 475. 448.
      -413. -503. -176. -119.</_>
    <_>
      1. -415. -410. -3. 135. 142. -150. -134. -259. -138. -146. 279.
      -428. -50. 186. -304. -490. -386.</_>
    <_>
      576. -93. -606. 76. 69. 32. 459. -293. -512. 271. -39. -108. 133.
      -480. -262. -57. -260. -128.</_>
    <_>
      -351. -447. -88. 135. 451. 620. -100. -137. -41. 100. 345. 533.
      -1. 3. 0. -3. -9. -16.</_>
    <_>
      -47. 494. -31. -179. -186. -125. -199. 614. -12. -219. -244. -166.
      -320. 690. 5. -34. -54. -39.</_>
    <_>
      6. 4. 5. 32. 40. 47. 10. 7. 9. -546. -547. -547. 6. 6. 7. -598.
      -602. -605.</_>
    <_>
      -138. 27. 87. -208. -281. -401. -51. -39. 40. 75. 169. 176. 58.
      19. 38. 524. 597. 646.</_>
    <_>
      -412. -342. 103. 52. 374. 533. -164. -33. 37. 78. 313. 397. -54.
      63. 0. 46. 17. -8.</_>
    <_>
      -14. -13. -1. 502. 491. 479. -10. -9. -13. 638. 657. 661. 2. -8.
      -20. -200. -206. -216.</_>
    <_>
      -41. -564. 57. -423. -274. -135. -6. -214. 33. -198. 38. 225. 34.
      -18. 23. 260. 260. 259.</_>
    <_>
      27. 618. 407. -241. -206. -99. -24. 660. 455. 70. 26. 9. -79. 654.
      395. 123. 106. 57.</_>
    <_>
      -586. 35. 597. -24. -17. -1. -597. 80. 600. -59. -32. 0. -599.
      150. 598. -71. -30. 6.</_>
    <_>
      -70. -127. -61. -160. -383. -581. -164. -280. -149. -628. -652.
      -695. -97. -160. -113. -609. -398. -199.</_>
    <_>
      337. -126. -427. 335. -108. -343. -87. -386. -317. -123. -364.
      -279. -342. -317. -157. -350. -295. -151.</_>
    <_>
      -73. -6. 60. 97. 174. 102. 4. -3. -6. -548. -545. -536. 5. 1. 1.
      -619. -617. -615.</_>
    <_>
      -234. -97. -184. 28. -19. -134. -236. -83. -14. -302. -243. 56.
      -293. 147. 192. -203. -89. 48.</_>
    <_>
      493. -554. -554. 49. -40. -40. 435. -584. -490. -37. -36. -2. 460.
      -498. -502. 6. 116. 156.</_>
    <_>
      -94. 434. 242. -192. -214. -42. -282. 253. 396. 98. -249. -448.
      -436. -85. 334. 16. -129. -330.</_>
    <_>
      55. 520. 563. 13. -78. -157. 54. 332. 415. 134. 36. -221. 52. 144.
      78. 418. 326. 58.</_>
    <_>
      -329. -97. 224. -545. -375. -128. -110. 165. 506. -84. 227. 524.
      115. 192. 335. 517. 458. 17.</_>
    <_>
      -2. -10. -5. 28. 14. -1. 2. 9. 73. -582. -545. -433. 14. 49. 166.
      -660. -645. -624.</_>
    <_>
      151. -8. -152. 157. 292. 150. 439. 128. -294. 157. 446. 582. 445.
      420. -13. -153. -144. 293.</_>
    <_>
      520. 232. -469. -68. -142. -75. 313. 127. -268. -187. -425. -396.
      120. 17. -82. -58. -123. -76.</_>
    <_>
      636. 219. 22. -30. -15. -2. 641. 246. 21. -25. -8. 5. 645. 278.
      19. -33. -14. 3.</_>
    <_>
      25. 11. 422. 325. 399. 286. 92. 8. 148. 554. 544. 380. 25. -33.
      -34. 237. 139. 80.</_>
    <_>
      -360. -214. 345. 186. 134. 75. -333. -178. 366. -193. -78. 38.
      -294. -40. 393. -64. -2. 47.</_>
    <_>
      7. -911. 6. -9. -11. 2. 11. -907. 60. 3. 13. 58. 22. -862. 96. 30.
      76. 112.</_>
    <_>
      -105. -217. -413. -261. -381. -425. -214. -225. -271. -496. -493.
      -315. -134. -20. -131. -166. 116. 283.</_>
    <_>
      -86. 97. 395. -106. -201. -223. -125. -14. 502. -161. -216. -198.
      -24. 34. 391. 260. 464. 383.</_>
    <_>
      319. 22. 1. 377. 434. 405. 282. -9. -30. -64. -189. -222. 194.
      -26. -39. 20. 40. 47.</_>
    <_>
      -203. -181. -230. 445. 387. 178. -85. -240. -469. 129. 246. 157.
      2. -123. -512. 40. 127. 290.</_>
    <_>
      -432. -177. -128. -442. -387. -134. -461. -21. 23. -103. -31. 23.
      -409. 6. 119. -17. -10. 59.</_>
    <_>
      57. 125. 171. -399. -317. 47. -5. 278. 470. 7. 16. 104. 12. 138.
      559. -22. -154. -293.</_>
    <_>
      -462. 128. 622. -456. -148. 2. -148. 428. 604. -422. -116. 16. 7.
      429. 437. 603. 453. 155.</_>
    <_>
      384. 154. 66. 414. 256. -118. 254. -141. -127. -118. -385. -499.
      -2. -128. -97. -334. -310. -153.</_>
    <_>
      -404. 44. 420. 14. -2. -12. -414. 110. 527. 0. 72. 255. -422. 200.
      639. -2. 8. 27.</_>
    <_>
      -57. -193. 105. 431. 355. 431. -154. -114. 240. 212. 270. 408.
      -116. 4. 198. 148. 246. 184.</_>
    <_>
      41. 44. 67. 255. 286. 331. 5. 3. 45. 705. 597. 489. -58. -80. -25.
      276. 238. 193.</_>
    <_>
      497. 520. -105. -69. -138. -71. 325. 473. 117. -131. -281. -173.
      133. 423. 377. -81. -173. -71.</_>
    <_>
      -572. 224. 430. -8. -6. -2. -572. 228. 433. -8. -6. -3. -570. 231.
      430. -2. 1. -2.</_>
    <_>
      32. -471. -44. 22. -37. -44. 50. -339. 22. 160. 369. 574. 81. -81.
      46. 81. 161. 238.</_>
    <_>
      -305. 185. 70. 51. 225. 414. -156. 240. 28. 318. 348. 172. -7.
      -136. -254. 527. 270. -212.</_>
    <_>
      224. 573. 268. 0. 7. -6. 250. 553. 233. 18. 17. -25. 206. 396.
      146. -204. -404. -606.</_>
    <_>
      -125. -737. 65. 227. 339. 45. 301. -665. -347. -5. 381. 335. 708.
      -207. -473. -362. 117. 495.</_>
    <_>
      395. 178. -346. 157. 394. 410. 528. 417. -341. 46. 181. 409. 488.
      513. -186. 20. -59. -36.</_>
    <_>
      424. -446. -665. -2. 144. 273. 481. -210. -634. -51. 96. 234. 581.
      -189. -527. -61. -87. -97.</_>
    <_>
      73. 51. 30. 69. 97. 162. 156. 161. 53. 106. 271. 339. 204. 224.
      -2. 578. 524. 464.</_>
    <_>
      -754. -736. -67. 0. -2. 7. -648. -772. -145. 170. 242. 119. -492.
      -790. -302. 68. 134. 82.</_>
    <_>
      413. 276. -229. 279. 258. 293. 314. 238. 8. -52. -168. -4. 135.
      244. 205. -349. -406. -367.</_>
    <_>
      -2. -20. 48. 52. 58. 6. 135. 125. -20. 171. 447. 576. 310. 256.
      -116. 604. 634. 540.</_>
    <_>
      -116. 54. 385. -80. -174. -67. -231. 55. 347. 381. 361. 217. -98.
      11. 138. 354. 463. 354.</_>
    <_>
      -236. 584. 133. 128. 126. 189. -123. 638. 14. 49. 218. 90. 163.
      416. -158. 271. 166. -100.</_>
    <_>
      -583. 310. 414. 189. 8. -108. -490. -185. 543. 254. 33. -217.
      -363. -543. 579. -21. -31. -103.</_>
    <_>
      -51. 156. -67. 399. 280. 17. -37. 5. -441. 579. 561. 299. 7. -52.
      -634. 83. 88. 100.</_>
    <_>
      -316. -273. -132. -180. -205. -152. -274. -177. -62. 266. 429.
      542. -95. -49. -16. 365. 509. 570.</_>
    <_>
      23. 28. 7. 473. 490. 511. 58. 21. -128. -80. -69. -232. -18. -36.
      -292. -262. -406. -464.</_>
    <_>
      128. 25. 6. 190. 29. 2. -7. 0. 6. -511. -510. -508. 1. 17. 18.
      -539. -515. -488.</_>
    <_>
      -168. -432. -253. -270. -116. -11. -68. -335. -285. 36. 79. 39.
      58. -390. -395. 174. 202. 77.</_>
    <_>
      -443. -240. 241. -61. -62. 121. -443. -210. 408. 47. 78. 92. -268.
      -147. 254. 130. 337. 232.</_>
    <_>
      -366. -533. -151. 74. 185. 111. -151. -533. -296. 109. 213. 142.
      -71. -496. -274. -229. -216. -86.</_>
    <_>
      603. -1. -232. -1. 3. 70. 609. 1. -85. -1. 3. 85. 611. 4. -1. -3.
      -2. 3.</_>
    <_>
      -1. 0. 3. -611. -608. -605. 0. 2. 5. -16. -16. -15. -1. 2. 4. 609.
      608. 606.</_>
    <_>
      350. 175. -254. -328. -107. -98. 472. 241. -359. -32. -65. -113.
      469. 168. -365. 29. -14. -45.</_>
    <_>
      -105. 419. 424. -173. -39. 10. -53. 334. 464. 227. 60. -34. -140.
      142. 511. -48. -160. -211.</_>
    <_>
      -375. -383. -82. -193. -283. -168. -360. -343. -113. 220. 365.
      259. -90. -272. -278. 14. 210. 222.</_>
    <_>
      227. 509. 92. -135. -201. -28. 132. 401. 350. 16. -121. -144. 54.
      237. 446. -70. -175. -220.</_>
    <_>
      -124. 71. 124. -328. -273. -468. -9. 10. 10. 45. 44. 64. -162.
      148. 170. 290. 276. 554.</_>
    <_>
      -324. -189. 271. 526. 267. -249. -185. -362. -260. 247. 472. 284.
      -21. -139. -532. 13. 175. 314.</_>
    <_>
      151. 281. 304. 165. 435. 544. 346. 374. 133. 526. 544. 357. 302.
      190. 20. 440. 194. 84.</_>
    <_>
      -1. 102. 388. 7. 126. 378. 144. 327. 352. 254. 505. 442. 270. 292.
      125. 530. 370. 171.</_>
    <_>
      -362. -213. 276. -98. -349. -436. -384. -425. 81. 204. 221. -99.
      -162. -396. -254. 130. 364. 378.</_>
    <_>
      -123. 360. 404. -443. -218. -2. -10. 335. 374. 592. 455. 184. 5.
      -13. 64. 517. 321. -66.</_>
    <_>
      -39. -423. -342. -347. 33. -6. 249. -156. -409. -487. -312. -73.
      90. -43. -204. 66. -155. -76.</_>
    <_>
      -18. -182. -203. 514. 454. 333. -25. -228. -262. -17. -10. 6. -23.
      -222. -255. 7. 8. 5.</_>
    <_>
      13. 0. -14. 455. 504. 554. 28. 36. 20. -348. -346. -326. 33. 14.
      86. -609. -628. -604.</_>
    <_>
      221. 332. 57. -247. -392. -157. -171. 164. 226. 369. -46. -280.
      -202. -196. 15. 302. 326. -11.</_>
    <_>
      -399. -366. 313. -17. -6. -11. -284. -206. 191. -424. -160. -117.
      -313. -53. 213. 141. 1. 133.</_>
    <_>
      -2. 41. -2. 504. 529. 558. -3. 65. 5. -101. -103. -101. -10. 38.
      10. -522. -554. -578.</_>
    <_>
      -622. -13. 624. 4. 3. 0. -621. -15. 622. -1. -1. -2. -621. -17.
      623. 3. 1. 1.</_>
    <_>
      -50. -424. -202. -106. -42. -90. -18. -243. -331. -346. -197. -97.
      19. -83. -255. -203. -155. -19.</_>
    <_>
      -67. 179. 56. 5. -85. -8. -270. 76. 125. -242. -458. -569. -353.
      -33. 49. -487. -463. -537.</_>
    <_>
      330. 185. -332. 210. 401. 344. 487. 226. -444. 65. 72. 58. 509.
      215. -439. 49. 53. 61.</_>
    <_>
      506. 128. -314. 14. -12. 182. 562. -79. -180. 100. -25. -292. 647.
      -300. -429. 17. 6. -197.</_>
    <_>
      158. 148. -106. -318. -462. -480. -67. -96. 36. -239. -564. -648.
      -238. -317. 77. 44. -23. -119.</_>
    <_>
      118. -278. -480. -722. -556. -160. 80. -23. -153. -392. -341.
      -155. 104. -74. -78. 180. 102. -60.</_>
    <_>
      -514. -351. 117. 250. 119. -143. -380. -492. -146. 186. 310. 168.
      -122. -367. -260. 104. 363. 516.</_>
    <_>
      -50. -20. 5. 554. 602. 601. 3. -8. 3. -23. -6. 5. -34. -175. -116.
      -36. -257. -554.</_>
    <_>
      152. -21. -195. 208. 23. -133. 125. -186. -275. -47. -54. -143.
      249. -151. -363. -191. -25. 11.</_>
    <_>
      46. 34. -381. -182. -44. -37. 132. 38. -277. -418. -466. -365. 3.
      -77. -11. -181. -377. -327.</_>
    <_>
      -272. 131. 246. 458. 493. 470. -119. 67. 115. 137. 191. 19. 1. 3.
      4. 13. 15. 12.</_>
    <_>
      -122. 16. -204. -418. -430. -340. 62. 145. -79. 212. 537. 701.
      455. 279. 15. 409. 611. 675.</_>
    <_>
      17. -233. -375. 251. 297. 229. 12. -121. -376. -436. -375. -196.
      2. -33. -133. -452. -435. -283.</_>
    <_>
      241. 530. -191. 125. 66. -145. 433. 256. -412. 169. 146. -138.
      596. 55. -618. 56. 41. -82.</_>
    <_>
      -452. -118. 65. 362. 112. -75. -579. -372. -62. 365. 234. 40.
      -460. -574. -265. 334. 382. 171.</_>
    <_>
      -457. -179. 17. -461. -629. -619. -652. -94. 38. -124. -66. 30.
      -423. 140. -99. 57. 462. 463.</_>
    <_>
      -58. -95. 48. -582. -563. -512. -12. -35. 55. 272. 359. 375. -1.
      -43. 18. 247. 163. 102.</_>
    <_>
      -453. 223. 565. -9. 15. 29. -432. 248. 566. -12. 10. 22. -412.
      271. 566. -8. 13. 24.</_>
    <_>
      348. -156. -240. 84. 380. 460. 467. 255. -185. -295. -61. 325.
      387. 485. 98. -79. -163. -36.</_>
    <_>
      -79. -108. -94. 511. 378. 192. -91. -208. -183. 541. 562. 559.
      -36. -99. -104. 56. 199. 390.</_>
    <_>
      181. -2. -66. 437. 596. 524. 496. -9. -204. 406. 555. 482. 622. 3.
      -278. -42. -53. -42.</_>
    <_>
      17. -373. -115. 323. 185. 5. 105. -506. -105. -177. -84. -27. 46.
      -297. 30. -470. -413. -126.</_>
    <_>
      -689. -16. 7. 11. 0. 1. -701. -22. 9. 15. 8. 3. -691. -28. 11. -7.
      4. 5.</_>
    <_>
      509. -485. -445. -65. 155. 143. 590. -236. -645. -182. -72. -11.
      514. 42. -690. -90. 2. 174.</_>
    <_>
      562. -200. -382. -142. -486. -462. 205. -219. 0. -281. -313. 26.
      3. -46. 116. 151. 154. 104.</_>
    <_>
      85. -60. -258. -449. -578. -486. -140. -40. -74. -340. -416. -304.
      -243. -104. 14. 249. 158. 70.</_>
    <_>
      27. 52. 482. 13. 28. 202. 34. 62. 693. 6. 8. 55. 40. 47. 739. 10.
      -1. -17.</_>
    <_>
      164. 245. 136. 258. 443. 430. 260. 116. -53. 398. 180. -125. -20.
      -95. -131. -4. -277. -261.</_>
    <_>
      -16. 127. 640. 28. 53. 74. 64. 276. 446. 280. 484. 418. 199. 216.
      99. 547. 418. 77.</_>
    <_>
      52. -55. 60. 10. 69. 20. 291. -42. 2. 531. 724. 728. 610. -9. 6.
      518. 677. 710.</_>
    <_>
      443. 431. -13. 457. 145. -9. 139. 132. -8. 427. 136. -4. -4. -8.
      -2. -10. -2. 4.</_>
    <_>
      -127. -131. 131. -137. -377. -371. -279. -326. 246. -119. -226.
      -312. -309. -409. 234. 11. 5. -4.</_>
    <_>
      297. 139. 60. -221. -479. -398. 84. -2. 363. -216. -312. -231.
      110. -7. 314. 228. 345. 210.</_>
    <_>
      -409. -2. 30. -383. -498. -464. -402. 17. 56. 374. 515. 526. -275.
      17. 37. -11. -25. -55.</_>
    <_>
      -144. -1. 91. 428. 5. -393. -3. -143. -169. 5. 427. 423. 132. 134.
      -19. -420. -430. 1.</_>
    <_>
      -386. 127. 655. 12. -115. -233. -412. 5. 503. 12. -9. -165. -436.
      -6. 196. 12. -2. -164.</_>
    <_>
      -128. 7. 36. 162. 59. 68. -352. -115. 37. 478. 235. 105. -348.
      -279. -116. 542. 625. 438.</_>
    <_>
      369. 286. -306. -91. 12. 32. 298. 273. -252. 292. 105. 126. 212.
      139. -181. 14. -19. -103.</_>
    <_>
      -321. -172. 211. 319. 352. 351. -153. 63. 163. -85. 285. 473. 162.
      230. 108. 74. 186. 110.</_>
    <_>
      418. 212. 62. -436. -232. -84. 411. 429. 201. -443. -437. -229.
      209. 454. 414. -197. -380. -350.</_>
    <_>
      -44. -281. -161. 296. 123. -13. -51. -515. -148. 151. 83. -2. -44.
      -490. -146. -206. -106. 6.</_>
    <_>
      -404. -43. -174. -228. -299. -202. -506. -28. -60. -92. -108. -76.
      -489. -30. -61. 79. 110. 75.</_>
    <_>
      -355. 518. 531. 55. 6. -7. -472. 372. 529. 352. 138. 3. -550. 106.
      533. 260. 130. 3.</_>
    <_>
      276. -182. -247. 378. 164. -73. 6. -310. -208. -146. -330. -182.
      -163. -32. 229. -621. -328. 239.</_>
    <_>
      -301. 30. 52. -283. -262. -266. -143. 13. 53. 463. 583. 571. -22.
      -4. 19. 506. 490. 451.</_>
    <_>
      171. 317. 115. 183. 347. 409. 217. 461. 77. 55. 81. 125. 91. 501.
      177. -107. -219. -123.</_>
    <_>
      -2. 1. 4. 38. 37. 34. -2. -2. 0. 668. 666. 662. -2. -3. 0. 610.
      611. 614.</_>
    <_>
      -402. 192. 524. -20. -152. -326. -310. -98. 363. 236. 170. -107.
      -13. -151. 75. 133. 443. 379.</_>
    <_>
      -165. 324. -238. 225. 156. 4. -50. 136. -332. 290. 286. 156. 46.
      8. -244. 108. 80. 170.</_>
    <_>
      157. 58. -38. 265. 364. 350. 134. 56. -135. 96. -28. -113. -14.
      -15. -133. -268. -363. -347.</_>
    <_>
      338. -550. -255. 150. 264. 129. 482. -581. -398. 58. 57. 18. 388.
      -533. -304. -280. -325. -144.</_>
    <_>
      -638. -351. 316. 172. 79. -22. -649. -496. 229. 117. 54. -77.
      -651. -585. 104. 49. 21. -62.</_>
    <_>
      256. 163. -97. 158. 439. 439. 419. 296. -196. -11. 4. 38. 283.
      189. -22. -135. -393. -360.</_>
    <_>
      262. -5. -332. -222. -353. -306. 30. -9. -167. -126. -231. -117.
      -68. 0. -39. 360. 376. 399.</_>
    <_>
      234. -33. -362. 256. 61. -80. 137. -253. -266. -201. -323. -306.
      56. -293. -107. -210. -209. -107.</_>
    <_>
      667. 125. -432. 43. 57. 28. 603. 11. -363. 125. -67. -83. 457.
      -119. -217. -15. -99. -67.</_>
    <_>
      366. -157. -112. -226. -191. -164. 266. -79. 37. -520. -577. -377.
      129. 6. 195. -127. -122. -79.</_>
    <_>
      593. 487. -505. 169. 73. 7. 569. 262. -477. 307. 154. 23. 544. 64.
      -463. 86. 16. -37.</_>
    <_>
      -307. 110. 180. -303. -302. -168. -346. 266. 101. -228. -112.
      -169. -199. 212. -54. -31. -54. -206.</_>
    <_>
      308. -103. -283. 30. -275. -405. 221. -341. -224. 73. 53. 4. 230.
      -196. -140. -302. -128. 150.</_>
    <_>
      661. -646. 17. 5. -8. -13. 647. -664. 31. 5. -14. -13. 626. -675.
      54. -14. -27. -16.</_>
    <_>
      -641. -303. -50. 43. 23. 4. -632. -425. -65. 216. 123. 5. -615.
      -595. -91. 147. 87. 9.</_>
    <_>
      -553. -71. 444. 295. 265. 194. -394. -137. 288. 380. 503. 352.
      -145. -92. 53. 57. 228. 189.</_>
    <_>
      332. -133. -340. -614. -545. -326. 235. 106. -181. -383. -310.
      -131. 222. 252. -266. 70. 130. 12.</_>
    <_>
      -328. -340. 213. -64. -260. -351. -404. -457. 223. 6. 9. -7. -293.
      -338. 185. 103. 330. 427.</_>
    <_>
      603. -511. -463. -53. -1. -11. 619. -410. -538. -71. -6. 30. 618.
      -249. -577. -96. -1. 85.</_>
    <_>
      -3. -1. 5. 31. 31. 35. -3. -2. 6. -541. -542. -546. -2. -4. -1.
      -626. -626. -631.</_>
    <_>
      15. -381. -25. -11. 125. 273. -137. -262. 133. -153. -322. -193.
      -283. -285. 283. 3. 3. 1.</_>
    <_>
      -291. -604. 47. -17. 24. -37. -291. -495. -53. -263. -195. -125.
      -276. -363. -59. -176. -97. -41.</_>
    <_>
      3. 2. -5. -543. -540. -539. -6. -13. 6. -600. -627. -632. -34.
      -35. 21. -144. -167. -169.</_>
    <_>
      200. 235. 211. -382. -431. -279. 19. 157. 279. -65. -275. -437.
      -40. -22. 94. 92. 64. -138.</_>
    <_>
      131. -90. -2. -503. -540. -446. 2. 5. 1. -732. -729. -725. 8. 8.
      1. -82. -76. -77.</_>
    <_>
      485. 554. 31. -153. -336. -221. 133. 366. 121. 261. -96. -309.
      -14. 75. 17. 298. 217. 35.</_>
    <_>
      -53. 116. 59. -241. -188. -25. -234. 250. 231. -352. -452. -309.
      -305. 161. 301. -217. -277. -439.</_>
    <_>
      5. -1. -22. 493. 513. 528. 15. 14. -10. -555. -550. -538. 17. 16.
      -2. -101. -102. -104.</_>
    <_>
      60. 45. 36. -460. -485. -506. 32. 21. 15. -470. -497. -521. 116.
      15. 9. 462. 567. 579.</_>
    <_>
      132. 85. 558. -56. -27. -22. 104. 37. 627. -140. -245. -229. 72.
      -21. 632. 162. 177. 108.</_>
    <_>
      571. -30. -441. 223. 68. -5. 209. -85. -318. 37. -225. -84. -267.
      -51. -73. -7. -187. -49.</_>
    <_>
      -7. 42. 48. -419. -312. -148. -104. 219. 231. -216. -243. -47.
      -321. 297. 348. 109. -3. -4.</_>
    <_>
      -38. -166. -377. 312. 418. 345. 59. -111. -540. 33. 79. 44. 152.
      -300. -505. 42. -100. -219.</_>
    <_>
      231. 108. 95. -405. -418. -403. 86. 45. 120. -444. -639. -692.
      -97. -73. 67. -73. -179. -297.</_>
    <_>
      -517. -134. -15. 239. 136. 39. -463. -354. -18. 195. 132. 6. -303.
      -322. 8. -455. -200. -16.</_>
    <_>
      -18. -10. -2. -490. -486. -476. -75. -165. 66. 573. 357. 260.
      -191. -470. 186. 547. 342. 254.</_>
    <_>
      237. 117. -491. -445. -137. 229. 189. 452. -249. -247. -268. -57.
      77. 349. 116. -29. -223. -172.</_>
    <_>
      -66. -63. -187. 28. -393. -571. -301. -220. -51. -533. -504. -347.
      -180. -88. 102. -340. -116. 12.</_>
    <_>
      53. 32. 138. 411. 444. 338. 46. 62. 139. -448. -458. -321. 7. 40.
      393. -443. -494. -399.</_>
    <_>
      10. 131. 433. 8. 121. 353. 128. 360. 429. 128. 362. 355. 357. 367.
      172. 403. 405. 162.</_>
    <_>
      -64. 191. -19. -270. -415. -515. -83. 25. 23. -373. -413. -437.
      -40. -28. 19. -28. 2. -31.</_>
    <_>
      400. 393. -248. 180. 389. 320. 533. 349. -400. 173. 53. -74. 510.
      -25. -420. 312. 35. -232.</_>
    <_>
      746. 442. -478. -142. -42. 12. 766. 455. -465. 112. 45. 17. 704.
      386. -414. 40. -24. -14.</_>
    <_>
      446. 46. -250. 218. -54. -336. 204. -341. -307. 182. -175. -337.
      -235. -494. -186. -37. -272. -142.</_>
    <_>
      600. -426. -524. -62. -4. 26. 602. -289. -567. -78. 3. 67. 599.
      -99. -597. -99. 7. 103.</_>
    <_>
      -93. -21. 169. 423. 333. 259. -152. -33. 119. 568. 587. 599. -25.
      -15. 37. 41. 167. 91.</_>
    <_>
      -340. -340. -8. -210. -172. -82. -258. -181. 90. -486. -283. -116.
      -74. -6. 130. -304. -148. -100.</_>
    <_>
      337. -261. -121. -15. 71. 129. 244. -101. -94. -392. -411. -282.
      57. 13. -5. -393. -447. -373.</_>
    <_>
      356. 51. -302. -188. -89. 6. 532. 122. -106. -248. -100. 72. 436.
      363. 7. -284. -287. -105.</_>
    <_>
      -5. -629. -559. 3. 117. 89. 100. -537. -614. -74. 9. 74. 96. -387.
      -592. -42. 21. 128.</_>
    <_>
      -36. -474. -348. -18. -286. -278. -395. -506. -127. -363. -486.
      -305. -464. -310. 45. -514. -264. -77.</_>
    <_>
      -376. 9. 413. -12. -7. -3. -265. 23. 297. 293. 413. 307. -165. 31.
      188. -31. -43. -38.</_>
    <_>
      368. 252. -250. 64. 256. 326. 406. 368. -292. 24. -14. -10. 241.
      196. -123. -93. -392. -399.</_>
    <_>
      -433. 293. 301. 399. 453. 295. -164. 96. 103. 468. 486. 249. -23.
      -26. -20. -7. -6. -14.</_>
    <_>
      -265. -427. -356. 85. -5. -202. -248. -588. -356. -36. -90. -54.
      -382. -602. -218. -74. -168. -80.</_>
    <_>
      -168. 19. 120. -146. -187. -162. -301. 3. 93. -241. -349. -417.
      -422. -34. 21. -158. -208. -249.</_>
    <_>
      19. 19. 9. -41. -29. -17. 23. 18. 12. 451. 442. 432. 13. 7. 5.
      -523. -535. -543.</_>
    <_>
      59. 2. 47. -123. -180. -111. 32. -18. 149. -502. -492. -479. 2.
      13. 105. -524. -533. -559.</_>
    <_>
      -298. -11. -71. -226. -187. -153. -144. 72. 207. -72. 126. 453.
      64. 243. 382. 374. 555. 574.</_>
    <_>
      -116. -715. -41. -408. -165. -51. 21. -481. -90. -181. -53. 18.
      34. -314. -97. 16. 68. 157.</_>
    <_>
      -190. 306. 434. 68. -198. -272. -361. 17. 406. 173. -21. -264.
      -297. -264. 161. 217. 194. -89.</_>
    <_>
      -18. 217. 218. 156. 185. 46. -28. 132. 143. -172. -296. -317.
      -267. 119. 123. -351. -479. -491.</_>
    <_>
      107. 83. -316. -447. -197. -134. 180. 313. -294. -398. -345. -156.
      12. 242. -149. 138. -154. -269.</_>
    <_>
      345. 377. 18. -149. -377. -486. 116. 139. 3. -100. -339. -483. 5.
      8. -10. -7. -10. -10.</_>
    <_>
      -3. -658. -149. -43. -90. -165. -116. -678. -208. -128. -214.
      -218. -286. -502. -157. -502. -410. -179.</_>
    <_>
      -483. 68. 237. 75. -46. -205. -530. -64. 80. 174. 116. -14. -554.
      -183. -42. 194. 109. -2.</_>
    <_>
      13. -530. -550. 3. 4. -6. 20. -495. -520. -166. -125. -50. 24.
      -378. -395. -350. -270. -103.</_>
    <_>
      -245. -76. -65. -145. -392. -43. -281. 272. 121. -329. 230. 415.
      141. 279. -269. 423. 293. -275.</_>
    <_>
      240. 157. -425. -430. -331. -333. 264. 132. -324. -466. -566.
      -488. 58. 53. 37. -80. -265. -61.</_>
    <_>
      -85. -74. -234. 487. 616. 562. -87. -77. -316. -13. -147. -178.
      -166. -137. -208. -692. -697. -618.</_>
    <_>
      200. 0. -46. 468. 582. 590. 300. -29. -94. 668. 625. 540. 158.
      -47. -120. 78. -39. 2.</_>
    <_>
      -49. 64. 223. -267. -338. -419. -167. -81. 66. 279. 87. -134.
      -343. -106. 113. 135. 126. 369.</_>
    <_>
      420. 117. -524. -256. -95. 166. 110. 366. -279. 50. -172. 61.
      -110. 272. -19. 370. 278. 211.</_>
    <_>
      -58. -408. -607. -32. -120. -103. -182. -532. -481. -52. -212.
      -227. -216. -575. -392. -168. -85. -24.</_>
    <_>
      -353. -432. 219. 25. 78. 143. -225. -288. 169. 107. 326. 355. -61.
      -88. 43. 35. 180. 225.</_>
    <_>
      -53. -523. -587. -149. 65. 73. 193. -396. -671. -163. -4. 31. 282.
      -423. -687. 174. 77. -1.</_>
    <_>
      -249. 211. 114. 327. -191. -408. -206. -143. -108. 236. 443. 84.
      166. 60. -200. -452. -84. 386.</_>
    <_>
      -611. -374. 447. -209. 56. 415. -455. 158. 393. -123. 300. 419.
      -195. 377. 126. 249. 305. 138.</_>
    <_>
      138. -471. -482. -124. -7. 30. 348. -327. -463. -104. 133. 259.
      468. -103. -346. 14. 121. 336.</_>
    <_>
      12. 399. 680. 0. 69. 138. 15. 524. 677. 3. 62. 115. 23. 616. 667.
      7. 48. 77.</_>
    <_>
      42. 35. 30. -538. -485. -414. 53. 67. 74. -641. -651. -646. 22.
      36. 44. -98. -150. -216.</_>
    <_>
      -53. 121. 324. -15. -61. -200. 111. 19. 137. 411. 519. 369. 206.
      -13. -19. 396. 351. 313.</_>
    <_>
      164. 645. 503. 42. 85. 41. 264. 648. 399. 58. 118. 61. 385. 649.
      277. 65. 127. 63.</_>
    <_>
      258. 292. -98. 258. 314. 264. 230. 145. -195. 120. -111. -305. 61.
      -155. -111. -89. -327. -349.</_>
    <_>
      -6. -13. 2. -556. -535. -528. -17. -18. -18. -143. -180. -212.
      -25. -40. -58. 651. 658. 628.</_>
    <_>
      -564. -504. 231. -98. -58. -39. -599. -405. 164. -115. -91. -78.
      -639. -376. 137. 13. -22. -33.</_>
    <_>
      378. 113. -399. -224. -185. 175. -54. 340. -125. 108. -136. 5.
      -256. 160. 130. 84. -54. -120.</_>
    <_>
      -23. -259. -41. -67. -15. -85. 29. -84. -56. -451. -276. -46. -42.
      134. 132. -304. -332. -156.</_>
    <_>
      -163. 166. 326. -447. -360. 48. 45. 510. 304. -33. 432. 346. 318.
      415. -207. 686. 399. -121.</_>
    <_>
      67. 105. -139. -251. 27. 61. 310. 188. -165. -380. -332. -309.
      204. 84. 22. -236. -494. -434.</_>
    <_>
      648. 648. -213. -16. -8. -147. 646. 660. -481. -8. -6. -123. 645.
      660. -445. 1. -2. 151.</_>
    <_>
      -12. -8. 0. -148. -154. -204. -7. -5. -1. -673. -659. -607. 2. 6.
      43. -588. -582. -579.</_>
    <_>
      -587. -530. -55. 293. 164. 19. -474. -630. -195. 92. 234. 139.
      -172. -586. -467. 104. 308. 175.</_>
    <_>
      -204. 255. 431. 108. 21. 17. -393. 260. 422. 137. 40. 40. -522.
      269. 393. 76. 53. 33.</_>
    <_>
      -322. -243. -105. 336. 225. 151. -247. -319. -127. -49. 61. 37.
      -49. -254. -116. -349. -196. -96.</_>
    <_>
      -181. 294. -151. 17. -58. 37. -411. 137. 122. 147. -165. -144.
      -415. -248. 211. 221. 144. -173.</_>
    <_>
      175. -324. -187. 217. 274. 223. 145. -347. -187. -47. -157. -129.
      -9. -415. -63. -101. -213. -185.</_>
    <_>
      -273. -321. -125. -605. -561. -259. -127. -41. 186. -459. -77.
      212. 57. 230. 229. 1. 74. 99.</_>
    <_>
      -438. -676. -137. -274. -202. -49. -427. -382. -82. -489. -256.
      -60. -261. -132. -39. -305. -122. -25.</_>
    <_>
      -75. -23. -2. -139. -249. -312. -143. -25. 50. -519. -479. -366.
      -22. 64. 151. 180. 350. 427.</_>
    <_>
      -105. -107. -89. -623. -601. -593. -46. -39. -35. -282. -177. -63.
      16. 22. 25. 78. 96. 103.</_>
    <_>
      -210. -358. -287. 164. 106. -21. -252. -357. -291. -230. -213.
      -89. -421. -261. -122. -209. -299. -158.</_>
    <_>
      -40. -618. -170. 30. -276. -464. -378. -731. -226. -168. -313.
      -294. -624. -719. -126. -136. -225. -132.</_>
    <_>
      -227. -2. -27. -241. -178. -97. -124. 11. 56. 472. 525. 540. -34.
      -1. 63. 558. 583. 563.</_>
    <_>
      561. 187. -58. 241. 91. -52. 562. 149. -138. -208. -95. -70. 502.
      379. -294. -172. -115. -66.</_>
    <_>
      413. 283. 264. -287. -249. -218. 377. 356. 297. -243. -244. -169.
      235. 398. 350. -151. -250. -230.</_>
    <_>
      -132. -310. 133. 378. 146. -43. -308. -304. 166. 12. 74. 302.
      -262. 32. 137. -172. 148. 227.</_>
    <_>
      466. 223. -495. 76. 19. -83. 507. 23. -503. 105. 3. -103. 505.
      -188. -462. 91. -20. -84.</_>
    <_>
      129. 168. 128. 245. 414. 476. 319. 163. 50. 337. 353. 208. 449.
      51. -52. -3. -1. -70.</_>
    <_>
      39. 696. 684. -5. -8. -8. 41. 692. 683. 1. 2. -3. 46. 690. 678. 0.
      2. 0.</_>
    <_>
      -339. 364. 630. 125. 102. -2. -266. 216. 549. 190. 138. 13. -220.
      70. 497. 84. 36. -37.</_>
    <_>
      -504. -168. 289. -120. -234. -473. -477. -165. 148. -125. 19. 120.
      -299. -52. 65. 83. 230. 159.</_>
    <_>
      320. 540. 234. -76. 80. 58. 530. 588. 105. 16. 118. 59. 611. 590.
      32. 51. 32. 20.</_>
    <_>
      -435. 50. -153. -409. -294. 157. -529. 176. -43. 375. 292. 77.
      -318. -121. -92. -176. -179. -310.</_>
    <_>
      394. 389. -11. 372. 355. 217. 393. 129. -60. 335. 91. -80. 151.
      -25. -237. 129. -23. -183.</_>
    <_>
      395. 294. -72. 341. 222. -68. 535. 66. -246. 285. 316. 204. 605.
      72. -282. 1. 46. 128.</_>
    <_>
      -46. -226. -192. 344. 292. 212. 6. -202. -230. -42. 86. 152. -26.
      -145. -174. -224. -327. -280.</_>
    <_>
      354. 10. -565. 34. 72. 41. 407. 15. -627. 29. 49. 23. 453. 10.
      -677. 37. 58. 29.</_>
    <_>
      -455. 96. 106. 45. 158. 332. -319. 188. 210. 377. 492. 514. -113.
      102. 124. 345. 350. 156.</_>
    <_>
      1. -378. 576. 1. -8. -16. 1. -388. 573. -3. -4. -9. 3. -393. 567.
      1. -1. -7.</_>
    <_>
      -186. 642. 473. -4. 24. 139. -210. 619. 576. -30. -105. -140.
      -264. 451. 540. -34. -181. -350.</_>
    <_>
      -18. -313. 65. -170. -297. -363. 61. -312. 150. 281. 488. 640.
      144. -69. 133. 442. 561. 635.</_>
    <_>
      -322. -599. -295. -102. -197. -99. -480. -598. -136. -66. -128.
      -66. -565. -595. -54. -27. -47. -24.</_>
    <_>
      -606. -445. 117. 276. 77. -109. -536. -621. 61. 44. 137. 91. -407.
      -504. -153. -101. 52. 1.</_>
    <_>
      -317. -516. -20. 181. 302. 14. -75. -402. -315. 139. 374. 481. 10.
      -138. -207. 24. 138. 403.</_>
    <_>
      -347. -134. 27. -373. -188. -41. -363. -134. 35. 317. 116. -23.
      -464. -358. -19. 398. 274. 135.</_>
    <_>
      205. -101. -34. -67. -241. -352. 30. -283. -62. -52. -235. -334.
      -72. -358. -78. 12. 18. 26.</_>
    <_>
      -314. -430. -268. 366. 448. 238. -97. -354. -405. 109. 320. 469.
      -13. -125. -298. 11. 113. 300.</_>
    <_>
      111. -16. -21. -393. -288. -335. 351. -39. -96. -399. -287. -338.
      316. -33. -93. 162. 21. 81.</_>
    <_>
      -375. -137. -22. -135. -153. -40. -488. -156. 92. 202. 88. 70.
      -482. -390. 271. 242. 128. 91.</_>
    <_>
      -432. -437. -235. -420. -489. -231. -491. -237. -46. -387. -177.
      -46. -211. -169. 16. -119. 19. 18.</_>
    <_>
      -237. -16. 70. 207. 14. -50. -579. -122. 3. 363. 108. -1. -722.
      -397. -45. 400. 237. 23.</_>
    <_>
      -14. -155. -277. 0. -157. -473. -199. -363. -419. -463. -699.
      -733. -393. -261. -220. -745. -601. -266.</_>
    <_>
      -262. -51. -8. -92. 27. 80. -109. 120. 155. -11. 194. 475. 13.
      393. 363. 49. 239. 439.</_>
    <_>
      312. -147. -483. -78. 487. 577. 511. 226. -474. -529. -522. -230.
      198. 274. -156. -192. -464. -390.</_>
    <_>
      -287. 384. 491. 247. 58. -235. -322. -139. 364. 368. -1. -358.
      -441. -517. 268. 151. 23. -94.</_>
    <_>
      -6. -559. -431. 4. 11. -7. -2. -415. -349. 2. 143. 387. 0. -140.
      -126. 2. 138. 392.</_>
    <_>
      -55. -547. -65. -73. -137. -217. -37. -539. -36. 203. 293. 410.
      -39. -332. 0. 297. 412. 538.</_>
    <_>
      -169. -648. -357. 123. 278. 123. 19. -607. -575. 5. 79. 57. 53.
      -440. -652. -7. 120. 232.</_>
    <_>
      319. 142. -305. -113. -258. -153. -20. 117. -57. 90. -129. -11.
      -194. 63. 62. 426. 417. 364.</_>
    <_>
      -231. 341. 91. 91. -113. -69. -474. 138. 235. 232. -10. -113.
      -525. -243. 334. 233. 43. -136.</_>
    <_>
      535. 517. 16. 343. 311. 52. 592. 206. -126. 336. 114. -80. 396.
      -52. -161. 230. -2. -101.</_>
    <_>
      17. 395. 553. 53. 19. -17. -6. 259. 415. 564. 439. 201. -31. 79.
      199. 387. 307. 149.</_>
    <_>
      -309. 17. 370. -117. -255. -236. -312. -50. 383. -366. -298. -371.
      -109. 10. 203. -301. -106. -153.</_>
    <_>
      74. -72. 65. 332. 280. 267. 164. -218. 72. 286. 282. 156. 219.
      -222. -35. -327. -272. -257.</_>
    <_>
      394. 391. -319. 76. 163. 79. 459. 149. -430. 259. -5. -274. 430.
      -346. -509. 254. -6. -311.</_>
    <_>
      1. -5. -3. 37. 39. 43. 6. 6. 3. -556. -542. -529. 20. 16. 9. -620.
      -610. -607.</_>
    <_>
      17. 274. 537. -135. -248. -363. -66. 217. 425. 70. 43. -11. -67.
      161. 191. 437. 407. 171.</_>
    <_>
      -452. -426. 400. -64. -138. -204. -386. -426. 350. -50. 90. 106.
      -206. -251. 206. 30. 245. 260.</_>
    <_>
      615. 356. -499. 81. 42. -19. 617. 271. -535. 89. 45. -15. 616.
      184. -557. 80. 36. -13.</_>
    <_>
      9. 389. -86. -5. -367. -268. -497. 354. 261. -103. -282. -69.
      -573. 169. 354. 403. 321. 16.</_>
    <_>
      -213. 31. 184. 421. 455. 400. -87. 4. 62. 261. 326. 232. -8. -10.
      -11. -32. -32. -25.</_>
    <_>
      655. 157. 25. -365. -169. -5. 636. 496. 36. -322. -198. -12. 366.
      665. 206. -106. -331. -178.</_>
    <_>
      -120. 566. 692. -38. -52. -114. -52. 232. 537. 164. -88. -515.
      -92. -87. 296. 208. 101. -32.</_>
    <_>
      -469. 420. 479. -159. 100. 125. -213. 588. 224. 91. 256. 144. 57.
      616. 48. -61. 72. 36.</_>
    <_>
      333. 622. 282. 45. 98. 50. 424. 625. 194. 36. 77. 40. 487. 624.
      135. 27. 48. 25.</_>
    <_>
      -403. 466. 591. 53. 120. 223. -341. 382. 578. 53. -36. -236. -285.
      -3. 544. 97. -143. -362.</_>
    <_>
      -60. 238. 340. -390. -474. -382. -191. 5. 244. 455. 175. -246.
      -166. -357. -166. 414. 357. 6.</_>
    <_>
      -308. -308. 21. 4. 14. 21. -151. -149. 8. 161. 467. 606. -1. 0.
      -6. -7. -14. -18.</_>
    <_>
      -51. 430. 438. -589. -446. -148. -24. 587. 582. -42. -1. 2. 21.
      569. 545. 101. 87. 29.</_>
    <_>
      -178. 412. 293. 330. 68. -235. -350. -110. 203. 446. 14. -295.
      -519. -524. 198. 97. -54. -164.</_>
    <_>
      -226. -415. -125. -104. -325. -369. -416. -486. 50. -60. -100. 48.
      -348. -484. 41. 166. 276. 121.</_>
    <_>
      -80. -249. 316. 172. -23. -172. -69. -475. 293. 29. 9. -91. -37.
      -433. 116. -13. 81. 46.</_>
    <_>
      370. -171. -591. 314. 163. -5. 357. -318. -522. -7. -16. 74. 249.
      -147. -385. -209. -137. 81.</_>
    <_>
      -38. -39. 164. -390. -451. -360. -122. -89. 414. -230. -303. -194.
      -238. -77. 521. 148. 117. 127.</_>
    <_>
      -373. 35. 148. 115. -111. -330. -408. -341. 36. 208. 23. -246.
      -440. -492. -41. -32. -30. 11.</_>
    <_>
      39. 4. -4. -639. -632. -618. 23. 10. 16. -621. -638. -626. 4. 13.
      31. -26. -25. -19.</_>
    <_>
      23. -220. -459. -105. -180. -259. 137. -241. -399. -435. -267.
      -149. 181. -79. -271. -471. -433. -261.</_>
    <_>
      129. 401. 368. 125. 331. 344. 358. 345. 158. 404. 371. 92. 395.
      81. 19. 337. 143. 19.</_>
    <_>
      -241. 701. 623. -3. 89. 51. 73. 640. 444. 229. 390. 188. 388. 561.
      160. 234. 309. 148.</_>
    <_>
      608. 145. -623. -32. -15. 1. 586. 166. -607. -8. -26. -5. 543.
      173. -579. -13. -31. -17.</_>
    <_>
      -153. 572. -477. 9. 88. 59. -89. 595. -535. 5. 13. 7. -115. 582.
      -515. -1. -48. -35.</_>
    <_>
      218. 184. -143. 218. 184. -171. 348. -138. -418. -38. -196. -438.
      300. -203. -322. -506. -461. -188.</_>
    <_>
      -170. 178. 229. 346. 194. 53. 11. 33. 94. 189. 377. 238. 261. 68.
      54. -367. -270. -136.</_>
    <_>
      90. -41. -55. 294. 67. -13. -144. -205. -132. 472. 301. 140. -115.
      -210. -287. 151. 346. 347.</_>
    <_>
      586. 377. -179. -94. -83. 27. 399. 497. 15. -147. -225. -21. 176.
      569. 258. -76. -149. -38.</_>
    <_>
      -19. -13. 68. 25. 3. -98. -43. -165. -162. 585. 431. 150. -40.
      -358. -451. 596. 560. 359.</_>
    <_>
      -596. -477. 34. -162. -23. 52. -538. -378. 42. -6. 12. 44. -493.
      -146. -3. 3. 262. 417.</_>
    <_>
      -9. 1. -1. 595. 603. 601. -2. -3. -3. 590. 585. 581. -3. -5. -4.
      9. 11. 12.</_>
    <_>
      -2. -17. -11. 590. 605. 607. 4. 3. -27. 522. 533. 535. 2. 6. -106.
      32. 22. -56.</_>
    <_>
      -28. -33. 60. 544. 497. 392. 17. -64. -40. 263. 324. 298. -24.
      -29. -58. -426. -493. -450.</_>
    <_>
      -160. 53. 389. -310. -33. 211. 81. 210. 344. 377. 498. 366. 218.
      100. 118. 408. 314. 110.</_>
    <_>
      -1. 8. 6. 17. 18. 20. 3. 6. 6. 61. 62. 58. 5. 6. 0. 675. 676. 674.</_>
    <_>
      -83. -204. -372. -101. -230. -410. -214. -391. -353. -228. -417.
      -405. -399. -384. -151. -381. -370. -173.</_>
    <_>
      5. 59. 139. 31. 29. 161. 161. 118. 281. 169. 386. 455. 366. 152.
      216. 206. 228. 128.</_>
    <_>
      76. 57. -44. -424. -75. 282. 211. 267. 109. 613. 609. 615. -33.
      -1. 41. 277. -231. -573.</_>
    <_>
      -19. -397. -274. -31. 115. 120. 103. -320. -435. 297. 350. 261.
      89. -252. -551. 351. 352. 393.</_>
    <_>
      -403. -480. -332. -267. -170. -34. -548. -337. -273. -18. -117.
      -51. -711. -282. -188. -107. -116. -42.</_>
    <_>
      28. 217. 589. 14. 191. 407. 107. 529. 562. 87. 301. 370. 330. 647.
      333. 192. 319. 139.</_>
    <_>
      335. 255. -45. 259. 323. 515. 205. 353. 112. 433. 337. 400. 108.
      232. 155. 342. 220. 79.</_>
    <_>
      415. -163. -535. 141. 245. 31. 548. -285. -690. 240. 147. 84. 402.
      -342. -485. -218. -328. -117.</_>
    <_>
      -120. -374. -253. 420. 372. 175. -25. -438. -480. 231. 310. 216.
      51. -316. -581. 3. 122. 237.</_>
    <_>
      -185. -260. -260. -303. -376. -380. -217. -321. -209. 21. 1. -5.
      -170. -285. -210. 64. 167. 208.</_>
    <_>
      306. 156. -251. -104. -276. -359. 111. 87. -276. -533. -625. -636.
      9. 12. -123. -161. -246. -157.</_>
    <_>
      75. -304. 223. 29. -282. -321. -251. -392. 320. 107. 4. 52. -392.
      -369. 346. 24. 9. 10.</_>
    <_>
      -219. -755. -482. 17. 23. -12. -187. -763. -530. 23. 41. 20. -143.
      -743. -582. 11. 57. 46.</_>
    <_>
      286. -200. -196. 170. 268. 84. 319. -86. -359. -199. -150. -15.
      148. -51. -278. 242. 57. 38.</_>
    <_>
      129. 568. 609. -13. -16. 103. 54. 618. 701. -20. -42. -19. 80.
      575. 664. 156. 161. 58.</_>
    <_>
      352. 516. 255. -126. -190. -91. 198. 537. 388. -64. -133. -78.
      -20. 511. 468. 36. -139. -140.</_>
    <_>
      3. 44. 682. 13. 14. 2. 9. 114. 665. 17. 92. 157. 97. 213. 558. 97.
      209. 136.</_>
    <_>
      -126. 355. 395. 134. -35. 55. -201. 349. 495. -219. -131. -127. 1.
      451. 514. -265. -49. 68.</_>
    <_>
      -135. -329. -324. 327. 541. 616. 131. -142. -154. -119. 120. 402.
      264. 121. 145. -608. -451. -171.</_>
    <_>
      17. 30. 13. -701. -720. -721. 6. 21. 26. 90. 89. 94. 24. -17. 4.
      -10. -29. -94.</_>
    <_>
      -3. -318. -497. -89. -62. 9. 28. -225. -285. -462. -365. -131. 29.
      -81. -76. -433. -385. -266.</_>
    <_>
      -69. -41. -109. -425. -549. -457. -78. 30. 124. -146. 40. 252. 79.
      29. 126. 551. 521. 310.</_>
    <_>
      314. 112. 7. -306. -110. -11. 428. 309. 106. -414. -299. -102.
      405. 423. 307. -385. -409. -291.</_>
    <_>
      44. 198. 644. 10. -4. -6. 59. 199. 566. 29. 59. -16. 167. 299.
      332. 165. 343. 284.</_>
    <_>
      63. 160. 200. -609. -622. -624. 20. 64. 118. -106. -232. -408.
      -19. -13. 10. -41. -31. -40.</_>
    <_>
      437. 528. 107. 99. 140. -39. 468. 320. -11. 168. -50. -197. 429.
      80. 5. 313. 252. 175.</_>
    <_>
      -490. -147. -6. 138. 91. -14. -432. -426. -14. 342. 168. -14.
      -478. -703. -29. 262. 113. 3.</_>
    <_>
      -20. -37. -20. -320. -333. -342. -4. -29. -47. 490. 527. 517. 18.
      -1. -56. 284. 297. 326.</_>
    <_>
      -91. 163. 179. 315. 247. 155. -116. -197. 59. 356. 39. -349. -98.
      -402. -23. -350. -220. -119.</_>
    <_>
      565. 512. -348. -27. -44. 64. 523. 516. -105. -29. -50. 89. 537.
      519. -3. 37. 75. 41.</_>
    <_>
      -208. 185. 311. 330. 97. -11. -386. -8. 327. 204. 66. -3. -434.
      -78. 332. -14. 6. 10.</_>
    <_>
      -156. -136. -25. 616. 516. 445. -192. -201. -58. 50. 49. 22. -250.
      -205. -73. -174. -235. -227.</_>
    <_>
      323. 503. 16. -153. -217. -56. 161. 390. 304. -83. -294. -280. 80.
      168. 339. 2. -90. -291.</_>
    <_>
      -11. -412. -728. -5. 180. 384. -9. -114. -518. 5. 120. 424. -21.
      5. -157. -11. -19. 157.</_>
    <_>
      -131. -192. -254. -301. -498. -570. -259. -213. -148. -565. -517.
      -360. -141. -104. -35. -341. -162. -97.</_>
    <_>
      758. -40. -109. 0. 24. -31. 796. -48. -237. 16. 22. -59. 767. -44.
      -387. 39. 8. -57.</_>
    <_>
      -601. -624. 3. -7. 6. -3. -602. -611. -19. -12. -13. -13. -534.
      -569. -20. -184. -73. -32.</_>
    <_>
      -154. -18. 177. -156. -312. -153. -465. 17. 486. -191. -311. -126.
      -622. 102. 630. -70. -22. 22.</_>
    <_>
      17. 8. 342. 499. 508. 384. 14. 11. 72. 518. 509. 366. -2. 4. -100.
      128. 114. 78.</_>
    <_>
      394. 278. 144. 168. 368. 418. 607. 446. 47. 119. 300. 321. 677.
      548. 37. 3. -6. 65.</_>
    <_>
      -144. 361. 82. -198. -181. 12. -207. 424. 290. -363. -380. -302.
      -125. 227. 186. 325. 227. -152.</_>
    <_>
      315. -6. -242. 173. 118. -10. 385. -157. -388. -11. -37. -206.
      339. -332. -321. -221. -416. -355.</_>
    <_>
      441. 141. -3. -165. 125. 255. 448. 392. 99. -476. -508. -285. 169.
      470. 327. -167. -336. -253.</_>
    <_>
      20. 2. -10. -524. -488. -540. 55. -4. -57. -631. -638. -639. 32.
      1. -30. -88. -99. -66.</_>
    <_>
      436. 365. -290. -10. 67. 144. 319. 412. -172. -141. -288. -200.
      119. 397. 117. -139. -207. -21.</_>
    <_>
      -507. -496. 533. 57. 90. 73. -460. -475. 487. 36. 71. 63. -439.
      -458. 466. -15. -12. -8.</_>
    <_>
      -292. -104. 219. 40. -216. -243. -422. -321. 297. 200. 109. -3.
      -293. -324. 172. 99. 316. 300.</_>
    <_>
      669. 176. 14. -339. -172. -12. 581. 511. 44. -335. -255. -50. 280.
      668. 251. -108. -332. -173.</_>
    <_>
      -159. -151. 147. 279. 97. -1. -273. -339. 144. 199. 79. -14. -332.
      -396. 145. -38. -34. 3.</_>
    <_>
      -55. -329. 200. 433. 147. -40. -75. -438. -60. -173. -16. -198.
      -19. -228. -55. -443. -334. 63.</_>
    <_>
      -212. -118. -95. -34. -182. -259. -370. -193. -63. -166. -251.
      -217. -376. -116. 0. -264. -108. -2.</_>
    <_>
      159. 95. -421. 59. 3. -145. 103. -14. -395. -449. -558. -493. 32.
      -48. -186. -364. -360. -250.</_>
    <_>
      405. 495. 82. -7. -5. -6. 302. 391. 75. -110. -319. -429. 103.
      179. 27. -113. -315. -465.</_>
    <_>
      366. 599. -211. -52. -5. -19. 545. 646. -401. 93. 272. 143. 662.
      662. -550. 74. 28. 24.</_>
    <_>
      2. 649. 11. -6. -3. -1. 7. 646. 12. 1. 0. -4. 8. 637. 12. 10. 3.
      -2.</_>
    <_>
      88. -511. -366. 264. 291. 212. 68. -401. -428. 46. 109. 236. 1.
      -156. -343. -183. -68. 135.</_>
    <_>
      287. -410. -574. -79. 216. 318. 465. -139. -564. -123. 31. 210.
      501. 83. -529. -269. -165. -87.</_>
    <_>
      -233. -99. 78. -301. -203. -116. -376. -27. 66. -256. -425. -452.
      -502. -115. 123. 82. 37. 33.</_>
    <_>
      170. 173. -113. -174. -419. -451. 26. 48. -15. 274. 250. 255. 7.
      -50. 11. 623. 530. 453.</_>
    <_>
      620. -502. -7. 54. 28. -1. 619. -552. -9. 39. 14. -9. 615. -591.
      -4. 21. 3. -8.</_>
    <_>
      -344. -105. 311. 120. 293. 579. -167. 61. 376. -35. 135. 80. 16.
      -7. 172. -188. -243. -460.</_>
    <_>
      50. 392. 290. -60. -180. -74. -56. 218. 447. 62. -98. -221. -235.
      25. 396. 169. -43. -164.</_>
    <_>
      112. -140. -232. 108. 346. 342. 358. 158. -169. -480. -174. 191.
      341. 437. 190. -479. -523. -250.</_>
    <_>
      136. -170. -187. 426. 454. 167. 436. -291. -463. 402. 553. 443.
      461. -189. -461. -343. -367. -153.</_>
    <_>
      -72. 523. 453. -78. 137. 79. 252. 521. 257. 134. 241. 101. 412.
      363. 36. 360. 255. 16.</_>
    <_>
      -126. -161. -323. -184. -161. -217. 30. -7. -209. -138. 149. 473.
      213. 177. -42. 455. 535. 562.</_>
    <_>
      -7. -8. -10. 675. 674. 676. -4. -2. -4. 242. 252. 262. -1. 2. -1.
      7. 4. 1.</_>
    <_>
      435. 9. -417. 243. 13. -205. 435. -320. -412. -25. -124. -230.
      377. -435. -421. 65. -9. -27.</_>
    <_>
      303. 368. -269. 117. 304. 413. 449. 619. -354. 75. 285. 342. 617.
      729. -480. 75. 143. 70.</_>
    <_>
      73. -273. -297. 343. 211. 79. 17. -186. -157. -189. -26. 333. 3.
      112. 219. -257. -136. 179.</_>
    <_>
      17. 29. 66. 63. 91. 176. 37. 62. 137. 555. 580. 599. 49. 54. 87.
      625. 604. 527.</_>
    <_>
      16. 8. 10. 638. 640. 642. 14. 11. 10. 584. 583. 584. 8. 10. 5.
      -24. -30. -37.</_>
    <_>
      -263. -1. 241. -1. -17. -35. -143. -24. 127. 363. 476. 357. -14.
      -17. 12. 20. 43. 54.</_>
    <_>
      142. 94. 13. 366. 554. 543. 150. 107. -117. 202. 35. -71. -86.
      -13. -93. -368. -557. -547.</_>
    <_>
      183. 343. 293. 109. 329. 345. 374. 468. 80. 132. 228. 124. 316.
      448. 84. -86. -260. -172.</_>
    <_>
      -638. 464. -31. -2. 56. 123. -649. 439. -24. 3. -91. -176. -653.
      277. -26. 3. -69. -148.</_>
    <_>
      -133. -670. 123. -97. -188. -93. -369. -655. 354. -145. -275.
      -124. -580. -525. 565. -74. -25. 165.</_>
    <_>
      -120. -105. -305. -76. -101. -209. -49. -276. -278. -145. -220.
      -256. 3. -224. -182. 157. 336. 520.</_>
    <_>
      515. 705. -64. 201. 339. 90. 671. 669. -296. 109. 91. 72. 667.
      489. -238. 337. 171. 68.</_>
    <_>
      -467. 414. 499. -101. 16. 81. -278. 486. 438. -38. 106. 52. 25.
      486. 325. -37. 122. 63.</_>
    <_>
      485. 588. 101. -13. -34. -29. 467. 575. 120. -3. -13. -12. 457.
      563. 133. 7. -5. -5.</_></uncompressed_support_vectors>
  <decision_functions>
    <_>
      <sv_count>1</sv_count>
      <rho>-3.1775944038819603e-01</rho>
      <alpha>
        1.</alpha>
      <index>
        0</index></_></decision_functions></opencv_ml_svm>
</opencv_storage>
